%YAML:1.0
my_svm: !!opencv-ml-svm
   svm_type: C_SVC
   kernel: { type:RBF, gamma:5.3830000000000000e+00 }
   C: 2.6699999999999999e+00
   term_criteria: { epsilon:1.1920928955078125e-07, iterations:1000 }
   var_all: 64
   var_count: 64
   class_count: 10
   class_labels: !!opencv-matrix
      rows: 1
      cols: 10
      dt: i
      data: [ 0, 1, 2, 3, 4, 5, 6, 7, 8, 9 ]
   sv_total: 1339
   support_vectors:
      - [ 7.39658475e-02, 1.60084501e-01, 2.70327151e-01, 1.73054948e-01,
          0., 0., 0., 0., 3.75689641e-02, 9.99243334e-02, 1.01436608e-01,
          4.24310490e-02, 0., 0., 1.16048388e-01, 1.58701181e-01,
          1.89366221e-01, 2.13720202e-02, 0., 5.42435944e-02,
          1.51907176e-01, 1.07401893e-01, 8.91857967e-02, 5.06556146e-02,
          1.30615711e-01, 2.00369313e-01, 0., 0., 1.84904397e-01,
          2.36774698e-01, 1.38465434e-01, 1.89977810e-01, 0.,
          2.11188514e-02, 0., 1.34735644e-01, 1.70930907e-01,
          2.23958150e-01, 1.92289159e-01, 1.33166716e-01, 1.67233676e-01,
          1.00537099e-01, 0., 0., 8.75978172e-02, 1.14727952e-01,
          7.29644969e-02, 1.70490425e-02, 1.41888842e-01, 1.35893658e-01,
          8.65959600e-02, 1.33390516e-01, 4.08313647e-02, 0.,
          4.22054492e-02, 1.87206060e-01, 1.63883194e-01, 2.11047530e-01,
          2.17614189e-01, 1.56616628e-01, 1.31435081e-01, 9.81545225e-02,
          9.52212960e-02, 1.33301750e-01 ]
      - [ 1.38645336e-01, 2.49876827e-01, 1.34261027e-01, 1.48984537e-01,
          0., 0., 0., 0., 0., 1.95289746e-01, 4.59415913e-02, 0., 0., 0.,
          0., 1.90098986e-01, 1.89970240e-01, 3.46826017e-02, 0., 0.,
          1.52172372e-01, 9.51969549e-02, 8.14712718e-02, 1.16287157e-01,
          1.99227631e-01, 9.19428840e-02, 0., 2.52730455e-02,
          1.79844126e-01, 1.66976228e-01, 1.62388444e-01, 2.11305916e-01,
          4.96734381e-02, 0., 3.20319608e-02, 1.18176758e-01,
          1.88214809e-01, 1.19859017e-01, 1.36345312e-01, 2.53728360e-01,
          8.65580961e-02, 1.68368414e-01, 1.05479650e-01, 5.91072030e-02,
          5.91823235e-02, 0., 6.99541271e-02, 1.80616871e-01,
          1.23196967e-01, 1.31799415e-01, 1.35745391e-01, 1.49643943e-01,
          0., 0., 0., 1.74258485e-01, 1.88237593e-01, 2.39105120e-01,
          1.60231039e-01, 1.30493939e-01, 1.40048385e-01, 0.,
          6.35527596e-02, 1.66249722e-01 ]
      - [ 2.39823326e-01, 1.72485948e-01, 2.11610764e-01, 1.52326882e-01,
          0., 4.98575605e-02, 3.53886001e-02, 0., 1.87096402e-01,
          2.15005144e-01, 1.34026438e-01, 9.44182053e-02, 0., 0., 0.,
          5.34036122e-02, 0., 0., 0., 1.12154499e-01, 9.75972936e-02,
          1.56131461e-01, 1.25653967e-01, 1.30906984e-01, 1.54149339e-01,
          0., 0., 1.12370439e-01, 1.18330345e-01, 1.82122037e-01,
          2.31108218e-01, 1.90225169e-01, 1.41494676e-01, 5.70676550e-02,
          8.48164186e-02, 5.03779836e-02, 1.03895359e-01, 1.41931653e-01,
          1.44908056e-01, 2.03294054e-01, 1.41170219e-01, 5.43828718e-02,
          8.22893456e-02, 9.54226255e-02, 0., 0., 9.95138586e-02,
          2.08800584e-01, 1.34553134e-01, 1.91872761e-01, 2.03117535e-01,
          9.39121544e-02, 0., 0., 5.29307760e-02, 0., 1.68019280e-01,
          1.78696454e-01, 2.48670921e-01, 1.70483902e-01, 0., 0.,
          9.27426293e-03, 0. ]
      - [ 1.93324253e-01, 2.16453418e-01, 1.53889254e-01, 5.32931127e-02,
          1.33683518e-01, 0., 0., 0., 1.94581702e-01, 1.18217960e-01,
          8.73427391e-02, 6.15871288e-02, 0., 0., 0., 1.29195079e-01,
          1.40421197e-01, 3.61487782e-03, 2.43947189e-02, 0., 0.,
          8.71271938e-02, 1.34577751e-01, 2.15565965e-01, 1.27631247e-01,
          0., 0., 0., 1.27050281e-01, 1.94395214e-01, 1.06045343e-01,
          2.76158392e-01, 1.81946591e-01, 9.56406817e-03, 0., 0.,
          2.50407070e-01, 1.15246512e-01, 1.78639084e-01, 1.98503569e-01,
          9.07484889e-02, 3.43705192e-02, 0., 1.93085536e-01,
          9.19777229e-02, 1.01810053e-01, 0., 8.86891782e-02,
          2.14499757e-01, 1.32693857e-01, 1.65114716e-01, 1.29189417e-01,
          0., 3.24154869e-02, 1.23672681e-02, 1.26779675e-01,
          2.47121975e-01, 1.94007173e-01, 1.58889040e-01, 1.96250558e-01,
          0., 0., 0., 0. ]
      - [ 1.63073644e-01, 2.09335923e-01, 1.17615618e-01, 1.64239362e-01,
          1.68790355e-01, 0., 6.59703463e-02, 8.79558921e-02,
          9.20312703e-02, 1.75823182e-01, 6.70733675e-02, 8.04584995e-02,
          1.65256247e-01, 0., 7.75911659e-02, 7.40067586e-02,
          1.29460633e-01, 0., 0., 1.26876846e-01, 1.83081374e-01,
          8.51850212e-02, 7.14637861e-02, 8.73445943e-02, 1.49877310e-01,
          1.00215264e-01, 0., 1.67218000e-01, 1.70309618e-01,
          1.86956376e-01, 8.14633071e-02, 2.00923771e-01, 0., 0., 0., 0.,
          1.97023109e-01, 2.63034344e-01, 1.51016980e-01, 1.24687262e-01,
          0., 0., 0., 0., 1.58664703e-01, 1.96229726e-01, 1.79666266e-01,
          0., 1.24863401e-01, 3.84471714e-02, 1.78376675e-01,
          2.32108355e-01, 2.08234191e-02, 0., 0., 8.85692388e-02,
          1.48792669e-01, 1.12706229e-01, 2.33729780e-01, 2.40769714e-01,
          2.08234191e-02, 0., 0., 0. ]
      - [ 1.62545115e-01, 2.60655820e-01, 2.30333656e-01, 0., 0., 0., 0.,
          0., 1.49825305e-01, 1.17542751e-01, 1.50266618e-01, 0., 0.,
          4.92952242e-02, 0., 0., 1.52294978e-01, 2.18152571e-02,
          3.62582877e-02, 1.59671232e-01, 9.91572216e-02, 7.74754733e-02,
          4.99844030e-02, 8.68330449e-02, 1.82948530e-01, 1.11196898e-01,
          6.25972599e-02, 5.89677207e-02, 1.69645190e-01, 1.73838541e-01,
          1.99332193e-01, 1.62732467e-01, 0., 7.74092749e-02,
          1.33307472e-01, 1.42764479e-01, 9.60650668e-02, 1.26666993e-01,
          1.62898615e-01, 2.18319237e-01, 1.10841215e-01, 1.18590415e-01,
          1.39622808e-01, 1.34886622e-01, 9.52907130e-02, 6.94810748e-02,
          7.64747113e-02, 1.46009922e-01, 1.56565085e-01, 1.31575808e-01,
          1.81761399e-01, 1.85157984e-01, 0., 0., 8.18651840e-02,
          1.40108436e-01, 1.35477290e-01, 1.98427081e-01, 2.21545160e-01,
          2.13294268e-01, 0., 0., 0., 0. ]
      - [ 1.80323124e-01, 2.89703101e-01, 1.14494674e-01, 8.25341046e-02,
          1.22728385e-01, 5.82062230e-02, 0., 2.88862530e-02,
          1.51428968e-01, 1.36989206e-01, 7.07772970e-02, 1.21919647e-01,
          0., 0., 0., 0., 1.40613452e-01, 6.75998330e-02, 0.,
          1.29173651e-01, 1.19356729e-01, 8.41963440e-02, 1.03281662e-01,
          1.12159379e-01, 1.82728738e-01, 1.76925249e-02, 0.,
          1.25006571e-01, 1.27509505e-01, 1.75342396e-01, 2.29108945e-01,
          1.60219014e-01, 0., 0., 0., 0., 3.79013009e-02, 3.18090320e-01,
          2.14467287e-01, 1.23680219e-01, 0., 0., 0., 0., 4.17975597e-02,
          2.58229584e-01, 8.94362181e-02, 7.99602121e-02, 1.29656509e-01,
          1.44905612e-01, 2.18684405e-01, 1.02314338e-01, 2.45643053e-02,
          0., 0., 1.27754033e-01, 1.25414893e-01, 1.75920665e-01,
          3.14081818e-01, 1.32444173e-01, 7.26249162e-03, 0., 0., 0. ]
      - [ 1.72896266e-01, 2.21703812e-01, 2.16785610e-01, 1.35826841e-01,
          0., 0., 0., 0., 0., 1.14340872e-01, 8.32152516e-02,
          3.86215188e-02, 0., 9.17577967e-02, 1.02918595e-01, 0.,
          1.29192173e-01, 9.08669978e-02, 0., 8.90504420e-02,
          1.63673982e-01, 1.22825935e-01, 5.89848794e-02, 1.33411735e-01,
          1.62771672e-01, 1.26402885e-01, 0., 6.00645617e-02,
          2.17729241e-01, 2.02169269e-01, 1.38637662e-01, 2.17582256e-01,
          1.65828429e-02, 0., 0., 0., 1.64634675e-01, 2.01581359e-01,
          2.02633426e-01, 1.51921526e-01, 8.66261870e-02, 1.81009993e-01,
          1.81435078e-01, 0., 0., 7.04868138e-02, 9.97099876e-02,
          1.49723455e-01, 1.80203184e-01, 1.58249348e-01, 1.40152857e-01,
          1.65600136e-01, 2.68590767e-02, 0., 1.36019457e-02,
          1.61684036e-01, 1.93109542e-01, 1.79419488e-01, 1.69568822e-01,
          2.08790869e-01, 0., 0., 5.14105195e-03, 4.35753353e-02 ]
      - [ 1.19149953e-01, 2.51723379e-01, 1.31777272e-01, 1.52130201e-01,
          1.34948388e-01, 0., 0., 0., 3.96017767e-02, 2.12646335e-01,
          7.65794814e-02, 3.75381149e-02, 0., 5.46087809e-02,
          6.86857700e-02, 1.41810924e-01, 1.69215620e-01, 0., 0.,
          3.51546742e-02, 1.26096815e-01, 1.25027582e-01, 1.55570686e-01,
          1.22561969e-01, 1.05106018e-01, 1.59492612e-01, 0.,
          1.90043915e-02, 1.89635426e-01, 1.99731946e-01, 1.29082248e-01,
          2.21655861e-01, 0., 0., 0., 0., 2.15481669e-01, 1.09112769e-01,
          1.95968509e-01, 2.12026879e-01, 0., 8.05064589e-02,
          1.23110808e-01, 1.04614548e-01, 1.51278377e-02, 5.93709648e-02,
          9.53092128e-02, 2.00655624e-01, 1.11018181e-01, 1.21552512e-01,
          1.54902443e-01, 1.58894047e-01, 0., 0., 4.98647504e-02,
          1.29296347e-01, 2.25408301e-01, 1.53550804e-01, 2.08108038e-01,
          1.33611888e-01, 1.23722181e-01, 3.47464196e-02, 1.90755241e-02,
          1.65458485e-01 ]
      - [ 1.53065547e-01, 1.76350743e-01, 2.46345565e-01, 1.47887528e-01,
          0., 0., 0., 0., 9.08945799e-02, 1.66724741e-01, 1.57462686e-01,
          8.55198428e-02, 7.93974474e-02, 6.09878972e-02, 2.61031520e-02,
          1.19976372e-01, 1.43898293e-01, 1.86161380e-02, 3.75170745e-02,
          0., 9.84880328e-02, 1.77334383e-01, 1.22011453e-01,
          1.60447598e-01, 1.17618978e-01, 0., 3.97364423e-02,
          8.09999332e-02, 1.96596637e-01, 1.56197608e-01, 1.84472591e-01,
          1.84043169e-01, 0., 2.61401236e-02, 0., 0., 1.75653398e-01,
          3.03571731e-01, 1.54846832e-01, 1.17909424e-01, 0.,
          4.54945527e-02, 1.31118268e-01, 1.21925361e-01, 1.10305525e-01,
          1.43055141e-01, 1.96303442e-01, 4.61449064e-02, 1.74468607e-01,
          5.51122986e-02, 5.14864847e-02, 1.18882783e-01, 1.29348814e-01,
          7.69214407e-02, 3.99732627e-02, 1.69887275e-01, 1.11982621e-01,
          1.41324475e-01, 1.99965626e-01, 1.30820930e-01, 1.42201275e-01,
          5.26697673e-02, 6.88357800e-02, 1.50907472e-01 ]
      - [ 2.09588781e-01, 2.87514836e-01, 2.22863376e-01, 0., 0., 0., 0.,
          0., 0., 1.46288216e-01, 5.46222925e-02, 0., 0., 0., 0., 0.,
          1.69054717e-01, 0., 0., 0., 1.24383911e-01, 6.57394901e-02,
          9.03543010e-02, 7.17032105e-02, 1.84047461e-01, 1.36791706e-01,
          0., 0., 1.65535510e-01, 1.68873653e-01, 2.64835507e-01,
          1.86150417e-01, 8.20083767e-02, 0., 0., 1.41563863e-01,
          2.99501475e-02, 1.90598905e-01, 2.50079393e-01, 1.77033514e-01,
          1.48026645e-01, 1.29659310e-01, 9.09214318e-02, 5.35382703e-02,
          7.85701200e-02, 9.32501853e-02, 0., 1.06534049e-01,
          1.57468513e-01, 1.79632559e-01, 1.13966405e-01, 7.96310678e-02,
          0., 0., 8.77854526e-02, 1.85172930e-01, 1.86716914e-01,
          2.50627786e-01, 1.56412974e-01, 1.44752696e-01, 1.44392118e-01,
          0., 0., 9.00130793e-02 ]
      - [ 1.38510168e-01, 1.84621468e-01, 1.74455702e-01, 2.66815871e-01,
          0., 0., 0., 0., 0., 7.00058043e-02, 1.15240231e-01,
          1.20804705e-01, 0., 1.58960596e-01, 3.55140492e-02, 0.,
          1.31027266e-01, 0., 0., 4.47692610e-02, 2.21905887e-01,
          1.04242109e-01, 1.28410026e-01, 0., 9.18551385e-02,
          8.62022042e-02, 5.11399396e-02, 5.52118048e-02, 2.26318300e-01,
          2.79807836e-01, 1.39359802e-01, 1.32841602e-01, 7.32031604e-03,
          0., 0., 1.89681724e-01, 1.19918592e-01, 2.29081154e-01,
          2.21123531e-01, 8.59058648e-02, 0., 0., 1.02299504e-01,
          1.43165365e-01, 1.17149130e-01, 9.26541016e-02, 7.78739005e-02,
          0., 4.40759435e-02, 1.34968027e-01, 1.65727198e-01,
          1.22390330e-01, 1.26745835e-01, 0., 0., 1.33734509e-01,
          1.31865472e-01, 1.39699161e-01, 2.87815511e-01, 1.81693107e-01,
          1.36121154e-01, 0., 0., 1.24815091e-01 ]
      - [ 1.41155332e-01, 1.47506699e-01, 1.24368675e-01, 1.29756212e-01,
          2.02822134e-01, 8.18633288e-02, 1.02730475e-01, 1.21615924e-01,
          7.25874901e-02, 6.53397338e-03, 0., 0., 1.95274547e-01,
          1.23473376e-01, 9.90718380e-02, 0., 0., 0., 0., 0.,
          1.33243039e-01, 1.33296132e-01, 1.70840099e-01, 1.24360390e-01,
          1.29186660e-01, 0., 0., 0., 1.33924559e-01, 2.60274619e-01,
          1.53732702e-01, 2.18075946e-01, 0., 0., 0., 0., 0.,
          2.63872951e-01, 2.10622624e-01, 1.67305768e-01, 1.01885498e-01,
          0., 0., 0., 1.15685210e-01, 1.47251427e-01, 2.32986152e-01,
          1.16648361e-01, 2.15371475e-01, 9.84311700e-02, 8.11987743e-02,
          1.62943348e-01, 1.44956008e-01, 0., 0., 7.98136517e-02,
          2.04528898e-01, 2.04553753e-01, 1.68379694e-01, 2.05452338e-01,
          6.66229352e-02, 0., 0., 0. ]
      - [ 6.75501078e-02, 3.55961263e-01, 1.09536342e-01, 8.35944563e-02,
          0., 0., 0., 0., 0., 1.45930976e-01, 5.67031726e-02, 0., 0., 0.,
          0., 0., 2.19497040e-01, 2.34805066e-02, 0., 0., 1.46243945e-01,
          9.06596631e-02, 8.02244321e-02, 3.23643982e-02, 1.85365483e-01,
          1.80298880e-01, 0., 0., 1.77981824e-01, 1.95796549e-01,
          1.67133495e-01, 1.41382441e-01, 0., 0., 0., 0., 1.35839626e-01,
          2.52874255e-01, 2.56084383e-01, 1.54800892e-01, 0.,
          7.31062964e-02, 9.05221477e-02, 9.36811864e-02, 2.29620337e-01,
          9.13495943e-02, 6.25841841e-02, 0., 1.08604513e-01,
          1.21746577e-01, 1.74389258e-01, 2.19731688e-01, 1.66032258e-02,
          0., 0., 1.57159030e-01, 1.14101537e-01, 2.02768475e-01,
          1.93063349e-01, 2.28536099e-01, 8.72213915e-02, 2.86289565e-02,
          7.04876184e-02, 8.97025764e-02 ]
      - [ 2.04267636e-01, 2.48657778e-01, 1.11961171e-01, 8.40736851e-02,
          1.75011724e-01, 6.55120984e-02, 1.66656207e-02, 0., 0.,
          1.57790482e-01, 1.65458977e-01, 0., 0., 0., 0., 0.,
          1.64120197e-01, 3.47502204e-03, 1.59335714e-02, 1.74957588e-01,
          8.12923536e-02, 8.54604617e-02, 6.11585975e-02, 1.10647529e-01,
          2.09207177e-01, 6.77474514e-02, 3.97339873e-02, 1.30491138e-01,
          1.84364617e-01, 1.32549629e-01, 1.77459732e-01, 2.21606642e-01,
          0., 0., 0., 0., 2.18505204e-01, 1.87683776e-01, 2.10974649e-01,
          1.25833273e-01, 0., 9.01615918e-02, 8.48366395e-02,
          8.72419253e-02, 1.37993351e-01, 1.19924560e-01, 1.08725406e-01,
          1.42232716e-01, 1.23987839e-01, 1.96013302e-01, 1.46998718e-01,
          1.41893119e-01, 0., 2.36131735e-02, 4.35711592e-02,
          1.49209470e-01, 1.57949269e-01, 1.05184674e-01, 2.91039914e-01,
          1.72730953e-01, 0., 0., 0., 0. ]
      - [ 2.30037451e-01, 2.23544836e-01, 8.27608556e-02, 1.20904796e-01,
          6.01015575e-02, 9.28189158e-02, 8.37116018e-02, 6.26826137e-02,
          2.07431570e-01, 2.18804583e-01, 0., 0., 0., 0., 0., 0., 0., 0.,
          1.66302826e-02, 1.29384145e-01, 1.27117217e-01, 1.33946687e-01,
          1.02862366e-01, 1.62293211e-01, 0., 0., 0., 1.27378926e-01,
          1.61754221e-01, 1.82194829e-01, 1.53443143e-01, 2.34289616e-01,
          0., 8.82512778e-02, 2.95917243e-02, 8.22699741e-02,
          9.28958952e-02, 2.28631705e-01, 2.23621517e-01, 1.52679697e-01,
          0., 0., 0., 0., 0., 4.09658030e-02, 2.83944398e-01,
          1.45362496e-01, 1.19518377e-01, 1.18369557e-01, 1.62825450e-01,
          2.08988369e-01, 0., 0., 0., 0., 1.77634433e-01, 2.23435149e-01,
          1.56741381e-01, 2.48802632e-01, 0., 0., 0., 0. ]
      - [ 1.32923320e-01, 2.60305822e-01, 2.44133815e-01, 3.03287525e-02,
          0., 0., 0., 0., 1.27096891e-01, 7.26154968e-02, 9.54023823e-02,
          7.54723474e-02, 1.35494962e-01, 2.67835725e-02, 0.,
          2.85468977e-02, 1.41416281e-01, 0., 0., 0., 1.10426165e-01,
          1.10713057e-01, 1.23994388e-01, 1.77739009e-01, 1.80381700e-01,
          5.69003187e-02, 0., 0., 1.70891717e-01, 1.81856334e-01,
          1.62244067e-01, 2.41832942e-01, 0., 2.86771934e-02, 0.,
          1.39966905e-01, 1.39341056e-01, 1.41327992e-01, 2.38541275e-01,
          1.42098352e-01, 1.94581255e-01, 2.10328326e-02, 2.83263791e-02,
          0., 3.90916094e-02, 1.25823662e-01, 1.61938190e-01, 0.,
          4.14155498e-02, 1.13140039e-01, 1.08089678e-01, 1.68908060e-01,
          0., 0., 4.90236506e-02, 2.10276395e-01, 1.93981335e-01,
          1.71034649e-01, 1.44766837e-01, 1.72754690e-01, 1.27626657e-01,
          5.42559810e-02, 1.30860567e-01, 2.20651254e-01 ]
      - [ 1.86687633e-01, 2.40533337e-01, 1.57063767e-01, 1.25745267e-01,
          1.21071257e-01, 7.80894607e-03, 0., 0., 0., 1.91865847e-01,
          2.15200812e-01, 0., 0., 0., 0., 0., 1.53521925e-01, 0., 0.,
          2.10804924e-01, 1.23058446e-01, 7.23085627e-02, 8.35191086e-02,
          0., 1.89165145e-01, 6.54763356e-02, 0., 1.70135230e-01,
          2.04393491e-01, 1.08264200e-01, 1.41114682e-01, 2.00136200e-01,
          0., 0., 0., 0., 1.59769386e-01, 2.44920999e-01, 1.65510222e-01,
          1.70335397e-01, 0., 0., 0., 0., 8.09796527e-02, 1.99991256e-01,
          1.84841320e-01, 6.13299422e-02, 1.18745267e-01, 1.34566367e-01,
          1.71747550e-01, 1.81017265e-01, 3.00756563e-02, 2.39594150e-02,
          0., 7.78497756e-02, 1.90660924e-01, 1.88577071e-01,
          1.50286064e-01, 2.61050969e-01, 0., 7.59864645e-03,
          3.36506078e-03, 0. ]
      - [ 1.44094557e-01, 2.01149926e-01, 2.05754593e-01, 1.93489000e-01,
          5.14243916e-02, 0., 0., 0., 0., 4.09777388e-02, 1.40208945e-01,
          1.59862086e-01, 6.29031584e-02, 0., 0., 5.00413328e-02,
          1.75415918e-01, 0., 0., 0., 1.22433372e-01, 2.14432076e-01,
          8.60306323e-02, 1.15271084e-01, 2.68150587e-02, 1.24312796e-01,
          6.79943562e-02, 0., 2.34465227e-01, 2.20459700e-01,
          1.51435509e-01, 8.60462636e-02, 0., 0., 0., 0., 2.23668173e-01,
          1.98553070e-01, 2.32093826e-01, 9.07202438e-02, 0., 0.,
          5.81413209e-02, 1.82784587e-01, 1.21612519e-01, 1.20439067e-01,
          1.37450650e-01, 4.93194386e-02, 1.42738357e-01, 9.84089375e-02,
          1.59416646e-01, 1.71085566e-01, 1.21911786e-01, 0.,
          1.87480561e-02, 1.83245003e-01, 1.26341924e-01, 2.03905329e-01,
          1.99048340e-01, 1.30597651e-01, 1.74224257e-01, 3.38077173e-02,
          4.16220129e-02, 1.26190707e-01 ]
      - [ 1.91216812e-01, 2.27184102e-01, 1.33780956e-01, 1.17252141e-01,
          0., 0., 0., 0., 1.29285246e-01, 8.10068026e-02, 4.72001620e-02,
          0., 0., 2.51430478e-02, 0., 1.97560862e-01, 2.00941995e-01,
          1.16307372e-02, 0., 4.07860018e-02, 0., 0., 8.05296525e-02,
          1.75972551e-01, 1.27026007e-01, 3.23535092e-02, 0., 0., 0.,
          1.84765622e-01, 2.13032365e-01, 2.37289190e-01, 1.17296681e-01,
          3.61888707e-02, 5.88098951e-02, 0., 2.08257452e-01,
          1.80152580e-01, 1.62200883e-01, 2.66528308e-01, 1.36354461e-01,
          1.04485050e-01, 9.18994695e-02, 0., 1.22880496e-01,
          6.56760707e-02, 9.35367048e-02, 1.08211257e-01, 1.78842232e-01,
          1.23233192e-01, 8.91472250e-02, 8.13092962e-02, 8.70583802e-02,
          6.76116273e-02, 0., 1.06549077e-01, 2.83561319e-01,
          2.66580254e-01, 1.35774672e-01, 1.28122419e-01, 1.46297753e-01,
          4.58868667e-02, 0., 1.33355409e-01 ]
      - [ 2.41389617e-01, 2.05563828e-01, 1.30874276e-01, 2.07831547e-01,
          0., 0., 0., 5.06151980e-03, 7.19076023e-02, 1.40003189e-01,
          1.67032946e-02, 1.13179022e-02, 0., 0., 0., 0., 1.74601093e-01,
          2.62225177e-02, 0., 0., 1.10247269e-01, 9.20157135e-02,
          8.64794627e-02, 1.08572513e-01, 8.27979371e-02, 1.61964580e-01,
          0., 1.27839461e-01, 1.41474083e-01, 2.19845846e-01,
          1.25674650e-01, 1.95690915e-01, 1.21111438e-01, 4.38729599e-02,
          0., 1.29483372e-01, 1.74798489e-01, 1.96743906e-01,
          2.45443389e-01, 1.78011596e-01, 0., 1.63204953e-01,
          9.79187340e-02, 8.51888657e-02, 1.22669570e-01, 1.17560796e-01,
          7.53163397e-02, 1.14864804e-01, 1.65690094e-01, 1.17490537e-01,
          1.83854744e-01, 6.63491040e-02, 1.26879156e-01, 0., 0., 0.,
          2.18990117e-01, 2.31494471e-01, 1.40436396e-01, 1.88815802e-01,
          1.81028455e-01, 0., 0., 0. ]
      - [ 2.03486383e-01, 1.32681251e-01, 1.98431268e-01, 1.93826407e-01,
          2.54184380e-02, 0., 1.89521834e-02, 0., 8.34907070e-02,
          1.05128773e-01, 1.50316879e-01, 4.16807197e-02, 8.49078819e-02,
          0., 9.02169198e-02, 0., 1.48754805e-01, 6.64141169e-03, 0., 0.,
          4.47177440e-02, 1.97348624e-01, 1.02536201e-01, 1.60703242e-01,
          6.39306158e-02, 0., 0., 7.90916756e-02, 2.00343758e-01,
          1.90370739e-01, 1.90840349e-01, 1.42432839e-01, 8.74619633e-02,
          1.11770354e-01, 1.55879080e-01, 1.72687799e-01, 1.54405013e-01,
          1.35930285e-01, 1.52436852e-01, 1.43442526e-01, 1.69904515e-01,
          1.17691435e-01, 1.25999004e-01, 1.34404898e-01, 1.75007015e-01,
          3.87346484e-02, 0., 0., 2.03446180e-01, 1.10871881e-01,
          1.13271989e-01, 1.26054242e-01, 1.67890057e-01, 5.31442575e-02,
          1.52173862e-02, 1.22239873e-01, 1.70872137e-01, 2.24389449e-01,
          1.49865955e-01, 1.97874829e-01, 1.45263866e-01, 0., 0.,
          4.91788052e-02 ]
      - [ 1.57144621e-01, 2.17727989e-01, 2.61155725e-01, 0., 0., 0., 0.,
          0., 1.53111964e-01, 1.79357439e-01, 1.59485474e-01, 0., 0., 0.,
          2.64121257e-02, 7.99902007e-02, 0., 0., 0., 0., 7.53612816e-02,
          1.37875125e-01, 2.14387774e-01, 1.51911408e-01, 2.15221904e-02,
          0., 0., 0., 1.79199979e-01, 1.65059015e-01, 2.23479360e-01,
          2.19198301e-01, 0., 0., 0., 1.29191637e-01, 8.75147581e-02,
          1.53947696e-01, 2.10469767e-01, 2.50381976e-01, 0., 0., 0.,
          1.18463799e-01, 6.35971129e-02, 1.05602078e-01, 1.21995062e-01,
          2.17351481e-01, 1.69679165e-01, 1.41296372e-01, 9.47523862e-02,
          1.48804799e-01, 0., 0., 8.20068829e-03, 1.21077761e-01,
          2.27993697e-01, 1.70429111e-01, 1.95540071e-01, 1.30866989e-01,
          1.30971983e-01, 0., 6.35222578e-03, 1.59483269e-01 ]
      - [ 2.20612407e-01, 1.66716024e-01, 1.26694739e-01, 1.39440417e-01,
          1.23067319e-01, 0., 0., 0., 1.24979526e-01, 1.89731732e-01,
          1.18225358e-01, 6.54853135e-02, 0., 0., 4.08488289e-02,
          1.84571579e-01, 1.73851952e-01, 3.53264175e-02, 0., 0.,
          4.10686247e-02, 9.95448008e-02, 1.51344374e-01, 2.11507455e-01,
          8.90823901e-02, 0., 0., 0., 8.27495977e-02, 1.70678318e-01,
          2.05887079e-01, 2.01808289e-01, 8.85920450e-02, 0., 0.,
          1.74023241e-01, 1.51775464e-01, 1.18213095e-01, 1.74407542e-01,
          1.75363287e-01, 1.70109615e-01, 3.73308286e-02, 1.50116608e-01,
          1.36004299e-01, 9.97725353e-02, 0., 1.08304687e-01,
          1.68303221e-01, 2.02363193e-01, 1.81877300e-01, 1.00395672e-01,
          1.16559967e-01, 7.75137469e-02, 0., 5.24168648e-02,
          7.97674358e-02, 2.53181189e-01, 2.00341150e-01, 1.69645458e-01,
          1.61304474e-01, 0., 0., 0., 0. ]
      - [ 8.74786377e-02, 2.50404805e-01, 2.37706259e-01, 9.61300954e-02,
          1.20246679e-01, 4.30933796e-02, 0., 0., 1.14117235e-01,
          7.92028978e-02, 1.74306110e-01, 1.25498071e-01, 8.64610970e-02,
          0., 0., 0., 1.37625724e-01, 0., 0., 0., 1.95385978e-01,
          1.10822953e-01, 1.08883552e-01, 0., 1.66543499e-01,
          1.02173403e-01, 0., 1.21056728e-01, 1.74435809e-01,
          1.85414493e-01, 2.18772143e-01, 1.06524125e-01, 0., 0., 0., 0.,
          1.49674878e-01, 3.31497461e-01, 1.55317947e-01, 7.21186250e-02,
          0., 2.63454020e-02, 4.81935665e-02, 0., 1.75083771e-01,
          2.30166227e-01, 9.01345760e-02, 0., 7.18249828e-02,
          9.40349102e-02, 1.69333830e-01, 1.71487525e-01, 9.46890414e-02,
          0., 0., 1.57571286e-01, 1.25947103e-01, 1.35498747e-01,
          1.71860158e-01, 2.27462515e-01, 1.22334994e-01, 7.22779408e-02,
          1.18096940e-01, 6.83915019e-02 ]
      - [ 2.81241477e-01, 1.01465330e-01, 1.12432741e-01, 8.24813843e-02,
          1.22748710e-01, 1.57981321e-01, 1.07211666e-02, 5.25444336e-02,
          1.98148876e-01, 1.20934136e-01, 5.89893386e-02, 7.06264600e-02,
          0., 7.47559443e-02, 8.56813639e-02, 6.17869645e-02,
          1.29937097e-01, 0., 3.67847122e-02, 1.77989393e-01,
          9.18965116e-02, 6.75821006e-02, 7.78594762e-02, 8.85230303e-02,
          2.10864678e-01, 4.30414975e-02, 2.08920706e-02, 1.75475076e-01,
          1.25649095e-01, 2.11705267e-01, 1.11927792e-01, 2.07910582e-01,
          0., 7.33170435e-02, 3.59228104e-02, 2.06578568e-01,
          8.22165981e-02, 1.77015677e-01, 2.12660864e-01, 1.22967914e-01,
          0., 3.98011096e-02, 1.21264860e-01, 1.31808460e-01,
          9.66545269e-02, 1.20892450e-01, 8.13611522e-02, 1.50827974e-01,
          1.20486915e-01, 1.75018117e-01, 1.73725471e-01, 1.47313654e-01,
          0., 0., 0., 2.72489619e-02, 1.75077885e-01, 2.02350259e-01,
          2.45601505e-01, 1.81204438e-01, 0., 0., 0., 3.36246863e-02 ]
      - [ 1.75428092e-01, 2.49075711e-01, 1.57200336e-01, 1.52894586e-01,
          5.47671542e-02, 0., 0., 0., 5.04901744e-02, 1.86846793e-01,
          1.64824232e-01, 0., 0., 0., 0., 0., 1.70483723e-01,
          2.25958116e-02, 0., 0., 1.50455341e-01, 9.60894078e-02,
          1.13747798e-01, 1.43593952e-01, 1.92930058e-01, 1.04889804e-02,
          0., 0., 1.65618271e-01, 1.98410332e-01, 1.78561389e-01,
          1.64375782e-01, 2.37384178e-02, 0., 0., 0., 1.67385578e-01,
          2.74430513e-01, 2.38850281e-01, 6.29149899e-02, 0., 0.,
          8.11356120e-03, 1.26373082e-01, 0., 2.36145243e-01,
          1.37088850e-01, 0., 8.44694972e-02, 1.20418616e-01,
          1.10691436e-01, 1.75959855e-01, 1.35383815e-01, 3.20625156e-02,
          0., 1.41079038e-01, 1.49015188e-01, 1.43654928e-01,
          1.99404985e-01, 2.22147122e-01, 3.78798768e-02, 1.31129906e-01,
          1.39053270e-01, 6.25301450e-02 ]
      - [ 2.97820568e-01, 1.84621304e-01, 1.30868852e-01, 0., 0.,
          3.83457467e-02, 0., 7.23374560e-02, 1.94825605e-01,
          6.40801415e-02, 0., 0., 0., 0., 0., 8.79606083e-02,
          1.93899363e-01, 4.81002368e-02, 0., 0., 7.04166293e-02,
          1.16655305e-01, 1.37499660e-01, 1.28003478e-01, 1.89495623e-01,
          0., 0., 4.95499559e-02, 1.87546715e-01, 1.33648083e-01,
          1.32784590e-01, 2.38251030e-01, 9.02184024e-02, 0.,
          8.47474262e-02, 9.70306769e-02, 1.23730086e-01, 1.06317848e-01,
          2.25473255e-01, 1.51923850e-01, 2.23232433e-01, 1.60427839e-01,
          0., 0., 3.27771157e-02, 0., 6.69623017e-02, 2.14875415e-01,
          2.25524753e-01, 1.11342296e-01, 1.63772836e-01, 1.18855290e-01,
          0., 0., 3.24509852e-02, 1.47871271e-01, 2.31173649e-01,
          2.00928077e-01, 1.56569794e-01, 2.11031318e-01, 0.,
          3.83322202e-02, 0., 0. ]
      - [ 9.99689326e-02, 1.52132794e-01, 2.92741865e-01, 1.95103854e-01,
          4.57626861e-03, 0., 0., 0., 4.86382097e-02, 9.55774635e-02,
          1.27018750e-01, 1.77531198e-01, 1.47222012e-01, 6.43380955e-02,
          1.16844624e-02, 0., 9.54021737e-02, 0., 0., 1.58060655e-01,
          1.79793313e-01, 1.03651926e-01, 7.07924068e-02, 7.44589046e-02,
          8.95235240e-02, 1.39099166e-01, 0., 3.86111848e-02,
          2.65849590e-01, 1.48165822e-01, 1.28654703e-01, 1.72215149e-01,
          0., 0., 0., 0., 2.48119131e-01, 1.54536426e-01, 2.10532546e-01,
          9.87023264e-02, 0., 6.79814443e-02, 2.04648808e-01,
          4.24443074e-02, 1.24698043e-01, 1.19751878e-01, 1.21282026e-01,
          9.40788239e-02, 1.18939020e-01, 1.32560372e-01, 1.60418257e-01,
          1.71521142e-01, 1.23277038e-01, 0., 5.29719256e-02,
          1.20444328e-01, 1.15556113e-01, 1.51432544e-01, 1.72765583e-01,
          2.74535924e-01, 1.21076684e-02, 0., 0., 1.65967494e-02 ]
      - [ 1.73121527e-01, 1.25134796e-01, 2.06766516e-01, 1.13871194e-01,
          0., 0., 0., 0., 5.72118126e-02, 0., 5.97075783e-02,
          3.98882963e-02, 8.90662223e-02, 7.15945214e-02, 1.29739285e-01,
          1.63492411e-01, 3.19328755e-01, 4.52478416e-02, 0., 0.,
          9.00651813e-02, 0., 1.10828072e-01, 0., 2.54283458e-01, 0., 0.,
          1.40922233e-01, 1.27972603e-01, 1.11811720e-01, 9.62584317e-02,
          1.17858663e-01, 1.08498327e-01, 0., 0., 1.43782824e-01,
          1.47090271e-01, 1.12867802e-01, 2.35215783e-01, 1.71303406e-01,
          1.61793083e-01, 1.92999437e-01, 7.58071095e-02, 0.,
          9.28212106e-02, 6.67171851e-02, 7.11949095e-02, 1.30531222e-01,
          1.44570574e-01, 1.75676733e-01, 2.09846720e-01, 0.,
          1.96670387e-02, 3.31498608e-02, 5.49825244e-02, 1.52172551e-01,
          2.62193650e-01, 2.17663184e-01, 1.45982087e-01, 1.79465309e-01,
          7.45373666e-02, 0., 2.63762977e-02, 1.32057548e-01 ]
      - [ 1.30252823e-01, 1.99356094e-01, 2.35026509e-01, 1.47719532e-01,
          0., 8.78875926e-02, 0., 8.96260813e-02, 9.06143337e-02,
          6.61263168e-02, 0., 1.05961896e-01, 7.47916475e-02,
          1.14994422e-01, 9.82444957e-02, 5.87586313e-02, 1.91403493e-01,
          3.10628526e-02, 0., 4.41564545e-02, 9.40891206e-02,
          1.06317118e-01, 0., 8.79989415e-02, 1.02980182e-01,
          1.97946936e-01, 0., 3.49386260e-02, 1.36546850e-01,
          1.71873569e-01, 1.89128920e-01, 1.92761958e-01, 1.18839785e-01,
          0., 3.11926305e-02, 1.34644270e-01, 1.34627566e-01,
          1.34657338e-01, 2.42892206e-01, 2.46588871e-01, 9.00608450e-02,
          0., 7.34772757e-02, 1.18810587e-01, 1.15029968e-01,
          7.42274150e-02, 8.54820088e-02, 1.67424127e-01, 1.79425254e-01,
          1.85891792e-01, 1.19447067e-01, 1.11056469e-01, 0., 0.,
          3.67325568e-03, 0., 3.02966654e-01, 1.72413096e-01,
          1.60114571e-01, 2.08961964e-01, 0., 0., 0., 0. ]
      - [ 1.55980587e-01, 2.27986991e-01, 2.21801385e-01, 1.43164724e-01,
          1.09250518e-02, 0., 0., 0., 1.09839052e-01, 1.49820700e-01,
          1.97658077e-01, 8.07993189e-02, 2.33514849e-02, 0., 0.,
          6.12768941e-02, 0., 0., 0., 0., 1.47783995e-01, 1.03106715e-01,
          2.03320265e-01, 1.19589075e-01, 0., 0., 0., 0., 1.90594018e-01,
          1.48090333e-01, 2.47219816e-01, 1.92143768e-01, 1.47043601e-01,
          3.68354507e-02, 8.36898610e-02, 6.39031976e-02, 2.08862230e-01,
          1.70889363e-01, 1.24213405e-01, 2.32303679e-01, 3.71811464e-02,
          0., 8.06213692e-02, 1.66672841e-01, 1.52393952e-01,
          5.92086166e-02, 0., 1.38969257e-01, 1.58822656e-01,
          1.50442362e-01, 1.34526506e-01, 8.62680823e-02, 1.77824631e-01,
          2.45922506e-02, 0., 4.48477678e-02, 1.90394789e-01,
          1.79885432e-01, 1.81420803e-01, 2.37568751e-01, 3.84650715e-02,
          0., 0., 0. ]
      - [ 2.01090693e-01, 1.97465196e-01, 1.18618563e-01, 2.12820694e-01,
          0., 0., 0., 0., 1.01205662e-01, 1.51392728e-01, 1.72171533e-01,
          0., 3.29185762e-02, 0., 0., 1.36934310e-01, 2.26908058e-01,
          3.49138156e-02, 0., 0., 2.05555290e-01, 6.76116571e-02,
          9.71820429e-02, 0., 2.29391903e-01, 4.46028709e-02, 0.,
          1.69144109e-01, 1.85085490e-01, 1.04099512e-01, 1.50265783e-01,
          1.23678923e-01, 1.56023994e-01, 0., 0., 0., 1.76551744e-01,
          1.82541177e-01, 1.98198780e-01, 1.87787801e-01, 3.40059660e-02,
          0., 1.36885062e-01, 1.24689937e-01, 8.11443329e-02,
          7.73192272e-02, 1.34730965e-01, 3.38142775e-02, 2.11698681e-01,
          1.02494583e-01, 9.95859802e-02, 1.39488935e-01, 1.14540987e-01,
          0., 2.27453280e-02, 1.60389692e-01, 2.08551884e-01,
          1.59673229e-01, 1.00896977e-01, 2.40537703e-01, 0., 0.,
          5.93809178e-03, 1.07698828e-01 ]
      - [ 2.58756280e-01, 2.04138756e-01, 1.18945062e-01, 1.00078031e-01,
          9.10852775e-02, 1.23696394e-01, 0., 1.16840698e-01,
          2.90482610e-01, 0., 0., 0., 0., 0., 0., 6.47787526e-02,
          8.56157690e-02, 1.01843178e-02, 0., 1.33938357e-01,
          5.91819435e-02, 9.09340456e-02, 0., 2.20518336e-01,
          8.03446472e-02, 0., 0., 0., 1.42468244e-01, 2.03893095e-01,
          2.08891034e-01, 2.21434563e-01, 1.87938467e-01, 6.62177205e-02,
          1.14571691e-01, 5.84844314e-02, 1.11100443e-01, 1.56166926e-01,
          1.54182091e-01, 1.66698888e-01, 1.84790015e-01, 7.81486481e-02,
          1.67903621e-02, 0., 0., 0., 1.40613869e-01, 1.71313792e-01,
          1.22729577e-01, 1.73025265e-01, 2.00051129e-01, 0., 0.,
          1.87670067e-02, 0., 0., 2.36469045e-01, 2.08579317e-01,
          1.88093707e-01, 2.00597897e-01, 0., 0., 0., 0. ]
      - [ 1.11872412e-01, 2.34449491e-01, 1.98139802e-01, 1.99786335e-01,
          1.79370698e-02, 0., 0., 0., 0., 7.91068152e-02, 1.19447604e-01,
          1.77459881e-01, 1.27533168e-01, 6.60487264e-02, 0., 0.,
          1.17797613e-01, 5.25508411e-02, 0., 0., 1.93572372e-01,
          9.34490412e-02, 1.29934326e-01, 1.43384457e-01, 9.32045430e-02,
          1.29289165e-01, 5.44312894e-02, 1.07864074e-01, 2.18555197e-01,
          1.30625591e-01, 1.42645150e-01, 2.18512893e-01, 0., 0., 0., 0.,
          2.55472928e-01, 1.91723928e-01, 1.47300720e-01, 1.44746378e-01,
          7.13485554e-02, 6.76854625e-02, 1.26741663e-01, 1.78749830e-01,
          9.34639275e-02, 1.37949541e-01, 1.15179896e-01, 0.,
          1.04284622e-01, 1.02441996e-01, 1.90782204e-01, 1.32894829e-01,
          8.58909413e-02, 0., 6.75799549e-02, 1.65685818e-01,
          1.31397754e-01, 1.55812696e-01, 1.65304869e-01, 2.19506651e-01,
          1.00810029e-01, 0., 6.37693703e-02, 1.32933319e-01 ]
      - [ 2.61245370e-01, 2.07006797e-01, 1.41626120e-01, 1.36604592e-01,
          0., 0., 0., 4.65154015e-02, 1.80852726e-01, 1.70172170e-01,
          7.97323361e-02, 0., 0., 0., 0., 0., 0., 5.30787334e-02,
          5.42357564e-02, 1.38959140e-01, 9.46503058e-02, 8.17395076e-02,
          6.74796999e-02, 7.18103796e-02, 2.02787459e-01, 0., 0., 0.,
          1.44284278e-01, 1.71240628e-01, 1.99902639e-01, 2.56311238e-01,
          1.69534430e-01, 0., 0., 0., 1.75812334e-01, 1.61799461e-01,
          2.10702583e-01, 2.05439329e-01, 5.68153262e-02, 5.57671487e-02,
          8.49639326e-02, 9.74034294e-02, 1.41322315e-01, 0.,
          8.48450363e-02, 1.37446463e-01, 1.17921323e-01, 2.16747582e-01,
          1.84826896e-01, 3.45950425e-02, 0., 0., 0., 0., 2.69535512e-01,
          2.15157613e-01, 2.65227735e-01, 7.47294053e-02, 0., 0., 0., 0. ]
      - [ 1.27378210e-01, 2.08361372e-01, 2.75732011e-01, 0., 0., 0., 0.,
          0., 0., 1.50436744e-01, 1.38644591e-01, 1.11197554e-01,
          6.88155890e-02, 9.98519883e-02, 0., 0., 1.26791373e-01,
          1.06090046e-02, 0., 1.96585506e-01, 9.70950648e-02,
          8.99646208e-02, 6.65286481e-02, 1.10090636e-01, 1.06996432e-01,
          1.16074204e-01, 5.11009693e-02, 1.26463756e-01, 1.59701452e-01,
          2.14055777e-01, 1.40520141e-01, 1.46334529e-01, 0., 0., 0.,
          1.82787418e-01, 2.08756417e-01, 2.56317586e-01, 9.44859013e-02,
          9.49629918e-02, 0., 9.22036842e-02, 1.22626454e-01,
          1.74913481e-01, 1.69749111e-01, 1.07596867e-01, 6.15192503e-02,
          0., 2.93478798e-02, 9.84980687e-02, 1.45832315e-01,
          2.03505233e-01, 1.77875012e-02, 7.19106421e-02, 1.54656276e-01,
          8.89796987e-02, 1.27418175e-01, 1.33686334e-01, 1.85044080e-01,
          2.74581075e-01, 6.00607917e-02, 6.67354390e-02, 1.17738731e-01,
          1.23759411e-01 ]
      - [ 0., 3.47163290e-01, 1.11805305e-01, 1.40337616e-01, 0., 0., 0.,
          0., 1.29905671e-01, 2.36651286e-01, 1.09710395e-01, 0., 0., 0.,
          0., 0., 1.38700470e-01, 0., 0., 1.33204490e-01, 1.35487631e-01,
          6.21023886e-02, 1.35880291e-01, 7.59629011e-02, 9.86845344e-02,
          1.83558092e-01, 5.60821183e-02, 2.23670620e-02, 2.23437071e-01,
          1.42546654e-01, 1.40603110e-01, 2.04591542e-01, 0., 0., 0.,
          9.62643549e-02, 1.49588048e-01, 2.15138540e-01, 2.25614637e-01,
          1.23641737e-01, 0., 2.05807220e-02, 5.07196672e-02,
          1.12503245e-01, 1.58403575e-01, 1.36244625e-01, 1.62639633e-01,
          1.18300550e-01, 1.29747942e-01, 2.06927285e-02, 9.69903618e-02,
          2.42366120e-01, 8.28162953e-02, 0., 0., 8.27606097e-02,
          1.88995734e-01, 1.14224136e-01, 1.69061095e-01, 2.44231075e-01,
          3.33059020e-02, 0., 2.57266778e-02, 1.35023281e-01 ]
      - [ 1.82554483e-01, 2.56258726e-01, 1.35134369e-01, 1.24071144e-01,
          1.31387547e-01, 2.25071069e-02, 0., 0., 4.82378229e-02,
          1.01385683e-01, 1.73981398e-01, 9.85407922e-03, 0., 0.,
          3.97097133e-02, 1.27837077e-01, 1.73310041e-01, 8.50086939e-03,
          0., 1.54730588e-01, 1.08121365e-01, 1.03057005e-01,
          7.56953061e-02, 7.91858658e-02, 1.45470887e-01, 1.67166576e-01,
          4.18652631e-02, 1.30158544e-01, 1.79874927e-01, 1.51236206e-01,
          1.74698114e-01, 1.77753568e-01, 0., 0., 0., 0., 1.32936090e-01,
          2.51869440e-01, 2.31058866e-01, 1.19062342e-01, 2.09383126e-02,
          1.08353168e-01, 1.48765266e-01, 8.92961472e-02, 0.,
          1.52479976e-01, 9.18793902e-02, 1.38153598e-01, 1.47642538e-01,
          1.06767304e-01, 2.40653649e-01, 9.86975580e-02, 0., 0., 0.,
          8.46200138e-02, 1.99013412e-01, 1.77674785e-01, 2.48608589e-01,
          1.80148572e-01, 0., 0., 0., 0. ]
      - [ 5.98476753e-02, 2.59549558e-01, 2.61690170e-01, 0., 0., 0., 0.,
          0., 0., 1.32554501e-01, 1.12022199e-01, 1.25399932e-01, 0.,
          1.46875933e-01, 0., 4.21082750e-02, 1.71563551e-01,
          1.33802667e-01, 1.04529373e-01, 1.35279924e-01, 0., 0.,
          5.32542951e-02, 1.45595700e-01, 1.26635432e-01, 1.95755512e-01,
          6.96980432e-02, 4.99840342e-02, 1.35830879e-01, 1.33645818e-01,
          1.51612550e-01, 1.65766925e-01, 0., 0., 0., 1.45959213e-01,
          1.25932172e-01, 1.32532164e-01, 3.14028144e-01, 1.25488505e-01,
          0., 0., 4.03598212e-02, 0., 2.13475078e-01, 1.54570907e-01,
          2.93946229e-02, 0., 1.06545560e-01, 9.16741788e-02,
          1.52908206e-01, 1.11909866e-01, 1.15771286e-01, 1.08473636e-02,
          2.97823083e-02, 2.05064133e-01, 1.98953837e-01, 1.52497157e-01,
          1.83856338e-01, 1.75375089e-01, 4.08872217e-02, 6.98929206e-02,
          1.26521468e-01, 1.97901055e-01 ]
      - [ 1.58904046e-01, 2.42638871e-01, 2.36747876e-01, 1.32688880e-01,
          0., 0., 0., 0., 1.31493926e-01, 1.66957647e-01, 1.47086248e-01,
          4.39369418e-02, 0., 2.99606789e-02, 0., 0., 5.81772551e-02, 0.,
          0., 1.25396967e-01, 1.33534387e-01, 9.38125104e-02,
          8.69737640e-02, 8.41757953e-02, 1.46029115e-01, 1.11269683e-01,
          0., 0., 2.19151914e-01, 1.44665480e-01, 2.00315088e-01,
          2.09232226e-01, 1.14670113e-01, 0., 1.04698032e-01, 0.,
          2.38192663e-01, 1.98714390e-01, 8.39452520e-02, 1.42575011e-01,
          1.88694626e-01, 8.45823288e-02, 5.60731478e-02, 1.55982956e-01,
          8.74025747e-02, 7.57406652e-02, 9.90538299e-02, 1.42341420e-01,
          1.59349605e-01, 1.10558711e-01, 1.09793648e-01, 8.64921734e-02,
          1.37573212e-01, 5.02988659e-02, 1.14554875e-01, 1.16820969e-01,
          1.30984858e-01, 2.14349762e-01, 1.63042858e-01, 1.88376173e-01,
          1.31047189e-01, 0., 4.86678220e-02, 1.18965112e-01 ]
      - [ 2.40082741e-01, 2.73689985e-01, 1.31952196e-01, 9.02558267e-02,
          0., 0., 0., 0., 1.85694456e-01, 1.36351705e-01, 0., 0., 0., 0.,
          0., 0., 1.47759646e-01, 7.55464053e-03, 0., 0., 0.,
          6.47566840e-02, 1.16164535e-01, 1.94251254e-01, 4.64779474e-02,
          0., 0., 0., 1.27412856e-01, 2.10369706e-01, 2.01468542e-01,
          2.12857068e-01, 1.80459321e-01, 0., 0., 0., 1.37431562e-01,
          2.24655733e-01, 2.13288397e-01, 1.73488781e-01, 1.69931978e-01,
          1.20121479e-01, 9.12167504e-02, 0., 1.26723140e-01,
          1.23215660e-01, 8.04715157e-02, 8.92960802e-02, 1.80826902e-01,
          1.22888535e-01, 1.57990009e-01, 7.02031627e-02, 7.24992603e-02,
          7.63878077e-02, 6.85791746e-02, 1.54427737e-01, 1.91244394e-01,
          2.56324798e-01, 1.71279341e-01, 1.35347128e-01, 1.38225347e-01,
          2.63776928e-02, 0., 3.26717682e-02 ]
      - [ 2.74696022e-01, 1.62396297e-01, 1.18475609e-01, 2.06184223e-01,
          2.83830632e-02, 0., 0., 0., 2.07173437e-01, 1.43050611e-01,
          1.08724236e-01, 1.09593704e-01, 0., 0., 0., 2.65960936e-02, 0.,
          1.15914522e-02, 9.62024275e-03, 1.24417089e-01, 6.15177043e-02,
          8.93452391e-02, 1.02545291e-01, 1.94673374e-01, 1.31007865e-01,
          0., 0., 1.24753930e-01, 1.47990689e-01, 1.54318526e-01,
          1.94359958e-01, 2.42121652e-01, 1.93376228e-01, 2.87562069e-02,
          0., 5.92850931e-02, 2.24668503e-01, 1.54243827e-01,
          1.44100159e-01, 2.12858871e-01, 7.40251094e-02, 0., 0.,
          9.40057412e-02, 2.03567386e-01, 7.54802302e-02, 1.69405583e-02,
          7.28659481e-02, 1.39125898e-01, 1.42744213e-01, 2.30575353e-01,
          0., 0., 0., 0., 1.87051687e-02, 2.09504515e-01, 2.02022344e-01,
          2.30697334e-01, 1.47778496e-01, 0., 0., 0., 5.06640878e-03 ]
      - [ 1.19874924e-01, 2.65556514e-01, 1.70798376e-01, 1.85369834e-01,
          0., 0., 0., 0., 6.77500591e-02, 1.41059324e-01, 1.46427721e-01,
          1.80482984e-01, 0., 0., 0., 0., 2.52625942e-01, 1.40956482e-02,
          0., 7.05199689e-02, 9.75163728e-02, 9.50270891e-02,
          1.20857127e-01, 1.57223105e-01, 2.01468676e-01, 3.59912626e-02,
          6.27860874e-02, 1.43183127e-01, 1.57736897e-01, 1.07801571e-01,
          1.09663807e-01, 1.24176510e-01, 0., 0., 0., 0., 1.24668494e-01,
          2.88262606e-01, 2.33642519e-01, 0., 0., 0., 0., 0.,
          2.05569044e-01, 1.39370874e-01, 1.52448177e-01, 0.,
          1.37576997e-01, 1.91605985e-01, 1.34277254e-01, 1.01010174e-01,
          0., 0., 0., 1.73007965e-01, 1.74129084e-01, 1.87525868e-01,
          1.79232478e-01, 1.10497795e-01, 1.37909070e-01, 5.37653938e-02,
          1.33535430e-01, 1.20090410e-01 ]
      - [ 1.51253283e-01, 1.36629254e-01, 1.30728185e-01, 1.54401734e-01,
          1.27996162e-01, 7.94701800e-02, 1.10454805e-01, 2.10559949e-01,
          5.25227152e-02, 0., 0., 0., 1.98356658e-01, 1.03291936e-01,
          7.70239681e-02, 1.78577721e-01, 0., 0., 0., 1.26847476e-01,
          1.34890422e-01, 1.27449006e-01, 1.67479947e-01, 1.56968206e-01,
          0., 0., 0., 1.26308575e-01, 1.75115496e-01, 1.56357393e-01,
          1.93004683e-01, 2.19170585e-01, 0., 0., 0., 0., 1.69394955e-01,
          2.04996660e-01, 1.98675722e-01, 1.86715767e-01, 0., 0., 0.,
          7.53220320e-02, 1.02533557e-01, 1.94006160e-01, 1.56568840e-01,
          1.28086120e-01, 1.47812188e-01, 1.40716180e-01, 1.42498523e-01,
          1.85381234e-01, 3.62241454e-02, 0., 0., 1.15388855e-01,
          1.14434466e-01, 2.29158074e-01, 1.19234085e-01, 2.39900231e-01,
          0., 0., 0., 0. ]
      - [ 2.97334343e-01, 1.86000139e-01, 1.61496803e-01, 8.99214000e-02,
          0., 0., 0., 0., 2.38496646e-01, 7.64502957e-02, 0., 0., 0., 0.,
          3.16616632e-02, 0., 3.14048320e-01, 1.33327404e-02, 0.,
          4.77728993e-02, 0., 0., 0., 5.65717965e-02, 3.00081611e-01,
          9.00572166e-02, 1.09007657e-01, 9.14976001e-02, 4.03002426e-02,
          1.08633183e-01, 1.19040243e-01, 9.54838470e-02, 4.44623344e-02,
          0., 0., 0., 1.36974514e-01, 1.57293394e-01, 2.15018794e-01,
          2.37930670e-01, 4.27934714e-02, 9.12259072e-02, 7.68474042e-02,
          9.45520997e-02, 7.50869513e-02, 0., 9.08426866e-02,
          2.11762562e-01, 2.05289543e-01, 2.46255979e-01, 2.24748459e-02,
          0., 0., 0., 1.93605945e-02, 1.79670855e-01, 2.35714123e-01,
          1.84960395e-01, 1.19725436e-01, 9.76612866e-02, 1.37699902e-01,
          8.86403099e-02, 0., 1.05931215e-01 ]
      - [ 7.08558708e-02, 2.61702091e-01, 2.30472490e-01, 1.33898556e-01,
          1.01375483e-01, 8.61019567e-02, 1.37146199e-02, 0., 0.,
          2.04679742e-01, 1.46857709e-01, 0., 0., 0., 0., 0.,
          1.37434214e-01, 3.66538623e-03, 0., 1.44011930e-01,
          9.71928462e-02, 1.08099893e-01, 1.22039936e-01, 0.,
          1.39229819e-01, 1.47482485e-01, 3.02516613e-02, 0.,
          1.89128205e-01, 2.42750615e-01, 1.98165208e-01, 1.21953584e-01,
          1.31464243e-01, 9.73412767e-02, 1.24706134e-01, 1.16365366e-01,
          1.10580474e-01, 1.29813358e-01, 1.68384001e-01, 2.63899386e-01,
          1.06770890e-02, 0., 1.20963104e-01, 2.37712339e-02,
          3.17318849e-02, 8.48711953e-02, 1.62513152e-01, 9.27065238e-02,
          1.86110795e-01, 1.40389144e-01, 1.21949621e-01, 1.16514593e-01,
          0., 0., 1.65536236e-02, 1.83143243e-01, 1.36005893e-01,
          2.41208404e-01, 1.22312486e-01, 1.64334238e-01, 1.65012479e-01,
          0., 0., 6.00983091e-02 ]
      - [ 2.77477741e-01, 1.94548011e-01, 1.28119946e-01, 1.20036907e-01,
          1.16784297e-01, 0., 0., 7.44595677e-02, 0., 2.83431083e-01, 0.,
          0., 0., 0., 0., 0., 1.37104109e-01, 0., 1.38277367e-01,
          6.97279945e-02, 9.32993069e-02, 8.70456249e-02, 4.81312908e-02,
          1.13610052e-01, 2.33169243e-01, 7.58545706e-03, 0.,
          9.16986763e-02, 1.55831605e-01, 1.52352348e-01, 1.87922254e-01,
          2.21638948e-01, 1.50460809e-01, 0., 0., 7.30574057e-02,
          1.39970288e-01, 1.25216097e-01, 1.74154565e-01, 2.45144099e-01,
          0., 1.00269087e-01, 8.43015686e-02, 1.69516113e-02, 0.,
          8.96402970e-02, 6.63471073e-02, 1.94762975e-01, 1.94196448e-01,
          1.76627263e-01, 1.57110140e-01, 0., 0., 0., 2.77068242e-02,
          3.90218012e-02, 2.57517248e-01, 1.72734842e-01, 2.25162655e-01,
          1.46670714e-01, 0., 0., 5.28304745e-03, 0. ]
      - [ 2.02429444e-01, 1.72201246e-01, 1.27331734e-01, 1.00476854e-01,
          1.08452685e-01, 1.53134957e-01, 0., 1.49854302e-01,
          1.59104228e-01, 4.61453944e-02, 5.11820726e-02, 1.33982198e-02,
          0., 1.48952961e-01, 8.49054828e-02, 1.32533029e-01, 0., 0., 0.,
          0., 1.49890274e-01, 1.26895621e-01, 1.21294543e-01,
          1.95969269e-01, 0., 0., 0., 0., 1.83004260e-01, 1.75623998e-01,
          1.93406865e-01, 2.33454823e-01, 1.30351871e-01, 8.27932507e-02,
          0., 0., 2.02107668e-01, 2.10559174e-01, 1.62669986e-01,
          1.60501674e-01, 1.42127037e-01, 0., 0., 0., 1.91338614e-01,
          1.60202786e-01, 6.09396510e-02, 9.25714150e-02, 1.88620090e-01,
          1.53789610e-01, 1.01179115e-01, 1.67622954e-01, 0., 0., 0., 0.,
          2.51378775e-01, 2.00308278e-01, 1.28663659e-01, 2.00173378e-01,
          8.21477175e-02, 0., 0., 0. ]
      - [ 1.76642850e-01, 2.91012317e-01, 1.23179294e-01, 1.24508023e-01,
          0., 0., 0., 0., 0., 2.37857193e-01, 2.33146679e-02,
          2.83172689e-02, 0., 0., 0., 0., 2.21216083e-01, 2.72664577e-02,
          0., 0., 1.64297536e-01, 8.95904452e-02, 0., 1.03630066e-01,
          2.32018560e-01, 4.89892401e-02, 0., 0., 2.06361011e-01,
          1.78735524e-01, 1.31875843e-01, 1.25950694e-01, 0., 0., 0.,
          1.31476000e-01, 1.31280035e-01, 1.53098926e-01, 2.17627451e-01,
          2.29699031e-01, 5.58261350e-02, 9.13501307e-02, 1.14723422e-01,
          0., 8.21251795e-02, 9.76747423e-02, 1.57044902e-01,
          1.61908656e-01, 1.69942528e-01, 9.18250754e-02, 1.14897899e-01,
          1.52189419e-01, 8.22793171e-02, 0., 2.01701988e-02,
          2.26612344e-01, 1.53202072e-01, 1.20037831e-01, 1.56477243e-01,
          1.78384349e-01, 1.75563544e-01, 0., 2.92037297e-02,
          1.67687178e-01 ]
      - [ 3.45844239e-01, 1.48356616e-01, 1.13047965e-01, 7.61759430e-02,
          9.02620703e-02, 1.30766794e-01, 0., 0., 2.03907520e-01,
          9.85074043e-02, 8.54924396e-02, 0., 0., 0., 9.60000046e-03,
          1.31790936e-01, 2.37253249e-01, 1.66276880e-02, 0.,
          1.28549501e-01, 8.56058523e-02, 5.85673600e-02, 1.00093253e-01,
          7.20246658e-02, 2.05379874e-01, 0., 0., 1.53228179e-01,
          1.52046651e-01, 1.23838678e-01, 1.78560495e-01, 1.95031404e-01,
          6.09721504e-02, 0., 0., 0., 0., 4.80575003e-02, 3.49216759e-01,
          1.95017993e-01, 0., 0., 0., 0., 7.48604462e-02, 9.41781700e-02,
          1.18345715e-01, 1.47921264e-01, 1.83976099e-01, 1.65606260e-01,
          1.15245707e-01, 0., 0., 0., 4.20947298e-02, 1.46208793e-01,
          2.00068891e-01, 2.19120339e-01, 2.46213630e-01, 0., 0., 0., 0.,
          5.16975857e-02 ]
      - [ 2.66248435e-01, 2.41953298e-01, 1.44599646e-01, 1.15971468e-01,
          0., 0., 0., 0., 0., 7.98380375e-02, 0., 0., 0., 0.,
          5.30604459e-02, 2.33466089e-01, 1.81548253e-01, 4.00939882e-02,
          0., 0., 6.65242299e-02, 4.10923176e-02, 6.91710413e-02,
          1.28372446e-01, 9.98967141e-02, 5.83018102e-02, 0.,
          4.53313962e-02, 1.59249783e-01, 1.54530615e-01, 1.22821987e-01,
          3.38500977e-01, 0., 0., 0., 3.16105820e-02, 1.14973314e-01,
          1.46525800e-01, 1.68204889e-01, 3.89433444e-01, 8.22601393e-02,
          0., 0., 0., 6.20529875e-02, 9.83334184e-02, 0., 0.,
          1.42684534e-01, 7.20315427e-02, 6.72606230e-02, 7.18533099e-02,
          0., 0., 5.69426492e-02, 2.77888358e-01, 2.73486406e-01,
          1.44981131e-01, 1.40419662e-01, 1.88319370e-01, 3.61151099e-02,
          0., 7.79661983e-02, 7.88964331e-02 ]
      - [ 2.83539385e-01, 1.86353624e-01, 1.81095511e-01, 1.34080276e-01,
          0., 0., 0., 0., 1.09218895e-01, 2.05807030e-01, 4.27359864e-02,
          0., 2.66859569e-02, 0., 0., 0., 1.80312648e-01, 8.53077136e-03,
          0., 0., 1.21553354e-01, 1.34343043e-01, 0., 1.62597254e-01,
          2.01291636e-01, 0., 0., 0., 2.12971359e-01, 1.17952600e-01,
          1.35123774e-01, 2.65017301e-01, 0., 0., 0., 0., 1.34539545e-01,
          1.39828458e-01, 2.37253189e-01, 2.55574554e-01, 0.,
          2.44128630e-02, 0., 1.37208864e-01, 0., 0., 2.20832393e-01, 0.,
          7.87378028e-02, 1.27644271e-01, 1.54521480e-01, 1.73492610e-01,
          0., 0., 2.81309504e-02, 1.69046998e-01, 2.02067167e-01,
          1.68677956e-01, 1.79481298e-01, 1.94674611e-01, 1.90688055e-02,
          4.76495549e-02, 1.21176906e-01, 8.45778510e-02 ]
      - [ 1.62230670e-01, 2.26558790e-01, 1.93005949e-01, 1.94117546e-01,
          3.97878326e-03, 0., 0., 0., 0., 1.17339425e-01, 2.20188662e-01,
          1.39776140e-01, 2.93600261e-02, 0., 0., 2.79553011e-02,
          6.40928075e-02, 0., 2.40210500e-02, 1.75100788e-01,
          1.40738383e-01, 1.18884586e-01, 9.86651182e-02, 4.25750427e-02,
          7.41773844e-02, 1.18309401e-01, 6.25634193e-02, 1.68036118e-01,
          1.72922611e-01, 1.46409601e-01, 1.15725495e-01, 2.24973097e-01,
          7.36548752e-02, 0., 0., 1.26264900e-01, 1.78139687e-01,
          2.10402086e-01, 1.45340964e-01, 1.86203808e-01, 0.,
          8.85200780e-03, 5.09532280e-02, 1.84575871e-01, 1.23666830e-01,
          8.57136250e-02, 1.70021206e-01, 8.18500295e-02, 1.65144950e-01,
          1.31865859e-01, 1.21005081e-01, 2.08071321e-01, 1.37829091e-02,
          0., 0., 1.70108676e-01, 1.20454818e-01, 1.64657429e-01,
          1.54024899e-01, 2.65919060e-01, 1.43457064e-02, 0., 0., 0. ]
      - [ 1.69974953e-01, 2.12967932e-01, 2.26160824e-01, 0., 0., 0., 0.,
          0., 1.29242405e-01, 1.77541941e-01, 1.06613435e-01,
          9.85572338e-02, 0., 0., 0., 0., 1.64783686e-01, 5.07200360e-02,
          0., 0., 1.22532628e-01, 1.55495554e-01, 1.47047892e-01,
          1.70300856e-01, 6.49010763e-02, 1.43511975e-02, 0., 0.,
          1.81588337e-01, 2.11440101e-01, 1.49891540e-01, 1.67913184e-01,
          0., 0., 0., 1.28840327e-01, 8.64179954e-02, 1.30635500e-01,
          3.21882248e-01, 1.37171611e-01, 0., 0., 0., 0., 8.93975943e-02,
          1.61081120e-01, 1.90478861e-01, 1.39603809e-01, 2.35161018e-02,
          1.52132645e-01, 8.61020312e-02, 1.84479058e-01, 1.76611602e-01,
          2.71302257e-02, 5.46435080e-02, 1.42951578e-01, 1.39258295e-01,
          1.76209286e-01, 1.61529109e-01, 2.17700616e-01, 1.47287130e-01,
          1.75066218e-01, 5.44353761e-02, 0. ]
      - [ 2.54659474e-01, 1.43572628e-01, 2.18029290e-01, 1.28607973e-01,
          5.30539602e-02, 8.18432495e-03, 0., 0., 1.12244850e-02,
          5.96674494e-02, 8.31182599e-02, 5.04244342e-02, 1.09082825e-01,
          0., 0., 0., 2.12584585e-01, 8.20740983e-02, 4.27609198e-02, 0.,
          1.61094248e-01, 1.09247468e-01, 1.29620612e-01, 1.40178844e-01,
          8.56616125e-02, 9.73643288e-02, 1.41879842e-01, 1.09660208e-01,
          1.79611042e-01, 2.07037523e-01, 1.65867388e-01, 1.56812325e-01,
          5.27382642e-03, 0., 0., 0., 1.01023927e-01, 2.65311301e-01,
          2.48005986e-01, 1.01729907e-01, 0., 1.77458934e-02,
          1.27055004e-01, 1.50241420e-01, 0., 6.89684749e-02,
          8.84871185e-02, 6.10625520e-02, 7.95039013e-02, 2.10790157e-01,
          1.32778868e-01, 1.30081668e-01, 3.31579596e-02, 0.,
          7.99945965e-02, 1.75016031e-01, 1.24212682e-01, 2.73628742e-01,
          1.71615705e-01, 1.96052939e-01, 8.17619860e-02, 0., 0.,
          1.48698106e-01 ]
      - [ 2.14967862e-01, 1.86269939e-01, 1.55729651e-01, 1.74513385e-01,
          1.24620639e-01, 0., 0., 0., 1.29084662e-01, 2.13827103e-01,
          1.19824991e-01, 1.48321882e-01, 0., 0., 0., 1.46372765e-02,
          1.08816944e-01, 0., 0., 1.50621966e-01, 1.58194885e-01,
          1.30477116e-01, 6.71541616e-02, 1.22229271e-01, 1.22157820e-01,
          0., 0., 0., 1.83939368e-01, 2.23302081e-01, 1.53755441e-01,
          1.59175679e-01, 1.44463241e-01, 1.12165883e-02, 3.92807648e-02,
          4.72858287e-02, 2.22221985e-01, 1.70176104e-01, 1.21634386e-01,
          2.11564898e-01, 7.79969096e-02, 1.36318831e-02, 0., 0.,
          1.98667303e-01, 1.62940517e-01, 1.58626512e-02, 9.74205956e-02,
          0., 2.44390294e-01, 1.50247931e-01, 1.27601922e-01, 0., 0.,
          6.14357833e-03, 4.89183627e-02, 1.69867128e-01, 2.82271892e-01,
          1.30447954e-01, 1.87106207e-01, 0., 0., 0., 0. ]
      - [ 1.92061841e-01, 1.75053626e-01, 1.23157486e-01, 2.04284921e-01,
          9.25339311e-02, 6.24360554e-02, 7.71516338e-02, 6.89598843e-02,
          5.84620088e-02, 5.31354025e-02, 4.07836325e-02, 9.79100317e-02,
          2.30072215e-02, 1.22934006e-01, 2.32144296e-02, 1.21084616e-01,
          0., 0., 0., 0., 1.32258579e-01, 1.29175901e-01, 1.51228860e-01,
          1.22834675e-01, 1.15763322e-01, 3.19830999e-02, 0.,
          3.17313857e-02, 1.61614373e-01, 2.14334339e-01, 2.51016080e-01,
          1.94947094e-01, 0., 0., 0., 1.25004545e-01, 2.16677338e-01,
          1.96549758e-01, 1.41233489e-01, 1.74236253e-01, 1.50095955e-01,
          1.24265254e-01, 0., 1.23761177e-01, 7.62365684e-02,
          1.37336314e-01, 1.19485870e-01, 1.13051645e-01, 1.13134205e-01,
          1.61653683e-01, 1.29815221e-01, 1.79740965e-01, 0., 0.,
          4.59815934e-02, 1.16011307e-01, 1.99980557e-01, 1.45821527e-01,
          2.47756794e-01, 2.18376368e-01, 0., 0., 0., 1.13599487e-01 ]
      - [ 2.20077381e-01, 3.08046639e-01, 0., 0., 0., 0., 0., 0.,
          1.12125345e-01, 0., 0., 0., 0., 0., 0., 5.20249419e-02,
          2.41595879e-01, 4.15673014e-03, 0., 0., 0., 1.34408265e-01,
          8.37740749e-02, 8.49540085e-02, 1.29795581e-01, 1.41330913e-01,
          1.04118809e-01, 0., 1.38955191e-01, 1.71947360e-01,
          1.55595139e-01, 1.89094245e-01, 0., 1.07533149e-01,
          1.38166845e-01, 0., 1.39332414e-01, 9.42701474e-02,
          2.63783514e-01, 1.94536641e-01, 2.07566336e-01, 9.74242836e-02,
          1.13106154e-01, 0., 0., 7.96155259e-02, 8.99005160e-02,
          7.22570494e-02, 1.28489763e-01, 1.40894741e-01, 0.,
          9.63531137e-02, 1.36162922e-01, 0., 6.74354210e-02,
          2.04054087e-01, 2.64499456e-01, 1.59610897e-01, 1.82904676e-01,
          1.71621203e-01, 1.39798328e-01, 4.42565568e-02, 8.79848972e-02,
          2.11793602e-01 ]
      - [ 1.70084193e-01, 1.39400482e-01, 1.18813977e-01, 1.81121722e-01,
          1.28841788e-01, 0., 0., 0., 1.51914001e-01, 1.23406097e-01,
          1.05219409e-01, 1.05650879e-01, 1.29982993e-01, 0.,
          7.14914948e-02, 1.77182451e-01, 1.46602854e-01, 9.36495811e-02,
          6.60766289e-02, 1.42817453e-01, 1.63308412e-01, 1.44288644e-01,
          8.90584216e-02, 8.31256583e-02, 7.29249418e-02, 7.31961280e-02,
          5.96677735e-02, 0., 2.58791655e-01, 1.34853885e-01,
          1.43194705e-01, 9.47918221e-02, 1.27404854e-01, 0., 0., 0.,
          1.91965938e-01, 1.85288921e-01, 2.51065075e-01, 1.28706291e-01,
          1.25843674e-01, 3.59626091e-03, 0., 0., 1.26756638e-01,
          1.66845590e-01, 1.17023215e-01, 1.27810404e-01, 1.48700178e-01,
          1.21226050e-01, 1.55594438e-01, 1.16804145e-01, 0., 0., 0.,
          2.49426179e-02, 2.57571280e-01, 1.73872113e-01, 1.58082515e-01,
          2.24062219e-01, 0., 0., 0., 1.55198768e-01 ]
      - [ 1.75833493e-01, 1.79704636e-01, 2.12358966e-01, 9.99500751e-02,
          0., 0., 5.30520789e-02, 0., 2.10634768e-01, 1.20515317e-01,
          1.04276985e-01, 0., 9.53392461e-02, 0., 9.98885743e-03,
          1.69567749e-01, 1.64629877e-01, 2.65470818e-02, 5.83902560e-02,
          1.43749833e-01, 0., 9.57607478e-02, 5.95158152e-02,
          1.53846264e-01, 1.73695624e-01, 0., 0., 0., 1.70675009e-01,
          1.25523135e-01, 1.85196027e-01, 2.08465919e-01, 1.47721618e-01,
          0., 0., 1.46822467e-01, 1.09080598e-01, 1.71400532e-01,
          1.66270629e-01, 2.44154006e-01, 2.64317784e-02, 6.68994337e-02,
          4.21935283e-02, 1.70400470e-01, 9.67898816e-02, 8.22762996e-02,
          4.70715128e-02, 1.68735102e-01, 1.70780316e-01, 1.85617730e-01,
          1.88160628e-01, 0., 0., 0., 4.92790639e-02, 2.49665938e-02,
          2.87006080e-01, 1.63574845e-01, 1.45507365e-01, 2.07366690e-01,
          0., 0., 0., 0. ]
      - [ 9.69234928e-02, 2.10406438e-01, 2.28570446e-01, 1.95101097e-01,
          0., 0., 0., 4.64805998e-02, 0., 9.52858776e-02, 1.67349339e-01,
          1.70896247e-01, 0., 5.87731861e-02, 0., 0., 1.30926758e-01, 0.,
          0., 0., 1.81250930e-01, 9.95126963e-02, 1.53895184e-01,
          1.27978787e-01, 1.25210598e-01, 5.29193096e-02, 0., 0.,
          2.09862977e-01, 1.84683129e-01, 1.85364664e-01, 1.55961514e-01,
          0., 0., 0., 0., 2.52024680e-01, 2.13933319e-01, 1.86022252e-01,
          1.17812976e-01, 0., 7.75867328e-03, 3.87943350e-02,
          2.42338866e-01, 9.70201418e-02, 9.90602747e-02, 1.45859405e-01,
          9.48949456e-02, 1.51950032e-01, 1.26938209e-01, 1.51602268e-01,
          1.61543250e-01, 1.22512363e-01, 2.30666753e-02, 0., 0.,
          2.10676640e-01, 1.41425908e-01, 1.89325765e-01, 2.02067703e-01,
          1.15342319e-01, 0., 2.52339710e-02, 4.95657623e-02 ]
      - [ 1.75371557e-01, 3.05657834e-01, 1.79734528e-01, 0., 0., 0., 0.,
          0., 8.38871971e-02, 1.70155898e-01, 3.68886963e-02, 0., 0., 0.,
          0., 0., 1.93274498e-01, 2.96657737e-02, 0., 1.25104114e-01,
          8.36379603e-02, 9.23651457e-02, 7.25913271e-02, 8.45548064e-02,
          2.44524822e-01, 5.78505173e-02, 0., 0., 2.06779972e-01,
          1.55066878e-01, 1.74688280e-01, 2.15124294e-01, 0., 0.,
          5.59642427e-02, 1.32066414e-01, 1.33367926e-01, 1.40200734e-01,
          1.57330915e-01, 2.33699083e-01, 1.64173663e-01, 7.20935613e-02,
          8.33113939e-02, 1.12191215e-01, 0., 1.22236505e-01,
          1.33731037e-01, 0., 9.39871073e-02, 1.22021273e-01,
          1.49062812e-01, 1.71406478e-01, 2.83838939e-02, 0.,
          1.55733734e-01, 1.60264209e-01, 1.31540954e-01, 1.69580430e-01,
          2.23643273e-01, 2.09661052e-01, 0., 0., 4.14208025e-02,
          1.66998118e-01 ]
      - [ 1.27509251e-01, 2.78309613e-01, 1.62608206e-01, 1.85751125e-01,
          0., 0., 0., 0., 0., 1.39231250e-01, 8.58020931e-02,
          5.99924140e-02, 1.51555449e-01, 9.81139764e-02, 0.,
          1.25982035e-02, 9.49177612e-03, 0., 2.12934464e-02,
          1.17425278e-01, 1.43653899e-01, 9.34476331e-02, 1.34135678e-01,
          9.42408815e-02, 1.87180221e-01, 0., 7.15013370e-02,
          1.27445161e-01, 1.64795935e-01, 1.61734268e-01, 1.95524871e-01,
          2.35190660e-01, 7.44735152e-02, 0., 3.15877683e-02, 0.,
          1.74244881e-01, 1.92697778e-01, 2.20972151e-01, 1.88991591e-01,
          1.04043126e-01, 5.10851517e-02, 8.88377279e-02, 1.17356792e-01,
          1.21798523e-01, 0., 7.98372552e-02, 1.21098250e-01,
          1.47173703e-01, 1.47777945e-01, 2.02663675e-01, 8.33926871e-02,
          0., 0., 0., 1.69225149e-02, 2.22452551e-01, 1.73808813e-01,
          2.43058234e-01, 1.66644007e-01, 1.02335572e-01, 6.03146888e-02,
          0., 7.99469724e-02 ]
      - [ 2.55709112e-01, 1.28111720e-01, 1.16711132e-01, 1.08116880e-01,
          2.23345444e-01, 1.11678997e-02, 5.98653499e-03, 0.,
          1.77322924e-01, 8.49981308e-02, 9.94782522e-02, 1.39927775e-01,
          0., 0., 1.62616242e-02, 0., 1.82364449e-01, 1.63439643e-02,
          6.63244128e-02, 1.14862204e-01, 6.65188506e-02, 8.66559744e-02,
          1.48497969e-01, 1.29328012e-01, 1.28435910e-01, 2.36172341e-02,
          0., 0., 1.79926351e-01, 2.30766848e-01, 1.79089591e-01,
          1.27788290e-01, 1.24376975e-01, 3.69580202e-02, 0.,
          1.49883643e-01, 2.07763001e-01, 1.79965764e-01, 2.23975569e-01,
          1.28095061e-01, 0., 0., 1.26246661e-02, 0., 2.21161768e-01,
          1.09733373e-01, 1.16914503e-01, 0., 1.20144282e-02,
          1.68472216e-01, 2.38763034e-01, 0., 7.11922999e-03, 0., 0., 0.,
          1.56124100e-01, 2.71601170e-01, 2.41884843e-01, 1.46396652e-01,
          4.06081341e-02, 0., 0., 0. ]
      - [ 2.31683284e-01, 2.39945635e-01, 1.17257506e-01, 8.39771852e-02,
          1.33167952e-01, 1.83564257e-02, 1.36187775e-02, 7.15557560e-02,
          2.13977665e-01, 1.54698730e-01, 1.10426001e-01, 0., 0., 0.,
          7.74453348e-03, 1.36982515e-01, 1.05546489e-01, 7.74453348e-03,
          8.83235261e-02, 1.03846908e-01, 0., 9.36482623e-02,
          5.25914095e-02, 1.35647550e-01, 2.17385799e-01, 0., 0., 0.,
          1.89040646e-01, 1.64036408e-01, 1.27708957e-01, 2.79422402e-01,
          1.39045700e-01, 0., 0., 0., 1.81875750e-01, 1.20833404e-01,
          1.64124504e-01, 2.54216522e-01, 1.11944191e-01, 0., 0.,
          5.50598539e-02, 1.13782227e-01, 8.87710974e-02, 4.13238034e-02,
          2.02482074e-01, 1.81295872e-01, 1.78300768e-01, 1.01662777e-01,
          0., 0., 0., 0., 0., 2.68633217e-01, 2.03249097e-01,
          1.75263658e-01, 1.36261642e-01, 0., 0., 0., 6.63334280e-02 ]
      - [ 2.41215900e-01, 1.53643981e-01, 1.45417467e-01, 8.34140405e-02,
          1.74762890e-01, 2.53794864e-02, 0., 0., 1.33147344e-01,
          1.09263137e-01, 6.12002946e-02, 0., 1.47636935e-01,
          9.66556445e-02, 0., 0., 1.59394011e-01, 0., 0., 0.,
          1.41705960e-01, 9.49042663e-02, 1.62750795e-01, 1.16838686e-01,
          1.61296219e-01, 0., 0., 0., 2.08792150e-01, 1.51078925e-01,
          1.52579442e-01, 1.90978900e-01, 0., 0., 2.80958097e-02,
          1.90844193e-01, 1.21609658e-01, 1.89238742e-01, 1.77484035e-01,
          1.63458750e-01, 1.43335849e-01, 1.27342403e-01, 1.01586722e-01,
          7.00065419e-02, 7.74194300e-02, 1.66418523e-01, 1.28792569e-01,
          1.36581317e-01, 1.13689348e-01, 1.48773804e-01, 1.64065704e-01,
          2.04825267e-01, 6.95372047e-03, 0., 0., 1.00491427e-01,
          1.07328825e-01, 2.09132135e-01, 1.96407244e-01, 2.37649500e-01,
          5.53392693e-02, 0., 7.54890777e-03, 1.14440471e-01 ]
      - [ 1.84365168e-01, 2.62483895e-01, 2.00835779e-01, 0., 0., 0., 0.,
          0., 1.21912412e-01, 2.17042238e-01, 2.30152532e-02, 0., 0., 0.,
          3.14414948e-02, 0., 1.76074818e-01, 8.84706900e-03,
          4.98365723e-02, 9.25941393e-02, 0., 8.98961499e-02,
          5.33466637e-02, 1.33945063e-01, 2.36946017e-01, 2.61423811e-02,
          4.31751125e-02, 0., 1.78328648e-01, 6.43339753e-02,
          1.37381762e-01, 2.35749155e-01, 1.15275137e-01, 2.79768873e-02,
          9.65853482e-02, 9.55447853e-02, 9.35307890e-02, 1.31662861e-01,
          2.61864424e-01, 1.86203852e-01, 0., 1.19702481e-01,
          1.25553086e-01, 0., 7.94334933e-02, 8.50233287e-02,
          1.69570744e-01, 1.04369700e-01, 1.31136298e-01, 2.90236682e-01,
          1.28420278e-01, 0., 0., 0., 0., 1.26428187e-01, 1.89148337e-01,
          2.78635293e-01, 1.52795509e-01, 1.48674354e-01, 9.97379720e-02,
          7.30885342e-02, 0., 0. ]
      - [ 2.12881342e-01, 2.17237443e-01, 1.87030330e-01, 1.23169817e-01,
          0., 0., 0., 6.41636252e-02, 1.87133223e-01, 1.74642429e-01,
          1.16664588e-01, 0., 0., 0., 5.30863255e-02, 4.49984446e-02,
          1.61786675e-01, 2.83227768e-02, 0., 0., 8.08066949e-02,
          1.52920410e-01, 1.23895638e-01, 1.30699247e-01, 1.76667064e-01,
          3.00886594e-02, 0., 0., 1.60430640e-01, 1.64180607e-01,
          2.15004519e-01, 1.47296295e-01, 8.23119730e-02, 7.60823563e-02,
          1.04125850e-01, 1.67825699e-01, 1.61326513e-01, 1.16195664e-01,
          1.96480215e-01, 1.76081002e-01, 6.82029054e-02, 1.28311053e-01,
          0., 1.32555932e-01, 9.04717445e-02, 1.26211673e-01,
          1.70408249e-01, 6.71468228e-02, 8.29872042e-02, 0.,
          1.17752232e-01, 1.43987104e-01, 1.25840202e-01, 1.23358676e-02,
          1.31608814e-01, 1.57669410e-01, 1.61444902e-01, 1.49556622e-01,
          1.44916803e-01, 1.78884760e-01, 1.26413614e-01, 2.75970902e-02,
          1.27046540e-01, 1.90175474e-01 ]
      - [ 1.17654413e-01, 2.92163283e-01, 1.36491567e-01, 8.29428434e-02,
          1.18924432e-01, 0., 0., 0., 1.60564080e-01, 1.43098503e-01,
          7.94582814e-02, 5.86567894e-02, 1.20621413e-01, 0., 0.,
          1.46382591e-02, 1.71434119e-01, 0., 0., 0., 1.80903062e-01,
          1.30430102e-01, 8.22879001e-02, 1.31742954e-01, 1.71039656e-01,
          1.90702304e-02, 0., 1.22621074e-01, 1.88033164e-01,
          1.75488949e-01, 1.64852113e-01, 1.70491919e-01, 0., 0., 0., 0.,
          1.14088714e-01, 2.76655287e-01, 2.40518197e-01, 8.62621590e-02,
          0., 0., 0., 0., 0., 2.66383022e-01, 8.28545839e-02, 0.,
          1.07333332e-01, 7.94062167e-02, 1.10922433e-01, 2.30833799e-01,
          3.75878140e-02, 0., 0., 1.68188363e-01, 1.37929350e-01,
          1.61249027e-01, 1.57025516e-01, 2.62118399e-01, 2.22232677e-02,
          3.22246924e-02, 1.85361922e-01, 0. ]
      - [ 2.82453358e-01, 2.45780453e-01, 1.62953287e-01, 1.70151219e-01,
          0., 0., 0., 9.96119976e-02, 1.24348834e-01, 3.62529680e-02,
          1.03548288e-01, 3.28990705e-02, 7.76551738e-02, 0., 0.,
          2.24515740e-02, 1.43249929e-01, 7.65488809e-03, 0., 0., 0.,
          6.94236457e-02, 1.52536914e-01, 8.59334990e-02, 0., 0., 0.,
          1.42503858e-01, 1.32519767e-01, 1.82938904e-01, 2.58448422e-01,
          1.96379110e-01, 0., 0., 0., 7.97230937e-03, 1.92515507e-01,
          1.87029511e-01, 2.29295269e-01, 2.70361096e-01, 0., 0., 0., 0.,
          1.22058667e-01, 1.24355949e-01, 1.46216303e-01, 0.,
          9.53802019e-02, 8.09541047e-02, 9.21219140e-02, 8.92021433e-02,
          5.18963151e-02, 1.39787197e-01, 5.91062978e-02, 1.46802530e-01,
          2.78982282e-01, 1.45771801e-01, 1.49791956e-01, 2.34878764e-01,
          4.48315870e-03, 0., 0., 1.44649193e-01 ]
      - [ 1.75793037e-01, 3.23058665e-01, 7.12597743e-02, 0.,
          8.23160354e-03, 0., 0., 0., 9.75484177e-02, 1.80585131e-01,
          7.21290112e-02, 0., 0., 0., 0., 0., 1.88077211e-01,
          5.50480466e-03, 0., 1.00552365e-01, 1.19701445e-01,
          9.46299136e-02, 7.87951574e-02, 1.22904912e-01, 2.29602873e-01,
          0., 0., 0., 1.67921871e-01, 1.89050540e-01, 1.41711608e-01,
          2.18515277e-01, 0., 0., 0., 1.40931055e-01, 9.46389362e-02,
          1.48006961e-01, 2.76676953e-01, 1.22452736e-01, 1.33572832e-01,
          8.82970616e-02, 8.41693357e-02, 8.99133533e-02, 7.20936581e-02,
          1.35720342e-01, 1.74010247e-01, 0., 1.24203846e-01,
          1.96164206e-01, 1.58885807e-01, 1.44632220e-01, 0., 0.,
          4.12042141e-02, 1.78357705e-01, 1.37211174e-01, 2.11844802e-01,
          2.17499956e-01, 2.00022995e-01, 0., 0., 0., 1.26821205e-01 ]
      - [ 1.22828044e-01, 2.28794724e-01, 1.39275700e-01, 2.32090950e-01,
          0., 0., 0., 0., 0., 0., 8.02299455e-02, 1.17675930e-01,
          8.56946930e-02, 3.85754667e-02, 2.70965882e-02, 0.,
          1.23498827e-01, 0., 4.92199399e-02, 5.64573221e-02,
          2.19261900e-01, 8.50513205e-02, 1.02694415e-01, 0.,
          8.43669847e-02, 1.27779454e-01, 5.82654066e-02, 1.77280784e-01,
          1.68331683e-01, 2.32975587e-01, 1.52608827e-01, 1.87958717e-01,
          0., 0., 4.05105278e-02, 1.85231805e-01, 1.35052130e-01,
          2.43930116e-01, 1.58087045e-01, 8.46738517e-02, 6.93642646e-02,
          3.70763578e-02, 1.43342406e-01, 2.22320125e-01, 1.18613824e-01,
          0., 7.01519772e-02, 0., 0., 1.64553538e-01, 1.82420224e-01,
          1.92993462e-01, 1.26641870e-01, 0., 0., 1.55120343e-01,
          1.19051911e-01, 1.63626000e-01, 2.08292350e-01, 2.79856801e-01,
          3.44297774e-02, 0., 0., 2.62796767e-02 ]
      - [ 8.23517442e-02, 1.44190907e-01, 2.90312618e-01, 0., 0., 0., 0.,
          1.66621491e-01, 0., 7.65538365e-02, 1.47253022e-01,
          1.55418009e-01, 0., 0., 5.88442720e-02, 1.41960427e-01,
          1.07966237e-01, 3.55536863e-03, 0., 1.31520137e-01,
          1.16620041e-01, 1.17168032e-01, 9.01493952e-02, 1.93527386e-01,
          1.27217636e-01, 2.02096943e-02, 0., 0., 2.19994068e-01,
          1.60590291e-01, 1.23294823e-01, 2.56591141e-01, 7.99864233e-02,
          0., 0., 1.28065169e-01, 1.27434000e-01, 1.87015966e-01,
          1.56487018e-01, 2.09010765e-01, 4.45680581e-02, 4.30079699e-02,
          1.84805691e-02, 1.55213088e-01, 1.08291909e-01, 9.31457058e-02,
          1.04977079e-01, 1.54533669e-01, 1.17692761e-01, 1.24963567e-01,
          1.82598874e-01, 1.86896712e-01, 0., 0., 0., 1.78712755e-01,
          1.36426702e-01, 1.94223002e-01, 1.85571864e-01, 2.26766348e-01,
          0., 0., 0., 1.17221825e-01 ]
      - [ 1.44662574e-01, 2.76570052e-01, 1.73833430e-01, 1.11641772e-01,
          0., 0., 0., 3.25764567e-02, 1.74544901e-01, 1.83336601e-01,
          1.63662165e-01, 0., 0., 0., 0., 0., 1.31306961e-01,
          2.38122195e-02, 5.30884191e-02, 1.16888411e-01, 1.89191490e-01,
          8.14758986e-02, 8.48747268e-02, 5.54114282e-02, 1.50178954e-01,
          3.02468054e-02, 0., 5.03528602e-02, 2.22625166e-01,
          1.75794110e-01, 1.40498802e-01, 1.43461868e-01, 1.09051012e-01,
          7.65069500e-02, 0., 1.13847286e-01, 1.53852895e-01,
          1.25289246e-01, 2.47952282e-01, 1.79368883e-01, 0., 0.,
          3.96928191e-02, 1.34125099e-01, 9.05665159e-02, 8.59134272e-02,
          1.38492197e-01, 1.78403974e-01, 0., 1.48233712e-01,
          2.51556247e-01, 1.31175429e-01, 1.15167154e-02, 0., 0.,
          6.74779564e-02, 1.13037266e-01, 2.51856387e-01, 2.18436420e-01,
          1.88392371e-01, 1.29679263e-01, 3.04128081e-02, 0., 0. ]
      - [ 2.13151738e-01, 1.83779269e-01, 1.13179676e-01, 1.75284877e-01,
          9.92771611e-02, 0., 0., 0., 1.95647359e-01, 1.64775535e-01,
          9.18725282e-02, 1.12759382e-01, 8.03928673e-02, 0.,
          3.84071446e-03, 6.80784956e-02, 1.11830652e-01, 0., 0.,
          6.34010434e-02, 1.71583712e-01, 9.51895043e-02, 1.21361256e-01,
          2.27389172e-01, 0., 9.40779038e-03, 0., 1.60344854e-01,
          1.68617219e-01, 1.34801775e-01, 1.44299194e-01, 2.30216175e-01,
          3.83580811e-02, 0., 6.54388145e-02, 9.25651342e-02,
          1.20605275e-01, 1.36557415e-01, 3.20309401e-01, 0., 0.,
          1.97976287e-02, 0., 0., 9.04517695e-02, 1.53051108e-01,
          2.54722089e-01, 0., 5.88554367e-02, 1.13894105e-01,
          9.21842977e-02, 2.10503921e-01, 0., 0., 4.65748049e-02,
          1.63190514e-01, 1.07150830e-01, 1.60458848e-01, 1.74477175e-01,
          2.22678065e-01, 4.40871418e-02, 0., 9.63559672e-02,
          1.68798253e-01 ]
      - [ 2.08525151e-01, 1.29963666e-01, 2.88004935e-01, 1.46316558e-01,
          0., 0., 0., 3.75376865e-02, 1.38288409e-01, 1.47873417e-01,
          1.80194303e-01, 0., 0., 0., 0., 0., 1.74930200e-01,
          1.29989132e-01, 0., 0., 0., 0., 5.43146916e-02, 1.34691313e-01,
          2.19636038e-01, 1.32786006e-01, 1.71208292e-01, 7.26395994e-02,
          9.22026411e-02, 9.57492366e-02, 1.47083774e-01, 1.81455806e-01,
          8.67723953e-03, 0., 0., 1.49494156e-01, 2.08853230e-01,
          1.53030977e-01, 2.20449135e-01, 1.31866395e-01, 5.32810204e-02,
          6.89854920e-02, 5.23698255e-02, 1.76730588e-01, 1.80046812e-01,
          1.06272623e-01, 8.71769041e-02, 1.32883713e-01, 1.11288145e-01,
          2.41268918e-01, 5.81206530e-02, 0., 0., 0., 6.14540949e-02,
          1.65944993e-01, 1.61479518e-01, 1.59057170e-01, 1.82375744e-01,
          1.19191170e-01, 6.94886595e-02, 9.66466963e-02, 1.02103829e-01,
          1.56224638e-01 ]
      - [ 2.70726889e-01, 1.68740094e-01, 1.23780586e-01, 1.27793074e-01,
          0., 0., 0., 0., 2.81984717e-01, 1.10450573e-01, 0.,
          3.54367010e-02, 0., 0., 0., 1.42042369e-01, 1.50339305e-01,
          4.27330397e-02, 0., 0., 0., 1.08570226e-01, 1.42951354e-01,
          2.37511009e-01, 0., 0., 0., 0., 1.36963964e-01, 1.26938999e-01,
          2.24179626e-01, 2.33088210e-01, 1.41028762e-01, 0.,
          6.18748516e-02, 1.28818035e-01, 5.74734583e-02, 1.13991357e-01,
          1.59567609e-01, 2.29711473e-01, 1.32624432e-01, 1.00139752e-01,
          8.44858140e-02, 7.11661056e-02, 0., 5.62969223e-02,
          5.61102293e-02, 2.05082819e-01, 1.62604645e-01, 2.06959039e-01,
          9.95489359e-02, 1.51602075e-01, 2.77206581e-02, 0.,
          1.58020500e-02, 1.27205893e-01, 2.27318451e-01, 2.24893674e-01,
          1.75166950e-01, 1.57652006e-01, 0., 0., 2.69281622e-02, 0. ]
      - [ 2.81338811e-01, 1.89378336e-01, 1.44604817e-01, 1.28079340e-01,
          0., 0., 0., 0., 1.32913768e-01, 9.33998004e-02, 0.,
          6.74653202e-02, 0., 0., 3.76430526e-02, 9.90842506e-02,
          1.81869805e-01, 1.46905323e-02, 4.52424996e-02, 1.09326214e-01,
          0., 4.94136885e-02, 0., 1.11892700e-01, 1.11457907e-01, 0., 0.,
          0., 1.89186767e-01, 1.41730458e-01, 1.72527075e-01,
          2.25829720e-01, 1.34656012e-01, 9.25066024e-02, 0.,
          3.40101235e-02, 1.55361012e-01, 2.23314315e-01, 2.15360537e-01,
          2.09843442e-01, 5.46117574e-02, 1.28215164e-01, 1.64712444e-01,
          8.43415782e-02, 7.15012774e-02, 1.07712746e-01, 4.66689728e-02,
          8.39875862e-02, 1.93158135e-01, 1.31641328e-01, 1.25363544e-01,
          9.28046927e-02, 9.29837152e-02, 1.02474034e-01, 0.,
          1.03293844e-01, 3.10441226e-01, 1.54465348e-01, 2.32563838e-01,
          1.93028763e-01, 3.50573994e-02, 0., 2.64874157e-02, 0. ]
      - [ 2.04349324e-01, 2.75849521e-01, 1.06452599e-01, 1.29905418e-01,
          3.54384594e-02, 0., 0., 0., 1.23320810e-01, 1.64373711e-01,
          9.77827683e-02, 6.61807060e-02, 0., 0., 0., 0., 2.47414201e-01,
          2.59531625e-02, 2.52617672e-02, 6.32406250e-02, 0., 0.,
          1.04082622e-01, 1.86684117e-01, 2.58536905e-01, 8.68562087e-02,
          0., 1.26208112e-01, 6.78201020e-02, 1.12435803e-01,
          1.98905826e-01, 1.57063127e-01, 0., 0., 0., 0., 1.97762594e-01,
          2.20254555e-01, 1.94711387e-01, 1.49315864e-01, 1.44853266e-02,
          1.10610919e-02, 9.37050208e-02, 2.19765067e-01, 6.29470125e-02,
          9.23678428e-02, 1.01913564e-01, 1.36713997e-01, 1.45087376e-01,
          2.25403637e-01, 1.50019810e-01, 0., 0., 4.05183397e-02, 0.,
          1.12566091e-01, 2.27454349e-01, 1.98953032e-01, 1.10119529e-01,
          1.13532096e-01, 1.42474741e-01, 7.75669515e-02, 0.,
          1.19934037e-01 ]
      - [ 2.43282616e-01, 2.20638722e-01, 2.29733169e-01, 0., 0., 0., 0.,
          0., 2.28605837e-01, 9.68813226e-02, 0., 0., 0., 0., 0.,
          7.64228255e-02, 1.37028009e-01, 0., 0., 0., 7.02158287e-02,
          9.91991609e-02, 1.29791006e-01, 1.32666305e-01, 1.35718003e-01,
          0., 0., 2.33354680e-02, 2.85884123e-02, 1.94830686e-01,
          2.52000242e-01, 2.17255369e-01, 1.25049368e-01, 0.,
          6.66680560e-02, 1.38365045e-01, 1.38376221e-01, 1.47144899e-01,
          1.67077050e-01, 2.37035170e-01, 1.88810393e-01, 6.50664195e-02,
          7.54452571e-02, 8.69021192e-02, 1.05895653e-01, 0.,
          1.18165314e-01, 1.55613184e-01, 1.78397015e-01, 1.17418692e-01,
          1.15206949e-01, 1.15633160e-01, 7.52067864e-02, 0.,
          3.22968736e-02, 1.41390935e-01, 2.88986981e-01, 1.41657472e-01,
          1.48735419e-01, 1.40524149e-01, 1.56163886e-01, 0., 0., 0. ]
      - [ 1.19917460e-01, 2.38836870e-01, 2.44299531e-01, 1.11596800e-01,
          0., 0., 0., 0., 0., 1.74635381e-01, 1.63122073e-01,
          1.43984303e-01, 0., 0., 0., 0., 1.21669352e-01, 9.18400008e-03,
          2.57241298e-02, 0., 2.08013356e-01, 1.32081643e-01,
          8.30729380e-02, 0., 1.36584178e-01, 7.49457031e-02,
          3.22287194e-02, 3.98009904e-02, 2.39599988e-01, 1.23675056e-01,
          1.75456583e-01, 1.37637764e-01, 4.20023724e-02, 0., 0., 0.,
          2.47469291e-01, 1.55130520e-01, 1.89104363e-01, 1.90436438e-01,
          4.12800629e-03, 1.47271622e-02, 0., 1.88279390e-01,
          1.55388564e-01, 9.94130448e-02, 1.54740900e-01, 1.02799088e-01,
          1.55876279e-01, 1.16055422e-01, 1.19072586e-01, 2.12618634e-01,
          1.18274920e-01, 0., 4.90905438e-03, 1.17506631e-01,
          1.80562183e-01, 1.52772412e-01, 1.98061511e-01, 2.03041390e-01,
          1.35018706e-01, 0., 0., 5.64754456e-02 ]
      - [ 1.32106379e-01, 9.10281092e-02, 2.82872707e-01, 1.30982965e-01,
          0., 0., 0., 0., 8.40537921e-02, 7.74958879e-02, 1.66205138e-01,
          1.21830776e-01, 0., 0., 1.47629842e-01, 9.55643207e-02,
          1.84511587e-01, 2.76779011e-02, 0., 1.16447099e-01,
          1.15992509e-01, 8.08327720e-02, 1.00415424e-01, 5.89421950e-02,
          2.20558465e-01, 1.51969166e-02, 0., 1.20118842e-01,
          1.19517878e-01, 1.81362957e-01, 1.25493765e-01, 1.91810280e-01,
          4.68910038e-02, 0., 0., 1.62632331e-01, 1.60235956e-01,
          1.80902541e-01, 1.92852899e-01, 1.90223515e-01, 0.,
          1.49658090e-02, 1.45770073e-01, 1.94128409e-01, 0.,
          8.74407515e-02, 1.11422487e-01, 1.54227957e-01, 1.35550976e-01,
          1.10555485e-01, 1.83648095e-01, 1.69580773e-01, 2.90188566e-02,
          0., 0., 1.58164769e-01, 2.04245284e-01, 1.36610001e-01,
          1.62030026e-01, 2.43015140e-01, 0., 0., 9.33282170e-03,
          1.32430315e-01 ]
      - [ 2.62658805e-01, 1.40093550e-01, 1.65658757e-01, 1.62677586e-01,
          1.27029181e-01, 9.09327194e-02, 0., 0., 1.33180827e-01,
          2.17184067e-01, 1.59798563e-01, 9.12570581e-02, 0., 0., 0., 0.,
          1.08809851e-01, 0., 0., 1.18675649e-01, 1.59025073e-01,
          1.03504285e-01, 1.01612382e-01, 1.30810529e-01, 1.34531558e-01,
          0., 2.22578086e-02, 1.20951526e-01, 1.71402410e-01,
          1.93213627e-01, 1.85091838e-01, 1.62118837e-01, 9.88816172e-02,
          1.22237146e-01, 1.00145228e-01, 8.98984373e-02, 1.25145301e-01,
          1.66982755e-01, 2.00494915e-01, 1.81439683e-01, 4.41060588e-02,
          7.63624310e-02, 3.52963582e-02, 7.46332332e-02, 5.63237593e-02,
          1.60332128e-01, 6.29117787e-02, 1.64648578e-01, 0.,
          1.83236390e-01, 1.87452123e-01, 1.55622780e-01, 0., 0., 0., 0.,
          1.34173051e-01, 2.00771898e-01, 2.47855172e-01, 1.90695137e-01,
          3.73163223e-02, 0., 0., 0. ]
      - [ 1.90823317e-01, 2.04151914e-01, 1.98278010e-01, 1.68287039e-01,
          5.04325815e-02, 0., 0., 0., 1.18186712e-01, 1.81870282e-01,
          1.63469702e-01, 1.20861992e-01, 9.06021148e-03, 0.,
          8.62751342e-03, 9.39368643e-03, 0., 0., 0., 0., 9.07388180e-02,
          1.31024554e-01, 2.01156199e-01, 1.67338371e-01, 0., 0., 0., 0.,
          1.14395350e-01, 2.17362031e-01, 2.05631196e-01, 2.07038552e-01,
          9.04777870e-02, 1.09420337e-01, 8.38364288e-02, 1.64308593e-01,
          2.13668242e-01, 1.47567689e-01, 1.14323348e-01, 1.79103792e-01,
          5.20764962e-02, 7.98908100e-02, 8.70681256e-02, 1.63460940e-01,
          1.97692946e-01, 2.04150155e-02, 3.60545926e-02, 1.24436997e-01,
          1.59363538e-01, 1.10871777e-01, 1.24380425e-01, 8.36589858e-02,
          1.05917975e-01, 0., 2.33306456e-02, 2.12689981e-01,
          1.80838928e-01, 1.50345996e-01, 1.13401771e-01, 1.71974108e-01,
          1.22277178e-01, 4.37213816e-02, 6.33775592e-02, 1.46764338e-01 ]
      - [ 1.69637706e-02, 2.65786946e-01, 2.72083223e-01, 1.23989932e-01,
          0., 0., 0., 0., 0., 3.21922600e-02, 1.37204498e-01,
          1.22645587e-01, 0., 0., 0., 0., 1.34463280e-01, 1.76459644e-02,
          0., 0., 0., 1.97379082e-01, 9.98401567e-02, 1.06052510e-01,
          5.72347529e-02, 1.21379867e-01, 5.81590682e-02, 3.35341021e-02,
          1.45199940e-01, 3.03700984e-01, 1.70609310e-01, 1.34978294e-01,
          0., 2.13205703e-02, 0., 1.34376585e-01, 1.81475773e-01,
          2.25597590e-01, 1.70832649e-01, 2.25811988e-01, 5.97152766e-03,
          0., 3.92331555e-02, 1.61937356e-01, 8.88706669e-02,
          8.88327509e-02, 1.05756253e-01, 7.54771009e-02, 2.14906499e-01,
          1.20891429e-01, 1.03280939e-01, 6.95462450e-02, 1.34014398e-01,
          0., 0., 1.37493148e-01, 2.30030641e-01, 1.68033957e-01,
          1.76843062e-01, 2.36827850e-01, 1.34603530e-01, 0., 0.,
          1.60836093e-02 ]
      - [ 2.97915667e-01, 1.12484418e-01, 1.15328744e-01, 1.53072506e-01,
          1.12270124e-01, 2.49206591e-02, 4.15579751e-02, 6.38016462e-02,
          2.67114520e-01, 8.77902582e-02, 5.66491075e-02, 8.40648562e-02,
          0., 0., 0., 1.74451210e-02, 9.79117900e-02, 0., 0.,
          1.27978370e-01, 4.52218615e-02, 9.42262337e-02, 4.63411510e-02,
          2.24684104e-01, 1.05445564e-01, 0., 0., 0., 1.80311233e-01,
          1.38902783e-01, 2.21893594e-01, 2.04790697e-01, 1.25339881e-01,
          4.67454195e-02, 0., 0., 1.41377091e-01, 2.41486862e-01,
          1.49797052e-01, 1.83014959e-01, 1.31081298e-01, 0., 0., 0., 0.,
          1.79303765e-01, 1.78924412e-01, 1.35828450e-01, 0.,
          2.88153112e-01, 1.04322381e-01, 0., 0., 0., 0., 0.,
          1.26939520e-01, 3.15028787e-01, 1.63227692e-01, 1.47435263e-01,
          0., 0., 0., 0. ]
      - [ 2.12673903e-01, 2.47147501e-01, 1.16573662e-01, 1.64226606e-01,
          1.35519296e-01, 0., 9.65913758e-03, 8.64448491e-03,
          9.87930503e-03, 0., 9.09126624e-02, 0., 0., 0., 7.15977512e-03,
          1.66264340e-01, 1.84188426e-01, 1.70950443e-02, 0., 0.,
          1.17106438e-01, 1.05407603e-01, 8.71124417e-02, 1.15072437e-01,
          0., 1.66991904e-01, 9.20771509e-02, 1.92178845e-01,
          1.54751003e-01, 1.56621873e-01, 1.81741610e-01, 2.16625676e-01,
          0., 0., 0., 7.57054053e-03, 1.56352237e-01, 2.53068268e-01,
          2.92706490e-01, 1.28604114e-01, 0., 1.16244433e-02,
          4.26116027e-02, 1.34203389e-01, 0., 9.26981866e-02,
          6.22246452e-02, 0., 5.78677244e-02, 1.95237368e-01,
          9.71402451e-02, 1.15562543e-01, 8.51445552e-03, 0.,
          2.09460091e-02, 1.54794827e-01, 1.93508565e-01, 1.23065181e-01,
          2.30328277e-01, 2.84820586e-01, 7.58284181e-02, 0., 0.,
          1.11795768e-01 ]
      - [ 2.02715948e-01, 1.85827479e-01, 1.54661626e-01, 1.82401955e-01,
          1.33034497e-01, 0., 0., 3.92764471e-02, 1.20202728e-01,
          1.27893150e-01, 9.96211022e-02, 1.29692882e-01, 0., 0., 0.,
          1.96112506e-02, 1.24519646e-01, 6.22816160e-02, 0., 0., 0.,
          1.16825379e-01, 1.74700305e-01, 1.88246787e-01, 0., 0., 0., 0.,
          1.84562236e-01, 2.09708229e-01, 2.38384932e-01, 1.37918040e-01,
          0., 0., 1.57005236e-01, 1.22318268e-01, 1.67232350e-01,
          1.74547136e-01, 1.95533633e-01, 1.88841537e-01, 1.35312319e-01,
          0., 0., 0., 1.26602039e-01, 1.57743916e-01, 1.47847995e-01, 0.,
          1.72627494e-01, 1.73697621e-01, 1.25604093e-01, 1.14903972e-01,
          0., 0., 2.61148382e-02, 1.35380998e-01, 1.99821651e-01,
          1.91157401e-01, 1.92702651e-01, 2.10162535e-01, 1.35559663e-01,
          0., 0., 0. ]
      - [ 8.66894517e-03, 2.13565141e-01, 2.48345569e-01, 1.68213412e-01,
          8.46351907e-02, 0., 0., 0., 0., 2.12453499e-01, 1.11900941e-01,
          0., 8.45624879e-02, 7.80686364e-02, 6.93136081e-02,
          8.44210461e-02, 1.32846221e-01, 0., 0., 0., 1.44525036e-01,
          1.31682590e-01, 1.44059047e-01, 1.13354698e-01, 1.28876597e-01,
          8.65254328e-02, 0., 6.57554790e-02, 1.78419143e-01,
          2.05846757e-01, 2.08020672e-01, 1.31454229e-01, 8.78835991e-02,
          0., 5.06447032e-02, 0., 1.59093156e-01, 2.14145198e-01,
          2.19796807e-01, 1.37804106e-01, 0., 0., 1.15064092e-01,
          1.52779922e-01, 1.21834829e-01, 8.34443346e-02, 8.10163617e-02,
          1.58422038e-01, 6.07588477e-02, 1.06783710e-01, 1.36311293e-01,
          1.78071052e-01, 1.52872026e-01, 0., 0., 1.63790137e-01,
          1.12437077e-01, 1.56060338e-01, 1.37902662e-01, 2.85028905e-01,
          3.79461348e-02, 0., 4.65333164e-02, 1.62599772e-01 ]
      - [ 2.84867465e-01, 1.40706807e-01, 1.21216580e-01, 1.48213625e-01,
          1.21828966e-01, 0., 0., 0., 0., 1.93055391e-01, 0., 0.,
          3.73532362e-02, 0., 7.56776053e-03, 1.41733155e-01,
          1.92558050e-01, 1.07024293e-02, 0., 1.33890688e-01,
          5.30311167e-02, 9.55956727e-02, 0., 1.19468577e-01,
          1.88488111e-01, 1.40268296e-01, 0., 0., 1.44326255e-01,
          1.66722924e-01, 2.18573540e-01, 2.05079079e-01, 0., 0., 0., 0.,
          2.02776879e-01, 1.45277381e-01, 1.47169918e-01, 2.89012343e-01,
          3.47790904e-02, 7.42921308e-02, 1.06254980e-01, 8.18834081e-02,
          0., 1.12138882e-01, 0., 1.82475105e-01, 1.79694727e-01,
          2.07557887e-01, 9.84477028e-02, 6.70459419e-02, 0., 0., 0.,
          2.28978433e-02, 2.79794961e-01, 2.36302704e-01, 1.58936381e-01,
          1.56854197e-01, 4.06876020e-02, 0., 0., 0. ]
      - [ 1.02276072e-01, 2.33987167e-01, 3.07224989e-01, 0., 0., 0., 0.,
          0., 1.64335761e-02, 1.33865386e-01, 1.40372410e-01, 0., 0., 0.,
          0., 0., 1.35814413e-01, 2.38502193e-02, 0., 0., 1.49554834e-01,
          9.91077870e-02, 1.01260908e-01, 1.26672432e-01, 0.,
          1.46280840e-01, 0., 0., 1.84061840e-01, 2.89876908e-01,
          1.42083883e-01, 1.35728076e-01, 0., 0., 5.00085577e-02,
          1.84980422e-01, 1.35783240e-01, 9.57834125e-02, 3.01991254e-01,
          1.35009468e-01, 0., 0., 1.43110946e-01, 1.44328773e-01,
          5.75311370e-02, 1.23529375e-01, 1.16891697e-01, 1.31211564e-01,
          1.44864440e-01, 1.22311451e-01, 1.32950172e-01, 1.97210222e-01,
          3.03205047e-02, 0., 0., 1.36095032e-01, 1.94058582e-01,
          1.51051745e-01, 2.39230111e-01, 1.85054794e-01, 1.36622056e-01,
          0., 0., 0. ]
      - [ 2.04768315e-01, 3.45364630e-01, 1.33752093e-01, 9.55708176e-02,
          0., 0., 0., 0., 0., 4.30303849e-02, 8.93518403e-02, 0., 0., 0.,
          3.95743642e-03, 0., 1.49807081e-01, 1.69935320e-02, 0., 0.,
          1.13597579e-01, 4.15641367e-02, 1.14239149e-01, 9.17297900e-02,
          1.38172463e-01, 1.30198807e-01, 0., 1.72976516e-02,
          1.71667397e-01, 1.79697439e-01, 2.43360355e-01, 2.48734787e-01,
          0., 7.03742774e-03, 3.57478485e-02, 0., 1.45270884e-01,
          1.85099840e-01, 2.36035123e-01, 2.88087189e-01, 8.36895872e-03,
          2.85927262e-02, 0., 9.92150158e-02, 4.95991036e-02, 0.,
          7.78551847e-02, 4.03776653e-02, 0., 1.21247321e-01,
          1.55330271e-01, 6.46332726e-02, 0., 0., 3.82790677e-02,
          2.47976989e-01, 1.63370460e-01, 2.32881427e-01, 2.00652346e-01,
          1.76950604e-01, 1.37105152e-01, 0., 0., 1.74221218e-01 ]
      - [ 2.58969545e-01, 2.50418156e-01, 1.40837401e-01, 0., 0., 0., 0.,
          0., 1.89034641e-01, 6.57570437e-02, 0., 0., 0., 0., 0., 0.,
          1.83378264e-01, 2.03344300e-02, 0., 0., 0., 1.42917693e-01, 0.,
          1.26261041e-01, 2.26922885e-01, 0., 0., 0., 1.38465017e-01,
          1.64981797e-01, 2.03994244e-01, 2.10487708e-01, 8.98352340e-02,
          6.38289228e-02, 2.79660691e-02, 1.38526887e-01, 9.48089510e-02,
          1.84232652e-01, 1.60479799e-01, 2.18985856e-01, 1.84545398e-01,
          1.35995701e-01, 8.16470608e-02, 8.64807442e-02, 3.25523131e-02,
          0., 1.65359646e-01, 9.79407132e-02, 2.04125926e-01,
          1.33051932e-01, 1.21037222e-01, 1.43636420e-01, 1.40139505e-01,
          0., 5.36904298e-02, 1.68269530e-01, 1.92389026e-01,
          2.04533264e-01, 1.93843424e-01, 1.41665891e-01, 1.42267063e-01,
          0., 3.96896433e-03, 2.08733696e-02 ]
      - [ 1.78542227e-01, 1.48414642e-01, 2.50470817e-01, 2.04395339e-01,
          0., 0., 0., 1.50423432e-02, 0., 5.14599271e-02, 2.44376183e-01,
          0., 0., 0., 2.23180335e-02, 0., 1.22486390e-01, 0., 0., 0.,
          2.14622959e-01, 1.05087407e-01, 9.75490138e-02, 7.03940019e-02,
          1.11013129e-01, 7.35050440e-02, 0., 0., 2.53036797e-01,
          1.86544076e-01, 1.76477522e-01, 1.44854456e-01, 0., 0.,
          1.40040621e-01, 1.30785033e-01, 1.05207264e-01, 1.56272605e-01,
          2.58690506e-01, 1.75228298e-01, 0., 1.68467425e-02,
          3.84799466e-02, 1.80007562e-01, 1.26472920e-01, 8.79132599e-02,
          1.12749010e-01, 1.20926425e-01, 1.68203339e-01, 6.90485165e-02,
          9.75561440e-02, 2.25004107e-01, 1.13928029e-02, 0., 0.,
          1.60655051e-01, 1.45437956e-01, 1.45519853e-01, 1.94200158e-01,
          2.59921759e-01, 1.13928029e-02, 0., 3.60011049e-02, 0. ]
      - [ 1.74993023e-01, 2.49538437e-01, 1.55123070e-01, 1.28508106e-01,
          0., 4.05213684e-02, 0., 1.08005844e-01, 1.62664950e-01,
          9.05702040e-02, 8.43104944e-02, 7.78310969e-02, 8.71550441e-02,
          9.09379348e-02, 6.61339760e-02, 4.90535945e-02, 1.30232573e-01,
          0., 0., 0., 4.93318662e-02, 1.45004407e-01, 1.96609408e-01,
          1.79870069e-01, 0., 0., 0., 0., 1.32349253e-01, 2.54243970e-01,
          1.33395284e-01, 2.23972425e-01, 0., 0., 0., 0., 1.25105366e-01,
          2.05185473e-01, 3.00829947e-01, 1.36358470e-01, 0., 0., 0., 0.,
          0., 9.00028720e-02, 2.67723620e-01, 0., 0., 1.30474344e-01,
          9.25427377e-02, 0., 1.76299617e-01, 6.74643219e-02,
          3.48290093e-02, 1.60112783e-01, 1.49843872e-01, 1.86898842e-01,
          1.71136439e-01, 2.18919426e-01, 0., 2.57463902e-02,
          9.37715098e-02, 2.06059828e-01 ]
      - [ 2.41053373e-01, 3.08246702e-01, 9.36364532e-02, 0., 0., 0., 0.,
          0., 0., 0., 0., 0., 0., 2.07109198e-01, 1.23431087e-01,
          1.47765175e-01, 1.45942077e-01, 1.21671222e-01, 1.93955287e-01,
          1.84430435e-01, 0., 0., 0., 0., 0., 0., 0., 0., 2.62656242e-01,
          1.29113019e-01, 6.77355081e-02, 2.23803073e-01, 5.63796088e-02,
          0., 0., 0., 1.52663618e-01, 7.55476952e-02, 1.49572581e-01,
          3.38943839e-01, 2.48966455e-01, 0., 5.57046048e-02, 0., 0., 0.,
          0., 0., 0., 9.19469893e-02, 8.69385824e-02, 0., 0.,
          1.16119049e-01, 1.90497443e-01, 2.65944064e-01, 1.08685784e-01,
          1.21884033e-01, 1.82328388e-01, 2.42973134e-01, 0., 0., 0.,
          1.41705945e-01 ]
      - [ 2.76028097e-01, 2.21181750e-01, 1.31240219e-01, 5.90189137e-02,
          0., 0., 0., 0., 0., 0., 0., 0., 0., 0., 2.09806323e-01,
          1.90462098e-01, 3.54347944e-01, 1.14305355e-01, 0., 0., 0., 0.,
          0., 0., 0., 0., 0., 0., 0., 1.68261081e-01, 1.74449012e-01,
          2.25219652e-01, 5.69650009e-02, 0., 0., 0., 1.41186491e-01,
          1.42928690e-01, 1.21362217e-01, 3.11552614e-01, 2.63005465e-01,
          2.52051335e-02, 8.44979361e-02, 0., 0., 0., 0., 5.82609586e-02,
          0., 0., 0., 0., 0., 1.46375969e-01, 2.06818402e-01,
          2.13505909e-01, 3.22005153e-01, 1.20545633e-01, 1.45437345e-01,
          1.02270491e-01, 1.74447671e-01, 0., 0., 0. ]
      - [ 1.80516988e-01, 2.11026207e-01, 1.57218173e-01, 0., 0., 0., 0.,
          0., 0., 0., 0., 0., 0., 1.45390764e-01, 1.36607260e-01,
          2.20582142e-01, 3.67585808e-01, 1.03008077e-02, 0., 0., 0., 0.,
          0., 0., 0., 0., 0., 0., 0., 1.54620543e-01, 8.63301679e-02,
          2.34916553e-01, 5.65730035e-02, 0., 9.97511446e-02,
          1.42290041e-01, 5.61127178e-02, 1.03211619e-01, 2.55153567e-01,
          2.61217356e-01, 2.63715386e-01, 1.47900106e-02, 0., 0., 0., 0.,
          8.11541006e-02, 1.41548738e-01, 1.09615937e-01, 0.,
          3.02628856e-02, 0., 0., 0., 0., 0., 4.67740655e-01,
          9.01747644e-02, 1.33541495e-01, 1.12347350e-01, 1.57882571e-01,
          0., 0., 1.25643313e-01 ]
      - [ 3.91747504e-01, 1.40467733e-01, 9.80122834e-02, 3.85518000e-02,
          0., 0., 0., 0., 0., 0., 0., 0., 0., 0., 1.02699976e-02,
          1.77583992e-01, 3.62025976e-01, 2.20745821e-02, 0., 0., 0., 0.,
          0., 0., 0., 0., 0., 0., 0., 1.77615732e-01, 1.83012962e-01,
          2.29040518e-01, 0., 0., 5.40037081e-02, 1.13209054e-01,
          1.15667999e-01, 1.14757255e-01, 1.57192662e-01, 1.98907107e-01,
          3.75201613e-01, 2.78480239e-02, 0., 0., 0., 0., 0., 0., 0., 0.,
          0., 0., 0., 6.05790913e-02, 2.13693574e-01, 3.05739224e-01,
          1.82912424e-01, 2.53830731e-01, 1.06660515e-01, 1.47596136e-01,
          1.14244945e-01, 0., 0., 0. ]
      - [ 2.89055765e-01, 1.38451338e-01, 2.53485870e-02, 1.01498798e-01,
          0., 0., 0., 0., 0., 0., 0., 0., 0., 0., 0., 3.21496665e-01,
          4.00587618e-01, 1.82499960e-02, 3.09283528e-02, 0.,
          3.93234715e-02, 2.87579559e-02, 1.51849147e-02, 3.74206975e-02,
          0., 2.25604139e-02, 3.12236194e-02, 1.82499960e-02,
          1.33333609e-01, 9.66636315e-02, 1.75690830e-01, 1.89400718e-01,
          5.77115528e-02, 2.94950008e-02, 0., 0., 9.96078700e-02,
          1.44053504e-01, 1.75417468e-01, 4.18556571e-01, 0., 0., 0., 0.,
          0., 0., 0., 5.35545275e-02, 4.77935411e-02, 0., 0., 0., 0.,
          2.48931609e-02, 0., 3.63676623e-02, 4.52260494e-01,
          1.46392256e-01, 1.14084497e-01, 1.77593440e-01, 4.78040613e-02,
          0., 0., 2.81231739e-02 ]
      - [ 3.35178673e-01, 1.15220413e-01, 5.20629287e-02, 0., 0., 0., 0.,
          0., 0., 0., 0., 0., 0., 0., 1.76949147e-02, 1.97369009e-01,
          1.78013220e-01, 0., 0., 0., 0., 0., 0., 0., 0., 0., 0., 0., 0.,
          4.77120243e-02, 1.73508167e-01, 3.80793482e-01, 1.73282385e-01,
          9.94627699e-02, 1.02616042e-01, 1.30069569e-01, 0.,
          1.25325575e-01, 1.52234390e-01, 4.18963075e-01, 1.31727979e-01,
          0., 0., 0., 0., 0., 0., 1.06503785e-01, 6.47457838e-02, 0., 0.,
          0., 0., 0., 0., 2.55883873e-01, 3.85821193e-01, 1.48701966e-01,
          1.17181905e-01, 6.90879002e-02, 1.30101725e-01, 1.23176396e-01,
          1.06048115e-01, 1.01801738e-01 ]
      - [ 3.20699781e-01, 1.21691272e-01, 1.23430736e-01, 3.64428870e-02,
          1.41900912e-01, 3.26704346e-02, 0., 0., 0., 0., 0., 0., 0., 0.,
          1.88151170e-02, 2.85878986e-01, 3.70531648e-01, 3.49037349e-02,
          0., 0., 0., 0., 0., 0., 0., 0., 0., 0., 1.16414234e-01,
          1.58281401e-01, 2.46979505e-01, 1.85069025e-01, 0., 0., 0., 0.,
          0., 1.49343252e-01, 2.30920419e-01, 3.80791366e-01, 0., 0., 0.,
          0., 0., 0., 0., 0., 0., 0., 0., 0., 0., 0., 0., 4.25845273e-02,
          4.55911100e-01, 1.36075333e-01, 1.54157981e-01, 1.25738084e-01,
          4.17066365e-02, 0., 0., 0. ]
      - [ 3.00651580e-01, 1.41558453e-01, 9.50143710e-02, 0., 0., 0., 0.,
          0., 0., 0., 0., 0., 0., 0., 7.05006048e-02, 2.13684738e-01,
          3.08091253e-01, 0., 0., 0., 0., 0., 0., 0., 0., 0., 0., 0., 0.,
          3.16278450e-02, 1.17891490e-01, 3.15964609e-01, 1.35611758e-01,
          0., 7.80532584e-02, 0., 1.54195383e-01, 0., 2.39974335e-01,
          2.61317044e-01, 3.16927433e-01, 2.58488283e-02, 0., 0., 0., 0.,
          0., 1.95703536e-01, 0., 3.50497663e-02, 0., 0., 0., 0.,
          2.49131508e-02, 3.74453396e-01, 2.67295271e-01, 1.65078223e-01,
          1.25198990e-01, 0., 1.27174109e-01, 1.32029489e-01, 0.,
          1.29118234e-01 ]
      - [ 3.31934154e-01, 8.71030167e-02, 1.21911936e-01, 6.30464032e-02,
          0., 0., 0., 0., 0., 0., 0., 0., 0., 0., 3.48461084e-02,
          2.39935279e-01, 3.31302315e-01, 0., 0., 0., 0., 0., 0., 0., 0.,
          0., 0., 0., 7.93421268e-02, 1.21497512e-01, 7.98160955e-02,
          3.04851502e-01, 1.71440572e-01, 0., 0., 0., 1.41403139e-01,
          1.17466487e-01, 1.77033067e-01, 3.69695246e-01, 1.92181364e-01,
          0., 0., 0., 0., 0., 0., 0., 9.33854505e-02, 0., 0., 0., 0., 0.,
          0., 0., 4.74463075e-01, 1.36216775e-01, 7.46449828e-02,
          1.77307770e-01, 0., 4.71359044e-02, 0., 1.21375971e-01 ]
      - [ 3.85856748e-01, 1.44318551e-01, 1.06601804e-01, 4.13546674e-02,
          0., 0., 0., 0., 0., 0., 0., 0., 0., 0., 2.34102849e-02,
          1.72078937e-01, 3.31048548e-01, 1.30190626e-02, 0., 0., 0., 0.,
          0., 0., 0., 0., 0., 0., 0., 1.62792429e-01, 1.77336365e-01,
          2.15000451e-01, 0., 3.64374556e-02, 0., 1.65857181e-01,
          1.22275800e-01, 8.76688510e-02, 1.68082684e-01, 1.10310622e-01,
          4.13363099e-01, 3.06438170e-02, 0., 0., 0., 0., 0.,
          8.87539610e-02, 0., 0., 0., 0., 0., 1.62516117e-01,
          1.74591094e-01, 2.53415197e-01, 2.82970458e-01, 1.67554006e-01,
          1.02348395e-01, 1.68602899e-01, 3.48690599e-02, 1.73641056e-01,
          0., 4.48116437e-02 ]
      - [ 2.69309968e-01, 1.23884127e-01, 1.22898586e-01, 0., 0., 0., 0.,
          0., 0., 0., 0., 0., 0., 0., 6.80054575e-02, 2.31712952e-01,
          2.98818350e-01, 5.12737930e-02, 0., 0., 0., 0., 0., 0., 0., 0.,
          0., 0., 0., 8.91930163e-02, 1.60180479e-01, 3.00479740e-01,
          2.04692081e-01, 0., 0., 1.63705975e-01, 3.63942273e-02,
          1.08579263e-01, 1.81970581e-01, 2.98392564e-01, 3.01667809e-01,
          2.48149727e-02, 0., 0., 0., 0., 0., 1.41396061e-01, 0., 0., 0.,
          0., 0., 1.25534549e-01, 2.50022858e-01, 1.80007964e-01,
          3.11912477e-01, 1.25433654e-01, 1.30126148e-01, 1.76643834e-01,
          1.18047073e-01, 1.34004742e-01, 0., 5.98488189e-02 ]
      - [ 2.99358159e-01, 1.60685822e-01, 1.49446845e-01, 8.95148143e-02,
          0., 0., 0., 0., 0., 0., 0., 0., 0., 0., 1.70874447e-02,
          2.64363408e-01, 1.16257869e-01, 1.12101823e-01, 7.94422030e-02,
          1.83598042e-01, 0., 0., 0., 0., 0., 0., 0., 0., 0.,
          1.49345249e-01, 3.61143082e-01, 1.89742908e-01, 0., 0.,
          3.12004853e-02, 0., 1.86843678e-01, 1.61267340e-01,
          1.61387175e-01, 2.91316003e-01, 2.58065671e-01, 3.75393555e-02,
          0., 0., 0., 0., 0., 0., 6.48406371e-02, 0., 0., 0.,
          9.01831090e-02, 1.25019461e-01, 1.23660155e-01, 2.25457281e-01,
          2.98219651e-01, 1.81967869e-01, 1.51819348e-01, 8.99584815e-02,
          2.02772290e-01, 0., 0., 0. ]
      - [ 2.67514735e-01, 1.36887759e-01, 1.62284151e-01, 1.20442867e-01,
          4.30761650e-02, 0., 0., 0., 0., 0., 0., 0., 0., 0.,
          1.08194418e-01, 3.19162071e-01, 3.54282260e-01, 2.33587399e-02,
          0., 0., 0., 0., 0., 0., 0., 0., 0., 0., 1.31000683e-01,
          1.75979525e-01, 1.26456112e-01, 2.56103516e-01, 0., 0., 0., 0.,
          1.17355041e-01, 1.66011542e-01, 1.53846219e-01, 2.59934247e-01,
          2.79998779e-01, 1.91007540e-01, 0., 0., 0., 0., 0., 0., 0., 0.,
          0., 0., 0., 0., 2.03786287e-02, 3.94318312e-01, 1.84979290e-01,
          1.33069605e-01, 1.60730109e-01, 1.28631741e-01, 0., 0., 0., 0. ]
      - [ 1.92954153e-01, 1.28305212e-01, 1.39340326e-01, 1.92816436e-01,
          0., 0., 0., 0., 0., 0., 0., 0., 0., 1.96358636e-01,
          1.56565487e-01, 1.70942143e-01, 3.83295923e-01, 3.48544903e-02,
          0., 0., 0., 0., 0., 0., 0., 0., 0., 0., 1.33084044e-01,
          5.65663502e-02, 1.54600352e-01, 1.28897056e-01, 1.60493866e-01,
          0., 0., 1.73662320e-01, 1.17987894e-01, 1.49894387e-01,
