%YAML:1.0
my_svm: !!opencv-ml-svm
   svm_type: C_SVC
   kernel: { type:RBF, gamma:5.3830000000000000e+00 }
   C: 2.6699999999999999e+00
   term_criteria: { epsilon:1.1920928955078125e-07, iterations:1000 }
   var_all: 64
   var_count: 64
   class_count: 10
   class_labels: !!opencv-matrix
      rows: 1
      cols: 10
      dt: i
      data: [ 0, 1, 2, 3, 4, 5, 6, 7, 8, 9 ]
   sv_total: 230
   support_vectors:
      - [ 7.39658475e-02, 1.60084501e-01, 2.70327151e-01, 1.73054948e-01,
          0., 0., 0., 0., 3.75689641e-02, 9.99243334e-02, 1.01436608e-01,
          4.24310490e-02, 0., 0., 1.16048388e-01, 1.58701181e-01,
          1.89366221e-01, 2.13720202e-02, 0., 5.42435944e-02,
          1.51907176e-01, 1.07401893e-01, 8.91857967e-02, 5.06556146e-02,
          1.30615711e-01, 2.00369313e-01, 0., 0., 1.84904397e-01,
          2.36774698e-01, 1.38465434e-01, 1.89977810e-01, 0.,
          2.11188514e-02, 0., 1.34735644e-01, 1.70930907e-01,
          2.23958150e-01, 1.92289159e-01, 1.33166716e-01, 1.67233676e-01,
          1.00537099e-01, 0., 0., 8.75978172e-02, 1.14727952e-01,
          7.29644969e-02, 1.70490425e-02, 1.41888842e-01, 1.35893658e-01,
          8.65959600e-02, 1.33390516e-01, 4.08313647e-02, 0.,
          4.22054492e-02, 1.87206060e-01, 1.63883194e-01, 2.11047530e-01,
          2.17614189e-01, 1.56616628e-01, 1.31435081e-01, 9.81545225e-02,
          9.52212960e-02, 1.33301750e-01 ]
      - [ 1.04518607e-01, 2.21633226e-01, 1.86080515e-01, 2.14828849e-01,
          0., 0., 0., 0., 5.93312159e-02, 1.17717013e-01, 1.44906461e-01,
          1.51798174e-01, 9.25896093e-02, 2.57170089e-02, 0.,
          9.82963387e-03, 1.11276515e-01, 0., 0., 0., 1.20408811e-01,
          1.06927529e-01, 1.07696474e-01, 1.80852652e-01, 1.84467629e-01,
          4.84985746e-02, 0., 1.35101438e-01, 1.56792030e-01,
          1.38357565e-01, 1.51528999e-01, 2.45595947e-01, 0., 0., 0., 0.,
          2.51039386e-01, 1.71746075e-01, 2.38483191e-01, 6.87108338e-02,
          0., 0., 0., 1.74952239e-01, 1.29577577e-01, 1.22953847e-01,
          1.63200855e-01, 2.58020703e-02, 1.32964209e-01, 2.01482788e-01,
          1.09984733e-01, 1.17415614e-01, 9.40046012e-02, 0., 0.,
          1.77395657e-01, 1.25891969e-01, 2.11427107e-01, 1.45252228e-01,
          1.73815534e-01, 1.45335346e-01, 3.58989984e-02, 1.19177744e-01,
          8.54504779e-02 ]
      - [ 1.38645336e-01, 2.49876827e-01, 1.34261027e-01, 1.48984537e-01,
          0., 0., 0., 0., 0., 1.95289746e-01, 4.59415913e-02, 0., 0., 0.,
          0., 1.90098986e-01, 1.89970240e-01, 3.46826017e-02, 0., 0.,
          1.52172372e-01, 9.51969549e-02, 8.14712718e-02, 1.16287157e-01,
          1.99227631e-01, 9.19428840e-02, 0., 2.52730455e-02,
          1.79844126e-01, 1.66976228e-01, 1.62388444e-01, 2.11305916e-01,
          4.96734381e-02, 0., 3.20319608e-02, 1.18176758e-01,
          1.88214809e-01, 1.19859017e-01, 1.36345312e-01, 2.53728360e-01,
          8.65580961e-02, 1.68368414e-01, 1.05479650e-01, 5.91072030e-02,
          5.91823235e-02, 0., 6.99541271e-02, 1.80616871e-01,
          1.23196967e-01, 1.31799415e-01, 1.35745391e-01, 1.49643943e-01,
          0., 0., 0., 1.74258485e-01, 1.88237593e-01, 2.39105120e-01,
          1.60231039e-01, 1.30493939e-01, 1.40048385e-01, 0.,
          6.35527596e-02, 1.66249722e-01 ]
      - [ 2.02577367e-01, 1.94749951e-01, 1.28112182e-01, 1.13519154e-01,
          1.66333646e-01, 0., 5.17501496e-02, 8.48492384e-02,
          1.70751676e-01, 1.43817782e-01, 0., 0., 1.59595490e-01,
          9.92902145e-02, 6.56258538e-02, 0., 2.10179806e-01,
          2.57387254e-02, 0., 0., 1.25539809e-01, 9.62328091e-02,
          1.25686571e-01, 2.01158777e-01, 1.41469851e-01, 1.38301030e-02,
          0., 3.66524681e-02, 1.57741755e-01, 1.60809457e-01,
          1.60423651e-01, 1.76955998e-01, 7.10792094e-02, 0., 0., 0.,
          1.17192797e-01, 2.11080834e-01, 2.08006382e-01, 2.06258371e-01,
          0., 6.37809411e-02, 0., 0., 7.09540844e-02, 1.32002413e-01,
          2.08641648e-01, 1.52564943e-01, 2.09918872e-01, 1.81784660e-01,
          8.78089443e-02, 1.53728396e-01, 0., 0., 0., 1.32842019e-01,
          2.12311447e-01, 1.72216758e-01, 1.96677506e-01, 1.65079117e-01,
          0., 0., 0., 0. ]
      - [ 2.39823326e-01, 1.72485948e-01, 2.11610764e-01, 1.52326882e-01,
          0., 4.98575605e-02, 3.53886001e-02, 0., 1.87096402e-01,
          2.15005144e-01, 1.34026438e-01, 9.44182053e-02, 0., 0., 0.,
          5.34036122e-02, 0., 0., 0., 1.12154499e-01, 9.75972936e-02,
          1.56131461e-01, 1.25653967e-01, 1.30906984e-01, 1.54149339e-01,
          0., 0., 1.12370439e-01, 1.18330345e-01, 1.82122037e-01,
          2.31108218e-01, 1.90225169e-01, 1.41494676e-01, 5.70676550e-02,
          8.48164186e-02, 5.03779836e-02, 1.03895359e-01, 1.41931653e-01,
          1.44908056e-01, 2.03294054e-01, 1.41170219e-01, 5.43828718e-02,
          8.22893456e-02, 9.54226255e-02, 0., 0., 9.95138586e-02,
          2.08800584e-01, 1.34553134e-01, 1.91872761e-01, 2.03117535e-01,
          9.39121544e-02, 0., 0., 5.29307760e-02, 0., 1.68019280e-01,
          1.78696454e-01, 2.48670921e-01, 1.70483902e-01, 0., 0.,
          9.27426293e-03, 0. ]
      - [ 2.24365324e-01, 2.83451974e-01, 1.37374133e-01, 0., 0., 0., 0.,
          0., 1.27536118e-01, 1.24830112e-01, 1.02045439e-01,
          5.42339571e-02, 0., 0., 0., 2.36992557e-02, 2.22875983e-01,
          3.56685258e-02, 0., 0., 1.29380524e-01, 7.14547262e-02,
          9.84632298e-02, 9.11842957e-02, 2.55901575e-01, 0., 0., 0.,
          1.86467245e-01, 1.29467130e-01, 1.65238768e-01, 1.91199824e-01,
          6.35469034e-02, 0., 3.22044082e-02, 1.38965949e-01,
          8.88288096e-02, 1.30708113e-01, 2.81582624e-01, 1.12987988e-01,
          1.96253538e-01, 0., 3.19864042e-02, 9.43773836e-02,
          1.33720472e-01, 9.68589187e-02, 1.03979059e-01, 9.59186777e-02,
          1.59013346e-01, 1.63681567e-01, 1.31001800e-01, 1.34021178e-01,
          0., 0., 4.01126482e-02, 1.70413211e-01, 1.99111477e-01,
          1.84397027e-01, 1.99284375e-01, 1.77150398e-01, 7.70713463e-02,
          0., 3.76787148e-02, 1.60961479e-01 ]
      - [ 2.18120962e-01, 1.73921928e-01, 1.43655851e-01, 1.51149005e-01,
          0., 0., 0., 1.61371127e-01, 1.07842520e-01, 1.58385023e-01, 0.,
          9.10889208e-02, 7.08579123e-02, 0., 0., 1.16920665e-01,
          1.62103459e-01, 1.23661809e-01, 0., 1.31428853e-01,
          6.64178953e-02, 1.29804939e-01, 1.13209762e-01, 1.40692756e-01,
          1.35340303e-01, 1.21491015e-01, 3.81462388e-02, 1.28045037e-01,
          1.48458391e-01, 1.58943757e-01, 1.78123280e-01, 1.62340373e-01,
          0., 0., 0., 0., 1.28925756e-01, 1.62614182e-01, 2.91920215e-01,
          1.46356136e-01, 0., 2.87377089e-02, 0., 0., 6.47177398e-02,
          1.41747594e-01, 2.25718632e-01, 1.13606870e-01, 1.24992274e-01,
          1.19553663e-01, 9.82726067e-02, 1.94574729e-01, 3.04787252e-02,
          0., 0., 1.72314882e-01, 1.85890585e-01, 1.39535636e-01,
          2.07717732e-01, 2.08110854e-01, 0., 0., 3.81103382e-02,
          1.76817641e-01 ]
      - [ 2.71163762e-01, 1.36147350e-01, 1.84750989e-01, 1.36802673e-01,
          4.68338393e-02, 0., 0., 0., 1.99762627e-01, 9.07775983e-02,
          1.25461325e-01, 0., 0., 5.48799671e-02, 0., 1.39528990e-01,
          2.28661433e-01, 1.90583244e-02, 0., 0., 1.20025642e-01,
          9.13282111e-02, 0., 1.17837615e-01, 2.60930836e-01, 0., 0.,
          1.42446652e-01, 1.39809012e-01, 1.15940750e-01, 1.16422787e-01,
          2.21343622e-01, 0., 0., 0., 0., 9.09501389e-02, 2.12845936e-01,
          2.84599870e-01, 1.51121125e-01, 6.16421774e-02, 4.38111201e-02,
          0., 1.31360544e-02, 1.01855412e-01, 1.71201110e-01,
          1.64983422e-01, 1.00127630e-01, 1.54622048e-01, 1.84041798e-01,
          1.30676270e-01, 9.15892795e-02, 0., 0., 1.02926716e-02,
          1.45270359e-02, 2.23672107e-01, 2.19581142e-01, 1.54749155e-01,
          1.75067827e-01, 2.89103966e-02, 0., 1.16707925e-02,
          1.25406191e-01 ]
      - [ 1.93324253e-01, 2.16453418e-01, 1.53889254e-01, 5.32931127e-02,
          1.33683518e-01, 0., 0., 0., 1.94581702e-01, 1.18217960e-01,
          8.73427391e-02, 6.15871288e-02, 0., 0., 0., 1.29195079e-01,
          1.40421197e-01, 3.61487782e-03, 2.43947189e-02, 0., 0.,
          8.71271938e-02, 1.34577751e-01, 2.15565965e-01, 1.27631247e-01,
          0., 0., 0., 1.27050281e-01, 1.94395214e-01, 1.06045343e-01,
          2.76158392e-01, 1.81946591e-01, 9.56406817e-03, 0., 0.,
          2.50407070e-01, 1.15246512e-01, 1.78639084e-01, 1.98503569e-01,
          9.07484889e-02, 3.43705192e-02, 0., 1.93085536e-01,
          9.19777229e-02, 1.01810053e-01, 0., 8.86891782e-02,
          2.14499757e-01, 1.32693857e-01, 1.65114716e-01, 1.29189417e-01,
          0., 3.24154869e-02, 1.23672681e-02, 1.26779675e-01,
          2.47121975e-01, 1.94007173e-01, 1.58889040e-01, 1.96250558e-01,
          0., 0., 0., 0. ]
      - [ 1.63073644e-01, 2.09335923e-01, 1.17615618e-01, 1.64239362e-01,
          1.68790355e-01, 0., 6.59703463e-02, 8.79558921e-02,
          9.20312703e-02, 1.75823182e-01, 6.70733675e-02, 8.04584995e-02,
          1.65256247e-01, 0., 7.75911659e-02, 7.40067586e-02,
          1.29460633e-01, 0., 0., 1.26876846e-01, 1.83081374e-01,
          8.51850212e-02, 7.14637861e-02, 8.73445943e-02, 1.49877310e-01,
          1.00215264e-01, 0., 1.67218000e-01, 1.70309618e-01,
          1.86956376e-01, 8.14633071e-02, 2.00923771e-01, 0., 0., 0., 0.,
          1.97023109e-01, 2.63034344e-01, 1.51016980e-01, 1.24687262e-01,
          0., 0., 0., 0., 1.58664703e-01, 1.96229726e-01, 1.79666266e-01,
          0., 1.24863401e-01, 3.84471714e-02, 1.78376675e-01,
          2.32108355e-01, 2.08234191e-02, 0., 0., 8.85692388e-02,
          1.48792669e-01, 1.12706229e-01, 2.33729780e-01, 2.40769714e-01,
          2.08234191e-02, 0., 0., 0. ]
      - [ 2.26288334e-01, 2.58852035e-01, 1.42833471e-01, 1.45257100e-01,
          0., 0., 0., 0., 1.51163504e-01, 9.84472856e-02, 1.20140210e-01,
          1.18857794e-01, 0., 0., 3.15506794e-02, 7.50251636e-02, 0., 0.,
          0., 4.97158729e-02, 1.10130668e-01, 1.34561732e-01,
          1.10256180e-01, 1.22198552e-01, 1.81425229e-01, 8.02560672e-02,
          0., 1.22333765e-01, 0., 1.52944252e-01, 2.30663300e-01,
          2.63854712e-01, 0., 0., 0., 0., 1.14442758e-01, 2.48390168e-01,
          2.67412603e-01, 1.51286989e-01, 2.05847919e-02, 0., 0.,
          3.63201536e-02, 1.77422792e-01, 1.75510317e-01, 1.32838398e-01,
          0., 1.51733622e-01, 1.49851516e-01, 1.66901857e-01,
          8.95734280e-02, 0., 0., 1.91500764e-02, 1.41102791e-01,
          1.88365862e-01, 2.13695973e-01, 1.95600286e-01, 1.40917271e-01,
          8.11376199e-02, 0., 3.46691236e-02, 1.12593099e-01 ]
      - [ 1.62545115e-01, 2.60655820e-01, 2.30333656e-01, 0., 0., 0., 0.,
          0., 1.49825305e-01, 1.17542751e-01, 1.50266618e-01, 0., 0.,
          4.92952242e-02, 0., 0., 1.52294978e-01, 2.18152571e-02,
          3.62582877e-02, 1.59671232e-01, 9.91572216e-02, 7.74754733e-02,
          4.99844030e-02, 8.68330449e-02, 1.82948530e-01, 1.11196898e-01,
          6.25972599e-02, 5.89677207e-02, 1.69645190e-01, 1.73838541e-01,
          1.99332193e-01, 1.62732467e-01, 0., 7.74092749e-02,
          1.33307472e-01, 1.42764479e-01, 9.60650668e-02, 1.26666993e-01,
          1.62898615e-01, 2.18319237e-01, 1.10841215e-01, 1.18590415e-01,
          1.39622808e-01, 1.34886622e-01, 9.52907130e-02, 6.94810748e-02,
          7.64747113e-02, 1.46009922e-01, 1.56565085e-01, 1.31575808e-01,
          1.81761399e-01, 1.85157984e-01, 0., 0., 8.18651840e-02,
          1.40108436e-01, 1.35477290e-01, 1.98427081e-01, 2.21545160e-01,
          2.13294268e-01, 0., 0., 0., 0. ]
      - [ 1.80323124e-01, 2.89703101e-01, 1.14494674e-01, 8.25341046e-02,
          1.22728385e-01, 5.82062230e-02, 0., 2.88862530e-02,
          1.51428968e-01, 1.36989206e-01, 7.07772970e-02, 1.21919647e-01,
          0., 0., 0., 0., 1.40613452e-01, 6.75998330e-02, 0.,
          1.29173651e-01, 1.19356729e-01, 8.41963440e-02, 1.03281662e-01,
          1.12159379e-01, 1.82728738e-01, 1.76925249e-02, 0.,
          1.25006571e-01, 1.27509505e-01, 1.75342396e-01, 2.29108945e-01,
          1.60219014e-01, 0., 0., 0., 0., 3.79013009e-02, 3.18090320e-01,
          2.14467287e-01, 1.23680219e-01, 0., 0., 0., 0., 4.17975597e-02,
          2.58229584e-01, 8.94362181e-02, 7.99602121e-02, 1.29656509e-01,
          1.44905612e-01, 2.18684405e-01, 1.02314338e-01, 2.45643053e-02,
          0., 0., 1.27754033e-01, 1.25414893e-01, 1.75920665e-01,
          3.14081818e-01, 1.32444173e-01, 7.26249162e-03, 0., 0., 0. ]
      - [ 3.73492956e-01, 7.75712878e-02, 1.22851737e-01, 1.04563363e-01,
          0., 0., 0., 0., 0., 0., 0., 0., 0., 0., 0., 2.35251859e-01,
          2.42210343e-01, 1.45112593e-02, 0., 0., 0., 0., 0., 0., 0., 0.,
          0., 0., 3.76134180e-02, 1.16002880e-01, 1.55995384e-01,
          4.19100434e-01, 0., 0., 0., 0., 0., 1.76164955e-01,
          1.02573179e-01, 3.93357456e-01, 1.65285870e-01, 1.32469069e-02,
          0., 0., 0., 0., 0., 0., 0., 0., 0., 0., 0., 0., 0.,
          2.39499807e-01, 4.22699213e-01, 8.85080472e-02, 1.30610183e-01,
          1.21163525e-01, 0., 0., 0., 0. ]
      - [ 2.87002146e-01, 1.24784291e-01, 1.19341902e-01, 6.39419258e-02,
          0., 0., 0., 0., 0., 0., 0., 0., 0., 0., 3.70410644e-02,
          2.76259452e-01, 3.24225307e-01, 3.15865986e-02, 0., 0., 0., 0.,
          0., 0., 0., 0., 0., 0., 0., 7.54017904e-02, 1.62518665e-01,
          2.91128427e-01, 0., 9.44065899e-02, 9.34616551e-02,
          9.68348086e-02, 1.41595975e-01, 1.28471151e-01, 1.91681966e-01,
          2.60913223e-01, 3.10918182e-01, 5.77303469e-02, 0., 0.,
          6.50623068e-02, 0., 1.03476979e-01, 0., 0., 0., 6.70030341e-02,
          0., 0., 5.49819767e-02, 3.52262929e-02, 3.49855661e-01,
          3.00967604e-01, 4.03076522e-02, 1.63699642e-01, 1.14005990e-01,
          1.03951089e-01, 1.33783981e-01, 8.86863023e-02, 0. ]
      - [ 3.03564489e-01, 4.69892137e-02, 1.40889719e-01, 1.12689391e-01,
          3.51310186e-02, 0., 0., 0., 0., 0., 0., 0., 0., 0.,
          5.78397233e-03, 3.41623306e-01, 4.10191119e-01, 5.78397233e-03,
          0., 0., 0., 0., 0., 0., 0., 0., 0., 0., 1.17681965e-01,
          1.61923110e-01, 1.31129831e-01, 1.92293897e-01, 0., 0., 0., 0.,
          0., 1.02825932e-01, 1.72993004e-01, 3.82057339e-01,
          2.18396336e-01, 5.78397233e-03, 0., 0., 0., 0., 0., 0., 0., 0.,
          0., 0., 0., 0., 5.78397233e-03, 2.36663654e-01, 4.00857538e-01,
          1.34324744e-01, 9.24286097e-02, 1.22772478e-01, 0., 0., 0., 0. ]
      - [ 3.94498855e-01, 1.87049553e-01, 1.10268891e-01, 5.82564063e-02,
          0., 0., 0., 0., 0., 0., 0., 0., 0., 0., 5.06614102e-03,
          1.05911337e-01, 1.32145032e-01, 1.46169858e-02, 0., 0., 0., 0.,
          0., 0., 0., 0., 0., 0., 0., 1.57354027e-01, 1.01677686e-01,
          4.54627931e-01, 0., 0., 0., 0., 1.71025649e-01, 1.27687961e-01,
          1.74283504e-01, 1.89668462e-01, 3.58705342e-01, 2.50000563e-02,
          0., 0., 0., 0., 0., 0., 0., 0., 0., 0., 0., 0., 7.73950219e-02,
          3.27624559e-01, 3.28409791e-01, 1.46335348e-01, 1.23560145e-01,
          1.55133709e-01, 0., 0., 0., 0. ]
      - [ 2.41053373e-01, 3.08246702e-01, 9.36364532e-02, 0., 0., 0., 0.,
          0., 0., 0., 0., 0., 0., 2.07109198e-01, 1.23431087e-01,
          1.47765175e-01, 1.45942077e-01, 1.21671222e-01, 1.93955287e-01,
          1.84430435e-01, 0., 0., 0., 0., 0., 0., 0., 0., 2.62656242e-01,
          1.29113019e-01, 6.77355081e-02, 2.23803073e-01, 5.63796088e-02,
          0., 0., 0., 1.52663618e-01, 7.55476952e-02, 1.49572581e-01,
          3.38943839e-01, 2.48966455e-01, 0., 5.57046048e-02, 0., 0., 0.,
          0., 0., 0., 9.19469893e-02, 8.69385824e-02, 0., 0.,
          1.16119049e-01, 1.90497443e-01, 2.65944064e-01, 1.08685784e-01,
          1.21884033e-01, 1.82328388e-01, 2.42973134e-01, 0., 0., 0.,
          1.41705945e-01 ]
      - [ 3.07790101e-01, 1.25870705e-01, 9.54783559e-02, 3.53834145e-02,
          2.54003946e-02, 0., 2.34456994e-02, 0., 2.42448896e-02,
          1.92528330e-02, 0., 0., 2.54003946e-02, 0., 1.19401002e-02,
          2.41932228e-01, 3.76192510e-01, 1.26039341e-01, 0., 0., 0., 0.,
          0., 0., 0., 0., 0., 0., 1.15546130e-01, 1.64772600e-01,
          1.47024915e-01, 1.55372366e-01, 1.66900933e-01, 7.17558563e-02,
          0., 8.11225474e-02, 1.45984098e-01, 9.22895297e-02,
          1.95976883e-01, 3.74379963e-01, 1.78160131e-01, 9.24876146e-03,
          0., 0., 0., 0., 8.96229595e-02, 0., 1.01054758e-01, 0., 0., 0.,
          0., 0., 1.31696248e-02, 2.12451071e-01, 4.10722166e-01,
          1.02765396e-01, 1.61418319e-01, 1.24377809e-01, 0., 0.,
          5.29023074e-02, 8.35305303e-02 ]
      - [ 2.60364324e-01, 1.38167292e-01, 1.55625969e-01, 1.37242764e-01,
          0., 0., 0., 0., 0., 0., 0., 0., 0., 0., 2.43612174e-02,
          3.05596739e-01, 3.55766803e-01, 2.77910121e-02, 0., 0., 0., 0.,
          0., 0., 0., 0., 0., 0., 0., 1.58409357e-01, 2.05011860e-01,
          2.37542093e-01, 0., 0., 0., 0., 1.74494073e-01, 1.58259571e-01,
          1.22977935e-01, 2.79212564e-01, 2.98500985e-01, 4.28110994e-02,
          0., 0., 0., 0., 0., 0., 0., 0., 0., 0., 0., 0., 9.49953683e-03,
          3.44289660e-01, 3.11862588e-01, 1.14075899e-01, 1.34274766e-01,
          9.30245891e-02, 1.73483625e-01, 0., 0., 0. ]
      - [ 2.76028097e-01, 2.21181750e-01, 1.31240219e-01, 5.90189137e-02,
          0., 0., 0., 0., 0., 0., 0., 0., 0., 0., 2.09806323e-01,
          1.90462098e-01, 3.54347944e-01, 1.14305355e-01, 0., 0., 0., 0.,
          0., 0., 0., 0., 0., 0., 0., 1.68261081e-01, 1.74449012e-01,
          2.25219652e-01, 5.69650009e-02, 0., 0., 0., 1.41186491e-01,
          1.42928690e-01, 1.21362217e-01, 3.11552614e-01, 2.63005465e-01,
          2.52051335e-02, 8.44979361e-02, 0., 0., 0., 0., 5.82609586e-02,
          0., 0., 0., 0., 0., 1.46375969e-01, 2.06818402e-01,
          2.13505909e-01, 3.22005153e-01, 1.20545633e-01, 1.45437345e-01,
          1.02270491e-01, 1.74447671e-01, 0., 0., 0. ]
      - [ 1.80516988e-01, 2.11026207e-01, 1.57218173e-01, 0., 0., 0., 0.,
          0., 0., 0., 0., 0., 0., 1.45390764e-01, 1.36607260e-01,
          2.20582142e-01, 3.67585808e-01, 1.03008077e-02, 0., 0., 0., 0.,
          0., 0., 0., 0., 0., 0., 0., 1.54620543e-01, 8.63301679e-02,
          2.34916553e-01, 5.65730035e-02, 0., 9.97511446e-02,
          1.42290041e-01, 5.61127178e-02, 1.03211619e-01, 2.55153567e-01,
          2.61217356e-01, 2.63715386e-01, 1.47900106e-02, 0., 0., 0., 0.,
          8.11541006e-02, 1.41548738e-01, 1.09615937e-01, 0.,
          3.02628856e-02, 0., 0., 0., 0., 0., 4.67740655e-01,
          9.01747644e-02, 1.33541495e-01, 1.12347350e-01, 1.57882571e-01,
          0., 0., 1.25643313e-01 ]
      - [ 3.91747504e-01, 1.40467733e-01, 9.80122834e-02, 3.85518000e-02,
          0., 0., 0., 0., 0., 0., 0., 0., 0., 0., 1.02699976e-02,
          1.77583992e-01, 3.62025976e-01, 2.20745821e-02, 0., 0., 0., 0.,
          0., 0., 0., 0., 0., 0., 0., 1.77615732e-01, 1.83012962e-01,
          2.29040518e-01, 0., 0., 5.40037081e-02, 1.13209054e-01,
          1.15667999e-01, 1.14757255e-01, 1.57192662e-01, 1.98907107e-01,
          3.75201613e-01, 2.78480239e-02, 0., 0., 0., 0., 0., 0., 0., 0.,
          0., 0., 0., 6.05790913e-02, 2.13693574e-01, 3.05739224e-01,
          1.82912424e-01, 2.53830731e-01, 1.06660515e-01, 1.47596136e-01,
          1.14244945e-01, 0., 0., 0. ]
      - [ 2.28375167e-01, 1.60093993e-01, 6.83610439e-02, 1.43460661e-01,
          0., 0., 0., 0., 0., 0., 0., 0., 0., 0., 1.15892459e-02,
          3.61884743e-01, 3.95018727e-01, 4.86212783e-02, 0., 0., 0., 0.,
          0., 0., 0., 0., 0., 0., 1.54488817e-01, 7.36759305e-02,
          1.63560092e-01, 2.36747980e-01, 0., 0., 0., 0., 0.,
          1.46014407e-01, 2.10106432e-01, 3.60529304e-01, 1.84662849e-01,
          9.21658799e-03, 0., 0., 0., 0., 0., 0., 0., 0., 0., 0., 0., 0.,
          0., 2.22581476e-01, 4.15248692e-01, 1.28270090e-01,
          1.39591172e-01, 8.84342417e-02, 0., 0., 0., 0. ]
      - [ 2.39791051e-01, 1.24644190e-01, 5.56522422e-02, 0., 0., 0., 0.,
          0., 0., 0., 0., 0., 0., 0., 6.28337916e-03, 3.26582938e-01,
          3.28265667e-01, 1.40500637e-02, 0., 0., 0., 0., 0., 0., 0., 0.,
          0., 0., 0., 7.91825652e-02, 1.52156353e-01, 2.83877671e-01,
          1.27146080e-01, 0., 0., 1.84065819e-01, 0., 1.40457392e-01,
          8.56468454e-02, 3.27730179e-01, 2.79411107e-01, 1.40500637e-02,
          0., 0., 5.36347739e-02, 5.44253327e-02, 0., 0., 1.66942507e-01,
          0., 0., 0., 0., 0., 4.31289338e-02, 2.76527256e-01,
          3.81765336e-01, 1.60864517e-01, 7.28807673e-02, 1.78398654e-01,
          0., 0., 0., 1.25004455e-01 ]
      - [ 2.89055765e-01, 1.38451338e-01, 2.53485870e-02, 1.01498798e-01,
          0., 0., 0., 0., 0., 0., 0., 0., 0., 0., 0., 3.21496665e-01,
          4.00587618e-01, 1.82499960e-02, 3.09283528e-02, 0.,
          3.93234715e-02, 2.87579559e-02, 1.51849147e-02, 3.74206975e-02,
          0., 2.25604139e-02, 3.12236194e-02, 1.82499960e-02,
          1.33333609e-01, 9.66636315e-02, 1.75690830e-01, 1.89400718e-01,
          5.77115528e-02, 2.94950008e-02, 0., 0., 9.96078700e-02,
          1.44053504e-01, 1.75417468e-01, 4.18556571e-01, 0., 0., 0., 0.,
          0., 0., 0., 5.35545275e-02, 4.77935411e-02, 0., 0., 0., 0.,
          2.48931609e-02, 0., 3.63676623e-02, 4.52260494e-01,
          1.46392256e-01, 1.14084497e-01, 1.77593440e-01, 4.78040613e-02,
          0., 0., 2.81231739e-02 ]
      - [ 3.35178673e-01, 1.15220413e-01, 5.20629287e-02, 0., 0., 0., 0.,
          0., 0., 0., 0., 0., 0., 0., 1.76949147e-02, 1.97369009e-01,
          1.78013220e-01, 0., 0., 0., 0., 0., 0., 0., 0., 0., 0., 0., 0.,
          4.77120243e-02, 1.73508167e-01, 3.80793482e-01, 1.73282385e-01,
          9.94627699e-02, 1.02616042e-01, 1.30069569e-01, 0.,
          1.25325575e-01, 1.52234390e-01, 4.18963075e-01, 1.31727979e-01,
          0., 0., 0., 0., 0., 0., 1.06503785e-01, 6.47457838e-02, 0., 0.,
          0., 0., 0., 0., 2.55883873e-01, 3.85821193e-01, 1.48701966e-01,
          1.17181905e-01, 6.90879002e-02, 1.30101725e-01, 1.23176396e-01,
          1.06048115e-01, 1.01801738e-01 ]
      - [ 3.31424624e-01, 1.56976953e-01, 9.40237120e-02, 0., 0., 0., 0.,
          0., 0., 0., 0., 0., 0., 0., 0., 2.69464880e-01, 2.62388349e-01,
          3.94293033e-02, 0., 0., 0., 0., 0., 0., 0., 0., 0., 0., 0.,
          9.36318710e-02, 1.40823856e-01, 3.52757335e-01, 4.24422137e-02,
          0., 7.96806067e-02, 1.62766621e-01, 0., 1.15118846e-01,
          1.60954699e-01, 1.73326328e-01, 3.97618741e-01, 1.79011635e-02,
          3.16101946e-02, 0., 0., 0., 0., 4.26779911e-02, 0., 0., 0., 0.,
          0., 0., 6.62625134e-02, 3.59591872e-01, 2.83859670e-01,
          7.17062503e-02, 1.50396243e-01, 1.14646010e-01, 1.15360700e-01,
          1.27716288e-01, 5.06278053e-02, 9.04389769e-02 ]
      - [ 1.34153023e-01, 8.12037364e-02, 1.22738354e-01, 1.66196406e-01,
          2.51710832e-01, 1.19688520e-02, 7.29403738e-03, 0., 0., 0., 0.,
          1.38514742e-01, 2.42668256e-01, 1.16781168e-01, 9.51748341e-02,
          9.37255546e-02, 8.77007544e-02, 1.32652298e-01, 1.72856152e-01,
          2.83503681e-01, 1.40616428e-02, 0., 0., 0., 0., 0., 0.,
          1.44639641e-01, 2.97861755e-01, 1.33807629e-01, 1.44393250e-01,
          0., 8.13367069e-02, 8.40195715e-02, 0., 9.47581977e-02,
          1.98690817e-01, 1.64981425e-01, 2.40415424e-01, 1.81548297e-01,
          0., 0., 0., 0., 1.60180822e-01, 1.10049583e-01, 1.18161634e-01,
          1.18045554e-01, 0., 0., 1.21536568e-01, 1.78468660e-01,
          4.05863672e-02, 0., 5.30756824e-02, 1.65972769e-01,
          8.55615661e-02, 1.76306814e-01, 2.33692780e-01, 1.98367789e-01,
          1.36752278e-01, 0., 0., 0. ]
      - [ 1.05926901e-01, 6.10467121e-02, 2.02935770e-01, 1.40211359e-01,
          1.42477542e-01, 0., 0., 0., 0., 0., 0., 1.52073205e-01,
          1.33378848e-01, 1.37319207e-01, 1.14741884e-01, 2.29368284e-02,
          1.54335439e-01, 2.10540637e-01, 2.37524673e-01, 5.87770753e-02,
          4.81352620e-02, 7.39721358e-02, 6.78401515e-02, 0., 0.,
          1.54543808e-02, 2.05939829e-01, 1.59904823e-01, 1.14699058e-01,
          1.30664408e-01, 1.38394475e-01, 6.19329326e-02, 1.90670252e-01,
          1.11146428e-01, 6.68717697e-02, 0., 8.38154703e-02,
          1.55868307e-01, 2.07817197e-01, 2.54744053e-01, 1.78358614e-01,
          3.61038782e-02, 0., 0., 0., 0., 9.90491882e-02, 1.81327999e-01,
          0., 9.83115584e-02, 0., 0., 9.26450491e-02, 1.78395763e-01,
          2.07035944e-01, 1.69078067e-01, 5.99397682e-02, 2.17031285e-01,
          1.84816405e-01, 7.34617412e-02, 1.67621106e-01, 1.16787910e-01,
          2.09497556e-01, 5.30092195e-02 ]
      - [ 2.25248057e-02, 1.78536668e-01, 1.56028792e-01, 2.40687087e-01,
          0., 0., 0., 0., 0., 0., 1.30695075e-01, 1.99216008e-01,
          1.18378565e-01, 1.01950720e-01, 9.51138288e-02, 1.12845667e-01,
          0., 3.41893494e-01, 9.93717536e-02, 0., 0., 0., 5.10633551e-02,
          0., 0., 3.00817136e-02, 7.37052411e-02, 2.37452284e-01,
          1.34285361e-01, 1.33495957e-01, 9.25733447e-02, 1.39341250e-01,
          1.28703654e-01, 1.52798787e-01, 0., 0., 1.61794066e-01,
          1.51279539e-01, 1.68715581e-01, 1.95918679e-01, 2.09658235e-01,
          1.05676830e-01, 0., 0., 5.02764173e-02, 8.99822861e-02,
          1.07432984e-01, 8.51042792e-02, 0., 4.99639846e-02, 0., 0.,
          2.22279772e-01, 1.52123570e-01, 1.51036158e-01, 0.,
          1.81302935e-01, 2.39793554e-01, 1.13276668e-01, 7.98064321e-02,
          2.79957652e-01, 1.52084809e-02, 7.48985820e-03, 0. ]
      - [ 7.73269385e-02, 5.97089119e-02, 1.04173757e-01, 2.00080305e-01,
          2.18171075e-01, 1.04120262e-01, 0., 0., 0., 0., 0.,
          9.32820216e-02, 1.70903876e-01, 1.55323997e-01, 6.43223226e-02,
          1.03769220e-01, 8.25376138e-02, 9.92270485e-02, 1.42034456e-01,
          2.10403711e-01, 9.84385759e-02, 6.21790290e-02, 0.,
          5.96879013e-02, 6.04382232e-02, 0., 0., 6.96262866e-02,
          2.52448380e-01, 2.29168952e-01, 1.40743926e-01, 1.51106164e-01,
          1.53774068e-01, 1.39369935e-01, 9.53529999e-02, 0.,
          1.31485388e-01, 2.24290878e-01, 2.27786526e-01, 2.12208584e-01,
          5.06584393e-03, 0., 0., 0., 4.11987379e-02, 1.08213812e-01,
          9.13136974e-02, 1.48853973e-01, 0., 8.37171003e-02,
          1.06916174e-01, 1.08333923e-01, 9.75324064e-02, 1.23895153e-01,
          1.19322032e-01, 1.12888932e-01, 1.57141700e-01, 7.89562389e-02,
          2.77636737e-01, 2.41186574e-01, 1.52351022e-01, 5.36481850e-02,
          0., 6.06891029e-02 ]
      - [ 0., 1.39882505e-01, 1.52863771e-01, 2.05542877e-01,
          5.99010400e-02, 4.48694080e-02, 0., 0., 0., 3.75382160e-03,
          9.25814640e-03, 1.77559942e-01, 1.53183147e-01, 1.03961222e-01,
          8.29405785e-02, 4.22185808e-02, 1.53727010e-01, 1.31346300e-01,
          1.46623835e-01, 1.42355680e-01, 1.79986402e-01, 1.45330206e-01,
          0., 9.27312076e-02, 0., 2.28336044e-02, 1.64883941e-01,
          9.52971801e-02, 1.75439969e-01, 2.06012323e-01, 1.38442636e-01,
          1.34471759e-01, 2.01393172e-01, 0., 0., 0., 1.51214555e-01,
          1.39909834e-01, 1.86466917e-01, 1.43167779e-01, 2.33086064e-01,
          5.84231094e-02, 0., 0., 2.73670666e-02, 1.37890846e-01,
          1.24350794e-01, 1.14552706e-01, 1.22663021e-01, 0.,
          1.01339728e-01, 1.73661128e-01, 1.74703926e-01, 1.23288535e-01,
          1.18200116e-01, 8.05392563e-02, 2.32045859e-01, 7.40682557e-02,
          1.57527491e-01, 1.72074765e-01, 2.49244541e-01, 2.51033176e-02,
          1.06174108e-02, 0. ]
      - [ 1.19732181e-02, 1.31739452e-01, 2.01006740e-01, 2.27552965e-01,
          0., 0., 0., 0., 0., 1.07424827e-02, 1.91053376e-01,
          1.20628051e-01, 1.13847919e-01, 8.16019699e-02, 4.47628386e-02,
          1.02402069e-01, 1.28163889e-01, 1.32673055e-01, 1.44015774e-01,
          2.46736407e-01, 1.09788522e-01, 0., 7.79412165e-02, 0.,
          1.11780025e-01, 5.20320423e-02, 1.29551917e-01, 2.18302429e-01,
          1.76934615e-01, 1.42367691e-01, 1.59060210e-01, 1.24100938e-01,
          6.05595112e-02, 1.11122146e-01, 0., 8.72057900e-02,
          1.21422559e-01, 1.17570944e-01, 2.03813553e-01, 2.74978280e-01,
          0., 0., 0., 0., 3.10384054e-02, 9.01007950e-02, 9.73315164e-02,
          2.18000278e-01, 4.51543033e-02, 1.00147597e-01, 7.80172572e-02,
          9.48828980e-02, 1.34660713e-02, 8.79447982e-02, 2.39457428e-01,
          1.51613265e-01, 0., 7.96711296e-02, 2.43059427e-01,
          1.18207105e-01, 1.71643585e-01, 1.58514827e-01, 1.05718933e-01,
          7.32369944e-02 ]
      - [ 9.47012603e-02, 9.77101848e-02, 2.82298476e-01, 1.43131807e-01,
          1.34322032e-01, 2.39676852e-02, 0., 0., 0., 0., 0., 0.,
          1.40968844e-01, 1.64029047e-01, 1.02411978e-01, 1.42002583e-01,
          1.25202358e-01, 1.28256187e-01, 1.91262305e-01, 8.74516591e-02,
          1.05063505e-01, 6.05937578e-02, 3.03807501e-02, 7.67310262e-02,
          6.55520335e-02, 6.32100478e-02, 1.53715983e-01, 1.81872025e-01,
          2.01239407e-01, 1.44817248e-01, 1.33202344e-01, 1.54254600e-01,
          8.84108692e-02, 2.02907976e-02, 6.99353069e-02, 3.19625810e-02,
          3.14348191e-02, 2.20298886e-01, 1.89225599e-01, 1.33313343e-01,
          1.33825436e-01, 1.84963807e-01, 9.98249128e-02, 0., 0.,
          4.73865308e-02, 8.41649994e-02, 0., 0., 0., 1.40731663e-01,
          3.04496348e-01, 7.09971115e-02, 8.06234702e-02, 1.28556103e-01,
          0., 1.23095378e-01, 7.40278289e-02, 2.77102858e-01,
          2.96957791e-01, 6.73021600e-02, 0., 0., 0. ]
      - [ 0., 8.04783851e-02, 1.44909233e-01, 2.30718255e-01,
          1.21995971e-01, 0., 0., 0., 0., 4.12988663e-03, 8.38591345e-03,
          2.25573778e-01, 1.68729335e-01, 5.70064634e-02, 8.25033262e-02,
          7.56001174e-02, 1.62889082e-02, 2.33145475e-01, 2.39825517e-01,
          0., 5.08288331e-02, 8.97382945e-02, 7.19450116e-02, 0.,
          8.63163322e-02, 5.02994843e-02, 0., 1.99060589e-01,
          1.82185978e-01, 8.43225643e-02, 1.03534669e-01, 1.00654878e-01,
          1.73069268e-01, 1.90824151e-01, 0., 0., 1.99900657e-01,
          1.56864479e-01, 1.56293720e-01, 1.18937597e-01, 2.15411797e-01,
          1.42196238e-01, 0., 0., 1.61446795e-01, 1.03831835e-01,
          9.76143479e-02, 0., 0., 1.53164923e-01, 0., 1.88951015e-01,
          1.74740300e-01, 1.04289114e-01, 4.54360321e-02, 1.19647384e-01,
          4.91129048e-03, 2.83106595e-01, 1.06305242e-01, 2.82059789e-01,
          0., 0., 0., 0. ]
      - [ 1.10468723e-01, 2.21840709e-01, 1.10443085e-01, 1.20159067e-01,
          8.11774135e-02, 6.47354275e-02, 1.31461099e-01, 1.27863243e-01,
          1.08187936e-01, 1.08835645e-01, 0., 8.60892385e-02,
          4.97175157e-02, 1.30064622e-01, 1.41932860e-01, 1.30600095e-01,
          2.38938835e-02, 1.36451751e-01, 1.87947884e-01, 2.05496877e-01,
          0., 0., 0., 0., 6.12493828e-02, 9.81514305e-02, 7.41197243e-02,
          1.41375065e-01, 1.69278651e-01, 1.89185396e-01, 1.64402112e-01,
          1.49617612e-01, 1.59248650e-01, 1.01636872e-01, 2.26026461e-01,
          6.40685186e-02, 1.18318990e-01, 1.11314908e-01, 7.21847564e-02,
          1.62596270e-01, 2.24876016e-01, 1.39556348e-01, 1.07933588e-01,
          1.52673647e-01, 0., 0., 0., 6.70846775e-02, 0., 0.,
          1.32397041e-01, 1.91119447e-01, 0., 8.82898867e-02,
          1.62084088e-01, 1.76639348e-01, 1.35986090e-01, 1.14512652e-01,
          2.43211448e-01, 1.35706335e-01, 1.40616283e-01, 1.35455191e-01,
          2.35877689e-02, 7.01098293e-02 ]
      - [ 6.25526160e-02, 9.65144113e-02, 4.61266711e-02, 1.58759534e-01,
          2.25335062e-01, 2.08987504e-01, 1.74041055e-02, 0., 0., 0., 0.,
          0., 2.22854942e-01, 1.48017198e-01, 2.26707608e-01, 0.,
          1.51630625e-01, 9.70170647e-02, 2.05848187e-01, 2.10171044e-01,
          0., 0., 0., 0., 0., 0., 0., 0., 2.26841345e-01, 2.64785051e-01,
          3.09708323e-02, 1.51429981e-01, 0., 2.05278903e-01,
          1.61198974e-01, 1.92965940e-01, 1.09992750e-01, 2.01201051e-01,
          1.56272516e-01, 0., 2.16963142e-01, 9.24384668e-02, 0., 0., 0.,
          0., 0., 0., 8.79815370e-02, 8.41981992e-02, 0., 0., 0.,
          5.71785569e-02, 0., 0., 1.76392883e-01, 3.61282647e-01,
          1.33945912e-01, 2.01164395e-01, 0., 0., 0., 3.43537107e-02 ]
      - [ 9.78979096e-02, 1.33688912e-01, 1.91521958e-01, 1.21393323e-01,
          2.42538452e-01, 1.54005915e-01, 0., 0., 0., 0., 0., 0.,
          1.96471095e-01, 1.80454582e-01, 7.21308887e-02, 0.,
          2.06932336e-01, 1.07408062e-01, 8.58467892e-02, 5.25492132e-02,
          1.25579238e-01, 4.30852100e-02, 8.87019709e-02, 9.50253010e-02,
          9.27018374e-02, 0., 1.70173794e-01, 1.41767919e-01,
          1.19432673e-01, 1.19093940e-01, 2.50008434e-01, 1.53817475e-01,
          1.58132270e-01, 8.27469528e-02, 0., 0., 0., 2.51296937e-01,
          2.24371955e-01, 1.70379758e-01, 1.58043727e-01, 0., 0., 0., 0.,
          1.35918394e-01, 1.43142939e-01, 1.30532742e-01, 1.09468922e-01,
          7.21575841e-02, 0., 1.17870919e-01, 0., 8.68170187e-02,
          5.74599877e-02, 1.78180918e-01, 2.55929768e-01, 1.27305523e-01,
          1.63463324e-01, 1.52177587e-01, 1.43654749e-01, 0., 0.,
          9.84494314e-02 ]
      - [ 1.17413826e-01, 7.42680877e-02, 1.21093765e-01, 3.10385078e-01,
          4.74460274e-02, 0., 0., 0., 0., 6.85488135e-02, 1.29071683e-01,
          2.75086105e-01, 1.09601393e-01, 8.34868997e-02, 1.16180226e-01,
          0., 0., 1.25635922e-01, 1.47954911e-01, 2.65406847e-01, 0., 0.,
          0., 7.40928277e-02, 7.69132227e-02, 4.04878743e-02,
          4.23415415e-02, 1.69238403e-01, 2.33683571e-01, 7.55727813e-02,
          1.18963487e-01, 1.22789964e-01, 0., 1.25363320e-01, 0.,
          8.90782103e-02, 2.56191969e-01, 1.60379872e-01, 1.14253901e-01,
          1.00320481e-01, 1.25186324e-01, 2.36736387e-02, 0.,
          3.76456454e-02, 2.32310981e-01, 8.42652023e-02, 0.,
          8.34870338e-02, 0., 5.74068278e-02, 1.82723522e-01,
          2.21409619e-01, 8.36215317e-02, 0., 0., 1.09012477e-01,
          1.21014096e-01, 1.08248726e-01, 2.47213706e-01, 2.49419957e-01,
          9.58816260e-02, 7.00009316e-02, 6.79218471e-02, 0. ]
      - [ 8.72008502e-02, 1.85883045e-01, 1.65413469e-01, 2.17157334e-01,
          0., 0., 0., 0., 0., 0., 1.09261386e-01, 2.11569190e-01,
          5.93267158e-02, 1.01641402e-01, 7.74084628e-02, 9.07742605e-02,
          2.26037711e-01, 2.27814123e-01, 0., 0., 6.55264109e-02,
          6.84540197e-02, 1.09910659e-01, 5.48985004e-02, 1.62209883e-01,
          0., 0., 0., 1.49831742e-01, 1.75393283e-01, 1.66335776e-01,
          1.05586022e-01, 1.03655957e-01, 1.85055703e-01, 4.00433168e-02,
          1.45929158e-01, 1.36642873e-01, 1.80762827e-01, 1.36778042e-01,
          1.39021456e-01, 1.66141659e-01, 2.27042884e-01, 0.,
          5.31690679e-02, 1.33710489e-01, 1.08205892e-01, 0.,
          6.93854690e-02, 0., 0., 0., 1.93648025e-01, 2.05965325e-01,
          9.74379480e-02, 9.68359709e-02, 6.14272691e-02, 1.46624982e-01,
          2.43886039e-01, 1.16103366e-01, 2.87158251e-01, 0., 0., 0., 0. ]
      - [ 1.00340158e-01, 1.64175630e-01, 2.08915427e-01, 2.06135556e-01,
          0., 0., 0., 0., 0., 1.39566630e-01, 1.87722683e-01,
          1.66489825e-01, 1.06867857e-01, 6.91438690e-02, 8.87545124e-02,
          7.50354603e-02, 1.17988132e-01, 2.99082249e-01, 1.27775133e-01,
          0., 0., 2.15655435e-02, 5.70426248e-02, 4.66410033e-02,
          6.36367276e-02, 0., 0., 2.03264698e-01, 1.62066400e-01,
          9.81557891e-02, 8.97111520e-02, 7.66126439e-02, 1.19882300e-01,
          2.18489617e-01, 0., 1.19173802e-01, 1.69440687e-01,
          1.60217971e-01, 1.16678938e-01, 1.37359008e-01, 1.79372922e-01,
          1.91906005e-01, 2.92394310e-02, 9.28658471e-02, 1.12511285e-01,
          6.69947341e-02, 7.60328025e-02, 8.30009207e-02, 0.,
          7.42562190e-02, 0., 1.75874993e-01, 2.04189196e-01,
          1.16795450e-01, 3.33212353e-02, 1.01516314e-01, 9.24204960e-02,
          2.31980413e-01, 1.55106395e-01, 2.87810445e-01, 0., 0., 0., 0. ]
      - [ 1.81186467e-01, 7.02400804e-02, 1.85365275e-01, 1.55712947e-01,
          4.60699648e-02, 0., 0., 0., 1.46324664e-01, 1.19373776e-01,
          1.63833112e-01, 1.04141347e-01, 7.42445961e-02, 9.80098546e-02,
          8.16471279e-02, 1.09483331e-01, 5.32497838e-02, 1.48118883e-01,
          1.76281750e-01, 1.89248458e-01, 9.57430750e-02, 0., 0., 0., 0.,
          8.06775317e-02, 0., 1.34433389e-01, 2.00248495e-01,
          1.38047770e-01, 8.19413289e-02, 1.35550335e-01, 2.49372900e-01,
          2.49139238e-02, 0., 1.24861054e-01, 1.50500089e-01,
          1.46006331e-01, 1.84963316e-01, 1.33968756e-01, 2.38966256e-01,
          7.81477392e-02, 2.28984114e-02, 0., 1.21293664e-01,
          1.24389462e-01, 8.30334872e-02, 1.15965769e-01, 1.18214697e-01,
          9.28941891e-02, 1.20298535e-01, 1.60185844e-01, 1.73673347e-01,
          6.54276013e-02, 1.20983630e-01, 1.15013227e-01, 1.99467525e-01,
          1.83832124e-01, 9.50754061e-02, 2.43122637e-01, 1.70791954e-01,
          0., 0., 0. ]
      - [ 1.60757720e-01, 1.33416429e-01, 1.36167422e-01, 1.27188683e-01,
          8.63235146e-02, 0., 0., 0., 0., 0., 1.11333758e-01, 0.,
          1.35166124e-01, 8.97778273e-02, 1.20575160e-01, 1.84395149e-01,
          1.54225573e-01, 2.07515389e-01, 1.77463204e-01, 2.29539722e-01,
          0., 3.66757177e-02, 0., 0., 0., 0., 2.32866049e-01,
          1.61832482e-01, 1.21681303e-01, 1.36123121e-01, 1.34668261e-01,
          3.31957899e-02, 1.04080431e-01, 6.65013865e-02, 0., 0.,
          7.55652264e-02, 1.17989756e-01, 2.46935248e-01, 2.37519339e-01,
          1.91673920e-01, 5.98009005e-02, 0., 0., 0., 7.93387294e-02,
          1.00129426e-01, 1.67123452e-01, 0., 1.35547727e-01, 0.,
          6.02645688e-02, 0., 2.42559910e-01, 1.84022740e-01,
          1.25608400e-01, 2.01449037e-01, 1.04990356e-01, 1.26395047e-01,
          1.61411598e-01, 1.93578780e-01, 2.07403168e-01, 1.03260577e-02,
          0. ]
      - [ 1.72996446e-01, 2.71432519e-01, 1.75044090e-01, 0., 0., 0., 0.,
          0., 0., 7.52700120e-02, 1.42873093e-01, 6.65703565e-02,
          1.36214718e-01, 8.65990594e-02, 1.02448709e-01, 7.26558492e-02,
          1.41888320e-01, 3.03989857e-01, 1.10737830e-01, 0., 0.,
          4.56479825e-02, 4.90136370e-02, 0., 0., 0., 7.26719350e-02,
          2.11782113e-01, 1.42278358e-01, 1.30626872e-01, 1.00914396e-01,
          1.05521172e-01, 1.07505374e-01, 1.21244423e-01, 0.,
          1.48340881e-01, 1.28677562e-01, 1.35528862e-01, 1.48600951e-01,
          1.92696556e-01, 2.32728973e-01, 1.59513623e-01, 0., 0.,
          9.13506597e-02, 5.19824885e-02, 7.29730055e-02, 0., 0., 0., 0.,
          2.17876539e-01, 2.01525569e-01, 1.51414335e-01, 1.16091207e-01,
          0., 1.50020629e-01, 1.86651051e-01, 9.95796472e-02,
          3.53183836e-01, 2.23695710e-02, 0., 0., 0. ]
      - [ 3.24704014e-02, 1.88484997e-01, 1.76909730e-01, 1.04991592e-01,
          1.19499072e-01, 2.46877093e-02, 0., 0., 0., 0., 0.,
          8.31970498e-02, 1.23125024e-01, 6.04932271e-02, 8.63890052e-02,
          6.51471019e-02, 1.11006320e-01, 1.73288926e-01, 1.49248555e-01,
          1.25413179e-01, 1.65848643e-01, 4.45172824e-02, 0., 0., 0.,
          4.09191707e-03, 1.55835673e-01, 2.08954006e-01, 1.73294961e-01,
          1.22143939e-01, 1.84180513e-01, 1.10481627e-01, 1.74922526e-01,
          1.57428443e-01, 4.69422415e-02, 1.33532330e-01, 1.23969875e-01,
          1.19219750e-01, 1.58569887e-01, 1.31575927e-01, 2.13115647e-01,
          1.86696082e-01, 5.03829084e-02, 1.04050525e-01, 1.17263369e-01,
          0., 0., 9.75105464e-02, 0., 0., 3.29900905e-02, 1.04860544e-01,
          2.87131488e-01, 1.57418475e-01, 6.42016828e-02, 1.10532723e-01,
          1.58351019e-01, 1.51643828e-01, 1.57274887e-01, 1.63059339e-01,
          2.35020921e-01, 2.11803690e-01, 1.96241457e-02, 0. ]
      - [ 6.31939843e-02, 2.71026582e-01, 2.22522140e-01, 0., 0., 0., 0.,
          0., 0., 1.40798045e-02, 2.23369598e-01, 1.20432429e-01,
          9.17216614e-02, 1.19490467e-01, 1.05724424e-01, 6.32470921e-02,
          1.49840653e-01, 1.57849923e-01, 1.98399082e-01, 1.70476705e-01,
          0., 0., 0., 0., 0., 1.12746805e-01, 1.43971831e-01,
          1.44494966e-01, 9.65437740e-02, 1.30579084e-01, 1.14628017e-01,
          1.49687901e-01, 1.63133636e-01, 0., 1.18013181e-01,
          9.86654013e-02, 1.02505766e-01, 1.53749362e-01, 1.79296434e-01,
          2.31381521e-01, 1.96897149e-01, 1.96678061e-02, 3.15408595e-02,
          1.34617731e-01, 6.69069290e-02, 1.03045233e-01, 0.,
          1.07390970e-01, 0., 1.33362696e-01, 1.36939541e-01,
          9.56725478e-02, 0., 4.58744317e-02, 2.40510270e-01,
          7.59016052e-02, 1.96720794e-01, 1.86185256e-01, 1.89519525e-01,
          1.11907572e-01, 1.20692171e-01, 1.80985048e-01, 5.48277348e-02,
          0. ]
      - [ 1.92855969e-01, 4.91551161e-02, 1.27278373e-01, 2.26469249e-01,
          2.03775033e-01, 4.54093553e-02, 0., 0., 0., 0., 0., 0.,
          2.30849281e-01, 1.87121943e-01, 9.94884372e-02, 1.62809029e-01,
          1.64234966e-01, 1.62701309e-01, 2.42471740e-01, 0., 0., 0., 0.,
          0., 0., 1.52630821e-01, 1.62734583e-01, 8.37614983e-02,
          1.32290572e-01, 8.80265608e-02, 1.42185032e-01, 2.39232019e-01,
          0., 3.09338104e-02, 1.37153700e-01, 1.78780749e-01,
          1.70629516e-01, 1.67412996e-01, 1.69488072e-01, 2.39311740e-01,
          1.56618714e-01, 4.67192121e-02, 0., 0., 2.23842338e-02,
          4.65865918e-02, 0., 4.36030813e-02, 0., 6.71993643e-02, 0.,
          1.24392256e-01, 6.11906834e-02, 8.53751227e-02, 0.,
          3.00252028e-02, 0., 2.60613501e-01, 3.56200039e-01, 0., 0., 0.,
          0., 0. ]
      - [ 0., 1.43371165e-01, 1.69682190e-01, 2.58917063e-01,
          1.06164470e-01, 0., 0., 0., 0., 1.36687439e-02, 5.15064970e-02,
          1.82025328e-01, 1.34350330e-01, 5.77995516e-02, 8.18143860e-02,
          7.60273263e-02, 1.91789925e-01, 1.73053414e-01, 1.18872240e-01,
          6.27107248e-02, 6.95796162e-02, 0., 8.12064856e-02,
          8.64612907e-02, 0., 7.58706406e-02, 1.83586553e-01,
          1.11056179e-01, 1.68895200e-01, 1.04335070e-01, 1.83689177e-01,
          1.70462161e-01, 1.96365342e-01, 0., 1.19571149e-01, 0.,
          1.33736417e-01, 1.57261267e-01, 1.52348608e-01, 2.20051870e-01,
          2.33959362e-01, 5.15401177e-02, 0., 0., 0., 1.25570297e-01,
          7.97164366e-02, 1.67103946e-01, 0., 0., 7.39974529e-02, 0., 0.,
          2.10031256e-01, 1.62512481e-01, 1.84283346e-01, 1.62717938e-01,
          1.36403129e-01, 1.43672973e-01, 1.31604746e-01, 1.65234447e-01,
          1.95654765e-01, 9.15579498e-02, 5.72740510e-02 ]
      - [ 5.06534912e-02, 9.40683708e-02, 1.23780563e-01, 2.14525744e-01,
          2.12559208e-01, 1.76892970e-02, 0., 0., 0., 5.78787597e-03,
          1.42747881e-02, 2.43569508e-01, 1.83379486e-01, 1.11693457e-01,
          9.11970660e-02, 4.95770127e-02, 1.16653211e-01, 1.93919450e-01,
          2.66915023e-01, 0., 5.49564287e-02, 4.86072563e-02,
          4.49103303e-02, 4.71526086e-02, 0., 0., 7.25802705e-02,
          1.94430709e-01, 1.66532710e-01, 1.38135254e-01, 1.12907417e-01,
          1.51118055e-01, 1.29102632e-01, 1.03952937e-01, 1.31066650e-01,
          5.00043035e-02, 1.87747166e-01, 2.07764059e-01, 1.96955189e-01,
          2.24843293e-01, 1.19216768e-02, 0., 0., 0., 8.67913365e-02,
          9.73607451e-02, 9.31595415e-02, 1.95244253e-01, 0., 0.,
          1.85998037e-01, 0., 0., 0., 0., 0., 0., 3.38861465e-01,
          2.67457485e-01, 2.84037851e-02, 0., 0., 8.44233781e-02, 0. ]
      - [ 1.38347045e-01, 1.12631425e-01, 1.60469443e-01, 1.93406895e-01,
          2.31876060e-01, 9.24663767e-02, 2.01215688e-02, 0., 0.,
          1.39967315e-02, 7.70957991e-02, 1.88868612e-01, 8.93534198e-02,
          1.26164302e-01, 8.59785378e-02, 1.17828567e-02, 1.19024366e-01,
          9.00053680e-02, 1.43811256e-01, 0., 1.10993192e-01,
          1.30132958e-01, 3.21368352e-02, 1.14585474e-01, 0., 0.,
          7.90922791e-02, 1.96530700e-01, 1.51688710e-01, 1.82695165e-01,
          1.70039013e-01, 2.08058640e-01, 1.73449337e-01, 5.21100461e-02,
          0., 0., 1.79870382e-01, 1.78857282e-01, 1.60961926e-01,
          2.12868929e-01, 1.25453219e-01, 0., 0., 7.34518617e-02,
          9.99267995e-02, 1.00902550e-01, 6.71991631e-02, 1.65743664e-01,
          1.02846436e-01, 4.35709879e-02, 1.02131501e-01, 7.77881965e-02,
          1.68771431e-01, 1.36105850e-01, 1.07789047e-01, 1.05762996e-01,
          1.75923869e-01, 1.41260177e-01, 2.14726701e-01, 1.97224095e-01,
          1.68651775e-01, 6.42659608e-03, 3.61394044e-03, 6.62447661e-02 ]
      - [ 7.69818649e-02, 7.34196380e-02, 2.17063129e-01, 2.37974063e-01,
          9.22435299e-02, 3.03789470e-02, 0., 0., 0., 3.48478891e-02,
          1.60107538e-01, 1.81183487e-01, 1.11614384e-01, 1.08633012e-01,
          6.97459355e-02, 8.81139114e-02, 1.57404363e-01, 1.22007616e-01,
          1.67487904e-01, 1.88814759e-01, 9.34080556e-02, 0.,
          6.94423392e-02, 5.62371053e-02, 7.35184103e-02, 5.91533110e-02,
          9.04869959e-02, 2.11112842e-01, 1.87790632e-01, 1.40077114e-01,
          8.75075087e-02, 1.52350679e-01, 1.93736821e-01, 0.,
          6.71044886e-02, 1.70186818e-01, 1.44398898e-01, 1.58493891e-01,
          1.03084333e-01, 2.18348697e-01, 1.63495570e-01, 5.08732609e-02,
          3.76515575e-02, 1.14430405e-01, 1.15089595e-01, 5.39084226e-02,
          9.55575854e-02, 1.15693331e-01, 3.58866975e-02, 1.05871543e-01,
          8.18372220e-02, 8.54245052e-02, 9.65323597e-02, 1.88904017e-01,
          1.26008734e-01, 1.09693088e-01, 1.33083493e-01, 4.70371619e-02,
          2.42076859e-01, 1.45721406e-01, 2.05900282e-01, 5.96703477e-02,
          2.09008027e-02, 9.01013091e-02 ]
      - [ 6.21152334e-02, 1.49325460e-01, 1.99501902e-01, 2.54321188e-01,
          1.54061913e-01, 4.01092991e-02, 0., 0., 0., 0., 0., 0.,
          1.70185849e-01, 1.84844285e-01, 1.26874343e-01, 9.76703018e-02,
          1.43073171e-01, 2.31684685e-01, 1.31439582e-01, 0., 0.,
          4.44640815e-02, 0., 0., 0., 0., 1.72695845e-01, 1.59495771e-01,
          1.76389933e-01, 1.66780636e-01, 1.64099604e-01, 9.29716229e-02,
          9.94665995e-02, 4.76391129e-02, 8.73531029e-02, 0.,
          9.04349610e-02, 2.45335072e-01, 2.61761814e-01, 2.07002059e-01,
          0., 0., 0., 0., 0., 0., 8.28211531e-02, 1.03263162e-01, 0., 0.,
          0., 0., 1.63929194e-01, 2.19289362e-01, 0., 0., 8.60925019e-02,
          2.29517296e-01, 2.09420055e-01, 1.84794873e-01, 1.97813034e-01,
          2.06384748e-01, 1.58794541e-02, 0. ]
      - [ 6.95613176e-02, 1.02085367e-01, 2.77670890e-01, 1.24348074e-01,
          8.86956230e-02, 0., 0., 0., 0., 0., 3.90233472e-02,
          1.99595153e-01, 1.17189012e-01, 1.28117830e-01, 1.10307664e-01,
          6.70484751e-02, 1.34053007e-01, 1.37271732e-01, 2.04951853e-01,
          1.41247019e-01, 1.20216794e-01, 0., 6.72435164e-02, 0.,
          8.28600153e-02, 0., 1.39717400e-01, 1.59993798e-01,
          1.61387160e-01, 1.87505081e-01, 1.24692962e-01, 1.56327620e-01,
          8.17365572e-02, 9.26722735e-02, 0., 1.47379711e-01,
          1.02430582e-01, 1.04989588e-01, 2.27583051e-01, 2.88617462e-01,
          0., 0., 0., 5.90406768e-02, 9.81431827e-02, 1.06164284e-01,
          9.52157378e-02, 1.84111416e-01, 6.86560646e-02, 9.55829397e-02,
          1.26516029e-01, 0., 1.07936077e-01, 7.73216784e-02,
          1.55807778e-01, 1.81179196e-01, 1.55182883e-01, 9.97659862e-02,
          2.47765616e-01, 1.31335944e-01, 1.64724201e-01, 5.88107370e-02,
          9.14397612e-02, 8.97508338e-02 ]
      - [ 1.37554511e-01, 1.10333249e-01, 1.68141738e-01, 1.61164939e-01,
          1.52442321e-01, 0., 0., 0., 0., 2.90113464e-02, 2.00279981e-01,
          6.16679899e-02, 1.05593592e-01, 1.14693210e-01, 6.31003827e-02,
          1.16502292e-01, 1.56534165e-01, 1.53672174e-01, 1.23027168e-01,
          1.89796045e-01, 1.66283503e-01, 6.35693297e-02, 0., 0.,
          9.26103368e-02, 0., 6.47253692e-02, 1.89048856e-01,
          2.17542812e-01, 9.25774798e-02, 1.41346037e-01, 1.31304786e-01,
          9.08020288e-02, 5.97060695e-02, 0., 0., 1.65323243e-01,
          1.77523300e-01, 2.10402578e-01, 2.25916192e-01, 6.31167740e-02,
          0., 0., 1.28101394e-01, 5.85597940e-02, 1.03509739e-01,
          1.94343403e-01, 9.04587209e-02, 8.12490359e-02, 8.82236063e-02,
          1.08609617e-01, 1.47699162e-01, 1.62628904e-01, 0.,
          1.62156835e-01, 1.94559216e-01, 7.60255158e-02, 8.69299993e-02,
          2.18834981e-01, 2.10735604e-01, 1.86745271e-01, 6.41890094e-02,
          0., 5.04265837e-02 ]
      - [ 6.05075434e-02, 1.18521057e-01, 1.69988811e-01, 1.43686265e-01,
          2.40276113e-01, 9.29277614e-02, 4.26949970e-02, 0.,
          1.26464898e-02, 4.34147054e-03, 7.28098378e-02, 1.66917905e-01,
          1.70488819e-01, 7.15347528e-02, 4.61210012e-02, 7.45505765e-02,
          2.75645051e-02, 9.57174301e-02, 1.00141160e-01, 6.78333044e-02,
          2.04186678e-01, 2.15584725e-01, 1.14864511e-02, 5.00349887e-02,
          0., 0., 0., 1.54992387e-01, 2.43188739e-01, 2.55842626e-01,
          1.29298314e-01, 1.24103203e-01, 1.44846380e-01, 1.45271495e-01,
          4.07476239e-02, 5.70055731e-02, 1.45741448e-01, 1.81669220e-01,
          1.44914761e-01, 1.43758669e-01, 1.57272488e-01, 1.06454127e-01,
          0., 0., 8.79165754e-02, 1.49371296e-01, 1.11741781e-01,
          5.75684682e-02, 7.32906535e-02, 9.05479714e-02, 1.38780236e-01,
          1.53941423e-01, 0., 4.79539149e-02, 1.95140839e-01,
          1.02133840e-01, 1.28573254e-01, 2.11655855e-01, 1.50929451e-01,
          1.62244335e-01, 1.01524323e-01, 1.65585861e-01, 6.94337338e-02,
          9.01204720e-02 ]
      - [ 8.73423517e-02, 1.27352551e-01, 3.06318074e-01, 2.21885726e-01,
          0., 0., 0., 0., 0., 0., 0., 2.06042588e-01, 1.47223771e-01,
          1.12203114e-01, 8.80938917e-02, 0., 1.24342300e-01,
          8.49591270e-02, 9.71698835e-02, 2.37043023e-01, 1.47268832e-01,
          0., 0., 0., 0., 0., 0., 2.45058596e-01, 2.56990641e-01,
          1.48000166e-01, 1.38056532e-01, 6.66526854e-02, 1.14578642e-01,
          9.56472382e-02, 2.27802638e-02, 7.46980682e-02, 8.90234038e-02,
          1.45459473e-01, 2.04809099e-01, 1.68358251e-01, 1.80499002e-01,
          1.43698260e-01, 5.19196764e-02, 0., 0., 9.89127606e-02,
          6.88241199e-02, 0., 9.52079445e-02, 8.44288990e-02,
          1.50345087e-01, 1.24792211e-01, 0., 1.64162457e-01,
          1.43689469e-01, 1.41381830e-01, 9.83518064e-02, 1.58249259e-01,
          1.86226025e-01, 1.95747554e-01, 1.51561305e-01, 9.06538665e-02,
          8.97512883e-02, 0. ]
      - [ 8.04460347e-02, 1.29765719e-01, 2.27663249e-01, 2.77864486e-01,
          0., 0., 0., 0., 0., 0., 0., 2.20900714e-01, 1.08169213e-01,
          6.88889995e-02, 1.14111878e-01, 9.82822478e-02, 2.77716760e-02,
          1.11707784e-01, 9.39476714e-02, 1.15932949e-01, 1.78656653e-01,
          1.64555117e-01, 0., 0., 0., 0., 5.22535257e-02, 2.25821808e-01,
          2.50748783e-01, 1.28230184e-01, 1.39144644e-01, 1.32894129e-01,
          1.03703678e-01, 0., 1.30667403e-01, 1.20505862e-01,
          1.66071594e-01, 1.45414993e-01, 1.97492823e-01, 1.64128646e-01,
          1.49095535e-01, 9.17174220e-02, 0., 1.06774703e-01,
          9.32732373e-02, 7.30616003e-02, 5.25007099e-02, 0.,
          1.17100514e-01, 8.84406120e-02, 1.55111134e-01, 1.56693920e-01,
          0., 0., 1.25116020e-01, 1.34610534e-01, 1.52022228e-01,
          1.61232784e-01, 1.32524624e-01, 2.81458855e-01, 8.91729966e-02,
          1.05249211e-01, 1.02246225e-01, 0. ]
      - [ 7.06462115e-02, 1.28896102e-01, 2.81207979e-01, 2.43104234e-01,
          7.57899731e-02, 0., 0., 0., 0., 0., 1.06237881e-01,
          1.61241055e-01, 2.07543850e-01, 9.42091048e-02, 9.36717764e-02,
          7.03165606e-02, 9.79416594e-02, 1.13018386e-01, 4.02988195e-02,
          1.23356946e-01, 2.37091333e-01, 4.54770252e-02, 3.83940991e-03,
          0., 0., 3.34712006e-02, 1.45060524e-01, 2.01261029e-01,
          2.20402896e-01, 1.32793307e-01, 1.33075491e-01, 5.28126881e-02,
          0., 0., 0., 5.84844947e-02, 2.03919008e-01, 2.41845399e-01,
          1.72948852e-01, 1.14984155e-01, 4.15984169e-02, 1.68864653e-01,
          4.55956236e-02, 8.39324668e-02, 1.59829080e-01, 7.69767165e-02,
          2.66002119e-02, 7.29164407e-02, 1.03366464e-01, 1.11729406e-01,
          1.73688591e-01, 1.18781403e-01, 0., 0., 1.26480281e-01,
          1.25019699e-01, 1.22805350e-01, 1.90966100e-01, 1.83259085e-01,
          1.83670640e-01, 9.90244970e-02, 9.48519036e-02, 9.31341276e-02,
          1.25428349e-01 ]
      - [ 6.64461404e-02, 1.68966338e-01, 1.56953126e-01, 1.78829804e-01,
          1.81964666e-01, 4.17232253e-02, 0., 0., 0., 0., 0., 0.,
          1.80890337e-01, 2.06627771e-01, 1.41395822e-01, 1.22845240e-01,
          9.76097956e-02, 8.77451524e-02, 8.29512775e-02, 2.21223056e-01,
          1.68927908e-01, 0., 0., 0., 0., 0., 0., 2.23209709e-01,
          1.49587512e-01, 1.76652998e-01, 1.00629099e-01, 0.,
          6.01410791e-02, 0., 0., 6.04180321e-02, 2.48843729e-01,
          2.28433311e-01, 1.25701785e-01, 1.03855699e-01, 1.45862535e-01,
          6.95287436e-02, 1.44752681e-01, 1.66023642e-01, 0.,
          4.44758646e-02, 4.64091115e-02, 0., 0., 1.52439833e-01,
          1.74173102e-01, 1.00452319e-01, 7.91814476e-02, 1.01290092e-01,
          1.31560341e-01, 9.98271778e-02, 1.88921019e-01, 1.84438556e-01,
          2.26615265e-01, 1.64475530e-01, 1.35513067e-01, 1.60619721e-01,
          7.77270123e-02, 1.32088795e-01 ]
      - [ 1.06815644e-01, 9.17928442e-02, 2.64033705e-01, 1.47370756e-01,
          4.60147224e-02, 0., 0., 0., 0., 0., 0., 1.72128245e-01,
          9.21934173e-02, 8.38447884e-02, 8.62896889e-02, 6.33985177e-02,
          5.17489351e-02, 8.55407938e-02, 1.18889324e-01, 8.73275250e-02,
          2.08090216e-01, 1.04547180e-01, 1.30266711e-01, 0.,
          1.17125623e-01, 5.11845462e-02, 2.61247233e-02, 0.,
          2.44298801e-01, 2.00909406e-01, 1.98646426e-01, 1.07507318e-01,
          0., 8.09574053e-02, 1.93382978e-01, 1.49139628e-01,
          8.47625732e-02, 1.19752020e-01, 1.70100316e-01, 1.42574027e-01,
          2.42406413e-01, 0., 0., 5.39550334e-02, 1.09530933e-01,
          7.94638172e-02, 6.36695772e-02, 8.38875920e-02, 1.22617498e-01,
          7.74374306e-02, 1.15418486e-01, 1.98100165e-01, 0.,
          1.58731803e-01, 1.77648157e-01, 1.23312660e-01, 1.11940607e-01,
          1.52387798e-01, 1.66898891e-01, 1.80852309e-01, 2.65462250e-01,
          7.08000958e-02, 1.16356470e-01, 0. ]
      - [ 5.12340739e-02, 1.38347372e-01, 2.65867680e-01, 2.26205826e-01,
          0., 0., 0., 0., 0., 0., 7.16824234e-02, 2.39786014e-01,
          9.44282487e-02, 1.25040114e-01, 9.11497623e-02, 5.10283522e-02,
          1.41391620e-01, 1.22570723e-01, 9.39472020e-02, 1.81668848e-01,
          1.03748180e-01, 1.88932553e-01, 6.53997138e-02, 0., 0.,
          2.34131608e-02, 0., 1.87319681e-01, 2.05956757e-01,
          2.08471254e-01, 1.59117892e-01, 9.28682014e-02, 0.,
          9.85036790e-02, 1.43563300e-01, 5.68132997e-02, 2.79795695e-02,
          2.01754540e-01, 2.11921215e-01, 1.81069940e-01, 1.25294566e-01,
          1.46804482e-01, 0., 7.38286823e-02, 1.04615837e-01, 0.,
          9.23374668e-02, 1.23965867e-01, 1.01704679e-01, 1.28821865e-01,
          1.32255703e-01, 0., 4.25886624e-02, 0., 1.07987598e-01,
          1.95970148e-01, 1.89857826e-01, 1.64989352e-01, 1.24735802e-01,
          1.81296840e-01, 1.27644405e-01, 9.35262293e-02, 8.73338804e-02,
          6.56028390e-02 ]
      - [ 4.55094352e-02, 1.46802902e-01, 1.44756347e-01, 2.67045408e-01,
          0., 0., 0., 0., 0., 0., 0., 2.26007789e-01, 1.20715678e-01,
          1.09660514e-01, 1.18770093e-01, 1.55498758e-01, 4.44638310e-03,
          7.61320740e-02, 4.62037362e-02, 1.86972961e-01, 2.28262275e-01,
          9.04816315e-02, 3.73894745e-03, 0., 0., 0., 0., 0.,
          1.95790067e-01, 2.86199301e-01, 5.24786301e-02, 1.07876420e-01,
          0., 1.46689802e-01, 1.34163424e-01, 7.53158703e-02,
          1.69918641e-01, 1.34771660e-01, 1.69685304e-01, 1.86859503e-01,
          1.62857905e-01, 1.80099189e-01, 0., 0., 9.49079171e-02,
          1.07401840e-01, 1.10917918e-01, 4.21403684e-02, 1.24996826e-01,
          7.74510428e-02, 1.08215638e-01, 1.30838752e-01, 0.,
          3.17642018e-02, 1.98873386e-01, 1.29066914e-01, 1.63368165e-01,
          1.65207371e-01, 1.54836029e-01, 2.06074297e-01, 0.,
          1.78903282e-01, 6.41075522e-02, 1.28733620e-01 ]
      - [ 2.00526938e-01, 1.04404859e-01, 2.36879066e-01, 1.24965630e-01,
          2.10248068e-01, 2.72423960e-02, 0., 0., 0., 0., 0., 0.,
          2.23111868e-01, 1.54841498e-01, 6.95989057e-02, 4.26753014e-02,
          1.04464576e-01, 9.06329453e-02, 4.59135696e-02, 1.52511045e-01,
          1.18796982e-01, 1.84859753e-01, 1.12356573e-01, 0., 0., 0., 0.,
          0., 2.39279792e-01, 2.30543107e-01, 1.91668108e-01,
          1.07609957e-01, 1.09875411e-01, 1.09637007e-01, 0.,
          9.09356400e-02, 1.16397113e-01, 1.91156462e-01, 1.28925547e-01,
          2.05345109e-01, 2.12617293e-01, 1.25877038e-01, 0., 0.,
          4.58514653e-02, 0., 1.25923544e-01, 6.88117146e-02,
          1.33027077e-01, 1.47103831e-01, 7.42640719e-02, 0., 0., 0.,
          1.40656501e-01, 2.38756090e-01, 1.48611382e-01, 1.89588293e-01,
          1.50146469e-01, 1.53643712e-01, 9.01089534e-02, 0.,
          1.12560630e-01, 1.26783937e-01 ]
      - [ 9.22233611e-02, 1.56633541e-01, 1.40909806e-01, 1.78755909e-01,
          1.38136700e-01, 0., 0., 0., 0., 0., 2.47294027e-02,
          2.13017493e-01, 9.65831429e-02, 7.42483363e-02, 8.62099305e-02,
          1.23503610e-01, 7.83288106e-02, 8.50554854e-02, 7.74763376e-02,
          1.18100658e-01, 2.13063061e-01, 1.87157422e-01, 2.02793833e-02,
          0., 0., 0., 0., 0., 2.52300769e-01, 1.89600050e-01,
          1.93090677e-01, 5.23366258e-02, 1.24992833e-01, 7.22431988e-02,
          1.49318129e-01, 0., 1.69236839e-01, 1.85977653e-01,
          1.32809415e-01, 1.06613427e-01, 1.90754354e-01, 1.96321398e-01,
          1.51331015e-02, 0., 8.84472057e-02, 8.00796747e-02,
          1.09307066e-01, 5.72730005e-02, 8.81077796e-02, 0.,
          1.19279660e-01, 1.46897480e-01, 1.27710894e-01, 1.45771667e-01,
          2.01732799e-01, 1.26011297e-01, 1.19822279e-01, 1.40831932e-01,
          1.44328222e-01, 2.28328153e-01, 1.34415016e-01, 2.22189873e-01,
          0., 8.05232152e-02 ]
      - [ 7.62584060e-03, 1.27766669e-01, 2.09638327e-01, 2.40891740e-01,
          1.03040114e-01, 0., 0., 0., 0., 0., 0., 2.34967917e-01,
          1.33699790e-01, 1.40602082e-01, 9.11897048e-02, 9.32047591e-02,
          1.29580393e-01, 1.34219870e-01, 2.01474223e-02, 1.51141062e-01,
          1.35232210e-01, 1.56842008e-01, 9.23691317e-02, 0., 0., 0., 0.,
          0., 1.84363753e-01, 2.15987340e-01, 2.01317579e-01,
          1.34385213e-01, 0., 1.61046669e-01, 1.40170097e-01, 0.,
          2.29300067e-01, 1.43890411e-01, 1.71506003e-01, 1.26788154e-01,
          1.32406116e-01, 2.10113868e-01, 0., 9.06308740e-02,
          1.20801464e-01, 9.87713709e-02, 0., 7.89437667e-02, 0.,
          8.64644274e-02, 1.35494918e-01, 0., 0., 4.71394137e-02,
          1.73533037e-01, 1.18065186e-01, 2.21157417e-01, 1.83845103e-01,
          1.97689936e-01, 1.33607388e-01, 0., 1.22754663e-01,
          7.57877231e-02, 1.22749671e-01 ]
      - [ 4.15239409e-02, 1.44749209e-01, 1.82285741e-01, 2.29139075e-01,
          1.39699265e-01, 0., 0., 0., 0., 0., 0., 1.39278859e-01,
          1.17096037e-01, 1.01729281e-01, 9.78098512e-02, 1.17540568e-01,
          6.84328824e-02, 9.47299153e-02, 5.71358353e-02, 1.17553003e-01,
          2.19279379e-01, 8.68646950e-02, 0., 0., 0., 0., 0.,
          1.44676343e-01, 2.38614842e-01, 1.92547068e-01, 1.86470821e-01,
          1.45421475e-01, 6.89113587e-02, 0., 2.01889381e-01, 0.,
          1.85779542e-01, 1.12408616e-01, 1.79194987e-01, 1.53254762e-01,
          1.76969588e-01, 1.44206196e-01, 0., 7.94828013e-02,
          1.38860360e-01, 5.99736236e-02, 0., 7.78165087e-02, 0.,
          1.16640270e-01, 9.85158831e-02, 2.14234993e-01, 5.01275659e-02,
          7.61535764e-02, 1.69026971e-01, 1.58373013e-01, 1.23721085e-01,
          1.44777939e-01, 1.66951850e-01, 2.10124359e-01, 2.48084128e-01,
          8.61787051e-02, 6.28083497e-02, 0. ]
      - [ 1.12801172e-01, 1.75868079e-01, 2.94636488e-01, 1.80654049e-01,
          0., 0., 0., 0., 5.14787138e-02, 0., 1.51775226e-01,
          1.98203713e-01, 1.29985109e-01, 9.27497894e-02, 6.42173663e-02,
          6.00443259e-02, 7.94628076e-03, 1.55826330e-01, 2.04669610e-01,
          1.20815367e-01, 1.49863377e-01, 2.05746703e-02, 0., 0.,
          3.09771001e-02, 2.10063979e-02, 2.34219983e-01, 1.78241238e-01,
          1.69234499e-01, 1.20194234e-01, 1.12450473e-01, 1.10131808e-01,
          7.01066405e-02, 1.29497275e-01, 8.01229030e-02, 1.24585658e-01,
          1.19385168e-01, 1.59227595e-01, 2.00716674e-01, 1.38812557e-01,
          1.50721207e-01, 1.54648423e-01, 5.40524311e-02, 4.42838818e-02,
          8.26418474e-02, 0., 8.44448209e-02, 0., 2.08886728e-01,
          1.25200331e-01, 9.28764865e-02, 0., 0., 0., 3.42263542e-02,
          1.61280513e-01, 2.27261409e-01, 2.15846688e-01, 1.38274089e-01,
          1.56774789e-01, 1.24152176e-01, 0., 1.05554365e-01,
          8.49929899e-02 ]
      - [ 1.86144486e-01, 5.00808172e-02, 3.09921056e-01, 1.36785030e-01,
          0., 0., 0., 0., 0., 0., 1.35674715e-01, 1.47910282e-01,
          1.25357687e-01, 1.03524990e-01, 7.25669935e-02, 5.92516139e-02,
          1.21421225e-01, 5.74653037e-02, 1.47942707e-01, 1.58420324e-01,
          1.67947233e-01, 0., 0., 0., 0., 0., 0., 2.49861047e-01,
          1.65576890e-01, 1.50194511e-01, 1.63141817e-01, 0., 0.,
          1.03648774e-01, 3.70514095e-02, 8.73809010e-02, 1.83942601e-01,
          1.28990203e-01, 2.32145056e-01, 1.90465927e-01, 1.48713946e-01,
          1.29380360e-01, 0., 0., 7.98531026e-02, 1.22544654e-01, 0.,
          1.15090281e-01, 1.70418933e-01, 1.62141308e-01, 1.05037965e-01,
          0., 0., 0., 1.45704210e-01, 1.49253100e-01, 2.37948105e-01,
          1.76430807e-01, 2.32391909e-01, 4.70941775e-02, 1.29458085e-01,
          1.02997974e-01, 0., 1.58848897e-01 ]
      - [ 1.35349661e-01, 7.57700726e-02, 2.67877340e-01, 1.38486251e-01,
          1.86230496e-01, 3.50823514e-02, 0., 0., 0., 0., 9.14631188e-02,
          2.12396950e-01, 8.74165818e-02, 1.55957222e-01, 6.86219856e-02,
          0., 5.59705459e-02, 1.35019749e-01, 1.72708303e-01,
          1.36987969e-01, 1.64970756e-01, 1.18890420e-01, 0., 0., 0., 0.,
          1.41539901e-01, 2.33325303e-01, 1.44114122e-01, 1.59210578e-01,
          1.30194992e-01, 1.83778465e-01, 0., 1.29793048e-01,
          1.71665207e-01, 0., 2.02592686e-01, 1.41073599e-01,
          1.14048712e-01, 1.13417357e-01, 1.85951844e-01, 1.38039574e-01,
          0., 5.40188551e-02, 9.43651795e-02, 9.67707634e-02,
          7.41834939e-02, 0., 1.14310637e-01, 1.66043162e-01,
          1.37814581e-01, 0., 0., 0., 1.38851106e-01, 1.28121123e-01,
          2.10940316e-01, 1.56670883e-01, 2.09294990e-01, 1.82296067e-01,
          1.22335471e-01, 0., 8.05701986e-02, 0. ]
      - [ 9.05607864e-02, 1.31193146e-01, 1.34465262e-01, 1.92493394e-01,
          1.96300864e-01, 0., 0., 0., 0., 0., 0., 0., 1.62749648e-01,
          1.75452799e-01, 1.48997933e-01, 1.23720884e-01, 6.09466210e-02,
          8.84533003e-02, 7.86965191e-02, 1.51689649e-01, 2.10330725e-01,
          7.35058561e-02, 0., 0., 0., 0., 0., 1.41815484e-01,
          2.22508177e-01, 2.04759747e-01, 1.38555810e-01, 1.31720826e-02,
          1.38374448e-01, 8.67295414e-02, 1.10590912e-01, 1.06848873e-01,
          7.72928521e-02, 1.90442294e-01, 2.24370852e-01, 2.05009133e-01,
          1.64012745e-01, 1.41660824e-01, 0., 0., 4.14657928e-02,
          9.91047621e-02, 1.35407642e-01, 0., 1.44151226e-01, 0.,
          1.22121267e-01, 1.27479643e-01, 0., 0., 2.18777731e-01,
          1.96523979e-01, 4.59764712e-02, 1.67728290e-01, 1.94926202e-01,
          1.90942660e-01, 0., 1.58402398e-01, 1.65797234e-01,
          8.57388675e-02 ]
      - [ 1.01491645e-01, 1.41827062e-01, 2.69246280e-01, 2.46922940e-01,
          6.90347552e-02, 0., 0., 0., 0., 0., 0., 1.91771299e-01,
          1.83411479e-01, 8.70448127e-02, 4.89737429e-02, 7.30058476e-02,
          7.75878951e-02, 1.53498963e-01, 2.12998062e-01, 0., 0., 0., 0.,
          0., 7.75878951e-02, 0., 1.30762860e-01, 1.82539076e-01,
          1.41461119e-01, 1.40408173e-01, 1.41115606e-01, 9.54955220e-02,
          0., 0., 6.90561756e-02, 1.48857534e-01, 2.60299027e-01,
          1.56907767e-01, 1.48156866e-01, 1.26116082e-01, 1.35240391e-01,
          1.42839938e-01, 1.70635581e-01, 0., 1.00101426e-01,
          8.90346318e-02, 1.01611942e-01, 0., 1.78693503e-01,
          1.73849598e-01, 0., 0., 7.32455924e-02, 0., 1.50640056e-01,
          1.51975065e-01, 1.44626439e-01, 2.64478922e-01, 1.97144255e-01,
          0., 1.38374001e-01, 1.16011925e-01, 1.21318482e-01,
          4.33498286e-02 ]
      - [ 3.11036129e-02, 1.81044891e-01, 2.84049153e-01, 7.01685920e-02,
          0., 0., 0., 0., 0., 0., 1.78808942e-01, 6.69705272e-02,
          1.37216628e-01, 9.35134217e-02, 7.12257996e-02, 1.23639733e-01,
          8.37896243e-02, 1.20178036e-01, 1.18458286e-01, 8.27545822e-02,
          1.49468407e-01, 1.97645411e-01, 2.63363905e-02, 0., 0., 0., 0.,
          1.33279234e-01, 1.80141538e-01, 1.70538217e-01, 1.90359384e-01,
          1.60849452e-01, 0., 8.01267102e-02, 2.17500597e-01, 0.,
          1.55826539e-01, 1.73582703e-01, 1.42314076e-01, 1.68086931e-01,
          1.77613497e-01, 8.59042853e-02, 1.31010562e-01, 1.27141058e-01,
          8.38717222e-02, 0., 0., 3.63519713e-02, 8.47209394e-02,
          1.35009438e-02, 9.57678258e-02, 2.05807477e-01, 1.03181630e-01,
          5.11761755e-02, 1.76623970e-01, 1.53488055e-01, 1.16818212e-01,
          1.43208697e-01, 2.11629808e-01, 2.55076081e-01, 1.39160663e-01,
          8.86936262e-02, 9.33337510e-02, 7.93287233e-02 ]
      - [ 9.80033949e-02, 1.95178464e-01, 2.06715092e-01, 2.33455837e-01,
          0., 0., 0., 0., 0., 0., 0., 1.91209942e-01, 9.40746590e-02,
          1.20359361e-01, 1.41779780e-01, 1.06074780e-01, 1.29705504e-01,
          1.27478808e-01, 6.96518794e-02, 1.98478907e-01, 1.44194186e-01,
          0., 0., 0., 0., 0., 3.68226990e-02, 2.00034335e-01,
          1.55106202e-01, 2.37343639e-01, 8.12530965e-02, 7.14769959e-02,
          0., 9.90623459e-02, 0., 1.60088062e-01, 1.46797985e-01,
          2.01207638e-01, 1.52297184e-01, 1.53828576e-01, 1.88971549e-01,
          1.51412234e-01, 0., 0., 9.84978005e-02, 7.95153826e-02, 0., 0.,
          9.13087502e-02, 8.78179222e-02, 1.37569204e-01, 1.59559891e-01,
          0., 7.97842965e-02, 1.41997084e-01, 1.54503018e-01,
          1.77908376e-01, 2.00424999e-01, 1.78164169e-01, 1.99409470e-01,
          0., 2.22211078e-01, 9.84936953e-02, 0. ]
      - [ 7.37060905e-02, 1.09339200e-01, 1.73302621e-01, 3.11145604e-01,
          0., 0., 0., 0., 0., 0., 0., 2.21452281e-01, 1.36015654e-01,
          1.01091877e-01, 1.13171667e-01, 1.23770840e-01, 1.42699838e-01,
          9.51965228e-02, 1.60506174e-01, 1.95204318e-01, 0., 0., 0., 0.,
          0., 0., 3.43138650e-02, 2.45141655e-01, 1.23089917e-01,
          1.74467847e-01, 1.35111019e-01, 7.49968216e-02, 1.18542649e-01,
          5.84753230e-02, 1.38716772e-01, 6.17847368e-02, 1.91756040e-01,
          1.23963527e-01, 2.01769844e-01, 1.73519522e-01, 1.81191504e-01,
          8.05452615e-02, 0., 1.04838207e-01, 1.69566095e-01,
          8.79320279e-02, 0., 3.01104188e-02, 1.19582780e-01,
          5.23116626e-02, 1.52088031e-01, 1.81129292e-01, 0., 0.,
          3.15775089e-02, 1.62266210e-01, 1.23819359e-01, 2.71748334e-01,
          1.90169364e-01, 1.70060545e-01, 8.20555761e-02, 0.,
          9.43880081e-02, 6.66884109e-02 ]
      - [ 8.78470540e-02, 1.24670193e-01, 2.27343738e-01, 2.92421579e-01,
          1.26678556e-01, 0., 0., 0., 0., 0., 0., 2.00605050e-01,
          1.30936831e-01, 1.03032000e-01, 8.08343664e-02, 5.66409156e-02,
          1.59272626e-01, 8.32862854e-02, 9.87856463e-02, 2.62523443e-01,
          1.29921651e-02, 0., 0., 0., 7.12142140e-02, 6.23203581e-03,
          1.26544172e-02, 2.81317472e-01, 2.10315302e-01, 1.36326596e-01,
          1.07434265e-01, 5.16227260e-02, 6.35977536e-02, 7.98215196e-02,
          0., 8.49501565e-02, 1.85930118e-01, 1.91639245e-01,
          1.57858491e-01, 1.40709713e-01, 9.83160138e-02, 1.50684685e-01,
          5.93043230e-02, 0., 4.50927988e-02, 8.41394067e-02,
          6.81970417e-02, 0., 0., 1.07474186e-01, 2.06335619e-01,
          9.88373682e-02, 0., 1.07898571e-01, 1.44522578e-01,
          1.19680271e-01, 1.19043216e-01, 1.54933780e-01, 2.40164310e-01,
          1.71503589e-01, 1.82161927e-01, 1.01777308e-01, 8.39900970e-02,
          5.70772588e-02 ]
      - [ 1.21491000e-01, 1.38441801e-01, 2.55141079e-01, 2.86706895e-01,
          0., 0., 0., 0., 8.35379884e-02, 0., 0., 0., 2.19220966e-01,
          9.86113995e-02, 1.06793426e-01, 3.15540433e-02, 9.30058286e-02,
          1.88709751e-01, 2.14134440e-01, 0., 0., 0., 0., 0.,
          8.59452635e-02, 8.40015486e-02, 1.36423007e-01, 1.08684406e-01,
          1.89314023e-01, 2.30584145e-01, 1.45497158e-01, 6.51864633e-02,
          0., 0., 1.16343893e-01, 0., 2.08214045e-01, 1.47214293e-01,
          1.46023721e-01, 5.67248426e-02, 1.49109289e-01, 2.32377678e-01,
          1.64999530e-01, 0., 8.36307853e-02, 0., 9.14032385e-02,
          7.43807778e-02, 0., 1.68599918e-01, 4.35017571e-02, 0., 0.,
          1.58113509e-01, 2.15991274e-01, 1.45762563e-01, 1.51643291e-01,
          2.20395982e-01, 1.92173257e-01, 0., 0., 3.80946808e-02,
          1.13582075e-01, 1.36730343e-01 ]
      - [ 1.16361953e-01, 1.44593582e-01, 1.73586622e-01, 1.98957115e-01,
          0., 4.18189168e-02, 0., 0., 0., 0., 1.35787472e-01,
          9.42695141e-02, 1.46517560e-01, 1.57788977e-01, 1.20016895e-01,
          1.27585724e-01, 9.12603512e-02, 2.17391104e-02, 1.15797497e-01,
          1.36790365e-01, 1.92027122e-01, 7.82078356e-02, 1.42886639e-01,
          8.69693682e-02, 1.20379098e-01, 6.03364781e-02, 0., 0.,
          2.02846587e-01, 1.52854472e-01, 1.94420949e-01, 1.33849651e-01,
          0., 1.28266528e-01, 0., 6.52481616e-02, 1.59979016e-01,
          1.68551996e-01, 2.52321601e-01, 1.27936348e-01, 1.77837864e-01,
          2.78626159e-02, 0., 1.11549437e-01, 1.63687542e-01,
          1.41777113e-01, 0., 1.06730349e-01, 1.24484263e-01,
          1.28374219e-01, 1.69439003e-01, 1.30674526e-01, 0., 0.,
          3.73330489e-02, 1.77376032e-01, 1.83130115e-01, 1.66922167e-01,
          1.99870840e-01, 1.87077880e-01, 0., 4.68115024e-02,
          1.30769670e-01, 1.23816013e-01 ]
      - [ 1.65348142e-01, 1.65249780e-01, 2.20127910e-01, 1.36612445e-01,
          1.28825471e-01, 1.52612537e-01, 0., 0., 0., 0., 2.17826366e-02,
          0., 0., 2.09407777e-01, 1.69288903e-01, 1.00488357e-01,
          1.27193063e-01, 1.28869727e-01, 4.55263965e-02, 1.63265243e-01,
          1.83126420e-01, 0., 4.89643812e-02, 0., 0., 0., 0.,
          2.04377845e-01, 2.40213454e-01, 1.44683033e-01, 1.62180454e-01,
          2.01802164e-01, 0., 9.18311924e-02, 7.02615008e-02,
          4.40618582e-02, 0., 1.92047611e-01, 2.14338243e-01,
          2.86977589e-01, 0., 0., 0., 5.31900525e-02, 0., 6.16565607e-02,
          0., 8.93283561e-02, 7.22255781e-02, 1.25132084e-01,
          1.66077927e-01, 0., 0., 0., 1.52301297e-01, 1.38819516e-01,
          1.79366335e-01, 2.07303822e-01, 2.05684721e-01, 2.23955393e-01,
          0., 9.01765525e-02, 9.28428769e-02, 0. ]
      - [ 1.05004974e-01, 8.82122442e-02, 2.19336629e-01, 2.66810864e-01,
          1.83865562e-01, 0., 0., 0., 0., 0., 0., 0., 2.02436537e-01,
          1.25447020e-01, 6.92733750e-02, 1.48338631e-01, 7.97110498e-02,
          8.90512541e-02, 1.87645420e-01, 1.83398426e-01, 0., 0., 0., 0.,
          0., 0., 5.20814508e-02, 2.35118002e-01, 2.64414489e-01,
          2.02968165e-01, 6.88337982e-02, 5.56233823e-02, 1.08762085e-01,
          3.24015506e-02, 1.20499015e-01, 0., 2.01815248e-01,
          1.64039031e-01, 1.39061317e-01, 1.91711739e-01, 2.91774441e-02,
          1.65273219e-01, 1.62834361e-01, 0., 9.11782384e-02, 0.,
          5.89006059e-02, 0., 1.35067925e-01, 1.32251769e-01,
          1.53701752e-01, 0., 0., 6.36831820e-02, 1.84475005e-01,
          1.35013804e-01, 1.38345018e-01, 1.90579370e-01, 1.71872079e-01,
          1.89061046e-01, 1.34156823e-01, 9.66183394e-02, 0.,
          5.62063567e-02 ]
      - [ 2.76616402e-02, 1.62455618e-01, 1.72967821e-01, 2.49673247e-01,
          1.58673719e-01, 0., 0., 0., 0., 0., 1.33644626e-01,
          1.28221378e-01, 9.08789337e-02, 1.11778989e-01, 9.34433192e-02,
          1.49012133e-01, 0., 1.51401997e-01, 1.10493034e-01,
          1.84550568e-01, 1.23628765e-01, 0., 0., 0., 0., 0.,
          6.38228208e-02, 1.81102142e-01, 2.47805968e-01, 2.00076595e-01,
          6.60472438e-02, 9.73355025e-02, 8.74672309e-02, 9.91158932e-02,
          1.34287745e-01, 1.68584630e-01, 1.79028943e-01, 1.27190426e-01,
          1.56696662e-01, 1.22722536e-01, 1.37638971e-01, 2.26328567e-01,
          1.01128437e-01, 8.90092403e-02, 8.92011374e-02, 1.01079240e-01,
          0., 8.63621086e-02, 0., 8.19712654e-02, 9.83526781e-02,
          7.41434172e-02, 1.05546698e-01, 3.09361536e-02, 2.21254379e-01,
          2.12543145e-01, 9.58124176e-02, 8.80442634e-02, 6.51362389e-02,
          1.83418632e-01, 2.05864280e-01, 1.35723829e-01, 1.19689025e-01,
          9.49611738e-02 ]
      - [ 1.39192909e-01, 1.26633301e-01, 1.42501965e-01, 2.57587224e-01,
          0., 0., 0., 0., 0., 0., 0., 0., 1.67619675e-01, 1.60467178e-01,
          1.56587347e-01, 1.88485861e-01, 1.38210371e-01, 1.06978059e-01,
          1.61621824e-01, 1.36889413e-01, 1.28193796e-01, 1.09895267e-01,
          0., 0., 0., 0., 0., 0., 1.54254138e-01, 2.31227070e-01,
          1.78669930e-01, 2.33088657e-01, 5.49903922e-02, 0., 0.,
          1.52545393e-01, 2.10256308e-01, 8.89073536e-02, 1.56187221e-01,
          2.17534065e-01, 2.39369079e-01, 1.07254036e-01, 0., 0., 0.,
          2.63671186e-02, 4.61318083e-02, 5.87698519e-02, 5.44439070e-02,
          5.12201227e-02, 4.72731739e-02, 6.31604493e-02, 0.,
          2.73626056e-02, 2.29606971e-01, 1.51047543e-01, 1.52285650e-01,
          2.60113209e-01, 1.76770106e-01, 2.17318431e-01, 0.,
          2.87819877e-02, 1.01238459e-01, 5.39457947e-02 ]
      - [ 1.53063506e-01, 9.73578840e-02, 1.94739997e-01, 2.28413329e-01,
          1.48684576e-01, 3.28239650e-02, 0., 0., 0., 0., 0., 0.,
          1.67480126e-01, 1.69041812e-01, 8.59528929e-02, 1.50916249e-01,
          1.28388032e-01, 1.05440870e-01, 1.28455848e-01, 1.52244762e-01,
          1.20815799e-01, 9.12172571e-02, 1.30828962e-01, 6.58559278e-02,
          0., 0., 0., 0., 2.01017231e-01, 3.14583451e-01, 1.49638519e-01,
          0., 1.07345477e-01, 1.18158370e-01, 6.22962341e-02, 0., 0.,
          2.07588688e-01, 1.96218699e-01, 1.46440119e-01, 1.85883746e-01,
          1.91284597e-01, 0., 0., 0., 0., 9.48752016e-02, 0.,
          1.36664525e-01, 1.31094918e-01, 8.52391869e-02, 0., 0., 0.,
          1.86325133e-01, 2.44687200e-01, 1.34272799e-01, 1.56214997e-01,
          2.00506628e-01, 1.91079408e-01, 0., 0., 9.44634750e-02,
          1.23588420e-01 ]
      - [ 4.51873019e-02, 1.83483183e-01, 2.06544086e-01, 1.53088212e-01,
          1.38832018e-01, 7.97772110e-02, 0., 0., 0., 0., 0.,
          1.66812494e-01, 1.59920231e-01, 1.76811308e-01, 1.57335222e-01,
          1.26136646e-01, 7.29595497e-02, 8.75962526e-02, 8.10938403e-02,
          1.77587897e-01, 1.72235295e-01, 1.96770534e-01, 2.74361484e-02,
          0., 0., 0., 0., 6.87986910e-02, 2.43330151e-01, 2.12055773e-01,
          1.54273018e-01, 6.74399808e-02, 8.92631263e-02, 0.,
          1.11350589e-01, 0., 8.90803412e-02, 1.73764974e-01,
          2.25252211e-01, 2.29048818e-01, 5.86957149e-02, 0.,
          5.60174771e-02, 1.68209597e-01, 8.95143151e-02, 5.87218553e-02,
          8.57642442e-02, 0., 1.58453405e-01, 1.92531690e-01,
          1.64544910e-01, 4.91477400e-02, 5.34587987e-02, 0.,
          2.82133501e-02, 2.10142657e-01, 1.45523608e-01, 1.71315923e-01,
          2.46799156e-01, 1.43364400e-01, 0., 0., 0., 5.34925088e-02 ]
      - [ 1.64706081e-01, 1.96386248e-01, 1.07840873e-01, 6.34501055e-02,
          1.10329323e-01, 1.29174888e-01, 1.27725407e-01, 1.63032249e-01,
          0., 0., 0., 0., 0., 0., 0., 5.23330681e-02, 1.67188704e-01, 0.,
          0., 0., 1.60508305e-01, 1.08178236e-01, 8.19193646e-02, 0., 0.,
          0., 1.05935231e-01, 2.17729121e-01, 1.67497486e-01,
          1.59653351e-01, 1.73776314e-01, 1.20861091e-01, 2.89826035e-01,
          0., 1.12010188e-01, 9.19415578e-02, 3.28104049e-02,
          8.65576938e-02, 1.42985195e-01, 3.22290421e-01, 1.56727225e-01,
          0., 0., 0., 0., 0., 0., 1.92755982e-01, 8.18629488e-02,
          1.12676471e-01, 1.09272040e-01, 0., 0., 0., 5.29452525e-02,
          2.75276721e-01, 2.80497998e-01, 6.12911843e-02, 8.64250958e-02,
          8.59100744e-02, 9.66467038e-02, 1.16806328e-01, 2.43283242e-01,
          1.61475942e-01 ]
      - [ 1.02413706e-01, 1.63913727e-01, 9.09211412e-02, 1.40197814e-01,
          5.11615463e-02, 1.96519539e-01, 2.33648583e-01, 0., 0., 0., 0.,
          0., 0., 0., 2.34998345e-01, 1.43574610e-01, 2.21253693e-01, 0.,
          0., 6.39433563e-02, 0., 0., 0., 0., 0., 0., 0., 0., 0.,
          1.52089611e-01, 3.17235678e-01, 2.13780954e-01, 1.84145659e-01,
          2.27706030e-01, 1.52758703e-01, 1.25665247e-01, 1.26526788e-01,
          1.43685311e-01, 6.06011450e-02, 1.29036725e-01, 2.75957346e-01,
          1.70656890e-01, 0., 0., 0., 0., 0., 0., 4.71376814e-02, 0.,
          5.72709814e-02, 0., 0., 0., 0., 0., 4.32915151e-01,
          1.51271179e-01, 1.00399196e-01, 0., 1.39002398e-01,
          4.82275151e-02, 5.06615378e-02, 5.74941412e-02 ]
      - [ 8.19089264e-02, 2.81509221e-01, 1.25917807e-01, 1.21333636e-01,
          1.49356723e-01, 1.06688477e-01, 1.07733175e-01, 1.52485877e-01,
          6.27899766e-02, 2.00281247e-01, 2.40198895e-02, 0., 0., 0., 0.,
          0., 1.63885191e-01, 5.73590547e-02, 0., 1.47038981e-01,
          1.10816814e-01, 9.89145413e-02, 6.71355575e-02, 0., 0.,
          1.81547571e-02, 5.52025177e-02, 3.05606931e-01, 1.15015171e-01,
          1.30597219e-01, 1.42117783e-01, 1.06950983e-01, 0.,
          2.48570934e-01, 1.70983985e-01, 2.05601469e-01, 1.14543207e-01,
          8.16939175e-02, 1.13696843e-01, 1.29411936e-01, 1.96405277e-01,
          1.29213005e-01, 0., 0., 1.92096345e-02, 0., 0., 0.,
          1.81062758e-01, 4.11240086e-02, 0., 1.12788819e-01, 0., 0., 0.,
          0., 2.60017335e-01, 2.49464408e-01, 9.64037776e-02,
          1.78142264e-01, 1.33834973e-01, 1.15456901e-01, 1.08374439e-01,
          1.83836773e-01 ]
      - [ 1.06945992e-01, 3.30163628e-01, 6.43722862e-02, 0., 0., 0., 0.,
          0., 5.15749380e-02, 1.00509331e-01, 0., 0., 0., 0., 0., 0.,
          1.26969188e-01, 2.62051612e-01, 0., 0., 8.72945637e-02,
          1.37526840e-01, 0., 0., 9.18589681e-02, 1.38636485e-01,
          1.11305058e-01, 2.37071022e-01, 1.65284932e-01, 1.19012371e-01,
          1.10237330e-01, 1.00184567e-01, 7.36913532e-02, 1.78218961e-01,
          7.25363269e-02, 0., 1.47431895e-01, 8.84562731e-02,
          1.92165837e-01, 3.07471722e-01, 7.49456435e-02, 0.,
          1.35704562e-01, 6.21015392e-02, 8.15169811e-02, 8.74867365e-02,
          9.56778675e-02, 7.46852756e-02, 1.99438240e-02, 9.16648284e-02,
          1.02084398e-01, 0., 1.30105868e-01, 4.87434193e-02,
          2.34423339e-01, 2.08775967e-01, 1.62983432e-01, 8.20365995e-02,
          8.46639276e-02, 2.10168287e-01, 9.76652429e-02, 1.50913566e-01,
          2.24156857e-01, 1.63524628e-01 ]
      - [ 1.77450746e-01, 2.73353934e-01, 9.87054929e-02, 8.55621621e-02,
          1.35801926e-01, 1.84650123e-01, 1.04214571e-01, 1.29892915e-01,
          1.70139521e-01, 0., 0., 0., 0., 0., 0., 0., 2.22686261e-01,
          4.52625118e-02, 0., 0., 0., 0., 0., 0., 0., 0., 3.95789519e-02,
          6.39537498e-02, 2.65721858e-01, 1.93175644e-01, 9.39401686e-02,
          1.84176713e-01, 1.91839591e-01, 1.86384752e-01, 1.92369014e-01,
          1.45374298e-01, 1.27557129e-01, 6.01658709e-02, 1.15036033e-01,
          2.28415221e-01, 1.73198566e-01, 1.50761202e-01, 0., 0., 0., 0.,
          0., 0., 1.95529744e-01, 5.25076054e-02, 3.80558521e-02, 0., 0.,
          0., 0., 0., 3.71881962e-01, 2.37694889e-01, 9.50497016e-02, 0.,
          9.80615392e-02, 1.35462344e-01, 7.90643767e-02, 1.06546976e-01 ]
      - [ 2.41047278e-01, 8.25793073e-02, 9.50197056e-02, 9.80103239e-02,
          0., 9.36086252e-02, 1.43259391e-01, 2.55158514e-01,
          9.23712924e-02, 0., 0., 0., 0., 0., 7.81193003e-03,
          1.83890611e-01, 2.20906004e-01, 2.63122059e-02, 0., 0.,
          8.75764787e-02, 0., 1.38787106e-01, 0., 0., 0., 0., 0., 0.,
          2.35698357e-01, 2.05785185e-01, 1.95746198e-01, 2.97409505e-01,
          1.35965988e-01, 1.09535731e-01, 7.78878853e-02, 1.23582184e-01,
          5.83010763e-02, 1.32799491e-01, 1.32766604e-01, 2.91573495e-01,
          2.25510988e-02, 0., 0., 0., 0., 3.22372392e-02, 0.,
          1.33476600e-01, 1.06423736e-01, 1.30503625e-01, 1.04900025e-01,
          0., 0., 1.56238601e-02, 2.25214899e-01, 2.92341530e-01,
          2.58994401e-01, 0., 1.45586804e-01, 0., 0., 1.29775271e-01,
          5.26977070e-02 ]
      - [ 1.50902778e-01, 2.78710395e-01, 1.08823411e-01, 8.46807212e-02,
          8.42434540e-02, 6.41631037e-02, 8.25102702e-02, 7.39750415e-02,
          2.39072531e-01, 1.70544818e-01, 0., 0., 0., 0., 0., 0.,
          1.89379588e-01, 2.84186341e-02, 6.07192107e-02, 2.13756889e-01,
          7.89955109e-02, 0., 1.00408420e-01, 7.37552717e-02,
          5.51374480e-02, 1.20184585e-01, 6.05264269e-02, 2.31937602e-01,
          1.71208143e-01, 1.30939722e-01, 9.52432156e-02, 1.41366124e-01,
          2.85038710e-01, 1.19870536e-01, 7.36591443e-02, 7.01859742e-02,
          7.11221546e-02, 1.12032950e-01, 1.50484890e-01, 1.67484805e-01,
          2.09930480e-01, 3.67667936e-02, 1.32572502e-02, 0., 0., 0., 0.,
          0., 6.80733770e-02, 8.17841664e-02, 1.29629567e-01,
          1.29302382e-01, 0., 8.03710744e-02, 1.79927424e-01,
          1.14448585e-01, 1.63412973e-01, 2.01253802e-01, 1.91784725e-01,
          1.15441248e-01, 1.23518504e-01, 1.75948426e-01, 1.10263303e-01,
          1.42102346e-01 ]
      - [ 2.87071824e-01, 2.86728621e-01, 1.32869035e-01, 0., 0.,
          6.97753355e-02, 0., 6.24946207e-02, 0., 0., 0., 0., 0., 0., 0.,
          1.69915743e-02, 2.75313258e-01, 3.76740880e-02, 0., 0., 0., 0.,
          0., 0., 0., 0., 0., 0., 1.89531162e-01, 1.90097287e-01,
          1.86341345e-01, 1.67019352e-01, 0., 0., 1.75095931e-01,
          2.03291416e-01, 1.58178553e-01, 1.58432379e-01, 1.62041798e-01,
          1.60893753e-01, 3.33538055e-01, 7.26674348e-02, 0., 0., 0., 0.,
          0., 0., 1.62927955e-01, 0., 0., 0., 0., 0., 0., 0.,
          4.15377170e-01, 2.08948374e-01, 7.95737654e-02, 1.51864082e-01,
          7.83911496e-02, 1.03969231e-01, 6.53708205e-02, 1.12334922e-01 ]
      - [ 0., 1.19386695e-01, 3.33143175e-01, 6.96870387e-02,
          9.23253372e-02, 0., 0., 7.38044456e-02, 8.33005831e-02, 0.,
          1.68986619e-01, 0., 0., 0., 0., 0., 9.29171368e-02,
          1.69852957e-01, 0., 6.51325509e-02, 8.94027725e-02,
          9.33814421e-02, 7.26973712e-02, 0., 0., 0., 1.76768109e-01,
          2.42201045e-01, 1.30142689e-01, 1.39537916e-01, 7.29110390e-02,
          1.27496779e-01, 4.92965356e-02, 8.13921243e-02, 2.32694924e-01,
          2.86822528e-01, 1.51776969e-01, 6.51892871e-02, 1.35653540e-01,
          9.90199745e-02, 7.90672675e-02, 2.30752870e-01, 1.94568142e-01,
          0., 0., 0., 0., 0., 1.79855332e-01, 1.89497635e-01,
          5.08097000e-02, 0., 0., 0., 0., 1.41770437e-01, 1.23726651e-01,
          2.98770964e-01, 1.65439084e-01, 1.74614161e-01, 7.57780597e-02,
          1.48426339e-01, 1.19809806e-01, 1.22530125e-01 ]
      - [ 2.13962004e-01, 2.78864115e-01, 1.58696145e-01, 0.,
          1.39520392e-01, 1.06433980e-01, 1.32681787e-01, 0.,
          1.33816332e-01, 2.30937555e-01, 0., 0., 5.08686453e-02, 0., 0.,
          0., 1.50976971e-01, 1.06306495e-02, 0., 0., 1.17119856e-01,
          1.34599447e-01, 0., 0., 0., 0., 0., 0., 2.21582457e-01,
          2.14143530e-01, 1.68554068e-01, 1.94497764e-01, 1.65545806e-01,
          2.30507225e-01, 1.40948117e-01, 1.01562254e-01, 6.13346100e-02,
          1.07315585e-01, 9.71223861e-02, 1.49700925e-01, 1.73870474e-01,
          2.50520170e-01, 0., 0., 0., 0., 5.60743846e-02, 0.,
          9.65832770e-02, 0., 1.17982112e-01, 1.31673694e-01, 0., 0.,
          7.69901797e-02, 0., 3.09048623e-01, 2.32981414e-01,
          1.25238478e-01, 6.92588165e-02, 1.14271112e-01, 8.86599571e-02,
          7.38249496e-02, 1.26393810e-01 ]
      - [ 2.27832153e-01, 2.52479315e-01, 9.23304036e-02, 4.91859876e-02,
          8.74430165e-02, 8.53890851e-02, 0., 0., 1.43203348e-01,
          2.35020950e-01, 0., 0., 0., 0., 4.60626222e-02, 0.,
          6.83324412e-02, 2.07795754e-01, 7.23999813e-02, 0.,
          1.08005442e-01, 1.51160300e-01, 9.35259238e-02, 1.30139187e-01,
          0., 0., 2.89694127e-02, 1.74828559e-01, 1.69262052e-01,
          2.16827378e-01, 9.91469622e-02, 9.75990146e-02, 2.30581865e-01,
          1.80915937e-01, 7.30563402e-02, 8.26530308e-02, 8.49052593e-02,
          8.61023739e-02, 9.30595174e-02, 1.64848149e-01, 2.62522936e-01,
          1.40078261e-01, 0., 0., 4.50102948e-02, 0., 0., 0.,
          1.73640236e-01, 9.68223065e-02, 0., 1.02174528e-01,
          1.28692821e-01, 0., 0., 1.74923420e-01, 3.12712878e-01,
          1.28813818e-01, 9.12835672e-02, 6.89819157e-02, 6.75023124e-02,
          1.62646383e-01, 1.85127184e-01, 1.09165080e-01 ]
      - [ 0., 3.72867674e-01, 1.65309891e-01, 0., 0., 1.21739544e-01,
          8.98385718e-02, 0., 0., 1.01521917e-01, 0., 6.55532628e-02, 0.,
          0., 0., 0., 2.66549438e-01, 5.54521829e-02, 4.46990766e-02, 0.,
          0., 0., 0., 0., 0., 0., 0., 1.93754151e-01, 1.94639355e-01,
          1.94457382e-01, 1.93388596e-01, 6.96148574e-02, 0.,
          1.03119664e-01, 2.08065510e-01, 1.12161040e-01, 1.10675037e-01,
          8.84457827e-02, 1.05811499e-01, 2.94686228e-01, 2.03378305e-01,
          5.49587794e-02, 0., 9.31634828e-02, 0., 1.14053220e-01, 0.,
          8.17407742e-02, 1.93369299e-01, 0., 8.60332325e-02, 0., 0., 0.,
          7.48271123e-02, 1.00755289e-01, 3.87964249e-01, 1.67742133e-01,
          1.44818321e-01, 0., 1.38751209e-01, 1.04120173e-01, 0.,
          1.30049571e-01 ]
      - [ 3.05233091e-01, 1.39231533e-01, 1.67657301e-01, 1.17659256e-01,
          1.33178353e-01, 1.20332979e-01, 1.21560760e-01, 0., 0., 0., 0.,
          0., 0., 0., 0., 1.51437208e-01, 2.49723569e-01, 1.02709951e-02,
          0., 0., 0., 0., 0., 0., 0., 0., 0., 0., 1.43204585e-01,
          2.38607705e-01, 2.13762984e-01, 2.10831493e-01, 0., 0., 0.,
          2.36847818e-01, 2.62854487e-01, 1.67923614e-01, 1.97476238e-01,
          2.30369136e-01, 1.20167077e-01, 0., 0., 0., 0., 0., 0., 0., 0.,
          0., 0., 0., 0., 0., 0., 0., 3.25591326e-01, 1.32721201e-01,
          2.28472978e-01, 3.30810100e-01, 1.89776383e-02, 0., 0., 0. ]
      - [ 2.04103351e-01, 1.23732790e-01, 1.73450008e-01, 1.39137506e-01,
          0., 1.56206116e-01, 1.70689180e-01, 4.38412055e-02,
          1.96123928e-01, 0., 0., 0., 0., 0., 2.56238468e-02,
          1.34887904e-01, 1.17378399e-01, 0., 9.78672951e-02,
          1.08047806e-01, 1.04785845e-01, 7.78422356e-02, 0., 0., 0., 0.,
          0., 1.55643791e-01, 2.35262871e-01, 1.46056071e-01,
          1.95673272e-01, 1.35869890e-01, 1.69380710e-01, 2.49252781e-01,
          2.11985737e-01, 0., 1.26302913e-01, 9.62331295e-02,
          1.31188825e-01, 1.30465850e-01, 1.32618874e-01, 2.74249315e-01,
          0., 0., 0., 0., 0., 3.56394313e-02, 1.60826623e-01, 0.,
          8.48794952e-02, 0., 0., 3.53227518e-02, 2.14879941e-02,
          1.36956796e-01, 3.45641851e-01, 1.44796863e-01, 8.75137225e-02,
          1.36614904e-01, 4.52675708e-02, 1.22211806e-01, 1.51034430e-01,
          1.47413254e-01 ]
      - [ 2.11767316e-01, 1.15878358e-01, 5.11457436e-02, 6.94957003e-02,
          1.35768488e-01, 6.09978363e-02, 1.59831554e-01, 1.91282853e-01,
          0., 0., 0., 0., 0., 0., 4.24864935e-03, 1.70587301e-01,
          7.32351765e-02, 0., 1.02160737e-01, 9.87907425e-02,
          9.25287753e-02, 1.02885880e-01, 9.43035781e-02, 1.39916882e-01,
          0., 0., 0., 0., 1.70926601e-01, 2.22350851e-01, 1.76529378e-01,
          2.33286425e-01, 2.61761457e-01, 1.41516939e-01, 9.95288193e-02,
          1.40040949e-01, 5.05479611e-02, 1.30002558e-01, 1.25809729e-01,
          1.56039372e-01, 2.90772468e-01, 2.92093363e-02, 0., 0., 0., 0.,
          0., 1.24866664e-01, 1.08453117e-01, 1.38914853e-01,
          8.36374983e-02, 0., 0., 1.26838475e-01, 1.42118454e-01,
          1.74022645e-01, 2.27777407e-01, 2.02206030e-01, 1.89550474e-01,
          7.51461312e-02, 1.35704860e-01, 8.75682980e-02, 1.32725105e-01,
          1.48649439e-01 ]
      - [ 2.16117844e-01, 1.18867598e-01, 6.24550991e-02, 0.,
          1.06724583e-01, 7.44197592e-02, 9.76972133e-02, 1.29987031e-01,
          1.13947928e-01, 0., 0., 0., 0., 0., 7.29905162e-03,
          1.36592746e-01, 1.33545548e-01, 1.26423277e-02, 1.01375110e-01,
          1.18932948e-01, 1.51936367e-01, 1.21984214e-01, 1.17186591e-01,
          0., 0., 0., 0., 0., 2.67145902e-01, 1.91313490e-01,
          1.46538302e-01, 1.38937235e-01, 2.30580270e-01, 9.73295867e-02,
          1.21274181e-01, 4.69798446e-02, 1.26465693e-01, 8.30947235e-02,
          1.90140933e-01, 2.45339960e-01, 2.00275913e-01, 1.72575414e-02,
          0., 0., 0., 0., 3.99841033e-02, 1.76748991e-01, 1.14158310e-01,
          1.44813895e-01, 1.50526062e-01, 0., 0., 0., 1.90519929e-01,
          1.95483938e-01, 2.43303984e-01, 2.27410153e-01, 9.61053222e-02,
          1.24389544e-01, 1.41214564e-01, 1.33928865e-01, 1.65142477e-01,
          1.15537755e-01 ]
      - [ 2.78014690e-01, 1.35544389e-01, 1.14267632e-01, 7.21790791e-02,
          8.12739879e-02, 4.85600010e-02, 1.16713315e-01, 2.11115614e-01,
          1.91894770e-01, 0., 0., 0., 2.04264503e-02, 0., 4.27341694e-03,
          0., 2.05622107e-01, 1.70886874e-01, 7.94642419e-02,
          1.09982751e-01, 0., 1.41488135e-01, 0., 0., 0., 0., 0.,
          1.90477833e-01, 9.68782082e-02, 2.52222270e-01, 1.69116855e-01,
          1.38632596e-01, 2.50538677e-01, 1.65698424e-01, 6.57166541e-02,
          5.12356274e-02, 1.24300845e-01, 1.67424813e-01, 1.76688269e-01,
          1.27486482e-01, 2.24243566e-01, 0., 0., 0., 0., 0., 0.,
          1.35140523e-01, 0., 0., 1.49877399e-01, 0., 4.44723926e-02,
          1.09260283e-01, 1.16893776e-01, 1.29308850e-01, 1.77575171e-01,
          2.19268113e-01, 2.24553496e-01, 2.23165229e-01, 7.20183253e-02,
          6.73636645e-02, 0., 4.05123830e-02 ]
      - [ 1.98368698e-01, 2.30325788e-01, 1.12321727e-01, 9.64173824e-02,
          9.86401141e-02, 5.88380843e-02, 1.61635488e-01, 8.97473916e-02,
          1.75033420e-01, 2.07737222e-01, 0., 0., 2.39568781e-02, 0.,
          3.65809426e-02, 1.49635762e-01, 2.16049686e-01, 8.94904435e-02,
          0., 1.24512665e-01, 0., 1.11763366e-01, 0., 0., 0., 0., 0., 0.,
          0., 2.40042448e-01, 2.59801894e-01, 1.73405588e-01,
          1.90377831e-01, 2.48868182e-01, 6.37539327e-02, 9.57585052e-02,
          0., 1.78699374e-01, 1.39030308e-01, 1.60512716e-01,
          1.95514008e-01, 8.79772678e-02, 0., 0., 0., 0., 1.94134153e-02,
          0., 4.61281613e-02, 6.13559447e-02, 1.49274185e-01, 0., 0., 0.,
          6.26085401e-02, 2.02112779e-01, 2.52851188e-01, 2.31194779e-01,
          2.46575356e-01, 8.73103663e-02, 9.39044207e-02, 0., 0., 0. ]
      - [ 2.80738443e-01, 1.14490688e-01, 9.94670838e-02, 7.34459981e-02,
          1.40500039e-01, 8.21266696e-02, 9.44329053e-02, 1.79798052e-01,
          2.05447227e-01, 3.43819633e-02, 0., 0., 0., 0., 0.,
          1.72275417e-02, 1.31741017e-01, 0., 4.65366766e-02,
          1.34190708e-01, 1.55887961e-01, 9.26231816e-02, 0., 0., 0., 0.,
          0., 5.07159308e-02, 2.61248410e-01, 2.10134298e-01,
          1.22338660e-01, 1.81187972e-01, 3.01574975e-01, 1.86745152e-01,
          9.66585055e-02, 2.60265563e-02, 8.29638615e-02, 2.05281988e-01,
          1.52461752e-01, 1.74373582e-01, 2.21528038e-01, 4.05744324e-03,
          0., 0., 0., 0., 0., 0., 1.36632025e-01, 9.12664086e-02,
          1.22898541e-01, 0., 0., 0., 7.02769775e-03, 9.76088047e-02,
          2.50655591e-01, 1.97116405e-01, 2.27725327e-01, 1.48603424e-01,
          8.94234702e-02, 1.27407223e-01, 0., 9.51240882e-02 ]
      - [ 2.37544641e-01, 1.01474360e-01, 8.85343850e-02, 1.81176022e-01,
          6.13926537e-03, 1.69516653e-01, 1.69231117e-01, 1.68174133e-01,
          0., 0., 0., 0., 0., 0., 7.30085839e-03, 1.58628479e-01,
          1.56375140e-01, 0., 0., 1.06748812e-01, 0., 7.69684315e-02, 0.,
          0., 0., 0., 0., 0., 1.93887815e-01, 2.20530674e-01,
          2.37072766e-01, 2.25229144e-01, 3.02619934e-01, 1.46750867e-01,
          9.74334255e-02, 0., 1.05954289e-01, 1.07432768e-01,
          1.50658563e-01, 2.22088382e-01, 2.71965802e-01, 3.36398818e-02,
          0., 0., 0., 0., 0., 5.76878525e-02, 0., 0., 1.04524612e-01, 0.,
          0., 0., 9.18034371e-03, 9.57783684e-02, 4.12159353e-01,
          1.07496247e-01, 7.95705467e-02, 7.19499439e-02, 1.20501146e-01,
          0., 1.09239116e-01, 1.06639251e-01 ]
      - [ 2.57984549e-01, 3.84355821e-02, 1.41641140e-01, 9.34648216e-02,
          0., 9.12228897e-02, 1.31343812e-01, 2.24299759e-01,
          1.31130055e-01, 0., 0., 0., 0., 0., 0., 1.29997537e-01,
          1.56516507e-01, 0., 0., 1.49341896e-01, 1.17962599e-01, 0.,
          1.03949659e-01, 0., 0., 0., 6.90853447e-02, 0., 2.47462615e-01,
          1.75104946e-01, 1.74062684e-01, 1.94121003e-01, 2.98734605e-01,
          1.86453477e-01, 8.56849179e-02, 4.99712378e-02, 1.04429439e-01,
          1.23026609e-01, 4.74979095e-02, 1.10839106e-01, 3.24982464e-01,
          3.08833253e-02, 0., 0., 0., 0., 0., 0., 1.46473512e-01, 0.,
          1.48959950e-01, 0., 0., 0., 0., 5.33589050e-02, 3.87881309e-01,
          1.28520206e-01, 1.14985637e-01, 8.03299770e-02, 7.54644051e-02,
          1.31907016e-01, 0., 1.40682817e-01 ]
      - [ 2.18966737e-01, 1.78680182e-01, 1.40565395e-01, 6.54908270e-02,
          1.12011626e-01, 6.67452663e-02, 9.86935049e-02, 1.60606056e-01,
          2.06259444e-01, 6.83250129e-02, 0., 0., 0., 0., 0., 0.,
          1.49712950e-01, 0., 6.18973635e-02, 1.05223022e-01,
          1.06734104e-01, 1.24210022e-01, 1.05018578e-01, 0., 0., 0., 0.,
          1.82643250e-01, 1.67296410e-01, 1.71087116e-01, 1.53684974e-01,
          1.78986609e-01, 3.26318920e-01, 9.35390219e-02, 1.10979564e-01,
          8.15035328e-02, 6.04024678e-02, 1.88582927e-01, 1.57760620e-01,
          1.98908329e-01, 2.14087114e-01, 3.84537093e-02, 0., 0., 0., 0.,
          0., 0., 0., 1.25019610e-01, 1.05418697e-01, 0., 4.80316021e-02,
          7.16628805e-02, 1.14803970e-01, 2.50238657e-01, 8.89463425e-02,
          1.68258652e-01, 2.08560631e-01, 1.78048432e-01, 1.26369089e-01,
          6.85406625e-02, 1.70619249e-01, 1.36156872e-01 ]
      - [ 1.23183608e-01, 2.81883121e-01, 1.52518675e-01, 8.78235549e-02,
          9.35119018e-02, 7.54396841e-02, 8.96583274e-02, 0.,
          1.80185542e-01, 2.41113290e-01, 3.70863900e-02, 0., 0.,
          4.21529748e-02, 0., 0., 1.68068156e-01, 7.74529651e-02, 0.,
          1.19805157e-01, 1.75198704e-01, 1.05492152e-01, 0.,
          4.35652770e-02, 0., 0., 0., 1.97708756e-01, 2.28684321e-01,
          1.09996326e-01, 1.06631808e-01, 1.31007344e-01, 2.18600571e-01,
          1.76641151e-01, 1.61763862e-01, 4.34743986e-02, 1.00262716e-01,
          2.68801246e-02, 1.22977532e-01, 8.87488052e-02, 1.97390884e-01,
          1.88938782e-01, 3.91650386e-02, 0., 4.21190299e-02, 0., 0., 0.,
          1.69494793e-01, 1.04915351e-01, 1.37748063e-01, 9.57757086e-02,
          1.63752630e-01, 4.02906165e-02, 0., 0., 2.70952642e-01,
          2.64081419e-01, 1.15332931e-01, 0., 1.55568063e-01,
          1.44020557e-01, 0., 1.31586432e-01 ]
      - [ 2.55211800e-01, 2.10035205e-01, 1.15689278e-01, 6.84192181e-02,
          7.10480288e-02, 8.96194950e-02, 0., 9.11139697e-02,
          2.48538852e-01, 0., 0., 0., 0., 0., 0., 0., 1.82504267e-01,
          1.63893148e-01, 0., 5.90979196e-02, 1.01232402e-01, 0.,
          1.48993239e-01, 6.98133111e-02, 0., 1.80682167e-02,
          3.33179459e-02, 2.41049826e-01, 1.35298669e-01, 1.42533451e-01,
          1.30906746e-01, 9.33297053e-02, 2.39795655e-01, 9.55950096e-02,
          1.18616536e-01, 1.05241761e-01, 7.77852386e-02, 1.16983175e-01,
          1.17650792e-01, 1.78168282e-01, 2.67152280e-01, 5.63918874e-02,
          0., 0., 0., 0., 3.07656340e-02, 1.22415036e-01, 1.88998714e-01,
          1.01844817e-01, 1.13086961e-01, 0., 0., 0., 7.82376714e-03,
          2.11912364e-01, 3.20004523e-01, 9.05254111e-02, 1.14566877e-01,
          7.96729103e-02, 7.86661878e-02, 1.80578902e-01, 8.90512019e-02,
          1.90536246e-01 ]
      - [ 1.64220154e-01, 1.24078102e-01, 1.43108830e-01, 1.26435846e-01,
          7.36181736e-02, 1.10302478e-01, 1.35637477e-01, 2.17008546e-01,
          0., 0., 0., 0., 0., 0., 1.56187117e-01, 1.70229867e-01,
          2.37533763e-01, 9.72955581e-03, 0., 1.03694998e-01, 0.,
          8.12202096e-02, 0., 0., 0., 0., 0., 0., 1.28502041e-01,
          1.98525250e-01, 2.50337064e-01, 1.31569833e-01, 2.06113145e-01,
          1.92621514e-01, 1.60334751e-01, 1.07236408e-01, 1.08950019e-01,
          8.56175795e-02, 8.20079744e-02, 1.93572894e-01, 3.08546782e-01,
          3.12413983e-02, 0., 0., 0., 0., 0., 1.38463646e-01,
          7.93432519e-02, 1.03156477e-01, 0., 0., 0., 0., 0.,
          6.13467619e-02, 4.08191264e-01, 1.44242465e-01, 1.25872046e-01,
          1.32311136e-01, 0., 7.62483627e-02, 1.20013900e-01,
          1.33112416e-01 ]
      - [ 2.94017166e-01, 2.68302023e-01, 2.94999126e-02, 0., 0., 0., 0.,
          0., 0., 0., 0., 0., 0., 8.26240554e-02, 0., 0., 2.02959210e-01,
          1.61429197e-01, 2.56631095e-02, 0., 8.50278363e-02, 0.,
          9.54717770e-02, 0., 0., 0., 8.77485052e-02, 8.85037333e-02,
          1.63547963e-01, 1.72389850e-01, 1.52493194e-01, 1.86175644e-01,
          1.17690153e-01, 1.53551191e-01, 1.15590915e-01, 0.,
          1.29896790e-01, 1.49680272e-01, 1.31486624e-01, 1.17731139e-01,
          3.64087850e-01, 1.05205514e-01, 1.06408909e-01, 0., 0., 0., 0.,
          0., 1.33079216e-01, 0., 1.04925372e-01, 0., 1.22993261e-01,
          2.01137796e-01, 1.46737888e-01, 2.18397588e-01, 2.13553220e-01,
          1.60577253e-01, 1.84772953e-01, 1.76517427e-01, 9.70928371e-02,
          1.50536105e-01, 0., 1.45681337e-01 ]
      - [ 0., 3.04418206e-01, 1.43774897e-01, 1.48671359e-01,
          7.39065260e-02, 1.04830973e-01, 7.19506294e-02, 0.,
          1.94979623e-01, 1.72149450e-01, 0., 0., 0., 0., 0., 0.,
          2.17523903e-01, 2.42758729e-02, 7.21081197e-02, 1.03501700e-01,
          9.85744894e-02, 0., 1.06248982e-01, 0., 0., 5.15633374e-02,
