%YAML:1.0
my_svm: !!opencv-ml-svm
   svm_type: C_SVC
   kernel: { type:RBF, gamma:5.3830000000000000e+00 }
   C: 2.6699999999999999e+00
   term_criteria: { epsilon:1.1920928955078125e-07, iterations:1000 }
   var_all: 64
   var_count: 64
   class_count: 10
   class_labels: !!opencv-matrix
      rows: 1
      cols: 10
      dt: i
      data: [ 0, 1, 2, 3, 4, 5, 6, 7, 8, 9 ]
   sv_total: 96
   support_vectors:
      - [ 1.62745118e-01, 1.77077770e-01, 1.80639178e-01, 1.86541751e-01,
          1.15685187e-01, 0., 3.23865265e-02, 1.11005098e-01,
          1.01570010e-01, 1.90417856e-01, 1.54677689e-01, 1.57015517e-01,
          3.69939134e-02, 0., 0., 7.43362382e-02, 7.95096457e-02, 0.,
          2.77627017e-02, 0., 1.96863070e-01, 1.44628450e-01,
          9.31591615e-02, 2.09086820e-01, 3.10528819e-02, 0.,
          1.35963876e-02, 0., 1.58984154e-01, 2.02160373e-01,
          2.06990674e-01, 1.35061115e-01, 1.12496309e-01, 3.28114703e-02,
          0., 1.09262906e-01, 7.85213858e-02, 1.52912289e-01,
          2.08286896e-01, 2.03030512e-01, 7.95096457e-02, 6.31301776e-02,
          8.97665247e-02, 9.01997983e-02, 1.00139983e-01, 1.39955595e-01,
          1.66941732e-01, 1.51502043e-01, 1.61602244e-01, 1.68515399e-01,
          1.61388561e-01, 1.46706253e-01, 1.66896991e-02, 2.63622515e-02,
          0., 1.18048467e-01, 2.02334076e-01, 1.52253926e-01,
          2.35904351e-01, 1.11961797e-01, 2.69562937e-02, 0., 0.,
          3.99786308e-02 ]
      - [ 1.13214172e-01, 1.54384315e-01, 1.78482383e-01, 1.63283631e-01,
          1.75468206e-01, 0., 0., 7.98908919e-02, 1.41689375e-01,
          1.51038766e-01, 1.96307182e-01, 1.62045136e-01, 3.29555534e-02,
          0., 4.91909906e-02, 4.64692898e-02, 7.51602277e-02,
          1.64266825e-02, 0., 1.31846070e-01, 1.42267495e-01,
          1.74731925e-01, 1.52323440e-01, 1.49166957e-01, 1.67801473e-02,
          0., 0., 1.12292163e-01, 1.76133752e-01, 2.22230271e-01,
          1.82510689e-01, 8.84940326e-02, 1.12329140e-01, 0.,
          4.14457321e-02, 1.15296751e-01, 1.09115101e-01, 1.52655795e-01,
          1.64776400e-01, 1.90363497e-01, 8.68069082e-02, 3.07913427e-03,
          2.82884799e-02, 1.42565191e-01, 1.46784723e-01, 8.59880596e-02,
          1.52344272e-01, 1.93054467e-01, 9.59670395e-02, 2.23145738e-01,
          1.27353206e-01, 1.71613306e-01, 0., 1.48978559e-02, 0.,
          5.57740405e-02, 1.44963101e-01, 1.78336903e-01, 2.15739056e-01,
          1.95135206e-01, 8.31784755e-02, 0., 2.43702997e-02,
          5.53707480e-02 ]
      - [ 1.86276466e-01, 2.36983374e-01, 1.77139610e-01, 2.87145134e-02,
          1.15102522e-01, 1.00214034e-01, 0., 0., 1.52448237e-01,
          2.26283580e-01, 9.58873853e-02, 1.04768999e-01, 1.07216686e-01,
          0., 0., 0., 7.58136436e-02, 2.67254021e-02, 0., 0.,
          2.22331300e-01, 1.03325464e-01, 1.01332605e-01, 1.77874535e-01,
          7.64117613e-02, 2.98754051e-02, 0., 7.67116472e-02,
          1.84237301e-01, 1.53002858e-01, 2.30628714e-01, 1.32383734e-01,
          7.02585801e-02, 0., 0., 0., 2.41618007e-01, 1.33918375e-01,
          2.10107669e-01, 1.30420655e-01, 4.53080609e-02, 0., 0., 0.,
          1.90684870e-01, 1.56246781e-01, 1.75110757e-01, 1.09445781e-01,
          1.14556223e-01, 1.61308512e-01, 1.77165389e-01, 1.53504878e-01,
          1.10936284e-01, 0., 0., 1.04932129e-01, 8.73996913e-02,
          1.73930466e-01, 2.58525640e-01, 1.48264900e-01, 7.98675790e-02,
          0., 0., 0. ]
      - [ 1.33600786e-01, 2.26034611e-01, 1.79734752e-01, 1.18167557e-01,
          5.19127622e-02, 0., 1.84826795e-02, 9.69904214e-02,
          1.34498492e-01, 9.79040712e-02, 1.55946389e-01, 1.59084290e-01,
          1.35131329e-01, 0., 0., 8.47282782e-02, 8.77724290e-02, 0.,
          5.95870987e-02, 1.10962056e-01, 1.63755238e-01, 1.70637190e-01,
          1.25355676e-01, 1.59231499e-01, 0., 0., 0., 0., 1.82110831e-01,
          1.98608488e-01, 1.84500724e-01, 1.59113348e-01, 6.82747737e-02,
          0., 0., 2.58452687e-02, 1.41950756e-01, 2.02540800e-01,
          1.43823147e-01, 2.19835952e-01, 8.88504460e-02, 5.38460091e-02,
          0., 1.34393141e-01, 9.81916040e-02, 1.19858779e-01,
          1.70647591e-01, 1.64736822e-01, 1.74565941e-01, 1.85563847e-01,
          9.93695334e-02, 2.02137917e-01, 1.21022249e-02, 0., 0.,
          1.05346069e-01, 2.37881571e-01, 1.56981856e-01, 2.38920107e-01,
          8.41222554e-02, 1.21022249e-02, 0., 3.21816071e-03, 0. ]
      - [ 1.94128752e-01, 2.11487085e-01, 1.68450251e-01, 1.17844217e-01,
          1.73751429e-01, 0., 3.58355455e-02, 0., 9.95357558e-02,
          2.30388641e-01, 1.37948796e-01, 1.25108346e-01, 1.16494857e-01,
          0., 0., 0., 7.88787752e-02, 4.33774665e-03, 8.27595592e-03,
          1.64181933e-01, 1.76952764e-01, 1.32329643e-01, 6.07705936e-02,
          1.82663605e-01, 4.83832061e-02, 0., 0., 1.69533655e-01,
          1.83754191e-01, 2.08107889e-01, 1.65486783e-01, 9.23679993e-02,
          1.04149811e-01, 0., 0., 3.43999378e-02, 1.90737605e-01,
          2.45525569e-01, 1.38172045e-01, 1.26038522e-01, 3.79069261e-02,
          0., 0., 6.76985011e-02, 1.79381713e-01, 1.62275881e-01,
          1.08062916e-01, 1.00025333e-01, 1.27493769e-01, 7.97945261e-02,
          2.18881562e-01, 1.57128438e-01, 0., 0., 0., 0., 1.19791389e-01,
          1.94469213e-01, 2.28949681e-01, 1.85692400e-01, 7.22187087e-02,
          0., 0., 0. ]
      - [ 2.13599280e-01, 2.19297588e-01, 0., 6.22643344e-02, 0., 0., 0.,
          0., 0., 1.00787893e-01, 0., 0., 0., 0., 0., 3.79010551e-02,
          1.71612471e-01, 2.00208053e-01, 7.83959404e-02, 0., 0., 0., 0.,
          6.56021833e-02, 2.13267982e-01, 1.83023691e-01, 8.04796442e-02,
          7.05676451e-02, 1.30859226e-01, 7.20478222e-02, 1.22553244e-01,
          0., 2.73726404e-01, 1.72594100e-01, 0., 0., 9.08462778e-02, 0.,
          1.07491963e-01, 3.46692473e-01, 2.54230887e-01, 1.67388350e-01,
          0., 1.10352568e-01, 1.10315330e-01, 8.26862529e-02,
          7.74596259e-02, 1.77350312e-01, 1.00608528e-01, 0., 0., 0., 0.,
          0., 7.15363175e-02, 3.32033187e-01, 1.38819546e-01,
          6.51319399e-02, 0., 2.64180508e-02, 0., 7.41858482e-02,
          3.20204459e-02, 3.47596854e-01 ]
      - [ 2.52977878e-01, 2.31192514e-01, 0., 2.77393386e-02, 0., 0.,
          1.95387937e-02, 0., 0., 0., 0., 0., 0., 0., 0., 1.34585172e-01,
          2.80076712e-01, 1.98305160e-01, 0., 0., 0., 0., 0., 0.,
          2.36256272e-01, 2.21450105e-01, 8.64282325e-02, 0.,
          1.17274433e-01, 1.42102063e-01, 1.04551487e-01, 1.31257519e-01,
          1.00887991e-01, 6.15863353e-02, 9.60408747e-02, 0., 0.,
          1.87128127e-01, 3.87124270e-01, 1.22782961e-01, 1.26038894e-01,
          8.64282325e-02, 5.86955473e-02, 1.21045843e-01, 1.20961495e-01,
          9.60408747e-02, 1.67848691e-01, 1.16863243e-01, 0., 0., 0., 0.,
          1.21571653e-01, 0., 1.93960845e-01, 0., 1.89392358e-01,
          1.35501266e-01, 0., 0., 1.21571653e-01, 1.44687325e-01,
          3.13768506e-01, 0. ]
      - [ 1.16557665e-01, 2.72426188e-01, 0., 0., 0., 0., 5.61398603e-02,
          0., 0., 1.03854343e-01, 0., 0., 0., 0., 1.22204171e-02, 0.,
          1.88054994e-01, 2.07691565e-01, 0., 0., 0., 0., 0., 0.,
          1.54251963e-01, 2.48167291e-01, 1.13063157e-01, 9.10750180e-02,
          7.39510804e-02, 9.77969840e-02, 5.02004884e-02, 7.60647580e-02,
          3.32135648e-01, 1.11885287e-01, 0., 0., 0., 9.10626799e-02,
          2.63214931e-02, 3.78580689e-01, 2.24489480e-01, 9.15513486e-02,
          1.01701774e-01, 0., 1.35153845e-01, 9.74510759e-02, 0.,
          1.47270694e-01, 1.78693533e-01, 0., 0., 0., 0., 0.,
          8.18315893e-02, 3.23496103e-01, 1.76403388e-01, 1.14311539e-02,
          6.49378747e-02, 5.62967584e-02, 0., 0., 1.51001483e-01,
          3.02301049e-01 ]
      - [ 0., 2.40981132e-01, 1.85546964e-01, 0., 0., 0., 0., 0.,
          5.08094653e-02, 1.06416546e-01, 0., 0., 0., 0., 0., 0.,
          9.95775759e-02, 8.55939984e-02, 2.06464022e-01, 7.12793693e-02,
          0., 0., 0., 0., 0., 2.12965071e-01, 2.02012002e-01,
          1.00257479e-01, 1.25010043e-01, 1.21568963e-01, 7.89031535e-02,
          8.34124237e-02, 1.26771510e-01, 3.03764731e-01, 0., 0.,
          8.62069055e-02, 0., 1.41921237e-01, 3.13601524e-01,
          2.06021369e-01, 1.70225158e-01, 1.34226248e-01, 1.06970087e-01,
          1.00131281e-01, 1.24824688e-01, 1.18052088e-01, 1.62972242e-01,
          1.90171838e-01, 2.23291982e-02, 0., 0., 5.93766384e-02,
          6.90815374e-02, 4.50655632e-02, 3.25725108e-01, 9.12631750e-02,
          1.02701165e-01, 0., 7.53920302e-02, 3.37495953e-02,
          1.03021383e-01, 1.55702576e-01, 2.71930575e-01 ]
      - [ 1.12068854e-01, 2.28259623e-01, 0., 0., 0., 0., 0., 0., 0., 0.,
          0., 0., 0., 0., 1.13772377e-02, 0., 0., 2.97294527e-01,
          1.41471043e-01, 0., 0., 0., 2.45415103e-02, 0., 0.,
          2.56126553e-01, 7.04916492e-02, 1.15169115e-01, 4.51896191e-02,
          1.89781010e-01, 1.03049524e-01, 9.26839933e-02, 2.24978283e-01,
          2.04968110e-01, 0., 0., 8.40165317e-02, 0., 2.88902253e-01,
          2.79166818e-01, 1.45086408e-01, 7.31444880e-02, 7.97430426e-02,
          1.18152708e-01, 7.97087997e-02, 1.34518296e-01, 1.28227696e-01,
          1.24110103e-01, 1.40933037e-01, 5.25993332e-02, 0., 0.,
          1.18105955e-01, 0., 1.56509936e-01, 2.31922045e-01,
          1.39820263e-01, 2.24942282e-01, 0., 0., 1.00157760e-01,
          1.67969599e-01, 2.27518454e-01, 2.14448094e-01 ]
      - [ 0., 2.90082008e-01, 1.84898138e-01, 0., 0., 0., 0., 0., 0.,
          1.36471644e-01, 0., 0., 0., 0., 0., 0., 1.25532404e-01,
          2.07217366e-01, 1.62034839e-01, 7.60052204e-02, 2.87418906e-02,
          0., 0., 0., 0., 2.70359337e-01, 1.97659776e-01, 1.13159500e-01,
          1.57882079e-01, 9.65816379e-02, 9.95087400e-02, 0.,
          1.04044721e-01, 2.59563953e-01, 9.65526924e-02, 9.18432921e-02,
          4.72701043e-02, 8.44817832e-02, 2.29495332e-01, 3.10793549e-01,
          8.94984826e-02, 1.77082449e-01, 9.72293839e-02, 1.52811512e-01,
          1.29197210e-01, 1.34858489e-01, 1.44949809e-01, 9.52868089e-02,
          5.63601069e-02, 0., 0., 0., 1.32493570e-01, 8.24200287e-02,
          1.06599048e-01, 1.38292968e-01, 0., 4.71913889e-02, 0., 0.,
          1.32493570e-01, 1.26418516e-01, 1.98859245e-01, 2.78043658e-01 ]
      - [ 1.95228487e-01, 2.57684588e-01, 6.19134791e-02, 0., 0., 0., 0.,
          0., 8.40286985e-02, 4.91128638e-02, 0., 0., 0., 0., 0.,
          5.36192348e-03, 1.90993145e-01, 2.40792125e-01, 0., 0., 0., 0.,
          0., 0., 2.15275899e-01, 2.43095368e-01, 1.17933497e-01,
          7.64948204e-02, 7.83984959e-02, 9.47152078e-02, 1.07639112e-01,
          1.29318491e-01, 2.09646910e-01, 1.38754010e-01, 9.13448259e-02,
          0., 0., 9.59769413e-02, 1.66510642e-01, 3.35111469e-01,
          1.77656129e-01, 0., 1.21192314e-01, 1.31307408e-01,
          9.75908637e-02, 1.16474032e-01, 1.11088537e-01, 9.81691629e-02,
          1.81671992e-01, 0., 0., 0., 4.32767086e-02, 6.73719943e-02,
          8.61660093e-02, 2.96138853e-01, 1.78014606e-01, 7.80773163e-02,
          2.51105875e-02, 7.12623224e-02, 7.73983002e-02, 1.11049436e-01,
          1.59736142e-01, 2.60477543e-01 ]
      - [ 0., 3.68206084e-01, 0., 0., 0., 0., 0., 0., 0., 1.55227602e-01,
          1.11091964e-01, 0., 0., 0., 0., 0., 7.85765424e-02,
          1.88768998e-01, 0., 0., 0., 0., 0., 0., 1.17015533e-01,
          2.26661876e-01, 1.47016242e-01, 8.30605850e-02, 1.49883330e-01,
          0., 1.05825596e-01, 1.50743276e-01, 7.96398446e-02,
          2.35446721e-01, 9.51495767e-02, 0., 1.02707162e-01,
          1.23591796e-01, 1.28023788e-01, 3.49023670e-01, 7.96398446e-02,
          5.11005931e-02, 9.60089117e-02, 8.27806517e-02, 1.50668070e-01,
          0., 1.09436437e-01, 1.49631292e-01, 8.11843947e-02, 0., 0., 0.,
          0., 0., 2.63025947e-02, 3.59663814e-01, 1.17244154e-01,
          8.56521204e-02, 0., 8.57916549e-02, 0., 1.25197440e-01,
          1.28305674e-01, 3.49337757e-01 ]
      - [ 0., 1.82514995e-01, 3.35096717e-01, 9.28177461e-02,
          4.16021654e-03, 0., 9.89471842e-03, 0., 0., 1.60745442e-01,
          1.12249061e-01, 0., 0., 0., 0., 0., 1.16865136e-01,
          7.54315779e-02, 0., 0., 0., 0., 0., 0., 0., 1.77150235e-01,
          2.34645531e-01, 8.87895301e-02, 1.23061337e-01, 8.75190496e-02,
          1.16308838e-01, 1.38697639e-01, 1.25051290e-01, 1.91509798e-01,
          1.82291105e-01, 9.28095430e-02, 9.12607834e-02, 8.84290710e-02,
          9.06160697e-02, 3.45922112e-01, 1.38610512e-01, 7.60212764e-02,
          9.97909978e-02, 8.68846104e-02, 1.65961638e-01, 1.12153113e-01,
          9.62360874e-02, 1.26018584e-01, 1.02456532e-01, 0., 0.,
          2.42789816e-02, 0., 0., 1.66153714e-01, 2.74025261e-01,
          1.43907830e-01, 1.22769251e-01, 0., 8.41645226e-02,
          3.94297726e-02, 1.48754433e-01, 1.24383159e-01, 3.10231984e-01 ]
      - [ 0., 1.26339927e-01, 3.34788680e-01, 0., 0., 0., 0., 0.,
          3.73989008e-02, 0., 1.73362941e-01, 4.92004305e-02, 0., 0., 0.,
          0., 8.64373520e-02, 8.04318637e-02, 1.74557701e-01, 0.,
          6.44118115e-02, 0., 0., 0., 1.11644296e-02, 1.51406586e-01,
          2.57360667e-01, 1.33272156e-01, 9.01040509e-02, 1.01221450e-01,
          1.43752843e-01, 0., 7.32100606e-02, 2.26296917e-01,
          2.01622546e-01, 2.82280371e-02, 8.84214267e-02, 1.08048499e-01,
          5.91829605e-02, 3.52051318e-01, 1.07128650e-01, 1.36013374e-01,
          9.34918374e-02, 1.20282896e-01, 1.55658007e-01, 1.02816537e-01,
          7.42177144e-02, 1.69073462e-01, 9.33984071e-02, 2.75564305e-02,
          0., 0., 5.16812690e-02, 0., 9.36226472e-02, 2.53242224e-01,
          2.35027984e-01, 2.72556189e-02, 0., 0., 7.06329793e-02, 0.,
          2.25276768e-01, 2.82210529e-01 ]
      - [ 9.70694125e-02, 3.36105287e-01, 5.47513925e-02, 0., 0., 0., 0.,
          0., 0., 1.90201089e-01, 8.04593265e-02, 0., 0., 0., 0., 0.,
          7.74555132e-02, 1.77683160e-01, 0., 0., 0., 0., 0., 0.,
          2.04701021e-01, 2.00675517e-01, 8.02571923e-02, 1.18185438e-01,
          0., 7.74412081e-02, 1.03310943e-01, 1.91990599e-01,
          1.27849475e-01, 2.46268108e-01, 9.36866850e-02, 0., 0.,
          8.96687955e-02, 1.00084834e-01, 3.73381823e-01, 9.91045460e-02,
          4.44360934e-02, 1.25609383e-01, 6.98304102e-02, 1.22854948e-01,
          8.79939646e-02, 1.02432594e-01, 1.57286078e-01, 9.32006314e-02,
          0., 0., 0., 0., 0., 1.26143238e-02, 3.33621502e-01,
          1.78054154e-01, 0., 8.38707611e-02, 0., 0., 8.74339864e-02,
          1.12544574e-01, 3.54008168e-01 ]
      - [ 0., 3.56342256e-01, 6.90279678e-02, 3.44171785e-02, 0., 0., 0.,
          0., 5.73701933e-02, 1.41640738e-01, 1.07225187e-01,
          5.70384562e-02, 0., 0., 0., 0., 1.30517408e-01, 0., 0., 0., 0.,
          0., 0., 0., 0., 1.62679091e-01, 1.57902092e-01, 1.35312513e-01,
          0., 8.75458345e-02, 1.29375860e-01, 5.72248437e-02,
          1.98688924e-01, 2.56330699e-01, 7.03816935e-02, 0., 0.,
          1.06551670e-01, 1.10996194e-01, 2.91756690e-01, 2.89734215e-01,
          3.80132012e-02, 0., 1.61163568e-01, 9.10868347e-02,
          1.28324866e-01, 0., 1.05627887e-01, 2.06134275e-01,
          5.45979291e-02, 5.31113371e-02, 0., 0., 0., 2.71243155e-02,
          3.36739957e-01, 2.14747667e-01, 9.12988484e-02, 0., 0.,
          8.67924690e-02, 6.63308650e-02, 1.15106799e-01, 3.25995475e-01 ]
      - [ 3.05526387e-02, 1.96047544e-01, 1.84986204e-01, 5.06986491e-02,
          0., 0., 0., 0., 0., 0., 0., 0., 0., 0., 0., 0., 8.67918599e-03,
          2.60420024e-01, 1.59034640e-01, 0., 0., 0., 0., 0., 0.,
          2.39611000e-01, 1.93058819e-01, 8.39009956e-02, 9.15969759e-02,
          1.58980697e-01, 6.76869005e-02, 1.35841921e-01, 2.02441677e-01,
          2.47688279e-01, 7.62942657e-02, 8.94198790e-02, 2.37689298e-02,
          1.62791029e-01, 2.66081482e-01, 2.93975323e-01, 7.06434548e-02,
          1.11385159e-01, 1.09341614e-01, 1.07440792e-01, 1.36471733e-01,
          9.55618843e-02, 1.39414743e-01, 0., 4.81284149e-02, 0., 0., 0.,
          1.22434981e-01, 0., 0., 2.19514698e-01, 1.26307636e-01,
          2.13549122e-01, 3.17087583e-02, 0., 1.15060605e-01,
          1.01260878e-01, 2.42416829e-01, 2.70910233e-01 ]
      - [ 0., 2.51259714e-01, 1.71941131e-01, 0., 0., 0., 0., 0.,
          5.17484844e-02, 1.13423392e-01, 0., 0., 0., 0., 0., 0.,
          7.80745596e-02, 1.11264154e-01, 1.70276672e-01, 0., 0., 0.,
          2.13568900e-02, 0., 0., 2.81119972e-01, 8.13007131e-02,
          1.26140386e-01, 6.27011359e-02, 8.03048313e-02, 1.11505814e-01,
          1.49663761e-01, 1.74736872e-01, 2.66684294e-01, 7.29642585e-02,
          8.76211226e-02, 0., 9.62189957e-02, 1.20096542e-01,
          3.64543587e-01, 1.00167543e-01, 1.60394549e-01, 0.,
          9.37691703e-02, 1.40238956e-01, 7.04469532e-02, 8.60060379e-02,
          1.61912754e-01, 9.14767310e-02, 0., 0., 0., 0., 0.,
          4.22075130e-02, 3.64647180e-01, 1.18690744e-01, 8.94967616e-02,
          5.85783385e-02, 0., 8.64913166e-02, 0., 1.16438314e-01,
          3.65193218e-01 ]
      - [ 0., 9.77878943e-02, 3.61966193e-01, 0., 3.23320292e-02, 0., 0.,
          0., 0., 0., 1.92849413e-01, 0., 0., 0., 0., 0., 1.13549821e-01,
          8.33732486e-02, 1.30335644e-01, 0., 5.93243577e-02, 0., 0., 0.,
          7.22966157e-03, 8.39460939e-02, 2.81088799e-01, 1.30082488e-01,
          6.75628558e-02, 1.51322871e-01, 9.29030403e-02, 0.,
          6.19111247e-02, 2.00698599e-01, 2.23443463e-01, 8.55436027e-02,
          6.87001497e-02, 8.48111808e-02, 1.21638000e-01, 2.99941868e-01,
          1.76139727e-01, 1.45311251e-01, 1.26313210e-01, 8.23754221e-02,
          1.59656033e-01, 9.44086537e-02, 7.76932687e-02, 1.65424317e-01,
          1.83167934e-01, 5.68363555e-02, 0., 0., 3.00994813e-02, 0.,
          1.09876804e-01, 2.35261843e-01, 2.48918071e-01, 2.78592948e-02,
          7.92813227e-02, 0., 7.22966157e-03, 9.07027423e-02,
          1.96219742e-01, 2.45104164e-01 ]
      - [ 1.78940743e-01, 1.76379859e-01, 9.03556421e-02, 0.,
          4.14921232e-02, 0., 0., 0., 3.66334952e-02, 5.03267497e-02,
          1.66816562e-01, 2.01006576e-01, 6.52317256e-02, 9.04084891e-02,
          8.76770690e-02, 0., 7.56698176e-02, 3.33695114e-01,
          8.79418403e-02, 7.42402151e-02, 1.47470817e-01, 1.46254629e-01,
          9.61485654e-02, 6.92865625e-02, 0., 2.25485414e-01, 0.,
          1.64135516e-01, 1.50972784e-01, 1.40768692e-01, 1.08072773e-01,
          9.18079168e-02, 1.40481576e-01, 1.99120998e-01, 8.32305700e-02,
          0., 6.36423677e-02, 1.44072488e-01, 1.31301388e-01,
          1.70079842e-01, 1.85711637e-01, 2.42170930e-01, 0.,
          4.28357609e-02, 1.07816167e-01, 1.11762546e-01, 1.32253245e-01,
          9.52963531e-02, 9.24345627e-02, 0., 0., 1.55909106e-01,
          2.88148344e-01, 5.00269234e-02, 1.05571911e-01, 7.64164254e-02,
          1.19457401e-01, 2.11580202e-01, 0., 1.05422057e-01,
          1.09083630e-01, 7.99487531e-02, 0., 0. ]
      - [ 8.81460756e-02, 2.32184678e-01, 1.62676439e-01, 1.19414523e-01,
          8.52000490e-02, 8.66061524e-02, 0., 0., 6.29568398e-02,
          3.38645913e-02, 1.90180659e-01, 1.74297303e-01, 1.77219510e-01,
          1.01353809e-01, 3.35010253e-02, 7.23817572e-02, 4.03882898e-02,
          1.38419107e-01, 2.97554374e-01, 1.32380292e-01, 1.39712930e-01,
          1.03150174e-01, 7.18688294e-02, 9.43168402e-02, 9.38436463e-02,
          0., 1.37316704e-01, 5.19312695e-02, 3.26985478e-01,
          7.72184432e-02, 7.12396875e-02, 7.74442554e-02, 1.49737805e-01,
          1.13550767e-01, 3.57326642e-02, 0., 1.29320651e-01,
          1.27638802e-01, 1.17842302e-01, 1.74068987e-01, 1.68373391e-01,
          1.76119715e-01, 0., 3.37360278e-02, 0., 1.07348733e-01,
          7.04334825e-02, 1.07170671e-01, 0., 0., 0., 0., 2.87625194e-01,
          8.84432346e-02, 5.65795526e-02, 2.99082976e-02, 1.01627126e-01,
          1.95096120e-01, 1.14946567e-01, 2.42567196e-01, 1.42794177e-01,
          0., 0., 0. ]
      - [ 1.83760688e-01, 1.45600080e-01, 1.02574065e-01, 9.31178927e-02,
          4.76312265e-02, 0., 0., 0., 4.01307195e-02, 9.93469208e-02,
          1.63823321e-01, 1.45680755e-01, 1.42283276e-01, 1.07121855e-01,
          9.46306065e-02, 0., 1.05952613e-01, 3.13484699e-01,
          1.51227310e-01, 1.34162188e-01, 1.33172825e-01, 1.03240117e-01,
          8.32227096e-02, 8.67706165e-02, 6.00706488e-02, 2.38097697e-01,
          0., 1.34463310e-01, 1.73667669e-01, 9.00221094e-02,
          9.15940329e-02, 1.15276650e-01, 1.54975206e-01, 2.00677767e-01,
          0., 0., 6.99364394e-02, 1.44541249e-01, 1.39554918e-01,
          1.74274743e-01, 1.69900492e-01, 2.62339622e-01, 0., 0.,
          1.08565144e-01, 9.74864215e-02, 1.33936420e-01, 1.25075907e-01,
          7.90723190e-02, 0., 4.37974110e-02, 6.38330281e-02,
          3.04906756e-01, 1.26562834e-01, 1.02402359e-01, 6.00670911e-02,
          1.32205844e-01, 1.83556214e-01, 8.70708078e-02, 0.,
          7.25116506e-02, 0., 0., 0. ]
      - [ 1.32761255e-01, 2.21336275e-01, 1.40845478e-01, 1.70246616e-01,
          1.05507448e-01, 0., 0., 0., 0., 2.38044746e-02, 2.06187442e-01,
          2.21078694e-01, 6.87746778e-02, 8.88082087e-02, 7.01791793e-02,
          0., 8.09806436e-02, 2.68471867e-01, 2.08306953e-01,
          1.03782460e-01, 9.97874215e-02, 9.47296619e-02, 5.17239608e-02,
          1.02716655e-01, 1.38976514e-01, 1.80702180e-01, 1.07130490e-01,
          1.15697302e-01, 1.75290003e-01, 8.24939460e-02, 7.41784722e-02,
          1.02815725e-01, 1.78065911e-01, 1.23807654e-01, 0.,
          9.56133902e-02, 7.73083791e-02, 8.19228739e-02, 1.01735801e-01,
          1.45059973e-01, 2.02326730e-01, 2.08937481e-01, 4.92431149e-02,
          0., 1.01599120e-01, 7.47248605e-02, 7.73831233e-02,
          5.66659831e-02, 0., 1.22925779e-02, 3.97546180e-02,
          2.64552176e-01, 1.88894719e-01, 1.06631689e-01, 0., 0.,
          3.90205085e-02, 1.61645383e-01, 5.34099340e-02, 2.30310693e-01,
          2.29574069e-01, 3.37745324e-02, 0., 0. ]
      - [ 6.70341402e-02, 2.20847100e-01, 2.16349572e-01, 1.81807831e-01,
          6.34617731e-02, 0., 0., 0., 0., 5.06948419e-02, 1.95367411e-01,
          2.05699205e-01, 7.87255466e-02, 8.39057639e-02, 6.08416945e-02,
          1.02960072e-01, 3.91759649e-02, 1.61618739e-01, 2.80461997e-01,
          0., 1.76305488e-01, 9.87553298e-02, 6.61519244e-02,
          1.11738577e-01, 0., 1.03224851e-01, 1.56237110e-01,
          4.62412313e-02, 2.95899391e-01, 1.17606819e-01, 9.79030952e-02,
          7.63180926e-02, 1.13589957e-01, 1.52604043e-01, 0., 0.,
          1.51416883e-01, 9.10311267e-02, 1.26432762e-01, 1.07974656e-01,
          1.95070818e-01, 2.05660716e-01, 0., 0., 7.87112787e-02,
          6.42960444e-02, 6.31909147e-02, 8.74398723e-02, 0.,
          1.37982741e-02, 0., 1.43314853e-01, 2.64457315e-01,
          1.05103113e-01, 6.12453707e-02, 0., 1.05547808e-01,
          6.12051375e-02, 1.80363655e-01, 2.16631949e-01, 1.92517579e-01,
          0., 0., 0. ]
      - [ 1.52014300e-01, 1.85591370e-01, 1.89378515e-01, 0.,
          1.94471598e-01, 0., 0., 0., 0., 7.16458037e-02, 2.18549728e-01,
          1.62374973e-01, 1.66691080e-01, 1.39307454e-01, 8.27465877e-02,
          5.73270805e-02, 8.99000466e-02, 1.25155166e-01, 3.05937678e-01,
          1.40916392e-01, 1.35498956e-01, 1.05793312e-01, 8.54329541e-02,
          5.03385514e-02, 1.18008211e-01, 1.11505732e-01, 9.79591310e-02,
          0., 2.60696948e-01, 0., 0., 0., 1.15708195e-01, 1.71695650e-01,
          5.61406314e-02, 0., 8.33111033e-02, 8.72816294e-02,
          1.96623191e-01, 1.69291079e-01, 1.31509215e-01, 2.16090202e-01,
          5.61406314e-02, 3.30504142e-02, 6.11137860e-02, 1.13725752e-01,
          8.77332091e-02, 4.63212878e-02, 0., 0., 0., 0., 2.98650324e-01,
          1.00837015e-01, 8.28509331e-02, 4.43295613e-02, 1.11919090e-01,
          1.77605376e-01, 1.86065942e-01, 8.65007788e-02, 1.86186299e-01,
          0., 0., 0. ]
      - [ 2.19002083e-01, 1.57171085e-01, 2.18961686e-01, 1.60426617e-01,
          1.59072876e-01, 0., 0., 0., 0., 5.38797304e-02, 1.44577280e-01,
          1.72843352e-01, 1.95476294e-01, 1.07035726e-01, 1.00616172e-01,
          1.22789115e-01, 7.98439980e-02, 1.62326232e-01, 2.78285354e-01,
          0., 1.64971188e-01, 8.84367228e-02, 8.31878781e-02,
          8.76374841e-02, 1.47714704e-01, 1.25724256e-01, 1.59365386e-01,
          1.88447550e-01, 2.28646085e-01, 9.14713293e-02, 6.27587512e-02,
          1.43582569e-02, 0., 0., 0., 0., 8.47750157e-02, 9.36916620e-02,
          1.05797395e-01, 9.59810317e-02, 2.57462502e-01, 1.87033698e-01,
          0., 2.29657013e-02, 0., 2.78455801e-02, 0., 2.25021001e-02, 0.,
          0., 0., 0., 3.04628015e-01, 7.00740889e-02, 8.18930268e-02,
          8.48192349e-02, 0., 1.55365840e-01, 1.59253538e-01,
          1.37645721e-01, 2.39093259e-01, 0., 0., 0. ]
      - [ 9.99543443e-02, 2.51320034e-01, 1.16893582e-01, 1.17303468e-01,
          1.12165488e-01, 0., 0., 0., 0., 7.86530972e-02, 1.53788283e-01,
          1.55922279e-01, 2.04393998e-01, 4.57991026e-02, 7.82471001e-02,
          5.74311502e-02, 9.41560194e-02, 2.62566298e-01, 2.07994536e-01,
          6.80309981e-02, 2.30571747e-01, 4.63606082e-02, 1.08225733e-01,
          0., 1.16733506e-01, 2.19833031e-01, 0., 0., 2.13552266e-01,
          2.49303002e-02, 1.09560296e-01, 1.18227586e-01, 0.,
          2.13674664e-01, 6.83777109e-02, 0., 1.14085592e-01,
          8.71712491e-02, 9.49314982e-02, 1.59454897e-01, 1.64082825e-01,
          2.34846875e-01, 4.38265316e-02, 0., 1.48422241e-01,
          1.10943697e-01, 0., 0., 0., 0., 0., 0., 3.45568746e-01,
          1.02308817e-01, 7.73019940e-02, 0., 8.96257982e-02,
          1.75631687e-01, 8.51185098e-02, 1.15225337e-01, 1.83123380e-01,
          0., 0., 0. ]
      - [ 2.43212610e-01, 1.49901018e-01, 0., 0., 7.81596974e-02,
          9.85368192e-02, 0., 0., 1.29108921e-01, 1.48089632e-01,
          1.62527293e-01, 7.77904615e-02, 1.66364059e-01, 1.60951719e-01,
          1.73583969e-01, 1.57730162e-01, 1.83147401e-01, 2.30426371e-01,
          2.31528863e-01, 2.16705799e-01, 1.69610307e-01, 1.27257288e-01,
          7.36174956e-02, 5.12348376e-02, 1.64729401e-01, 1.94549009e-01,
          1.96967348e-01, 9.28855091e-02, 7.97227472e-02, 3.78699638e-02,
          0., 1.37857527e-01, 7.19440430e-02, 0., 0., 0., 0.,
          1.24298751e-01, 1.39756307e-01, 1.84357584e-01, 2.33647451e-01,
          1.64094254e-01, 5.51443808e-02, 0., 0., 0., 0., 1.78792700e-01,
          7.96520114e-02, 4.12656069e-02, 0., 1.38646334e-01,
          2.00385749e-01, 0., 7.78047591e-02, 5.78831993e-02,
          1.17950030e-01, 6.55171052e-02, 0., 1.87888026e-01,
          1.49922684e-01, 0., 0., 0. ]
      - [ 1.02568887e-01, 2.33526424e-01, 1.28140926e-01, 1.49918482e-01,
          7.50413239e-02, 0., 0., 0., 7.11187255e-03, 9.43660587e-02,
          1.18715920e-01, 2.27383524e-01, 1.10684261e-01, 8.59170780e-02,
          4.46210578e-02, 9.60895941e-02, 1.08752109e-01, 3.08608204e-01,
          1.30487233e-01, 0., 2.17953548e-01, 9.02600288e-02,
          1.14164948e-01, 5.20421974e-02, 8.19329172e-02, 2.34585151e-01,
          0., 1.08467549e-01, 1.59879804e-01, 9.23709273e-02,
          8.44973847e-02, 1.28629729e-01, 1.16710059e-01, 1.55692115e-01,
          0., 0., 1.17100649e-01, 1.01952888e-01, 1.51178390e-01,
          1.19628102e-01, 1.98521733e-01, 2.21848801e-01, 0., 0.,
          9.28773582e-02, 1.03859633e-01, 9.72179025e-02, 1.05231613e-01,
          0., 5.98034821e-03, 4.90369722e-02, 2.46967837e-01,
          2.16676041e-01, 1.02111377e-01, 6.01501428e-02, 1.08012259e-01,
          1.00995272e-01, 1.75261647e-01, 8.53482485e-02, 1.85584709e-01,
          1.07700460e-01, 0., 0., 0. ]
      - [ 2.17792839e-01, 2.17662364e-01, 1.43216401e-01, 9.55564380e-02,
          6.24948479e-02, 0., 0., 8.66327286e-02, 1.28542468e-01,
          8.81476402e-02, 1.45543560e-01, 1.45433173e-01, 8.11631903e-02,
          1.31362900e-01, 1.15740016e-01, 9.73740891e-02, 1.37056097e-01,
          3.04830194e-01, 1.56725481e-01, 8.92136842e-02, 1.42534897e-01,
          7.60282576e-02, 9.94955972e-02, 4.50405963e-02, 1.66227013e-01,
          1.65453330e-01, 4.25471812e-02, 2.21924588e-01, 8.53445232e-02,
          8.29484835e-02, 9.97636393e-02, 0., 1.26788765e-01,
          7.47010186e-02, 0., 0., 7.45285302e-02, 1.12439759e-01,
          1.00364722e-01, 1.42010167e-01, 2.09244147e-01, 2.15224639e-01,
          0., 0., 0., 6.76616132e-02, 0., 1.09084062e-01, 0.,
          2.10542846e-02, 8.60024616e-02, 2.73563862e-01, 1.73483640e-01,
          7.51983300e-02, 3.44281830e-02, 0., 9.88007709e-02,
          1.35324314e-01, 1.35369346e-01, 3.00736666e-01, 6.47977591e-02,
          0., 3.19863968e-02, 0. ]
      - [ 1.02933340e-01, 1.31840423e-01, 2.51619816e-01, 1.13007762e-01,
          6.19456880e-02, 4.02471162e-02, 7.99966082e-02, 6.68577552e-02,
          2.79439706e-02, 7.11420849e-02, 1.23671651e-01, 2.07586721e-01,
          4.56818826e-02, 7.92199448e-02, 6.65418357e-02, 1.06680229e-01,
          1.43035322e-01, 7.80034885e-02, 4.38539907e-02, 7.89384022e-02,
          2.42925748e-01, 6.37740791e-02, 4.37756032e-02, 5.13248593e-02,
          0., 0., 8.87201652e-02, 1.27259493e-01, 2.41969928e-01,
          1.41363800e-01, 1.13784432e-01, 9.80511159e-02, 6.16753623e-02,
          1.35380417e-01, 1.82521611e-01, 5.08378930e-02, 1.49311438e-01,
          8.86112899e-02, 8.72743055e-02, 1.16066858e-01, 1.54776171e-01,
          1.20639987e-01, 2.50983119e-01, 1.17331862e-01, 1.31435424e-01,
          9.84382406e-02, 6.01565763e-02, 0., 1.08199060e-01,
          3.81316431e-02, 1.14619762e-01, 2.22376749e-01, 5.59043810e-02,
          1.87854618e-01, 1.69954970e-01, 6.88722208e-02, 2.05113500e-01,
          1.10703677e-01, 1.42042622e-01, 1.11134671e-01, 1.93205565e-01,
          8.51497650e-02, 1.45825848e-01, 9.00844112e-02 ]
      - [ 1.46747634e-01, 1.24681592e-01, 2.03376502e-01, 2.09480852e-01,
          7.96164051e-02, 0., 0., 0., 0., 1.45493802e-02, 3.02904230e-02,
          1.82353303e-01, 2.16471165e-01, 7.68182874e-02, 8.06962699e-02,
          8.67715701e-02, 8.89858529e-02, 7.49040991e-02, 7.66121447e-02,
          1.48906872e-01, 2.38611519e-01, 1.15231141e-01, 2.97490731e-02,
          0., 1.87464897e-02, 0., 0., 6.20604828e-02, 2.22378299e-01,
          1.29281223e-01, 1.15442522e-01, 9.40610915e-02, 1.17930286e-01,
          7.55611658e-02, 8.86702165e-02, 0., 2.52238601e-01,
          1.53435364e-01, 1.30935162e-01, 9.50788632e-02, 1.42797157e-01,
          2.12290242e-01, 1.23915829e-01, 4.95350771e-02, 7.52784163e-02,
          0., 9.97679010e-02, 9.36144963e-02, 9.73479524e-02,
          1.03775203e-01, 1.67987436e-01, 1.48811340e-01, 1.15447387e-01,
          1.39109477e-01, 9.16302204e-02, 6.57200292e-02, 1.97262421e-01,
          1.16315663e-01, 1.92666918e-01, 1.86252072e-01, 2.45109722e-01,
          1.00056052e-01, 7.71067962e-02, 1.28312241e-02 ]
      - [ 1.04761392e-01, 1.26964927e-01, 2.68511742e-01, 1.14303008e-01,
          4.55310233e-02, 0., 0., 1.00846134e-01, 2.38906387e-02,
          1.07383169e-02, 1.31371349e-01, 2.05931589e-01, 8.09493139e-02,
          0., 1.00012757e-01, 6.77396283e-02, 1.55289128e-01,
          7.87754804e-02, 8.51225927e-02, 5.48133142e-02, 2.30640754e-01,
          1.08358137e-01, 2.47214623e-02, 0., 1.97833274e-02, 0.,
          7.91435167e-02, 1.45641923e-01, 2.23325476e-01, 1.46081522e-01,
          1.09095022e-01, 6.71055764e-02, 7.06530586e-02, 2.08099917e-01,
          9.94808152e-02, 0., 1.06919974e-01, 1.12775847e-01,
          1.27695858e-01, 1.19399369e-01, 1.31880730e-01, 1.74554899e-01,
          2.34388217e-01, 0., 1.76159769e-01, 0., 1.10336073e-01, 0.,
          1.07408613e-01, 9.06080529e-02, 1.43225625e-01, 1.76053569e-01,
          1.20994516e-01, 1.75137430e-01, 1.61327302e-01, 1.55578986e-01,
          1.90438673e-01, 9.35045034e-02, 1.30016595e-01, 9.60996449e-02,
          1.93784758e-01, 1.36685148e-01, 1.38928711e-01, 0. ]
      - [ 1.71561673e-01, 1.56988665e-01, 2.14743420e-01, 1.98894054e-01,
          6.61023930e-02, 0., 0., 0., 0., 6.24880847e-03, 1.80414110e-01,
          2.07486078e-01, 1.03887521e-01, 5.61448820e-02, 1.01499237e-01,
          1.26339972e-01, 1.20077789e-01, 9.31210965e-02, 6.95920959e-02,
          2.02551022e-01, 1.24852426e-01, 1.13918006e-01, 9.21201780e-02,
          0., 3.04132011e-02, 3.12822461e-02, 0., 7.42671713e-02,
          1.16895735e-01, 1.53050676e-01, 1.35901079e-01, 7.33044520e-02,
          5.68371974e-02, 9.37228650e-02, 1.12392634e-01, 1.27201378e-01,
          1.55309856e-01, 2.12838173e-01, 1.31258413e-01, 1.12059221e-01,
          1.62028849e-01, 2.29817331e-01, 7.50110596e-02, 4.15223092e-02,
          1.19740553e-01, 9.05895531e-02, 7.70673379e-02, 1.04555599e-01,
          1.11049302e-01, 1.20523408e-01, 1.98220819e-01, 0.,
          3.17517444e-02, 8.74018297e-02, 1.14261456e-01, 1.14645384e-01,
          1.60878330e-01, 1.86647743e-01, 2.39760116e-01, 1.31695777e-01,
          1.72860473e-01, 1.34676874e-01, 9.83145162e-02, 7.46318102e-02 ]
      - [ 1.77422419e-01, 1.48386627e-01, 2.16394976e-01, 1.81812406e-01,
          0., 4.37230244e-02, 0., 0., 0., 8.99774674e-03, 9.74114686e-02,
          1.99653566e-01, 1.56953201e-01, 7.79530406e-02, 1.00055121e-01,
          0., 1.20885819e-01, 5.50997211e-03, 1.15240499e-01,
          1.40643239e-01, 2.36016661e-01, 5.36428876e-02, 1.27247358e-02,
          0., 6.42011091e-02, 0., 2.08491273e-02, 1.19578853e-01,
          1.89135358e-01, 1.50746062e-01, 1.66717842e-01, 6.11829124e-02,
          6.40107766e-02, 1.11395344e-01, 1.37995392e-01, 8.86353627e-02,
          1.64180234e-01, 1.30501255e-01, 1.21217221e-01, 1.57940164e-01,
          1.72303885e-01, 2.19091415e-01, 6.19156212e-02, 0.,
          1.20764054e-01, 9.95676070e-02, 6.75173998e-02, 1.07195668e-01,
          6.29417673e-02, 1.07599527e-01, 1.77699909e-01, 1.03856288e-01,
          1.33878380e-01, 1.38191491e-01, 1.17565937e-01, 1.18514702e-01,
          2.09654257e-01, 9.54175070e-02, 2.04551771e-01, 1.38593838e-01,
          2.16748685e-01, 1.11406669e-01, 5.49437106e-02, 1.03954375e-01 ]
      - [ 9.53935534e-02, 1.44081742e-01, 2.35244721e-01, 1.13688186e-01,
          7.98881724e-02, 0., 0., 0., 0., 3.09210317e-03, 8.02015364e-02,
          1.97485641e-01, 1.65853485e-01, 6.86899573e-02, 7.74042159e-02,
          6.68744668e-02, 8.26336965e-02, 6.92762583e-02, 3.41195017e-02,
          1.06768839e-01, 2.63288230e-01, 5.69301769e-02, 1.41697973e-02,
          0., 4.60745730e-02, 0., 0., 8.26955140e-02, 2.11605385e-01,
          1.97276026e-01, 8.18616450e-02, 1.34858876e-01, 8.54907706e-02,
          1.35798797e-01, 1.57835156e-01, 0., 1.95618868e-01,
          1.81510270e-01, 1.23491749e-01, 1.61477819e-01, 1.69243544e-01,
          1.93516910e-01, 0., 4.89039347e-02, 1.41308159e-01, 0.,
          1.03104770e-01, 8.92084315e-02, 9.56271067e-02, 8.21179152e-02,
          1.35269508e-01, 1.84466273e-01, 3.56513038e-02, 1.30473748e-01,
          1.51550889e-01, 1.07846200e-01, 1.04355752e-01, 2.03379348e-01,
          1.93644151e-01, 1.84136748e-01, 2.45924875e-01, 0.,
          8.50709602e-02, 1.00710660e-01 ]
      - [ 1.80433080e-01, 1.79389626e-01, 1.11346476e-01, 1.16552018e-01,
          8.05839822e-02, 0., 0., 0., 0., 0., 1.08851492e-01,
          1.36782616e-01, 1.63637102e-01, 7.30810761e-02, 9.68126357e-02,
          1.26417950e-01, 9.14191678e-02, 6.00191653e-02, 8.92250314e-02,
          1.33822411e-01, 2.26458997e-01, 1.42316610e-01, 1.39862290e-02,
          0., 0., 0., 0., 0., 1.78789690e-01, 2.00727671e-01,
          1.56594768e-01, 8.67100582e-02, 1.30366325e-01, 1.31530732e-01,
          3.77962254e-02, 0., 1.81670770e-01, 1.67625204e-01,
          9.30965617e-02, 1.65738314e-01, 1.80520415e-01, 2.27461070e-01,
          1.00831322e-01, 0., 7.01000690e-02, 1.03570677e-01,
          7.10365996e-02, 2.41103433e-02, 0., 1.20335951e-01,
          1.18343264e-01, 1.61827132e-01, 1.45227805e-01, 1.70336589e-01,
          1.49647534e-01, 1.82995766e-01, 1.64448023e-01, 1.12160861e-01,
          1.48872465e-01, 1.82508960e-01, 1.38548389e-01, 2.20717669e-01,
          1.21294156e-01, 1.17432140e-01 ]
      - [ 1.14632539e-01, 1.74620628e-01, 2.29845718e-01, 1.83938369e-01,
          1.47902682e-01, 0., 0., 0., 3.25391851e-02, 3.70073393e-02,
          1.73069507e-01, 1.79381669e-01, 1.18732519e-01, 9.69468653e-02,
          6.67794943e-02, 1.00514494e-01, 1.01583928e-01, 6.76715150e-02,
          7.13716447e-02, 2.03834951e-01, 1.86794698e-01, 1.45384073e-01,
          3.29621658e-02, 0., 0., 0., 0., 7.50317797e-02, 2.42339596e-01,
          1.64247185e-01, 1.49623454e-01, 1.37771815e-01, 1.06685691e-01,
          9.68529209e-02, 7.91194290e-02, 7.88801312e-02, 2.11865187e-01,
          1.26396939e-01, 8.00315067e-02, 1.42670304e-01, 1.93773717e-01,
          1.74503103e-01, 8.15563574e-02, 0., 7.17454553e-02,
          9.08896849e-02, 2.82913204e-02, 7.89976642e-02, 7.96959847e-02,
          1.10051125e-01, 1.19808197e-01, 1.34110138e-01, 1.10982850e-01,
          1.15582772e-01, 1.67109072e-01, 1.29723519e-01, 1.52652636e-01,
          1.32165253e-01, 2.00545892e-01, 1.88316941e-01, 1.39325678e-01,
          8.87662545e-02, 5.92762902e-02, 9.69217345e-02 ]
      - [ 1.83129624e-01, 1.09872751e-01, 3.22968900e-01, 0., 0., 0., 0.,
          0., 5.77785447e-02, 7.75507092e-02, 8.11938196e-02,
          2.15303779e-01, 1.57700494e-01, 7.94456527e-02, 7.16579929e-02,
          1.87597554e-02, 1.29930720e-01, 6.04719147e-02, 7.78861046e-02,
          1.49065614e-01, 1.87669083e-01, 4.33031134e-02, 2.71602720e-02,
          0., 6.37857839e-02, 4.87373658e-02, 0., 1.05406418e-01,
          1.81691661e-01, 0., 9.95960757e-02, 9.41512734e-02,
          7.25115016e-02, 9.08175334e-02, 2.11502299e-01, 7.61322603e-02,
          1.66597366e-01, 1.22450970e-01, 1.66244358e-01, 1.20636582e-01,
          1.62082642e-01, 2.74943024e-01, 6.25000224e-02, 1.05825573e-01,
          7.73319304e-02, 0., 1.17331371e-01, 9.12567303e-02,
          1.37360513e-01, 1.09969169e-01, 1.22405097e-01, 1.11965992e-01,
          0., 0., 1.91626742e-01, 1.30685866e-01, 1.99723229e-01,
          1.38719618e-01, 1.90719634e-01, 7.26430789e-02, 1.18237831e-01,
          2.06838295e-01, 7.07168728e-02, 1.62049472e-01 ]
      - [ 8.21035057e-02, 1.55848920e-01, 1.92394763e-01, 1.74663052e-01,
          8.62427726e-02, 0., 0., 0., 0., 7.00146183e-02, 1.66875288e-01,
          2.15946794e-01, 7.54239932e-02, 9.28791463e-02, 0.,
          7.36222416e-02, 1.27650425e-01, 1.33128136e-01, 1.42572060e-01,
          5.10357544e-02, 2.08484337e-01, 7.79191628e-02, 5.10827824e-03,
          0., 0., 0., 0., 8.69215280e-02, 1.91256881e-01, 7.47050419e-02,
          1.26039967e-01, 8.58112723e-02, 1.00721337e-01, 2.04252601e-01,
          1.67383537e-01, 1.14793293e-01, 1.58063903e-01, 9.11724865e-02,
          1.06692404e-01, 1.28688619e-01, 1.72669113e-01, 1.93795800e-01,
          1.52660608e-01, 0., 2.05655500e-01, 7.06375539e-02,
          9.22744647e-02, 6.67368174e-02, 0., 1.19910583e-01,
          1.60676107e-01, 1.59687668e-01, 1.27049133e-01, 1.04546145e-01,
          1.29891887e-01, 1.04994752e-01, 1.51371717e-01, 1.67442933e-01,
          1.95163518e-01, 2.29587838e-01, 1.56391904e-01, 0.,
          9.26143900e-02, 1.21396519e-01 ]
      - [ 1.38901755e-01, 1.55858353e-01, 1.68408394e-01, 8.28858912e-02,
          7.95536786e-02, 0., 0., 0., 0., 4.43469100e-02, 1.58217549e-01,
          1.38665885e-01, 6.20669574e-02, 9.40390229e-02, 1.08267374e-01,
          1.42539963e-01, 1.25060990e-01, 1.06496394e-01, 0.,
          8.79719779e-02, 1.96457505e-01, 2.07023650e-01, 1.45159345e-02,
          0., 0., 0., 0., 9.10661519e-02, 1.16510592e-01, 1.77596286e-01,
          1.89085573e-01, 0., 1.41433060e-01, 1.59547076e-01,
          7.87854642e-02, 0., 1.94153339e-01, 1.12761609e-01,
          1.27258524e-01, 1.63946450e-01, 1.79298505e-01, 2.12026924e-01,
          1.17566653e-01, 1.11869790e-01, 7.48200417e-02, 8.43475163e-02,
          0., 8.77108723e-02, 7.55241886e-02, 8.60737115e-02,
          1.86742738e-01, 1.21486321e-01, 1.50080264e-01, 1.78451687e-01,
          1.54178068e-01, 1.58579543e-01, 1.57903790e-01, 1.53038219e-01,
          1.37632161e-01, 1.28993273e-01, 1.76205322e-01, 2.07692802e-01,
          1.11395739e-01, 1.13078535e-01 ]
      - [ 8.84509310e-02, 3.32571357e-01, 1.27428278e-01, 0., 0., 0., 0.,
          0., 0., 1.78336695e-01, 9.03407112e-02, 9.24590081e-02,
          8.91289935e-02, 0., 4.83493209e-02, 0., 7.54788145e-02,
          1.58069119e-01, 1.53821856e-01, 1.74066618e-01, 1.54563636e-01,
          1.22083493e-01, 8.14781636e-02, 0., 5.68161048e-02,
          1.49745449e-01, 1.44046158e-01, 1.67343333e-01, 2.27103531e-01,
          1.61735967e-01, 9.35062617e-02, 7.55825192e-02, 7.01707080e-02,
          1.20101668e-01, 7.53146857e-02, 0., 6.97923079e-02, 0.,
          2.91537941e-02, 2.63466597e-01, 2.09914535e-01, 9.16912630e-02,
          0., 0., 7.62956515e-02, 8.57603848e-02, 0., 1.25307724e-01,
          1.22683316e-01, 6.94846213e-02, 1.14701994e-01, 1.78687871e-01,
          1.46805555e-01, 1.47312775e-01, 1.24069333e-01, 1.69886276e-01,
          1.61432296e-01, 1.16349250e-01, 1.70706019e-01, 1.49615467e-01,
          1.33566663e-01, 9.29142311e-02, 1.12196319e-01, 2.13787079e-01 ]
      - [ 6.28465936e-02, 2.95470148e-01, 2.21415803e-01, 5.75788878e-02,
          4.42082472e-02, 0., 2.16254313e-02, 0., 0., 2.39320710e-01,
          1.69584379e-01, 2.78247315e-02, 0., 0., 0., 0., 1.22619659e-01,
          1.21920956e-02, 2.52837408e-02, 1.23519413e-01, 2.22272083e-01,
          1.08252190e-01, 1.08691476e-01, 4.93209474e-02, 1.20431177e-01,
          0., 0., 0., 2.56438375e-01, 2.18582690e-01, 1.47686943e-01,
          1.71188235e-01, 1.12937987e-01, 2.06347421e-01, 1.40066072e-01,
          1.12257898e-01, 3.51549685e-02, 9.82090682e-02, 4.66325656e-02,
          1.18208252e-01, 2.21801952e-01, 2.05380589e-01, 6.00674488e-02,
          0., 0., 0., 0., 0., 1.37940332e-01, 1.46899894e-01,
          9.63435322e-02, 1.12286389e-01, 1.19117841e-01, 8.96141753e-02,
          9.82877165e-02, 1.00155979e-01, 1.93278894e-01, 1.74161270e-01,
          2.07810894e-01, 1.82658255e-01, 2.15750933e-02, 8.63226205e-02,
          6.73330501e-02, 1.04408726e-01 ]
      - [ 8.66373181e-02, 3.13087732e-01, 0., 0., 0., 0., 0., 0.,
          4.70142551e-02, 1.69383690e-01, 7.62250125e-02, 8.27069730e-02,
          3.90587710e-02, 0., 2.58149039e-02, 6.61100522e-02, 0.,
          2.07757622e-01, 7.27869570e-02, 5.83892986e-02, 2.58177429e-01,
          9.25127938e-02, 9.57045257e-02, 0., 8.47940296e-02,
          1.31993011e-01, 6.35768324e-02, 2.10697398e-01, 2.32092246e-01,
          1.60221666e-01, 7.72162527e-02, 1.07240371e-01, 1.13138266e-01,
          1.63881078e-01, 0., 0., 7.26198703e-02, 0., 6.93685785e-02,
          2.80229479e-01, 1.74985513e-01, 7.42711574e-02, 0.,
          5.12708314e-02, 1.02946632e-01, 0., 7.10735694e-02,
          1.16203301e-01, 9.87858176e-02, 4.33279276e-02, 1.25409469e-01,
          1.71626478e-01, 1.87157944e-01, 1.07323512e-01, 1.14178315e-01,
          1.65645361e-01, 1.87802970e-01, 1.18892014e-01, 1.61160395e-01,
          1.51549563e-01, 1.59518003e-01, 1.03981405e-01, 1.38571471e-01,
          2.10304916e-01 ]
      - [ 1.71441644e-01, 2.71833390e-01, 2.18798980e-01, 0.,
          5.07689454e-02, 0., 0., 1.25015840e-01, 1.39797807e-01,
          2.04913050e-01, 1.04152411e-01, 0., 0., 0., 0., 0.,
          2.30510935e-01, 2.59167627e-02, 0., 1.54241741e-01,
          1.19415060e-01, 9.27743241e-02, 1.06592461e-01, 0., 0., 0., 0.,
          0., 2.55829841e-01, 1.81661367e-01, 1.45124763e-01,
          1.69958547e-01, 1.05072595e-01, 2.42964923e-01, 1.50891468e-01,
          1.27833828e-01, 1.25827178e-01, 1.15479775e-01, 1.30539909e-01,
          1.16863541e-01, 1.83200493e-01, 1.75206766e-01, 1.76713124e-01,
          0., 0., 0., 0., 0., 0., 9.07682925e-02, 9.36641768e-02,
          7.60851800e-02, 1.18857637e-01, 6.44770265e-02, 0.,
          9.29855928e-02, 2.44052291e-01, 2.14839950e-01, 1.92775354e-01,
          1.92887530e-01, 0., 6.06512651e-02, 0., 0. ]
      - [ 3.01793739e-02, 2.25955933e-01, 2.75611848e-01, 0.,
          3.68943363e-02, 4.47905958e-02, 0., 0., 0., 1.11675337e-01,
          1.90809831e-01, 1.09813668e-01, 2.80514788e-02, 1.39601752e-02,
          2.08922364e-02, 0., 1.02803864e-01, 1.31760016e-01, 0.,
          1.29797623e-01, 2.19254375e-01, 9.66485031e-03, 9.69699547e-02,
          7.12428913e-02, 1.14251226e-01, 4.37081605e-02, 0., 0.,
          2.77828574e-01, 2.04103872e-01, 1.39997736e-01, 1.26332849e-01,
          8.97371769e-02, 1.32464007e-01, 1.29612640e-01, 0.,
          7.82728717e-02, 5.66422828e-02, 9.22697261e-02, 2.23295763e-01,
          2.42280170e-01, 2.52710711e-02, 0., 0., 0., 9.42818746e-02,
          1.06018461e-01, 1.35780588e-01, 5.83964437e-02, 1.07828975e-01,
          1.23190969e-01, 1.43878296e-01, 2.03841195e-01, 1.40451312e-01,
          7.68555105e-02, 1.72429010e-01, 1.50520936e-01, 1.51020750e-01,
          2.19121084e-01, 1.99802101e-01, 6.49040192e-02, 5.05204424e-02,
          1.04081877e-01, 1.50716797e-01 ]
      - [ 1.42072022e-01, 2.80038327e-01, 2.48509333e-01, 7.12909997e-02,
          2.43714228e-02, 1.12649284e-01, 7.49268308e-02, 7.04811588e-02,
          1.13668509e-01, 1.74186155e-01, 1.57748520e-01, 0., 0., 0., 0.,
          0., 2.59494334e-01, 4.25762609e-02, 0., 8.99741128e-02,
          8.62990841e-02, 1.01053700e-01, 0., 0., 0., 0., 0.,
          1.03498213e-01, 2.26321116e-01, 1.72522739e-01, 1.69930622e-01,
          1.31724983e-01, 5.88747412e-02, 2.25948751e-01, 2.34894022e-01,
          6.74295276e-02, 1.23485684e-01, 5.92882037e-02, 2.08081812e-01,
          8.04494023e-02, 1.75517723e-01, 2.17730418e-01, 1.53019086e-01,
          0., 0., 0., 0., 0., 7.21865222e-02, 0., 1.20305099e-01,
          3.49735543e-02, 2.57759057e-02, 0., 4.42516543e-02,
          1.06124796e-01, 2.00165093e-01, 2.65847027e-01, 2.18005285e-01,
          1.34398669e-01, 0., 3.75203378e-02, 6.84744790e-02,
          8.99529010e-02 ]
      - [ 7.41953552e-02, 3.36097211e-01, 1.90353617e-01, 0.,
          2.65415218e-02, 0., 0., 3.87151390e-02, 1.85265049e-01,
          1.25597447e-01, 1.53504938e-01, 4.88023460e-02, 0., 0., 0., 0.,
          1.47622034e-01, 9.75014940e-02, 4.35816981e-02, 0.,
          2.15623662e-01, 1.04122721e-01, 5.25242537e-02, 8.12206194e-02,
          1.41093880e-01, 2.50245389e-02, 2.40242984e-02, 0.,
          2.62553781e-01, 1.29818946e-01, 2.40126774e-01, 1.63559690e-01,
          1.36517793e-01, 1.42671049e-01, 1.67564258e-01, 1.07001692e-01,
          9.05958638e-02, 9.27486271e-02, 1.30467787e-01, 1.38257280e-01,
          1.78957760e-01, 2.17430413e-01, 7.25282803e-02, 0., 0., 0., 0.,
          0., 1.28279224e-01, 9.43724141e-02, 1.36754930e-01,
          1.34449780e-01, 0., 0., 1.46707416e-01, 1.30917028e-01,
          1.95426419e-01, 1.93420261e-01, 2.42807925e-01, 6.68121725e-02,
          7.25896209e-02, 8.38581249e-02, 0., 8.77363607e-02 ]
      - [ 1.40258849e-01, 2.73990989e-01, 1.33561358e-01, 0., 0., 0.,
          3.70861627e-02, 0., 7.24660754e-02, 2.41623253e-01,
          8.58331397e-02, 0., 0., 5.89442849e-02, 0., 6.64318129e-02,
          2.86733747e-01, 1.22259587e-01, 1.04242958e-01, 1.67812824e-01,
          1.62377551e-01, 1.61219135e-01, 0., 0., 0., 0., 5.20946868e-02,
          2.67293513e-01, 1.44081473e-01, 1.28927797e-01, 1.31578684e-01,
          8.48177373e-02, 2.01348990e-01, 1.40051961e-01, 1.01166137e-01,
          1.13962829e-01, 1.46311194e-01, 1.57649919e-01, 1.36650532e-01,
          7.53187463e-02, 1.94688320e-01, 1.88896611e-01, 0., 0., 0., 0.,
          0., 0., 1.49370745e-01, 9.22256410e-02, 1.17107876e-01, 0., 0.,
          5.53342365e-02, 8.14627632e-02, 1.16128758e-01, 2.85571367e-01,
          1.51706770e-01, 2.00689510e-01, 1.75645024e-01, 0.,
          1.01560384e-01, 3.55319045e-02, 0. ]
      - [ 1.21372290e-01, 3.41696978e-01, 1.58611000e-01, 0.,
          5.21701314e-02, 0., 0., 0., 8.05593207e-02, 2.43446514e-01,
          1.14616334e-01, 0., 2.24024914e-02, 0., 4.22287025e-02, 0.,
          1.92154065e-01, 5.15279621e-02, 1.23040132e-01, 1.97513744e-01,
          3.13880220e-02, 9.66893956e-02, 7.11445436e-02, 0.,
          1.68488547e-01, 0., 0., 0., 2.38843933e-01, 1.40380070e-01,
          2.33382449e-01, 1.84480682e-01, 2.07794979e-01, 7.54320174e-02,
          4.35953662e-02, 5.85291497e-02, 1.06630951e-01, 9.50102434e-02,
          1.52076289e-01, 1.84816986e-01, 2.21852079e-01, 8.36515725e-02,
          7.97343180e-02, 0., 0., 0., 5.08298837e-02, 3.13823074e-02,
          9.28159207e-02, 8.11759606e-02, 0., 1.51799306e-01,
          8.12527388e-02, 1.60806552e-01, 1.15602091e-01, 1.75334200e-01,
          1.45954207e-01, 1.67800605e-01, 2.01614946e-01, 2.19675004e-01,
          7.40958378e-02, 0., 0., 0. ]
      - [ 3.73813021e-03, 1.76762924e-01, 3.11653376e-01, 0.,
          3.82583588e-02, 0., 0., 0., 3.84983867e-02, 1.30455837e-01,
          1.88959330e-01, 1.10177964e-01, 0., 0., 0., 1.32948803e-02,
          1.06701195e-01, 1.05704620e-01, 7.66116902e-02, 1.34746760e-01,
          2.06218168e-01, 7.34199807e-02, 9.79058668e-02, 7.10086599e-02,
          1.13312632e-01, 4.37350310e-02, 0., 0., 2.78874427e-01,
          1.95382267e-01, 1.57157615e-01, 1.36550829e-01, 8.67458656e-02,
          1.40435278e-01, 1.23730607e-01, 7.85056800e-02, 0.,
          9.71083045e-02, 5.08282743e-02, 2.20278442e-01, 2.33301580e-01,
          3.35988477e-02, 0., 2.01394167e-02, 0., 9.23682153e-02,
          1.11424975e-01, 1.35433435e-01, 5.44279963e-02, 1.04358360e-01,
          1.07254244e-01, 2.03001127e-01, 1.66887715e-01, 7.96535537e-02,
          1.26766250e-01, 1.76631242e-01, 1.68108106e-01, 1.32066533e-01,
          1.59538090e-01, 2.43198991e-01, 6.38771951e-02, 8.99646431e-02,
          0., 1.59505203e-01 ]
      - [ 0., 1.00121893e-01, 1.18624277e-01, 2.41330847e-01,
          3.04174721e-01, 1.77466437e-01, 9.49943513e-02, 8.84524882e-02,
          7.90518597e-02, 1.03004508e-01, 9.10682678e-02, 2.08380476e-01,
          2.28615165e-01, 1.43758088e-01, 0., 2.77904030e-02,
          6.31526709e-02, 9.91196632e-02, 1.29902110e-01, 1.45777971e-01,
          2.22370908e-01, 9.14337188e-02, 2.34011244e-02, 0., 0., 0., 0.,
          8.59210044e-02, 3.36638957e-01, 2.27741405e-01, 9.65318680e-02,
          1.22922070e-01, 0., 0., 0., 0., 2.78763413e-01, 1.20160356e-01,
          8.82377401e-02, 4.45530005e-02, 7.01906234e-02, 3.06777470e-02,
          9.41862538e-02, 7.36935809e-02, 2.78123736e-01, 0.,
          1.73900034e-02, 0., 4.79065627e-02, 0., 0., 0., 0.,
          1.81046531e-01, 1.16625302e-01, 1.60290569e-01, 2.77650356e-02,
          1.10965915e-01, 1.78740412e-01, 7.68072903e-02, 0., 0., 0.,
          4.66878265e-02 ]
      - [ 1.33226067e-01, 1.48157090e-01, 1.13908648e-01, 1.99918896e-01,
          3.35748941e-01, 1.16368100e-01, 9.51671302e-02, 7.84168765e-02,
          8.28155056e-02, 8.38138536e-02, 2.35833958e-01, 1.42007589e-01,
          2.16137215e-01, 7.78921321e-02, 8.57762098e-02, 9.97561887e-02,
          9.48201939e-02, 1.16433747e-01, 1.48236796e-01, 1.61944330e-01,
          1.56655356e-01, 1.01075694e-01, 1.76391639e-02, 0.,
          1.42508056e-02, 0., 0., 1.28049389e-01, 3.17130059e-01,
          1.91695318e-01, 1.11766636e-01, 7.89427981e-02, 1.92956813e-02,
          0., 0., 1.70799077e-01, 2.22746357e-01, 5.66209331e-02,
          8.56128335e-02, 7.95732886e-02, 4.16315943e-02, 7.28379786e-02,
          9.51326638e-02, 2.03919262e-01, 1.88983530e-01, 0., 0., 0.,
          8.29187334e-02, 6.22145347e-02, 0., 0., 0., 1.23630397e-01,
          1.36853471e-01, 1.73911259e-01, 1.20884106e-01, 1.58609778e-01,
          1.01857722e-01, 7.62504339e-02, 0., 0., 3.53733450e-02,
          7.76937976e-02 ]
      - [ 1.63489670e-01, 9.82094258e-02, 9.87619236e-02, 2.12968111e-01,
          2.98585027e-01, 1.44506499e-01, 8.95822793e-02, 4.81103249e-02,
          5.47279082e-02, 1.71154708e-01, 1.37177631e-01, 1.96858957e-01,
          1.73224017e-01, 1.66743621e-01, 6.92880750e-02, 0.,
          1.19508319e-01, 7.96567127e-02, 1.19351402e-01, 1.99835852e-01,
          1.49244249e-01, 1.23051479e-01, 0., 0., 2.41961293e-02, 0., 0.,
          1.17483772e-01, 3.31741542e-01, 1.98235020e-01, 9.36738551e-02,
          8.54476988e-02, 0., 0., 0., 0., 2.11327508e-01, 1.21860288e-01,
          4.90686893e-02, 8.76782611e-02, 8.81938562e-02, 7.27458522e-02,
          7.54016787e-02, 1.35304362e-01, 2.75043339e-01, 0., 0., 0.,
          1.13488182e-01, 7.39966109e-02, 0., 3.19910496e-02, 0.,
          1.31037578e-01, 1.50130093e-01, 1.77284464e-01, 1.21641524e-01,
          1.23993970e-01, 1.44724652e-01, 1.08429372e-01, 0.,
          4.28523198e-02, 7.80459344e-02, 0. ]
      - [ 8.17730576e-02, 6.00543544e-02, 8.58398899e-02, 2.30667830e-01,
          3.60218406e-01, 9.82922465e-02, 9.05226246e-02, 5.66819869e-02,
          1.31740093e-01, 9.71806049e-02, 9.49750468e-02, 2.39107773e-01,
          1.89930499e-01, 1.49565309e-01, 6.26099035e-02, 0.,
          1.11050241e-01, 0., 1.56617671e-01, 1.95784613e-01,
          1.43596292e-01, 0., 0., 0., 0., 2.22424418e-02, 1.03396140e-01,
          1.30285472e-01, 2.85714954e-01, 2.16856092e-01, 1.14370607e-01,
          4.19039652e-02, 0., 0., 0., 0., 3.03727299e-01, 1.50213927e-01,
          8.00132155e-02, 9.96200517e-02, 5.98195717e-02, 7.72921070e-02,
          4.32598665e-02, 6.55320436e-02, 2.62943506e-01, 1.18583746e-01,
          8.89875740e-03, 0., 0., 6.25349134e-02, 0., 0., 4.96752411e-02,
          7.32298046e-02, 1.18350439e-01, 1.61043406e-01, 4.55672145e-02,
          1.85321078e-01, 1.16196275e-01, 1.16007067e-01, 0., 0.,
          6.59133270e-02, 7.70302787e-02 ]
      - [ 7.98001811e-02, 0., 8.69410336e-02, 8.33806768e-02,
          4.13314670e-01, 1.66504756e-01, 1.18916020e-01, 1.07024692e-01,
          0., 8.25550184e-02, 8.74434337e-02, 1.24651194e-01,
          2.98992544e-01, 1.51505843e-01, 1.16185866e-01, 7.00967759e-02,
          1.04000300e-01, 8.49085823e-02, 8.87945369e-02, 1.66626498e-01,
          1.62454888e-01, 1.80730224e-01, 1.22900922e-02, 0., 0.,
          2.60712225e-02, 0., 2.12022915e-01, 2.53150940e-01,
          2.31522158e-01, 1.72939345e-01, 7.53052682e-02, 0., 0., 0., 0.,
          2.76849687e-01, 1.01389483e-01, 2.52341032e-02, 9.27501395e-02,
          3.83782461e-02, 6.10284321e-02, 1.00191653e-01, 1.28061891e-01,
          2.39902332e-01, 0., 0., 0., 0., 0., 0., 0., 8.29234645e-02,
          1.43256173e-01, 9.11239013e-02, 1.09612435e-01, 3.97556238e-02,
          1.79144517e-01, 1.17772378e-01, 4.25982438e-02, 0., 0., 0., 0. ]
      - [ 2.32767344e-01, 1.93755791e-01, 0., 1.16073482e-01,
          2.89818347e-01, 1.32286906e-01, 0., 0., 2.31630281e-01,
          6.74160421e-02, 9.59455371e-02, 2.30856851e-01, 0., 0.,
          3.72372381e-02, 2.20377371e-01, 1.54740945e-01, 3.18518542e-02,
          9.70733464e-02, 1.59586668e-01, 1.87682912e-01, 7.74766579e-02,
          3.15610543e-02, 0., 7.89242014e-02, 0., 7.42607117e-02,
          1.88719153e-01, 1.94580376e-01, 1.74295366e-01, 1.69483319e-01,
          1.53587192e-01, 0., 0., 4.71718237e-02, 8.15371871e-02, 0.,
          1.60188571e-01, 1.11115694e-01, 8.21634904e-02, 1.02743268e-01,
          8.20369497e-02, 1.15401365e-01, 1.59009635e-01, 1.92858726e-01,
          4.71718237e-02, 0., 0., 9.20745134e-02, 7.20678568e-02, 0., 0.,
          3.54606807e-02, 0., 1.31639063e-01, 2.71109611e-01,
          1.51438162e-01, 1.64594963e-01, 8.12870041e-02, 0., 0., 0.,
          8.48843530e-02, 1.84764370e-01 ]
      - [ 1.53369039e-01, 1.20102905e-01, 1.02230690e-01, 1.69830754e-01,
          3.33970487e-01, 1.64399847e-01, 1.13599382e-01, 6.38430938e-02,
          1.23477466e-01, 1.44657910e-01, 1.19472839e-01, 1.66830808e-01,
          2.64760524e-01, 7.07709715e-02, 8.93445015e-02, 1.18376926e-01,
          1.98689345e-02, 1.34675294e-01, 1.32265627e-01, 2.07345113e-01,
          1.31252944e-01, 7.19452724e-02, 1.79947615e-02, 0.,
          1.94675010e-02, 0., 9.04001147e-02, 1.66878089e-01,
          2.73261040e-01, 1.88618422e-01, 9.43822116e-02, 1.41712829e-01,
          0., 0., 0., 0., 2.80393690e-01, 7.65268505e-02, 1.07654542e-01,
          4.11446095e-02, 4.47219387e-02, 6.97398633e-02, 9.86411944e-02,
          1.07896484e-01, 2.58601665e-01, 0., 0., 0., 7.12473243e-02,
          7.96013176e-02, 0., 0., 0., 9.91599634e-02, 1.16083778e-01,
          1.93616435e-01, 1.19034670e-01, 7.84271061e-02, 1.66124165e-01,
          0., 0., 0., 0., 3.81433405e-02 ]
      - [ 7.46817887e-02, 3.44297551e-02, 0., 2.08303243e-01,
          4.12115365e-01, 9.49637517e-02, 4.47106771e-02, 8.45325813e-02,
          7.54625127e-02, 8.38860497e-02, 8.97953734e-02, 2.89175361e-01,
          1.94350913e-01, 1.51294142e-01, 1.10109776e-01, 1.11850210e-01,
          1.23140126e-01, 7.48123676e-02, 2.15378508e-01, 1.97290152e-01,
          7.23107457e-02, 0., 0., 0., 0., 6.51033148e-02, 1.12756968e-01,
          2.29295760e-01, 2.39030302e-01, 1.46725550e-01, 1.27136096e-01,
          8.77738521e-02, 0., 0., 0., 0., 2.90254623e-01, 1.15930833e-01,
          1.06296912e-01, 7.74534121e-02, 0., 4.23205122e-02,
          6.96317032e-02, 1.31173253e-01, 2.25269645e-01, 0., 0., 0., 0.,
          0., 0., 2.77002640e-02, 0., 0., 1.30050957e-01, 1.25243008e-01,
          1.06708393e-01, 1.37785196e-01, 1.62050813e-01, 5.77609427e-02,
          0., 0., 5.53412400e-02, 5.28590046e-02 ]
      - [ 1.40082231e-02, 2.35644832e-01, 2.65749395e-01, 6.31344095e-02,
          9.66550857e-02, 8.11267570e-02, 1.18184216e-01, 8.19872171e-02,
          6.69175684e-02, 7.42515922e-02, 1.31796777e-01, 0., 0., 0., 0.,
          0., 1.74993739e-01, 1.22230470e-01, 2.61706598e-02, 0.,
          2.37104177e-01, 8.49760398e-02, 6.93311468e-02, 1.01875015e-01,
          1.07559174e-01, 1.26726374e-01, 1.53285965e-01, 2.10221022e-01,
          1.46175042e-01, 1.13555290e-01, 1.80572897e-01, 1.81556568e-01,
          5.17862365e-02, 0., 1.05322003e-01, 1.00946635e-01,
          2.34303370e-01, 1.75732926e-01, 6.40213042e-02, 0.,
          1.08737975e-01, 3.76205929e-02, 2.11706817e-01, 7.07073063e-02,
          0., 2.71779671e-02, 0., 0., 1.06654219e-01, 1.09169848e-01,
          1.52102649e-01, 1.28382415e-01, 1.22245066e-01, 7.94920623e-02,
          1.45193323e-01, 1.08928986e-01, 1.47163838e-01, 1.41668290e-01,
          2.00411797e-01, 2.10977256e-01, 1.88318714e-01, 6.41133636e-02,
          9.64374989e-02, 1.25023291e-01 ]
      - [ 9.82905179e-02, 2.64939755e-01, 1.66200653e-01, 0.,
          4.04002368e-02, 0., 0., 0., 1.05386116e-01, 1.37470976e-01,
          1.65816143e-01, 0., 0., 0., 0., 0., 1.87993780e-01,
          1.51432648e-01, 6.14206307e-02, 9.15226340e-02, 2.36844048e-01,
          1.47809863e-01, 1.69570401e-01, 0., 6.48281425e-02,
          8.82253647e-02, 1.69592917e-01, 2.01597631e-01, 1.26135081e-01,
          1.31157920e-01, 1.12266719e-01, 2.00943977e-01, 7.97081813e-02,
          1.13762543e-01, 1.32219240e-01, 9.06912610e-02, 7.98946992e-02,
          2.52558831e-02, 8.03400055e-02, 6.04598708e-02, 9.89960581e-02,
          1.59221873e-01, 2.24449039e-01, 0., 0., 0., 0., 0., 0.,
          8.13019723e-02, 1.79184973e-01, 1.95987791e-01, 2.01074362e-01,
          2.02972010e-01, 9.66834575e-02, 1.08538114e-01, 1.54380545e-01,
          1.11023515e-01, 2.09331587e-01, 1.28324404e-01, 1.62766084e-01,
          1.56296864e-01, 5.37687093e-02, 1.04789980e-01 ]
      - [ 8.65404457e-02, 2.51342505e-01, 2.09103808e-01, 5.65075167e-02,
          1.39195338e-01, 0., 9.65846702e-02, 5.73437661e-02,
          9.26345885e-02, 7.41445422e-02, 1.96324244e-01, 4.44919281e-02,
          0., 0., 0., 0., 2.01315910e-01, 6.37889132e-02, 0.,
          4.25349437e-02, 2.43126005e-01, 1.17139116e-01, 7.07586184e-02,
          9.49976966e-02, 0., 9.86165851e-02, 1.44415304e-01,
          1.70801207e-01, 1.74155891e-01, 1.68627605e-01, 1.90754756e-01,
          1.02764972e-01, 7.96091929e-02, 0., 1.40820086e-01,
          1.11924194e-01, 1.69776648e-01, 1.19391136e-01, 8.79684985e-02,
          5.88859282e-02, 8.57514367e-02, 6.59801662e-02, 1.52610928e-01,
          1.65895209e-01, 1.48559242e-01, 0., 0., 0., 1.08809561e-01,
          9.18677226e-02, 8.95858258e-02, 1.44778088e-01, 1.95524633e-01,
          1.97089493e-01, 1.91107512e-01, 9.71087888e-02, 8.12249929e-02,
          6.87174127e-02, 1.71465456e-01, 2.01429963e-01, 1.88494667e-01,
          1.48057863e-01, 7.63197765e-02, 5.15768826e-02 ]
      - [ 1.20691292e-01, 2.69113690e-01, 1.76039472e-01, 9.69058946e-02,
          6.96104318e-02, 9.28215012e-02, 8.21923930e-03, 7.06904754e-02,
          1.31293431e-01, 9.47338119e-02, 8.26086253e-02, 0., 0., 0., 0.,
          0., 1.25141114e-01, 1.33732960e-01, 0., 0., 2.02248022e-01,
          1.13626748e-01, 9.59962457e-02, 6.67276829e-02, 1.39843538e-01,
          1.21391870e-01, 1.42422229e-01, 1.19820289e-01, 2.00001910e-01,
          1.88733578e-01, 1.92893803e-01, 1.62278727e-01, 5.51841334e-02,
          4.41664606e-02, 1.15639180e-01, 1.46935225e-01, 2.35021412e-01,
          1.16700232e-01, 1.37584805e-01, 6.60442635e-02, 8.60647038e-02,
          1.11278474e-01, 1.49960220e-01, 1.76156878e-01, 0., 0., 0., 0.,
          1.31065995e-01, 4.64041382e-02, 1.49785310e-01, 1.62622496e-01,
          7.07538053e-02, 8.25195238e-02, 1.88089743e-01, 1.20191969e-01,
          9.07615349e-02, 1.48428306e-01, 2.10960224e-01, 1.76093757e-01,
          2.03837097e-01, 1.24465995e-01, 9.41108465e-02, 7.06904754e-02 ]
      - [ 1.28693759e-01, 2.88430363e-01, 1.64516568e-01, 0.,
          1.13770068e-01, 7.49532357e-02, 1.02003478e-01, 5.59260771e-02,
          9.53549221e-02, 6.95278868e-02, 1.22567013e-01, 7.61768967e-02,
          8.34123641e-02, 0., 0., 0., 1.67923614e-01, 4.68747281e-02, 0.,
          6.41087517e-02, 1.68381616e-01, 8.57643038e-02, 8.44291896e-02,
          1.53637558e-01, 9.64779928e-02, 4.60132435e-02, 1.66631296e-01,
          1.38737455e-01, 1.44888952e-01, 1.23411022e-01, 1.91863194e-01,
          1.72603518e-01, 6.82059973e-02, 0., 1.03443183e-01,
          1.15320370e-01, 2.46724799e-01, 1.92625299e-01, 9.08138901e-02,
          0., 1.08966254e-01, 1.00746207e-01, 1.66596532e-01,
          1.96551397e-01, 1.34703144e-01, 0., 0., 0., 4.49146144e-02,
          1.41282126e-01, 1.49313465e-01, 1.92610994e-01, 5.87528609e-02,
          3.82937975e-02, 1.43714041e-01, 1.07271425e-01, 1.28503844e-01,
          1.30170330e-01, 2.33428836e-01, 1.77209884e-01, 1.71432167e-01,
          8.03662464e-02, 1.14868425e-01, 9.42842737e-02 ]
      - [ 7.47043937e-02, 2.80599266e-01, 1.56201079e-01, 5.98755963e-02,
          4.23777774e-02, 0., 4.94420119e-02, 7.36594498e-02,
          1.10666409e-01, 2.06309885e-01, 4.65414524e-02, 5.01702838e-02,
          5.79071455e-02, 0., 0., 0., 2.42067635e-01, 9.16100070e-02,
          6.35104775e-02, 9.22284797e-02, 1.89506263e-01, 1.90196678e-01,
          1.05278336e-01, 1.07411571e-01, 6.01351410e-02, 7.71527318e-03,
          8.82542059e-02, 2.51379907e-01, 8.50759149e-02, 1.28519341e-01,
          1.87865764e-01, 8.83294567e-02, 9.37174261e-02, 1.12100489e-01,
          1.51743591e-01, 7.19313025e-02, 7.13389814e-02, 7.18850419e-02,
          7.69298598e-02, 6.06318004e-02, 1.10317186e-01, 1.15242034e-01,
          2.09914565e-01, 1.53142020e-01, 0., 1.17550949e-02, 0., 0.,
          4.87009399e-02, 1.06474854e-01, 1.47605538e-01, 1.94142491e-01,
          2.11443201e-01, 1.99643180e-01, 1.00090854e-01, 1.03685215e-01,
          1.41917795e-01, 1.28245384e-01, 1.72427073e-01, 1.64007530e-01,
          2.13990405e-01, 8.75599757e-02, 0., 1.08341888e-01 ]
      - [ 1.20594092e-01, 3.01082402e-01, 2.15698242e-01, 0.,
          1.38486758e-01, 9.92628410e-02, 6.40294030e-02, 1.07343130e-01,
          1.25183508e-01, 1.61462680e-01, 1.28140986e-01, 5.96450828e-02,
          0., 0., 0., 0., 1.53931633e-01, 0., 9.09160897e-02, 0.,
          8.66382569e-02, 1.47891924e-01, 8.21343139e-02, 1.00218520e-01,
          1.24858327e-01, 1.55644700e-01, 1.97620481e-01, 1.14241630e-01,
          9.99200121e-02, 9.78183821e-02, 1.81871757e-01, 2.39632249e-01,
          7.66334832e-02, 0., 0., 1.17902003e-01, 2.52652079e-01,
          8.29271600e-02, 4.96958308e-02, 7.15304464e-02, 1.14849858e-01,
          8.95497352e-02, 2.06501722e-01, 9.57138091e-02, 0., 0., 0., 0.,
          7.93205798e-02, 2.02716678e-01, 1.73566505e-01, 6.02020100e-02,
          0., 0., 1.23326384e-01, 1.13193281e-01, 1.68866441e-01,
          1.93265721e-01, 1.97090641e-01, 1.33661807e-01, 1.91930726e-01,
          9.70370024e-02, 7.51066133e-02, 8.42162743e-02 ]
      - [ 1.63317814e-01, 2.36174047e-01, 2.13072956e-01, 6.73033148e-02,
          1.08357914e-01, 6.97408170e-02, 9.62069780e-02, 9.54678506e-02,
          8.27670097e-02, 6.22371733e-02, 1.32667273e-01, 1.17036097e-01,
          0., 0., 0., 3.85965817e-02, 2.24217594e-01, 2.01520566e-02, 0.,
          1.51527837e-01, 1.36394665e-01, 9.40366760e-02, 6.36752471e-02,
          1.50251046e-01, 7.48378411e-02, 1.19352385e-01, 1.64074108e-01,
          1.53189346e-01, 1.31150737e-01, 1.51372820e-01, 1.41739771e-01,
          1.44447118e-01, 7.46944919e-02, 5.58504462e-02, 8.14637169e-02,
          1.30564153e-01, 2.33401299e-01, 1.26576841e-01, 1.39810205e-01,
          0., 1.12137422e-01, 8.75656456e-02, 1.73931167e-01,
          1.84890330e-01, 1.04198508e-01, 4.43975478e-02, 0., 0.,
          1.08400017e-01, 1.46584317e-01, 1.08281992e-01, 1.90400198e-01,
          2.29081344e-02, 3.06709632e-02, 1.62303329e-01, 1.03575550e-01,
          1.75745636e-01, 9.89038050e-02, 2.44350761e-01, 1.33004025e-01,
          1.37750164e-01, 9.39050466e-02, 1.10584043e-01, 1.11089140e-01 ]
      - [ 2.60276068e-02, 2.20433593e-01, 2.74645507e-01, 5.92277236e-02,
          1.70116663e-01, 7.17374757e-02, 9.80892405e-02, 6.88294992e-02,
          6.63123503e-02, 7.89825097e-02, 1.89869687e-01, 6.65158927e-02,
          0., 0., 0., 0., 1.30334407e-01, 1.05166487e-01, 0.,
          2.92733815e-02, 2.26731747e-01, 1.07080236e-01, 7.32917339e-02,
          5.32790162e-02, 1.42500207e-01, 1.02875814e-01, 1.19263522e-01,
          1.74559668e-01, 2.26838812e-01, 1.29019171e-01, 1.96710408e-01,
          7.12039024e-02, 7.50815421e-02, 0., 1.38832405e-01,
          7.83364475e-02, 2.24531189e-01, 1.27932057e-01, 6.60683289e-02,
          3.17327604e-02, 1.33348554e-01, 8.00309554e-02, 1.36585832e-01,
          1.95715696e-01, 0., 2.56739538e-02, 0., 0., 6.94299266e-02,
          9.05955061e-02, 1.31682307e-01, 1.54062867e-01, 1.35508507e-01,
          1.40717670e-01, 1.51236460e-01, 8.95336568e-02, 7.94649273e-02,
          1.21793397e-01, 2.17353866e-01, 2.05128521e-01, 1.93592444e-01,
          8.71025547e-02, 9.84686613e-02, 1.06795602e-01 ]
      - [ 4.84979451e-02, 1.07992023e-01, 1.57161087e-01, 2.61540562e-01,
          2.86026448e-01, 4.31947969e-02, 1.92878358e-02, 0., 0.,
          5.72934095e-03, 1.41304219e-02, 1.92615554e-01, 1.95897907e-01,
          1.00118048e-01, 4.06978875e-02, 8.78427178e-02, 2.30261415e-01,
          7.35995546e-02, 8.02110061e-02, 6.61779121e-02, 1.21117175e-01,
          0., 0., 2.81070974e-02, 4.23672758e-02, 1.28183141e-01,
          6.48518279e-02, 9.87867936e-02, 2.99249142e-01, 1.53693050e-01,
          6.83757439e-02, 1.46564126e-01, 9.65845361e-02, 1.15583114e-01,
          1.53475761e-01, 4.31289114e-02, 2.85861850e-01, 1.84726402e-01,
          1.59141511e-01, 1.25690177e-01, 1.62267968e-01, 7.86547884e-02,
          0., 1.04489513e-01, 4.62105460e-02, 1.15161210e-01,
          1.25154063e-01, 8.61243755e-02, 0., 0., 0., 0., 0., 0., 0., 0.,
          1.98311165e-01, 1.85949758e-01, 1.69539556e-01, 2.51111746e-01,
          6.93716034e-02, 0., 0., 0. ]
      - [ 0., 1.05677821e-01, 1.65624961e-01, 3.95562410e-01,
          9.63257551e-02, 0., 0., 0., 0., 3.72312032e-02, 1.72075219e-02,
          2.95978457e-01, 8.29757527e-02, 1.06985308e-01, 8.49994794e-02,
          4.01093066e-02, 1.84986383e-01, 1.70247659e-01, 3.38547044e-02,
          0., 0., 0., 0., 0., 7.36692548e-02, 4.01864164e-02,
          1.13962680e-01, 1.58044815e-01, 2.08497196e-01, 1.49031341e-01,
          1.06515668e-01, 9.48372036e-02, 0., 2.11234257e-01,
          1.33806601e-01, 2.02975392e-01, 2.75086373e-01, 1.19972646e-01,
          1.46104023e-01, 7.52288103e-02, 1.88122198e-01, 2.92164832e-02,
          1.37296632e-01, 2.06278995e-01, 1.61900669e-01, 1.06250681e-01,
          0., 0., 0., 0., 0., 0., 0., 0., 0., 5.40462472e-02,
          2.14029461e-01, 1.66494340e-01, 1.08746395e-01, 1.37325704e-01,
          1.17946871e-01, 6.98517486e-02, 4.42402251e-02, 0. ]
      - [ 9.47836563e-02, 9.47860628e-02, 7.11067319e-02, 3.63561749e-01,
          8.06975439e-02, 0., 3.15055028e-02, 0., 0., 4.37785732e-03,
          6.28306121e-02, 2.51723289e-01, 1.23224996e-01, 9.46891084e-02,
          9.01548266e-02, 5.46572208e-02, 1.39145553e-01, 8.17515627e-02,
          7.91453272e-02, 1.30989864e-01, 6.11896254e-02, 0., 0., 0., 0.,
          4.69640568e-02, 1.14650525e-01, 2.33176067e-01, 1.53104335e-01,
          8.63624290e-02, 8.93636122e-02, 1.05640262e-01, 2.21886784e-01,
          1.02924764e-01, 1.08317539e-01, 1.77546993e-01, 2.00917289e-01,
          1.07896633e-01, 1.09071009e-01, 1.50888398e-01, 2.69518912e-01,
          7.09492341e-02, 4.13435735e-02, 8.91014636e-02, 1.59271821e-01,
          1.01505637e-01, 7.65985996e-02, 0., 1.93066359e-01, 0., 0., 0.,
          0., 3.07030696e-02, 0., 0., 2.83626378e-01, 1.62419394e-01,
          4.30160128e-02, 2.02962488e-01, 1.38850316e-01, 4.86585461e-02,
          1.13663137e-01, 1.43002167e-01 ]
      - [ 1.50761724e-01, 1.32727280e-01, 1.85161754e-01, 2.96984166e-01,
          2.58772105e-01, 0., 0., 0., 0., 1.48742404e-02, 6.26214892e-02,
          1.52763590e-01, 2.50137001e-01, 7.14627281e-02, 1.30940616e-01,
          2.96080448e-02, 2.06753522e-01, 0., 0., 0., 0., 0., 0., 0.,
          6.90649077e-02, 0., 6.89074844e-02, 6.64563477e-02,
          3.15501124e-01, 1.03441603e-01, 1.76527798e-01, 1.35024935e-01,
          1.38811573e-01, 9.18733329e-02, 6.72734678e-02, 2.70266011e-02,
          2.55704731e-01, 1.56851560e-01, 1.35672703e-01, 1.50842041e-01,
          2.41650537e-01, 5.15760519e-02, 1.43164411e-01, 1.96594238e-01,
          1.43115863e-01, 9.02483314e-02, 6.21731952e-02, 1.08982049e-01,
          0., 0., 0., 0., 0., 0., 0., 0., 2.47198969e-01, 1.82837963e-01,
          1.17487200e-01, 3.95237207e-02, 4.61261012e-02, 0., 0., 0. ]
      - [ 1.16012312e-01, 7.54971653e-02, 1.34507805e-01, 3.78366500e-01,
          1.66659445e-01, 0., 0., 0., 0., 1.30114127e-02, 2.85120755e-02,
          2.76736289e-01, 9.98806581e-02, 9.52778980e-02, 6.89162239e-02,
          2.36140657e-02, 2.54634023e-01, 8.15226585e-02, 2.16665808e-02,
          0., 5.03273904e-02, 0., 0., 0., 1.14407480e-01, 8.03292245e-02,
          8.64523426e-02, 2.15777516e-01, 1.66688979e-01, 1.56995684e-01,
          1.51402041e-01, 9.20483023e-02, 2.01162755e-01, 1.04708113e-01,
          8.80599841e-02, 2.13600487e-01, 1.90266773e-01, 1.56384006e-01,
          1.34240121e-01, 2.20862910e-01, 1.62686914e-01, 4.65699583e-02,
          7.20188692e-02, 0., 9.91696790e-02, 1.01023853e-01,
          7.92198107e-02, 6.45137653e-02, 0., 0., 0., 0., 0., 0., 0., 0.,
          1.57614082e-01, 2.24436820e-01, 1.23866566e-01, 1.26369923e-01,
          2.34306842e-01, 0., 0., 0. ]
      - [ 8.29384029e-02, 1.52615339e-01, 1.61844313e-01, 2.79022366e-01,
          1.68665543e-01, 3.88625190e-02, 0., 0., 0., 2.80659460e-02,
          1.56605691e-01, 2.13421196e-01, 1.01795807e-01, 5.22154458e-02,
          7.73100629e-02, 6.75467029e-02, 1.41435787e-01, 1.52629226e-01,
          5.97605370e-02, 0., 0., 0., 0., 0., 0., 3.49418223e-02,
          1.06048763e-01, 1.30496159e-01, 1.98190778e-01, 8.76237825e-02,
          9.51933339e-02, 1.06949843e-01, 2.19337299e-01, 8.34923759e-02,
          9.89985541e-02, 1.79247186e-01, 2.48367682e-01, 1.86251432e-01,
          1.27012968e-01, 1.49059519e-01, 2.17748746e-01, 3.57575305e-02,
          0., 0., 2.45056063e-01, 8.28913376e-02, 6.59321323e-02, 0.,
          1.32355168e-01, 1.60482138e-01, 0., 0., 0., 0., 0.,
          4.37891074e-02, 1.81987435e-01, 2.09015489e-01, 1.79825559e-01,
          1.85702384e-01, 2.06848368e-01, 9.72029194e-02, 6.89507350e-02,
          0. ]
      - [ 8.54037702e-02, 8.79865065e-02, 1.12247273e-01, 3.21767390e-01,
          1.50813982e-01, 0., 0., 0., 0., 3.16116773e-02, 1.33928107e-02,
          2.67827243e-01, 1.26188308e-01, 6.91597313e-02, 1.03570789e-01,
          0., 1.60027817e-01, 7.93862864e-02, 7.84002841e-02,
          1.57415733e-01, 1.25108317e-01, 0., 0., 2.26855166e-02, 0.,
          4.00330834e-02, 0., 2.19813854e-01, 1.96413547e-01,
          6.39938340e-02, 1.10476464e-01, 6.04222864e-02, 1.79554015e-01,
          1.47701055e-01, 9.98303443e-02, 1.74768135e-01, 1.80512816e-01,
          1.39416084e-01, 1.27688721e-01, 1.36017323e-01, 2.62486100e-01,
          6.24378324e-02, 0., 0., 1.72771052e-01, 9.66405198e-02,
          5.31808427e-03, 1.22467093e-01, 2.04595104e-01, 3.92002128e-02,
          3.75735797e-02, 8.93906578e-02, 0., 0., 0., 8.09499696e-02,
          2.82653183e-01, 1.51899815e-01, 9.91808847e-02, 1.65372804e-01,
          1.37841180e-01, 0., 1.25907272e-01, 1.07365459e-01 ]
      - [ 1.25447541e-01, 9.26788300e-02, 1.97267681e-01, 3.04379374e-01,
          8.48252475e-02, 0., 2.38013770e-02, 0., 0., 5.34568764e-02,
          2.15930909e-01, 1.76270664e-01, 1.25640303e-01, 1.01437621e-01,
          7.78382048e-02, 7.72088990e-02, 1.97213456e-01, 1.35115474e-01,
          1.09925538e-01, 1.69765040e-01, 8.68890062e-02, 2.79840827e-02,
          0., 5.17420024e-02, 5.49662523e-02, 6.84222952e-02,
          9.01395455e-02, 1.93189070e-01, 1.56592801e-01, 1.57686621e-01,
          1.22396693e-01, 1.20339394e-01, 2.11278811e-01, 1.05263740e-01,
          9.12711322e-02, 1.60388127e-01, 2.27750763e-01, 1.59226075e-01,
          1.57032818e-01, 1.12165794e-01, 2.35776231e-01, 1.91406310e-02,
          9.29412395e-02, 1.55823976e-01, 1.35627732e-01, 8.70424658e-02,
          7.74099901e-02, 7.50264525e-02, 0., 0., 3.09329871e-02, 0., 0.,
          0., 0., 0., 1.95362851e-01, 1.99915782e-01, 1.16649590e-01,
          1.99667662e-01, 1.15617514e-01, 0., 0., 0. ]
      - [ 8.01692680e-02, 1.35739118e-01, 1.90505058e-01, 2.77004808e-01,
          1.73015878e-01, 0., 0., 0., 0., 3.36299799e-02, 1.31976530e-01,
          2.20733359e-01, 1.00833178e-01, 8.37351903e-02, 7.69657418e-02,
          6.03806674e-02, 1.61855072e-01, 7.17340261e-02, 0., 0., 0., 0.,
          0., 0., 0., 0., 0., 0., 2.56808817e-01, 1.00356482e-01,
          7.11942390e-02, 1.09215491e-01, 2.20293656e-01, 1.02758959e-01,
          1.00763462e-01, 1.90460593e-01, 2.77721226e-01, 1.74156711e-01,
          1.04549006e-01, 1.48725718e-01, 2.07189113e-01, 1.02039509e-01,
          5.81187494e-02, 6.61267489e-02, 2.62470633e-01, 8.51785764e-02,
          7.45964423e-02, 0., 1.28595218e-01, 1.38668671e-01, 0., 0., 0.,
          0., 0., 0., 1.34884298e-01, 2.38474712e-01, 1.83374062e-01,
          1.85809106e-01, 1.69709921e-01, 9.90884453e-02, 8.59007165e-02,
          0. ]
      - [ 1.00793585e-01, 8.50921348e-02, 1.17846861e-01, 2.87621647e-01,
          7.84030035e-02, 5.79095930e-02, 0., 0., 0., 2.53840256e-02,
          1.30829975e-01, 2.38643080e-01, 9.75129306e-02, 8.85707811e-02,
          7.81396627e-02, 2.65586600e-02, 1.83704749e-01, 1.09635837e-01,
          1.09400660e-01, 2.09521383e-01, 2.10683957e-01, 0., 0., 0.,
          5.40173277e-02, 1.03948928e-01, 1.41191214e-01, 2.04257324e-01,
          1.77722231e-01, 1.55753985e-01, 1.37676448e-01, 1.02996700e-01,
          2.21951082e-01, 1.08595707e-01, 8.64905864e-02, 9.53011438e-02,
          1.78542703e-01, 1.65233955e-01, 1.22366793e-01, 1.08768545e-01,
          2.37343788e-01, 7.52862692e-02, 0., 9.16531533e-02,
          6.57053739e-02, 1.08757682e-01, 7.62741566e-02, 0., 0., 0.,
          7.50794560e-02, 4.94349301e-02, 2.21411794e-01, 6.70324787e-02,
          0., 8.75776708e-02, 1.00185014e-01, 1.73223466e-01,
          1.44043744e-01, 2.08693221e-01, 2.03030765e-01, 0., 0., 0. ]
      - [ 7.83214793e-02, 5.24545833e-02, 2.26805210e-01, 1.49826944e-01,
          1.55155689e-01, 1.56408161e-01, 9.88597348e-02, 1.10580422e-01,
          1.16942324e-01, 6.41889349e-02, 1.67167455e-01, 7.99719021e-02,
          1.45862073e-01, 1.24435276e-01, 1.34268463e-01, 1.32837310e-01,
          1.48172826e-01, 1.50038272e-01, 5.68886846e-02, 0.,
          1.81456417e-01, 1.24570899e-01, 7.51316845e-02, 1.64879367e-01,
          9.60875228e-02, 0., 7.84935653e-02, 9.59547758e-02,
          1.83643162e-01, 2.58209974e-01, 1.02501415e-01, 1.53064623e-01,
          9.53607410e-02, 7.80705735e-02, 1.18071325e-01, 8.37054551e-02,
          7.63251483e-02, 1.53152406e-01, 1.04344025e-01, 1.33885846e-01,
          1.17174432e-01, 1.23294331e-01, 1.86289385e-01, 1.76453456e-01,
          7.37997741e-02, 7.22266734e-02, 6.84616342e-02, 1.18688993e-01,
          5.24605326e-02, 7.04548508e-02, 1.00713871e-01, 7.31419623e-02,
          1.14700697e-01, 2.16366261e-01, 1.24705836e-01, 1.67247996e-01,
          1.19116217e-01, 9.87418368e-02, 8.23509768e-02, 7.57901147e-02,
          1.24574237e-01, 1.40532762e-01, 9.72126126e-02, 8.87791514e-02 ]
      - [ 1.25029936e-01, 1.16330251e-01, 2.51485467e-01, 1.97121173e-01,
          1.42453715e-01, 9.47455540e-02, 6.23894148e-02, 2.23833583e-02,
          1.23131372e-01, 9.87041295e-02, 1.08389206e-01, 1.65078864e-01,
          1.10499583e-01, 1.21015891e-01, 1.13427259e-01, 1.03409559e-01,
          1.89179972e-01, 1.18064590e-01, 4.84628640e-02, 1.28145844e-01,
          7.17780069e-02, 6.77195489e-02, 0., 7.20897689e-02,
          1.43757954e-01, 1.41365796e-01, 9.59136710e-02, 7.08352029e-02,
          7.49858022e-02, 1.81347474e-01, 1.65124059e-01, 7.96792507e-02,
          1.21465877e-01, 1.68812469e-01, 1.48058280e-01, 7.44751543e-02,
          1.39657691e-01, 1.29488304e-01, 8.04003403e-02, 1.22888952e-01,
          9.56882238e-02, 2.35316783e-01, 2.33490437e-01, 6.94084316e-02,
          2.98115090e-02, 6.21671528e-02, 6.72278181e-02, 6.76183701e-02,
          6.88483641e-02, 1.00137584e-01, 1.15363598e-01, 1.23675540e-01,
          0., 1.67395085e-01, 1.67687267e-01, 1.31156325e-01,
          1.15724742e-01, 1.59115508e-01, 1.41955271e-01, 1.26220003e-01,
          1.25169143e-01, 1.25500157e-01, 7.67096654e-02, 1.23492062e-01 ]
      - [ 1.14346236e-01, 1.70640826e-01, 2.07531407e-01, 2.22856566e-01,
          7.80838951e-02, 7.58307502e-02, 7.79826418e-02, 6.04581870e-02,
          0., 1.01034701e-01, 1.77312493e-01, 1.15085147e-01, 0.,
          6.79042637e-02, 1.60590187e-01, 5.48804924e-02, 1.56220034e-01,
          1.94704533e-01, 1.94095057e-02, 6.99402690e-02, 1.76261708e-01,
          7.02824742e-02, 5.35336919e-02, 8.94846916e-02, 0.,
          7.32330754e-02, 1.53494895e-01, 1.45222649e-01, 1.71577439e-01,
          1.94691271e-01, 1.12795152e-01, 5.25137410e-02, 3.64914164e-02,
          1.06266290e-01, 1.68827012e-01, 9.93666053e-02, 1.13468498e-01,
          1.50018290e-01, 1.28825352e-01, 5.22567853e-02, 1.50410444e-01,
          1.76000103e-01, 1.73877105e-01, 9.21134055e-02, 1.11931041e-01,
          8.79455879e-02, 9.47144926e-02, 6.62565827e-02, 7.63464272e-02,
          6.92511946e-02, 8.41606408e-02, 1.40548110e-01, 2.04597980e-01,
          1.45127103e-01, 1.80803731e-01, 1.19784430e-01, 9.52234268e-02,
          1.51099324e-01, 1.19679719e-01, 1.37252435e-01, 1.84452459e-01,
          1.20125517e-01, 7.98788071e-02, 9.44361761e-02 ]
      - [ 1.27446473e-01, 9.39252153e-02, 2.89431840e-01, 1.08164206e-01,
          8.63519832e-02, 0., 9.57241431e-02, 7.94287995e-02,
          8.11375380e-02, 9.10880193e-02, 7.36665800e-02, 1.58370733e-02,
          1.15639977e-01, 1.65536791e-01, 1.68570638e-01, 1.18084982e-01,
          1.57589167e-01, 1.76584527e-01, 6.19336702e-02, 0.,
          1.41865730e-01, 9.29102451e-02, 8.00897628e-02, 1.31820172e-01,
          9.81735885e-02, 1.18515790e-01, 1.24085620e-01, 1.05958059e-01,
          1.18878700e-01, 1.54439032e-01, 1.48498178e-01, 1.60011634e-01,
          6.95928857e-02, 9.30227935e-02, 6.79065436e-02, 8.89750794e-02,
          1.36577249e-01, 1.48310184e-01, 2.01654509e-01, 4.92336750e-02,
          1.82835981e-01, 2.24632323e-01, 0., 0., 2.16209572e-02,
          8.13813210e-02, 5.39334156e-02, 9.87147912e-02, 1.11248419e-01,
          1.00974031e-01, 1.77243903e-01, 1.04605950e-01, 3.67355235e-02,
          7.36082941e-02, 2.00610399e-01, 1.09431989e-01, 1.17373422e-01,
          1.70209318e-01, 1.92338273e-01, 1.78045839e-01, 1.32891893e-01,
          1.65869445e-01, 8.19349885e-02, 6.20826893e-02 ]
      - [ 1.90719947e-01, 1.95413649e-01, 2.18628451e-01, 0., 0., 0.,
          6.16820380e-02, 9.57483873e-02, 4.61147577e-02, 8.50331262e-02,
          6.66819513e-02, 5.48087023e-02, 5.36859334e-02, 0., 0.,
          1.73516035e-01, 1.52803063e-01, 1.66291401e-01, 2.92569641e-02,
          1.07587539e-01, 1.23218812e-01, 1.72809571e-01, 6.00416251e-02,
          7.55827129e-02, 2.06800085e-02, 2.04894841e-01, 8.31468776e-02,
          0., 1.82569548e-01, 1.76531583e-01, 1.80930778e-01,
          1.69865489e-01, 7.47318938e-02, 1.21260285e-02, 5.25057986e-02,
          1.58012077e-01, 8.10056552e-02, 1.62439018e-01, 7.42221698e-02,
          1.41182244e-01, 9.63500738e-02, 1.68737501e-01, 2.73018956e-01,
          0., 0., 0., 0., 0., 7.80181065e-02, 8.03385600e-02,
          8.48595053e-02, 1.33132964e-01, 1.62983775e-01, 2.35265985e-01,
          1.72010496e-01, 1.77627593e-01, 1.10498846e-01, 1.16643041e-01,
          1.09425120e-01, 1.22955076e-01, 1.58616960e-01, 1.73258498e-01,
          1.04254887e-01, 1.34353265e-01 ]
      - [ 1.24432534e-01, 1.28018185e-01, 2.03325495e-01, 1.79759353e-01,
          1.65057674e-01, 1.19927689e-01, 7.04454258e-02, 4.98208925e-02,
          1.19125351e-01, 7.23312497e-02, 1.72569707e-01, 1.37663737e-01,
          2.25939266e-02, 6.82742521e-02, 1.81896061e-01, 9.51998532e-02,
          1.87721655e-01, 1.45968542e-01, 7.08562881e-02, 1.03902645e-01,
          1.59077480e-01, 6.58408850e-02, 0., 5.86249977e-02,
          1.03388369e-01, 1.47486374e-01, 1.23293474e-01, 8.24563056e-02,
          1.73010528e-01, 9.75702256e-02, 1.69511184e-01, 1.03623182e-01,
          6.97643086e-02, 1.37416601e-01, 1.58107787e-01, 7.06825256e-02,
          9.69552994e-02, 1.66824594e-01, 9.12505761e-02, 1.46040410e-01,
          1.46479726e-01, 1.32980436e-01, 1.79239571e-01, 1.03707641e-01,
          1.02308355e-01, 1.01484269e-01, 6.74494728e-02, 1.08442210e-01,
          1.09404750e-01, 1.03236131e-01, 1.45936608e-01, 1.03761330e-01,
          0., 1.29719138e-01, 2.10027575e-01, 3.00205238e-02,
          1.36755034e-01, 1.83256909e-01, 1.52108416e-01, 1.08440548e-01,
          1.56837061e-01, 1.33721933e-01, 0., 7.21199214e-02 ]
      - [ 1.18415125e-01, 1.08651944e-01, 2.74789810e-01, 1.83459505e-01,
          7.13360682e-02, 7.25858361e-02, 8.70643109e-02, 9.30356607e-02,
          6.09141104e-02, 8.13411474e-02, 1.94408432e-01, 9.95828435e-02,
          6.79808203e-03, 7.22007155e-02, 1.27416000e-01, 1.22210115e-01,
          1.77408651e-01, 1.84228480e-01, 1.99069344e-02, 3.54027264e-02,
          1.41625747e-01, 1.23320244e-01, 7.82092512e-02, 0.,
          9.75843966e-02, 1.27096355e-01, 1.10632606e-01, 1.32740289e-01,
          1.64541125e-01, 1.58385277e-01, 8.57447013e-02, 1.26241595e-01,
          5.83658330e-02, 1.03055753e-01, 1.82514921e-01, 8.11537728e-02,
          1.35905638e-01, 1.82460085e-01, 8.30140114e-02, 1.03454553e-01,
          1.10081188e-01, 1.76171780e-01, 1.95750490e-01, 1.12769954e-01,
          1.28801540e-01, 8.99834335e-02, 7.42860436e-02, 5.25905080e-02,
          0., 7.02623576e-02, 1.33434713e-01, 1.38658553e-01,
          1.05122499e-01, 2.05171421e-01, 1.47150218e-01, 1.41829491e-01,
          1.25207782e-01, 1.31263748e-01, 7.63579831e-02, 1.05340630e-01,
          2.03408360e-01, 1.06919587e-01, 6.09371848e-02, 1.04093045e-01 ]
      - [ 1.40049875e-01, 1.16287619e-01, 1.89900130e-01, 1.67497456e-01,
          1.75678611e-01, 6.10286146e-02, 8.17355886e-02, 1.37875080e-01,
          0., 8.30542743e-02, 1.39483720e-01, 1.30110979e-01,
          1.33638799e-01, 1.20216526e-01, 1.85576886e-01, 1.08624108e-01,
          1.99676678e-01, 1.66913226e-01, 0., 0., 1.37458086e-01,
          6.37289807e-02, 6.81722313e-02, 0., 1.36102647e-01,
          1.91610694e-01, 0., 7.47746602e-02, 4.81490083e-02,
          7.18245953e-02, 9.26561803e-02, 1.59478858e-01, 8.93317461e-02,
          7.26269037e-02, 1.18443049e-01, 2.04277307e-01, 9.64796767e-02,
          1.57634601e-01, 1.41568184e-01, 1.57408640e-01, 1.66091397e-01,
          1.44021943e-01, 1.11306816e-01, 1.38903290e-01, 1.62934870e-01,
          6.13776371e-02, 7.43287578e-02, 1.26424193e-01, 1.43890887e-01,
          1.33121863e-01, 1.02717325e-01, 8.33489820e-02, 9.67050120e-02,
          0., 8.68096296e-03, 1.56445488e-01, 2.20376000e-01,
          1.46885231e-01, 1.89585254e-01, 1.17213272e-01, 4.12938558e-02,
          0., 7.11230040e-02, 1.63523525e-01 ]
      - [ 1.26051426e-01, 1.32292926e-01, 1.82139635e-01, 2.27217615e-01,
          1.68538406e-01, 8.47907886e-02, 0., 1.01419128e-01,
          1.27279371e-01, 9.56462622e-02, 6.82220683e-02, 1.79728746e-01,
          4.62936349e-02, 9.98083428e-02, 1.26628295e-01, 1.09060183e-01,
          1.85376614e-01, 1.75034747e-01, 5.33204526e-02, 1.69163942e-01,
          6.26063049e-02, 6.61436170e-02, 7.62876943e-02, 5.98079674e-02,
          9.61445943e-02, 1.74324125e-01, 1.03753477e-01, 1.09950542e-01,
          1.31438732e-01, 1.73378915e-01, 1.31652117e-01, 1.06607266e-01,
          7.47877881e-02, 1.27798423e-01, 1.28986567e-01, 1.27524510e-01,
          1.23254627e-01, 1.50592193e-01, 1.21192656e-01, 1.58398762e-01,
          1.33275673e-01, 1.92765310e-01, 3.64469774e-02, 0.,
          1.22666486e-01, 9.18780342e-02, 8.65199640e-02, 1.20404057e-01,
          1.06599681e-01, 6.62715435e-02, 1.04886621e-01, 1.41981050e-01,
          4.85233329e-02, 1.18331239e-01, 1.83080345e-01, 1.53902337e-01,
          8.21292475e-02, 1.64457694e-01, 1.45571172e-01, 1.70885041e-01,
          1.23473689e-01, 1.26331165e-01, 8.01153705e-02, 6.66067377e-02 ]
      - [ 1.82085574e-01, 2.25098029e-01, 1.98523313e-01, 0., 0., 0.,
          6.33872226e-02, 7.30087757e-02, 2.42323913e-02, 6.62772506e-02,
          4.39042337e-02, 0., 0., 0., 0., 1.73606128e-01, 1.84507728e-01,
          1.66725084e-01, 0., 0., 1.33122265e-01, 1.58647671e-01,
          9.63037238e-02, 1.43546015e-01, 1.14382982e-01, 9.47611630e-02,
          8.84626359e-02, 7.83720091e-02, 2.03543171e-01, 1.83058769e-01,
          1.67310655e-01, 1.55937165e-01, 7.48240575e-02, 6.45538233e-03,
          3.88185903e-02, 1.68376207e-01, 8.13779384e-02, 9.07687470e-02,
          1.52780026e-01, 1.56734973e-01, 1.10095128e-01, 1.81249455e-01,
          2.61435598e-01, 0., 0., 0., 0., 0., 5.98013885e-02,
          9.97004285e-02, 0., 1.34313345e-01, 1.73281416e-01,
          2.47627378e-01, 1.84365690e-01, 1.58786356e-01, 1.15044259e-01,
          1.15893342e-01, 1.12254255e-01, 1.17113046e-01, 1.36276886e-01,
          2.00121492e-01, 1.25782654e-01, 1.06583640e-01 ]
      - [ 1.38078034e-01, 1.17536016e-01, 1.63742468e-01, 2.01770976e-01,
          0., 1.18518382e-01, 0., 1.05479673e-01, 1.00471973e-01,
          6.24207221e-02, 8.35177302e-02, 1.40119478e-01, 2.23789051e-01,
          1.01866461e-01, 1.63228869e-01, 1.04356043e-01, 1.62245870e-01,
          7.61727840e-02, 6.50811791e-02, 4.55207974e-02, 1.48258179e-01,
          8.55833292e-02, 1.38175353e-01, 1.24919474e-01, 1.03753269e-01,
          0., 0., 0., 7.57229850e-02, 1.02063626e-01, 1.89830169e-01,
          1.25793904e-01, 1.71442240e-01, 8.79947692e-02, 9.80497822e-02,
          1.30750746e-01, 1.87852651e-01, 1.72101095e-01, 1.07507452e-01,
          0., 2.90166080e-01, 7.17886314e-02, 3.83854657e-02,
          1.70504093e-01, 2.00714275e-01, 0., 1.23652227e-01,
          4.85828742e-02, 2.42984340e-01, 6.58633932e-02, 7.99188241e-02,
          1.29445359e-01, 1.17508583e-01, 0., 6.33423179e-02,
          1.51775479e-01, 2.18248293e-01, 1.52854621e-01, 1.27783895e-01,
          1.18924029e-01, 7.46543035e-02, 0., 0., 4.53700945e-02 ]
      - [ 9.35556889e-02, 1.81519806e-01, 8.56790319e-02, 8.29158425e-02,
          1.80931583e-01, 7.24118650e-02, 8.57962072e-02, 0.,
          7.84746036e-02, 7.41127506e-02, 1.64547950e-01, 1.03699937e-01,
          1.49008468e-01, 1.59438476e-01, 1.78740531e-01, 9.68285277e-02,
          7.89746717e-02, 8.31626505e-02, 5.91340028e-02, 0.,
          1.99657515e-01, 1.50588155e-01, 8.50513503e-02, 7.63906687e-02,
          0., 0., 0., 0., 1.66385546e-01, 1.79158852e-01, 1.26344576e-01,
          1.05401978e-01, 6.57699332e-02, 9.73026752e-02, 8.29587653e-02,
          1.53213218e-01, 1.84374571e-01, 8.30216408e-02, 9.59978551e-02,
          2.42982924e-01, 1.87907785e-01, 1.37981936e-01, 0., 0.,
          1.72726572e-01, 1.33464187e-01, 1.69389844e-01, 1.34283930e-01,
          8.81059840e-02, 0., 8.56135860e-02, 1.22770667e-01,
          1.19427860e-01, 2.10992340e-02, 1.04201809e-02, 2.31806725e-01,
          2.29233474e-01, 1.34987861e-01, 8.12739134e-02, 0.,
          1.40341580e-01, 0., 8.88636056e-03, 2.88650811e-01 ]
      - [ 1.45933539e-01, 1.53093830e-01, 1.68507949e-01, 1.64915904e-01,
          6.94419965e-02, 8.22613016e-02, 7.18696043e-02, 2.56589595e-02,
          1.15252450e-01, 1.13861643e-01, 1.33230790e-01, 0.,
          1.73723817e-01, 1.25245079e-01, 1.38825193e-01, 1.12100057e-01,
          1.03702307e-01, 9.99108851e-02, 7.00507611e-02, 5.25742136e-02,
          5.50967902e-02, 7.82450661e-02, 1.59226120e-01, 7.09720179e-02,
          0., 0., 0., 0., 0., 1.03477731e-01, 1.82678461e-01,
          1.09348521e-01, 1.40292123e-01, 9.69538465e-02, 1.61533237e-01,
          2.08270535e-01, 7.23095015e-02, 1.26382932e-01, 6.72099963e-02,
          1.32861614e-01, 3.28102827e-01, 5.12204804e-02, 3.78127471e-02,
          1.36986688e-01, 2.21490234e-01, 1.20537490e-01, 1.42783329e-01,
          6.23763502e-02, 2.62332618e-01, 9.06081498e-02, 1.03921019e-01,
          8.18310007e-02, 6.60754144e-02, 8.91168788e-02, 5.88001460e-02,
          1.84018418e-01, 2.92554229e-01, 1.23736203e-01, 0.,
          7.71870688e-02, 7.28622675e-02, 8.18213299e-02, 0.,
          1.15308419e-01 ]
      - [ 1.57560065e-01, 8.81718248e-02, 2.43862554e-01, 1.48291260e-01,
          1.92390010e-02, 0., 1.54586202e-02, 0., 0., 0., 2.64592525e-02,
          1.27918482e-01, 2.22767055e-01, 9.55579877e-02, 1.90241233e-01,
          0., 1.43720537e-01, 1.50841415e-01, 0., 6.02445863e-02,
          1.12322472e-01, 1.90965086e-01, 1.74896479e-01, 1.22191817e-01,
          0., 0., 0., 0., 1.47518694e-01, 1.72754258e-01, 2.03778580e-01,
          7.39644170e-02, 6.40613139e-02, 1.30649190e-02, 0.,
          8.59719515e-02, 1.23678952e-01, 1.25219852e-01, 1.49556324e-01,
          3.34300131e-01, 9.51013640e-02, 0., 0., 1.29298732e-01,
          1.05024293e-01, 8.86482149e-02, 8.33322406e-02, 1.51084617e-01,
          1.22790381e-01, 1.14755869e-01, 1.28294811e-01, 1.19572759e-01,
          0., 0., 9.54126753e-03, 2.13685766e-01, 2.25838572e-01,
          1.83009937e-01, 1.23165891e-01, 8.69036391e-02, 1.00475967e-01,
          0., 5.80105558e-02, 2.37600848e-01 ]
      - [ 1.64529115e-01, 1.65028751e-01, 1.15616620e-01, 7.71328583e-02,
          1.40927345e-01, 7.43169561e-02, 1.11087978e-01, 8.84079188e-02,
          0., 1.03236400e-01, 1.54798016e-01, 1.05671912e-01,
          1.40132606e-01, 1.71124890e-01, 7.96652734e-02, 1.28189132e-01,
          1.19130187e-01, 1.01276174e-01, 0., 1.24616988e-01,
          1.39750406e-01, 1.28608808e-01, 1.17298253e-01, 9.68881175e-02,
          6.76962063e-02, 0., 0., 0., 1.18735597e-01, 1.31603479e-01,
          1.85330927e-01, 7.51060247e-02, 1.24221437e-01, 1.23857878e-01,
          1.55244723e-01, 1.57153383e-01, 6.02524206e-02, 1.29747078e-01,
          1.27911702e-01, 2.99687475e-01, 1.10691167e-01, 3.06529216e-02,
          3.79804149e-02, 9.00872350e-02, 2.30232254e-01, 1.31252170e-01,
          1.04929395e-01, 8.91909003e-02, 5.59158484e-03, 1.56291202e-01,
          1.00795761e-01, 1.64943799e-01, 0., 4.63851802e-02,
          1.91854928e-02, 2.09535778e-01, 1.50527745e-01, 2.21705049e-01,
          1.09702162e-01, 1.20878056e-01, 7.79832229e-02, 0.,
          5.41792437e-02, 2.32994512e-01 ]
      - [ 2.01053336e-01, 1.23559177e-01, 2.51112372e-01, 1.29777655e-01,
          1.13564491e-01, 9.13819373e-02, 2.02508066e-02, 0.,
          1.06238157e-01, 1.27913564e-01, 1.77013487e-01, 1.36844814e-01,
          9.39626768e-02, 1.00178592e-01, 9.66964513e-02, 1.19715162e-01,
          9.13851261e-02, 6.67162463e-02, 0., 0., 0., 0., 0., 0., 0., 0.,
          5.87351173e-02, 8.06130394e-02, 1.11769080e-01, 0.,
          4.82157134e-02, 6.76683858e-02, 2.21304521e-01, 1.45526677e-01,
          2.11313024e-01, 1.07675456e-01, 8.85365680e-02, 1.05991594e-01,
          1.42668456e-01, 8.34911019e-02, 3.52300197e-01, 1.11469045e-01,
          2.00980574e-01, 8.25645700e-02, 1.21239118e-01, 1.16546482e-01,
          7.36342520e-02, 1.12430573e-01, 3.29041541e-01, 1.04743987e-01,
          0., 0., 0., 0., 0., 7.32316524e-02, 3.50208402e-01,
          1.22075520e-01, 0., 8.11234340e-02, 0., 0., 9.34068039e-02, 0. ]
      - [ 2.01934457e-01, 1.28571048e-01, 2.28731185e-01, 1.96140528e-01,
          7.65795261e-02, 0., 9.74005461e-02, 3.96774486e-02,
          1.30832031e-01, 8.99130255e-02, 2.03591838e-01, 1.04760386e-01,
          0., 0., 0., 5.33061065e-02, 0., 0., 3.44648175e-02,
          1.37920812e-01, 1.01975419e-01, 8.38945657e-02, 0., 0., 0., 0.,
          3.83026078e-02, 2.32520923e-01, 1.16569132e-01, 1.12071104e-01,
          1.43231094e-01, 1.09769739e-01, 1.36170790e-01, 1.26497373e-01,
          2.50564933e-01, 1.83897004e-01, 1.51049286e-01, 8.38142708e-02,
          1.23555318e-01, 2.28482366e-01, 2.15619400e-01, 2.20900904e-02,
          0., 1.16797552e-01, 2.28285119e-01, 8.39517415e-02,
          5.88242672e-02, 7.78625458e-02, 1.87460706e-01, 2.11044345e-02,
          0., 0., 4.74236645e-02, 0., 0., 0., 3.05211097e-01,
          9.36156884e-02, 1.54055078e-02, 1.83592677e-01, 1.50342211e-01,
          1.05673574e-01, 1.24319002e-01, 1.48096234e-01 ]
   decision_functions:
      -
         sv_count: 20
         rho: 4.4913465532887659e-01
         alpha: [ 4.2741648569233665e-01, 4.9506581491312307e-01,
             7.4476844810730625e-01, 5.6840944421059059e-01,
             5.9296832482261630e-01, -2.4310942706159228e-01,
             -5.0792895318991249e-01, -2.0703344278000263e-01,
             -4.5129480596372812e-02, -2.6104988728000988e-01,
             -2.0965846482242337e-01, -1.7633256422310360e-02,
             -1.6876914708441546e-01, -1.5406783240625072e-01,
             -1.2537493188090479e-01, -1.1274857313265001e-01,
             -2.5907880953532325e-01, -1.8459497238288033e-01,
             -4.1229104778856843e-02, -2.9122223439206746e-01 ]
         index: [ 0, 1, 2, 3, 4, 5, 6, 7, 8, 9, 10, 11, 12, 13, 14, 15,
             16, 17, 18, 19 ]
      -
         sv_count: 16
         rho: 3.3338465413241586e-01
         alpha: [ 3.8462932266052896e-01, 4.7983160713812412e-01,
             7.1780450283961250e-01, 5.4986043375046512e-01,
             5.6995637859255333e-01, -2.9962608974643240e-01,
             -2.2941966216404211e-01, -1.4222047613275657e-01,
             -1.4453190265969665e-01, -2.3288589253202777e-01,
             -2.2258268467749268e-01, -2.9093992785599215e-01,
             -2.2492068920011146e-01, -4.5473518707012339e-01,
             -1.0803469587924357e-01, -3.5218503706336490e-01 ]
         index: [ 0, 1, 2, 3, 4, 20, 21, 22, 23, 24, 25, 26, 27, 28, 29,
             30 ]
      -
         sv_count: 15
         rho: 1.9408257330511791e-01
         alpha: [ 4.0306838880297080e-01, 5.2075300891797083e-01,
             6.4097090443393934e-01, 5.5341421745810948e-01,
             5.5667154983451117e-01, -3.1643858191413166e-01,
             -1.5569763598347919e-01, -1.8873671756966079e-01,
             -4.0574175553530806e-01, -2.8213390861690218e-01,
             -2.3213800027544354e-01, -1.2990560620187078e-01,
             -4.7227804563184567e-01, -2.8333358904229877e-01,
             -2.0847422867656104e-01 ]
         index: [ 0, 1, 2, 3, 4, 31, 32, 33, 34, 36, 37, 38, 39, 40, 41 ]
      -
         sv_count: 15
         rho: 3.8448292860870131e-01
         alpha: [ 4.8090985155960014e-01, 5.3396291167251275e-01,
             8.0090406500431810e-01, 6.1846978362111216e-01,
             5.9170126466066852e-01, -2.0000278874078201e-01,
             -5.0393153727837404e-02, -4.1483202539596653e-01,
             -2.5831137407234844e-01, -2.8526452479747660e-01,
             -2.8295938187254494e-01, -3.7986349876778608e-01,
             -4.2497451142836895e-01, -3.9284783063588219e-01,
             -3.3649878707921838e-01 ]
         index: [ 0, 1, 2, 3, 4, 42, 43, 44, 45, 46, 47, 48, 49, 50, 51 ]
      -
         sv_count: 13
         rho: 1.9052442099301142e-01
         alpha: [ 3.3986795531794300e-01, 4.6250006696022117e-01,
             6.1647362014321461e-01, 4.8175035538167321e-01,
             5.5001749593375804e-01, -2.6212072255741981e-01,
             -2.8542013669960703e-01, -1.8609886933760633e-01,
             -2.2894566636285335e-01, -3.6559347256240210e-01,
             -7.3777897054026531e-01, -8.0265180756080259e-02,
             -3.0438647492057563e-01 ]
         index: [ 0, 1, 2, 3, 4, 52, 53, 54, 55, 56, 57, 58, 59 ]
      -
         sv_count: 13
         rho: 1.5759120080204572e-01
         alpha: [ 3.8926011008393890e-01, 5.0393079036248112e-01,
             6.9256536669039614e-01, 4.5290920418050912e-01,
             5.3307005048877376e-01, -3.9241331296430843e-01,
             -2.5457386629878126e-01, -1.8952352706952286e-01,
             -1.8031534916541272e-01, -4.0003845831856438e-01,
             -5.2812174511789667e-01, -4.0661983400491108e-01,
             -2.2012942886670198e-01 ]
         index: [ 0, 1, 2, 3, 4, 61, 62, 63, 64, 65, 66, 67, 68 ]
      -
         sv_count: 15
         rho: 2.8117264334105158e-01
         alpha: [ 3.8440890968354241e-01, 5.3028313870583277e-01,
             6.4588721462476240e-01, 5.1131568918797010e-01,
             6.0719748160509657e-01, -3.2347545129160482e-01,
             -2.9471386936405614e-01, -9.4436250030551158e-02,
             -4.1388860204088995e-01, -1.3153067336947841e-01,
             -1.4942367371797355e-01, -3.4883880189059424e-01,
             -1.4498957881999142e-01, -3.2169816308332583e-01,
             -4.5609737019873864e-01 ]
         index: [ 0, 1, 2, 3, 4, 69, 70, 71, 72, 73, 74, 75, 76, 77, 78 ]
      -
         sv_count: 14
         rho: 3.0029509847600444e-01
         alpha: [ 5.2868318206213705e-01, 5.6223795607774341e-01,
             6.9427770455334781e-01, 4.9870531708380855e-01,
             5.4318596017798326e-01, -3.8183215716819369e-01,
             -7.7858597473615426e-02, -2.1833751506585858e-01,
             -3.7687340407858061e-01, -2.8926302172100804e-01,
