%YAML:1.0
my_svm: !!opencv-ml-svm
   svm_type: C_SVC
   kernel: { type:RBF, gamma:5.3830000000000000e+00 }
   C: 2.6699999999999999e+00
   term_criteria: { epsilon:1.1920928955078125e-07, iterations:1000 }
   var_all: 64
   var_count: 64
   class_count: 10
   class_labels: !!opencv-matrix
      rows: 1
      cols: 10
      dt: i
      data: [ 0, 1, 2, 3, 4, 5, 6, 7, 8, 9 ]
   sv_total: 142
   support_vectors:
      - [ 1.62745118e-01, 1.77077770e-01, 1.80639178e-01, 1.86541751e-01,
          1.15685187e-01, 0., 3.23865265e-02, 1.11005098e-01,
          1.01570010e-01, 1.90417856e-01, 1.54677689e-01, 1.57015517e-01,
          3.69939134e-02, 0., 0., 7.43362382e-02, 7.95096457e-02, 0.,
          2.77627017e-02, 0., 1.96863070e-01, 1.44628450e-01,
          9.31591615e-02, 2.09086820e-01, 3.10528819e-02, 0.,
          1.35963876e-02, 0., 1.58984154e-01, 2.02160373e-01,
          2.06990674e-01, 1.35061115e-01, 1.12496309e-01, 3.28114703e-02,
          0., 1.09262906e-01, 7.85213858e-02, 1.52912289e-01,
          2.08286896e-01, 2.03030512e-01, 7.95096457e-02, 6.31301776e-02,
          8.97665247e-02, 9.01997983e-02, 1.00139983e-01, 1.39955595e-01,
          1.66941732e-01, 1.51502043e-01, 1.61602244e-01, 1.68515399e-01,
          1.61388561e-01, 1.46706253e-01, 1.66896991e-02, 2.63622515e-02,
          0., 1.18048467e-01, 2.02334076e-01, 1.52253926e-01,
          2.35904351e-01, 1.11961797e-01, 2.69562937e-02, 0., 0.,
          3.99786308e-02 ]
      - [ 1.13214172e-01, 1.54384315e-01, 1.78482383e-01, 1.63283631e-01,
          1.75468206e-01, 0., 0., 7.98908919e-02, 1.41689375e-01,
          1.51038766e-01, 1.96307182e-01, 1.62045136e-01, 3.29555534e-02,
          0., 4.91909906e-02, 4.64692898e-02, 7.51602277e-02,
          1.64266825e-02, 0., 1.31846070e-01, 1.42267495e-01,
          1.74731925e-01, 1.52323440e-01, 1.49166957e-01, 1.67801473e-02,
          0., 0., 1.12292163e-01, 1.76133752e-01, 2.22230271e-01,
          1.82510689e-01, 8.84940326e-02, 1.12329140e-01, 0.,
          4.14457321e-02, 1.15296751e-01, 1.09115101e-01, 1.52655795e-01,
          1.64776400e-01, 1.90363497e-01, 8.68069082e-02, 3.07913427e-03,
          2.82884799e-02, 1.42565191e-01, 1.46784723e-01, 8.59880596e-02,
          1.52344272e-01, 1.93054467e-01, 9.59670395e-02, 2.23145738e-01,
          1.27353206e-01, 1.71613306e-01, 0., 1.48978559e-02, 0.,
          5.57740405e-02, 1.44963101e-01, 1.78336903e-01, 2.15739056e-01,
          1.95135206e-01, 8.31784755e-02, 0., 2.43702997e-02,
          5.53707480e-02 ]
      - [ 1.86276466e-01, 2.36983374e-01, 1.77139610e-01, 2.87145134e-02,
          1.15102522e-01, 1.00214034e-01, 0., 0., 1.52448237e-01,
          2.26283580e-01, 9.58873853e-02, 1.04768999e-01, 1.07216686e-01,
          0., 0., 0., 7.58136436e-02, 2.67254021e-02, 0., 0.,
          2.22331300e-01, 1.03325464e-01, 1.01332605e-01, 1.77874535e-01,
          7.64117613e-02, 2.98754051e-02, 0., 7.67116472e-02,
          1.84237301e-01, 1.53002858e-01, 2.30628714e-01, 1.32383734e-01,
          7.02585801e-02, 0., 0., 0., 2.41618007e-01, 1.33918375e-01,
          2.10107669e-01, 1.30420655e-01, 4.53080609e-02, 0., 0., 0.,
          1.90684870e-01, 1.56246781e-01, 1.75110757e-01, 1.09445781e-01,
          1.14556223e-01, 1.61308512e-01, 1.77165389e-01, 1.53504878e-01,
          1.10936284e-01, 0., 0., 1.04932129e-01, 8.73996913e-02,
          1.73930466e-01, 2.58525640e-01, 1.48264900e-01, 7.98675790e-02,
          0., 0., 0. ]
      - [ 1.00517362e-01, 1.77110597e-01, 2.17290536e-01, 1.97315186e-01,
          1.47659436e-01, 0., 0., 0., 0., 1.60582229e-01, 1.30199686e-01,
          1.15765460e-01, 1.96950763e-01, 0., 0., 0., 8.99306163e-02, 0.,
          0., 0., 1.91746041e-01, 1.99891344e-01, 1.33002430e-01,
          5.65231405e-02, 1.15765288e-01, 0., 9.99870598e-02,
          7.22954273e-02, 1.72202304e-01, 2.81502187e-01, 1.03274748e-01,
          6.88368380e-02, 1.17222667e-01, 5.00343405e-02, 1.50073230e-01,
          1.72328010e-01, 2.24887744e-01, 9.34503227e-02, 1.28136709e-01,
          1.13014385e-01, 1.24212101e-01, 0., 0., 1.61567062e-01,
          1.98297039e-01, 1.04286194e-01, 1.00146122e-01, 7.33012408e-02,
          1.01103701e-01, 1.52646676e-01, 1.07048690e-01, 1.04523629e-01,
          9.60073844e-02, 9.79365110e-02, 7.34462515e-02, 0.,
          6.79552928e-02, 2.69473374e-01, 1.39062271e-01, 1.03715211e-01,
          1.46928221e-01, 7.96480328e-02, 6.85719997e-02, 1.13384530e-01 ]
      - [ 8.25686529e-02, 1.89230874e-01, 2.84767359e-01, 1.96906984e-01,
          9.08705369e-02, 0., 0., 0., 0., 3.59589234e-02, 1.48546949e-01,
          1.41291440e-01, 1.70716017e-01, 0., 0., 0., 7.95519128e-02,
          5.87646961e-02, 0., 2.08545357e-01, 1.88282743e-01,
          7.95547813e-02, 6.81599602e-02, 1.06765069e-01, 0.,
          1.11879721e-01, 1.04720302e-01, 2.05396429e-01, 2.77494609e-01,
          1.01927713e-01, 1.42883509e-01, 8.61446112e-02, 6.29680082e-02,
          1.79794598e-02, 0., 1.19839169e-01, 3.14732939e-01,
          1.28258690e-01, 1.06794439e-01, 1.18801899e-01, 1.42954499e-01,
          3.67920585e-02, 0., 8.61511752e-02, 2.06805035e-01,
          5.38796075e-02, 1.45736896e-02, 7.09366426e-02, 0.,
          8.59918371e-02, 2.00839534e-01, 1.04023330e-01, 0., 0., 0., 0.,
          0., 2.61587590e-01, 2.22026557e-01, 2.08176598e-01,
          7.32914135e-02, 0., 0., 0. ]
      - [ 1.53118327e-01, 2.72639334e-01, 1.93244472e-01, 1.00651346e-01,
          1.24326468e-01, 0., 0., 0., 3.06392163e-02, 1.24168806e-01,
          1.25020072e-01, 0., 1.17990293e-01, 7.81007633e-02,
          1.20778285e-01, 0., 1.36593878e-01, 0., 0., 1.19673625e-01,
          2.10344478e-01, 6.46166503e-02, 1.15875319e-01, 1.22940913e-01,
          1.23205632e-01, 6.35933429e-02, 0., 8.78021196e-02,
          2.54194140e-01, 1.48422360e-01, 2.43181631e-01, 6.89782575e-02,
          0., 0., 0., 0., 1.74494639e-01, 2.18880817e-01, 3.07910234e-01,
          6.89782575e-02, 1.01474337e-01, 0., 0., 1.06616169e-01,
          8.12957957e-02, 6.46166503e-02, 3.62937637e-02, 0., 0.,
          1.03967965e-01, 1.32574826e-01, 1.52070418e-01, 6.12186193e-02,
          0., 0., 0., 1.58651039e-01, 2.64467567e-01, 1.76036939e-01,
          2.55803019e-01, 1.05999067e-01, 8.31112266e-02, 7.92113990e-02,
          4.87749949e-02 ]
      - [ 1.50332868e-01, 2.06298277e-01, 2.52456337e-01, 2.31596470e-01,
          1.09959953e-01, 0., 0., 0., 0., 1.49989918e-01, 1.40700370e-01,
          7.33046010e-02, 7.44805038e-02, 1.02481373e-01, 1.21507004e-01,
          7.76119307e-02, 1.64081499e-01, 0., 8.97937194e-02,
          7.40256384e-02, 2.28126630e-01, 9.36573967e-02, 4.95039299e-02,
          7.61345178e-02, 1.61282614e-01, 1.18961401e-01, 0.,
          2.06650138e-01, 1.42102301e-01, 1.79477900e-01, 2.39169359e-01,
          1.10979438e-01, 4.09691185e-02, 3.44507843e-02, 0.,
          9.00104046e-02, 1.90190271e-01, 2.20366776e-01, 2.26865888e-01,
          1.41953111e-01, 1.13313630e-01, 0., 0., 0., 4.56349030e-02, 0.,
          5.43019772e-02, 1.25437016e-02, 1.16094485e-01, 4.95039299e-02,
          0., 0., 0., 0., 0., 0., 4.77973036e-02, 2.56067485e-01,
          3.15976679e-01, 1.45852968e-01, 1.00043222e-01, 0., 0.,
          7.93782845e-02 ]
      - [ 1.77047521e-01, 2.30718806e-01, 2.04357728e-01, 7.78431520e-02,
          1.12679683e-01, 7.95925930e-02, 4.32828851e-02, 0.,
          1.38837725e-01, 9.60620120e-02, 7.92227611e-02, 1.13925703e-01,
          1.23610117e-01, 1.53349683e-01, 7.70617276e-02, 0.,
          4.35405113e-02, 3.48862074e-02, 5.66292405e-02, 2.04323426e-01,
          1.01860948e-01, 0., 9.30518210e-02, 7.16611296e-02,
          1.95581868e-01, 1.75510924e-02, 0., 1.03354022e-01,
          2.27959365e-01, 1.62453741e-01, 1.94703832e-01, 1.83268368e-01,
          0., 0., 0., 0., 1.85079053e-01, 2.52386063e-01, 1.90479621e-01,
          1.31121814e-01, 1.02629445e-01, 4.06067073e-02, 4.59274910e-02,
          1.90775096e-01, 1.33781701e-01, 7.81874210e-02, 7.63778687e-02,
          1.08389340e-01, 6.94823787e-02, 1.00978352e-01, 1.97721004e-01,
          1.52960300e-01, 0., 0., 0., 0., 1.51086301e-01, 2.23478541e-01,
          2.43420184e-01, 1.10883869e-01, 1.31002903e-01, 1.29356971e-02,
          0., 0. ]
      - [ 1.67941585e-01, 2.46664375e-01, 2.37896696e-01, 1.63209677e-01,
          8.89206454e-02, 0., 0., 0., 7.46552870e-02, 1.02807827e-01,
          1.10628687e-01, 1.07367143e-01, 1.35946661e-01, 9.37045664e-02,
          1.34027183e-01, 0., 1.62859932e-01, 4.66581285e-02,
          8.44149292e-02, 8.18736702e-02, 2.40478948e-01, 7.41169378e-02,
          9.86101925e-02, 7.23372176e-02, 1.94721341e-01, 1.14903837e-01,
          4.88663167e-02, 1.37380421e-01, 1.98412150e-01, 2.22389728e-01,
          1.75507933e-01, 1.14028357e-01, 0., 0., 0., 0., 1.26488522e-01,
          2.74512440e-01, 1.80798486e-01, 1.12032950e-01, 2.10644543e-01,
          1.13925990e-02, 0., 0., 9.94163100e-03, 0., 6.26603961e-02, 0.,
          1.14083044e-01, 1.06765084e-01, 5.93351014e-02, 0., 0., 0., 0.,
          0., 1.21348418e-01, 2.97677457e-01, 2.35082448e-01,
          1.10510513e-01, 4.52472940e-02, 0., 9.97095779e-02,
          1.14012383e-01 ]
      - [ 1.33600786e-01, 2.26034611e-01, 1.79734752e-01, 1.18167557e-01,
          5.19127622e-02, 0., 1.84826795e-02, 9.69904214e-02,
          1.34498492e-01, 9.79040712e-02, 1.55946389e-01, 1.59084290e-01,
          1.35131329e-01, 0., 0., 8.47282782e-02, 8.77724290e-02, 0.,
          5.95870987e-02, 1.10962056e-01, 1.63755238e-01, 1.70637190e-01,
          1.25355676e-01, 1.59231499e-01, 0., 0., 0., 0., 1.82110831e-01,
          1.98608488e-01, 1.84500724e-01, 1.59113348e-01, 6.82747737e-02,
          0., 0., 2.58452687e-02, 1.41950756e-01, 2.02540800e-01,
          1.43823147e-01, 2.19835952e-01, 8.88504460e-02, 5.38460091e-02,
          0., 1.34393141e-01, 9.81916040e-02, 1.19858779e-01,
          1.70647591e-01, 1.64736822e-01, 1.74565941e-01, 1.85563847e-01,
          9.93695334e-02, 2.02137917e-01, 1.21022249e-02, 0., 0.,
          1.05346069e-01, 2.37881571e-01, 1.56981856e-01, 2.38920107e-01,
          8.41222554e-02, 1.21022249e-02, 0., 3.21816071e-03, 0. ]
      - [ 1.94128752e-01, 2.11487085e-01, 1.68450251e-01, 1.17844217e-01,
          1.73751429e-01, 0., 3.58355455e-02, 0., 9.95357558e-02,
          2.30388641e-01, 1.37948796e-01, 1.25108346e-01, 1.16494857e-01,
          0., 0., 0., 7.88787752e-02, 4.33774665e-03, 8.27595592e-03,
          1.64181933e-01, 1.76952764e-01, 1.32329643e-01, 6.07705936e-02,
          1.82663605e-01, 4.83832061e-02, 0., 0., 1.69533655e-01,
          1.83754191e-01, 2.08107889e-01, 1.65486783e-01, 9.23679993e-02,
          1.04149811e-01, 0., 0., 3.43999378e-02, 1.90737605e-01,
          2.45525569e-01, 1.38172045e-01, 1.26038522e-01, 3.79069261e-02,
          0., 0., 6.76985011e-02, 1.79381713e-01, 1.62275881e-01,
          1.08062916e-01, 1.00025333e-01, 1.27493769e-01, 7.97945261e-02,
          2.18881562e-01, 1.57128438e-01, 0., 0., 0., 0., 1.19791389e-01,
          1.94469213e-01, 2.28949681e-01, 1.85692400e-01, 7.22187087e-02,
          0., 0., 0. ]
      - [ 2.13599280e-01, 2.19297588e-01, 0., 6.22643344e-02, 0., 0., 0.,
          0., 0., 1.00787893e-01, 0., 0., 0., 0., 0., 3.79010551e-02,
          1.71612471e-01, 2.00208053e-01, 7.83959404e-02, 0., 0., 0., 0.,
          6.56021833e-02, 2.13267982e-01, 1.83023691e-01, 8.04796442e-02,
          7.05676451e-02, 1.30859226e-01, 7.20478222e-02, 1.22553244e-01,
          0., 2.73726404e-01, 1.72594100e-01, 0., 0., 9.08462778e-02, 0.,
          1.07491963e-01, 3.46692473e-01, 2.54230887e-01, 1.67388350e-01,
          0., 1.10352568e-01, 1.10315330e-01, 8.26862529e-02,
          7.74596259e-02, 1.77350312e-01, 1.00608528e-01, 0., 0., 0., 0.,
          0., 7.15363175e-02, 3.32033187e-01, 1.38819546e-01,
          6.51319399e-02, 0., 2.64180508e-02, 0., 7.41858482e-02,
          3.20204459e-02, 3.47596854e-01 ]
      - [ 2.52977878e-01, 2.31192514e-01, 0., 2.77393386e-02, 0., 0.,
          1.95387937e-02, 0., 0., 0., 0., 0., 0., 0., 0., 1.34585172e-01,
          2.80076712e-01, 1.98305160e-01, 0., 0., 0., 0., 0., 0.,
          2.36256272e-01, 2.21450105e-01, 8.64282325e-02, 0.,
          1.17274433e-01, 1.42102063e-01, 1.04551487e-01, 1.31257519e-01,
          1.00887991e-01, 6.15863353e-02, 9.60408747e-02, 0., 0.,
          1.87128127e-01, 3.87124270e-01, 1.22782961e-01, 1.26038894e-01,
          8.64282325e-02, 5.86955473e-02, 1.21045843e-01, 1.20961495e-01,
          9.60408747e-02, 1.67848691e-01, 1.16863243e-01, 0., 0., 0., 0.,
          1.21571653e-01, 0., 1.93960845e-01, 0., 1.89392358e-01,
          1.35501266e-01, 0., 0., 1.21571653e-01, 1.44687325e-01,
          3.13768506e-01, 0. ]
      - [ 1.16557665e-01, 2.72426188e-01, 0., 0., 0., 0., 5.61398603e-02,
          0., 0., 1.03854343e-01, 0., 0., 0., 0., 1.22204171e-02, 0.,
          1.88054994e-01, 2.07691565e-01, 0., 0., 0., 0., 0., 0.,
          1.54251963e-01, 2.48167291e-01, 1.13063157e-01, 9.10750180e-02,
          7.39510804e-02, 9.77969840e-02, 5.02004884e-02, 7.60647580e-02,
          3.32135648e-01, 1.11885287e-01, 0., 0., 0., 9.10626799e-02,
          2.63214931e-02, 3.78580689e-01, 2.24489480e-01, 9.15513486e-02,
          1.01701774e-01, 0., 1.35153845e-01, 9.74510759e-02, 0.,
          1.47270694e-01, 1.78693533e-01, 0., 0., 0., 0., 0.,
          8.18315893e-02, 3.23496103e-01, 1.76403388e-01, 1.14311539e-02,
          6.49378747e-02, 5.62967584e-02, 0., 0., 1.51001483e-01,
          3.02301049e-01 ]
      - [ 0., 2.40981132e-01, 1.85546964e-01, 0., 0., 0., 0., 0.,
          5.08094653e-02, 1.06416546e-01, 0., 0., 0., 0., 0., 0.,
          9.95775759e-02, 8.55939984e-02, 2.06464022e-01, 7.12793693e-02,
          0., 0., 0., 0., 0., 2.12965071e-01, 2.02012002e-01,
          1.00257479e-01, 1.25010043e-01, 1.21568963e-01, 7.89031535e-02,
          8.34124237e-02, 1.26771510e-01, 3.03764731e-01, 0., 0.,
          8.62069055e-02, 0., 1.41921237e-01, 3.13601524e-01,
          2.06021369e-01, 1.70225158e-01, 1.34226248e-01, 1.06970087e-01,
          1.00131281e-01, 1.24824688e-01, 1.18052088e-01, 1.62972242e-01,
          1.90171838e-01, 2.23291982e-02, 0., 0., 5.93766384e-02,
          6.90815374e-02, 4.50655632e-02, 3.25725108e-01, 9.12631750e-02,
          1.02701165e-01, 0., 7.53920302e-02, 3.37495953e-02,
          1.03021383e-01, 1.55702576e-01, 2.71930575e-01 ]
      - [ 1.12068854e-01, 2.28259623e-01, 0., 0., 0., 0., 0., 0., 0., 0.,
          0., 0., 0., 0., 1.13772377e-02, 0., 0., 2.97294527e-01,
          1.41471043e-01, 0., 0., 0., 2.45415103e-02, 0., 0.,
          2.56126553e-01, 7.04916492e-02, 1.15169115e-01, 4.51896191e-02,
          1.89781010e-01, 1.03049524e-01, 9.26839933e-02, 2.24978283e-01,
          2.04968110e-01, 0., 0., 8.40165317e-02, 0., 2.88902253e-01,
          2.79166818e-01, 1.45086408e-01, 7.31444880e-02, 7.97430426e-02,
          1.18152708e-01, 7.97087997e-02, 1.34518296e-01, 1.28227696e-01,
          1.24110103e-01, 1.40933037e-01, 5.25993332e-02, 0., 0.,
          1.18105955e-01, 0., 1.56509936e-01, 2.31922045e-01,
          1.39820263e-01, 2.24942282e-01, 0., 0., 1.00157760e-01,
          1.67969599e-01, 2.27518454e-01, 2.14448094e-01 ]
      - [ 0., 2.90082008e-01, 1.84898138e-01, 0., 0., 0., 0., 0., 0.,
          1.36471644e-01, 0., 0., 0., 0., 0., 0., 1.25532404e-01,
          2.07217366e-01, 1.62034839e-01, 7.60052204e-02, 2.87418906e-02,
          0., 0., 0., 0., 2.70359337e-01, 1.97659776e-01, 1.13159500e-01,
          1.57882079e-01, 9.65816379e-02, 9.95087400e-02, 0.,
          1.04044721e-01, 2.59563953e-01, 9.65526924e-02, 9.18432921e-02,
          4.72701043e-02, 8.44817832e-02, 2.29495332e-01, 3.10793549e-01,
          8.94984826e-02, 1.77082449e-01, 9.72293839e-02, 1.52811512e-01,
          1.29197210e-01, 1.34858489e-01, 1.44949809e-01, 9.52868089e-02,
          5.63601069e-02, 0., 0., 0., 1.32493570e-01, 8.24200287e-02,
          1.06599048e-01, 1.38292968e-01, 0., 4.71913889e-02, 0., 0.,
          1.32493570e-01, 1.26418516e-01, 1.98859245e-01, 2.78043658e-01 ]
      - [ 1.95228487e-01, 2.57684588e-01, 6.19134791e-02, 0., 0., 0., 0.,
          0., 8.40286985e-02, 4.91128638e-02, 0., 0., 0., 0., 0.,
          5.36192348e-03, 1.90993145e-01, 2.40792125e-01, 0., 0., 0., 0.,
          0., 0., 2.15275899e-01, 2.43095368e-01, 1.17933497e-01,
          7.64948204e-02, 7.83984959e-02, 9.47152078e-02, 1.07639112e-01,
          1.29318491e-01, 2.09646910e-01, 1.38754010e-01, 9.13448259e-02,
          0., 0., 9.59769413e-02, 1.66510642e-01, 3.35111469e-01,
          1.77656129e-01, 0., 1.21192314e-01, 1.31307408e-01,
          9.75908637e-02, 1.16474032e-01, 1.11088537e-01, 9.81691629e-02,
          1.81671992e-01, 0., 0., 0., 4.32767086e-02, 6.73719943e-02,
          8.61660093e-02, 2.96138853e-01, 1.78014606e-01, 7.80773163e-02,
          2.51105875e-02, 7.12623224e-02, 7.73983002e-02, 1.11049436e-01,
          1.59736142e-01, 2.60477543e-01 ]
      - [ 0., 3.68206084e-01, 0., 0., 0., 0., 0., 0., 0., 1.55227602e-01,
          1.11091964e-01, 0., 0., 0., 0., 0., 7.85765424e-02,
          1.88768998e-01, 0., 0., 0., 0., 0., 0., 1.17015533e-01,
          2.26661876e-01, 1.47016242e-01, 8.30605850e-02, 1.49883330e-01,
          0., 1.05825596e-01, 1.50743276e-01, 7.96398446e-02,
          2.35446721e-01, 9.51495767e-02, 0., 1.02707162e-01,
          1.23591796e-01, 1.28023788e-01, 3.49023670e-01, 7.96398446e-02,
          5.11005931e-02, 9.60089117e-02, 8.27806517e-02, 1.50668070e-01,
          0., 1.09436437e-01, 1.49631292e-01, 8.11843947e-02, 0., 0., 0.,
          0., 0., 2.63025947e-02, 3.59663814e-01, 1.17244154e-01,
          8.56521204e-02, 0., 8.57916549e-02, 0., 1.25197440e-01,
          1.28305674e-01, 3.49337757e-01 ]
      - [ 0., 1.82514995e-01, 3.35096717e-01, 9.28177461e-02,
          4.16021654e-03, 0., 9.89471842e-03, 0., 0., 1.60745442e-01,
          1.12249061e-01, 0., 0., 0., 0., 0., 1.16865136e-01,
          7.54315779e-02, 0., 0., 0., 0., 0., 0., 0., 1.77150235e-01,
          2.34645531e-01, 8.87895301e-02, 1.23061337e-01, 8.75190496e-02,
          1.16308838e-01, 1.38697639e-01, 1.25051290e-01, 1.91509798e-01,
          1.82291105e-01, 9.28095430e-02, 9.12607834e-02, 8.84290710e-02,
          9.06160697e-02, 3.45922112e-01, 1.38610512e-01, 7.60212764e-02,
          9.97909978e-02, 8.68846104e-02, 1.65961638e-01, 1.12153113e-01,
          9.62360874e-02, 1.26018584e-01, 1.02456532e-01, 0., 0.,
          2.42789816e-02, 0., 0., 1.66153714e-01, 2.74025261e-01,
          1.43907830e-01, 1.22769251e-01, 0., 8.41645226e-02,
          3.94297726e-02, 1.48754433e-01, 1.24383159e-01, 3.10231984e-01 ]
      - [ 0., 1.26339927e-01, 3.34788680e-01, 0., 0., 0., 0., 0.,
          3.73989008e-02, 0., 1.73362941e-01, 4.92004305e-02, 0., 0., 0.,
          0., 8.64373520e-02, 8.04318637e-02, 1.74557701e-01, 0.,
          6.44118115e-02, 0., 0., 0., 1.11644296e-02, 1.51406586e-01,
          2.57360667e-01, 1.33272156e-01, 9.01040509e-02, 1.01221450e-01,
          1.43752843e-01, 0., 7.32100606e-02, 2.26296917e-01,
          2.01622546e-01, 2.82280371e-02, 8.84214267e-02, 1.08048499e-01,
          5.91829605e-02, 3.52051318e-01, 1.07128650e-01, 1.36013374e-01,
          9.34918374e-02, 1.20282896e-01, 1.55658007e-01, 1.02816537e-01,
          7.42177144e-02, 1.69073462e-01, 9.33984071e-02, 2.75564305e-02,
          0., 0., 5.16812690e-02, 0., 9.36226472e-02, 2.53242224e-01,
          2.35027984e-01, 2.72556189e-02, 0., 0., 7.06329793e-02, 0.,
          2.25276768e-01, 2.82210529e-01 ]
      - [ 9.70694125e-02, 3.36105287e-01, 5.47513925e-02, 0., 0., 0., 0.,
          0., 0., 1.90201089e-01, 8.04593265e-02, 0., 0., 0., 0., 0.,
          7.74555132e-02, 1.77683160e-01, 0., 0., 0., 0., 0., 0.,
          2.04701021e-01, 2.00675517e-01, 8.02571923e-02, 1.18185438e-01,
          0., 7.74412081e-02, 1.03310943e-01, 1.91990599e-01,
          1.27849475e-01, 2.46268108e-01, 9.36866850e-02, 0., 0.,
          8.96687955e-02, 1.00084834e-01, 3.73381823e-01, 9.91045460e-02,
          4.44360934e-02, 1.25609383e-01, 6.98304102e-02, 1.22854948e-01,
          8.79939646e-02, 1.02432594e-01, 1.57286078e-01, 9.32006314e-02,
          0., 0., 0., 0., 0., 1.26143238e-02, 3.33621502e-01,
          1.78054154e-01, 0., 8.38707611e-02, 0., 0., 8.74339864e-02,
          1.12544574e-01, 3.54008168e-01 ]
      - [ 0., 9.46492925e-02, 2.79019386e-01, 2.23117948e-01, 0., 0., 0.,
          0., 0., 0., 0., 0., 0., 0., 0., 0., 1.97054341e-01,
          9.52045247e-02, 5.36271706e-02, 0., 0., 0., 0., 0., 0.,
          7.71990344e-02, 2.33066276e-01, 2.16701329e-01, 1.50298148e-01,
          0., 1.06995299e-01, 7.99976438e-02, 1.33407682e-01,
          2.18675733e-01, 2.69303858e-01, 6.72446340e-02, 0., 0.,
          9.24117342e-02, 8.18086490e-02, 3.43573332e-01, 1.83738455e-01,
          0., 7.42039233e-02, 7.25984871e-02, 0., 4.63000312e-02, 0.,
          3.32486063e-01, 6.11857213e-02, 0., 0., 0., 0., 0., 0.,
          3.71001452e-01, 1.40865967e-01, 1.58499554e-01, 8.94190446e-02,
          4.78913784e-02, 0., 1.25332341e-01, 1.39453501e-01 ]
      - [ 0., 1.33385792e-01, 3.05869222e-01, 2.41549939e-01,
          6.68544099e-02, 0., 0., 0., 0., 4.04419266e-02, 6.62323982e-02,
          0., 7.10602701e-02, 0., 0., 0., 2.78482527e-01, 3.65243405e-02,
          0., 0., 4.06467021e-02, 0., 0., 0., 0., 5.29509112e-02,
          1.38815403e-01, 2.90847570e-01, 1.52059168e-01, 1.15321472e-01,
          9.64266881e-02, 1.24870874e-01, 1.06321283e-01, 1.43741772e-01,
          3.38598043e-01, 0., 9.44599509e-02, 0., 9.17292014e-02, 0.,
          1.84854463e-01, 3.31067830e-01, 0., 0., 8.54649767e-02,
          5.51277325e-02, 2.35240608e-02, 0., 1.84109524e-01,
          3.45017351e-02, 0., 0., 0., 0., 0., 0., 2.12960035e-01,
          3.62660259e-01, 0., 0., 0., 7.70862326e-02, 8.06655586e-02,
          1.52355850e-01 ]
      - [ 4.10594761e-01, 1.08311646e-01, 0., 0., 0., 0., 0., 0., 0., 0.,
          0., 0., 0., 0., 0., 0., 4.47644025e-01, 1.53878421e-01, 0., 0.,
          0., 0., 0., 0., 2.89464772e-01, 1.65639997e-01, 0., 0., 0., 0.,
          0., 1.51188359e-01, 2.20554724e-01, 1.22497037e-01, 0.,
          9.77880880e-02, 0., 0., 1.16052032e-01, 1.81740671e-01,
          3.94081533e-01, 2.13860422e-01, 0., 0., 0., 0., 0., 0., 0., 0.,
          0., 0., 0., 0., 0., 0., 3.64974201e-01, 8.70594382e-02, 0., 0.,
          0., 0., 0., 0. ]
      - [ 1.36954218e-01, 1.24992140e-01, 2.56601214e-01, 2.21126035e-01,
          1.36694714e-01, 0., 0., 0., 0., 0., 0., 0., 0., 0., 0., 0.,
          2.91017681e-01, 3.95901203e-02, 0., 0., 0., 0., 0., 0., 0.,
          5.74730486e-02, 1.44554019e-01, 1.89192191e-01, 2.28348494e-01,
          9.95897576e-02, 1.45667300e-01, 1.85075283e-01, 1.25115186e-01,
          2.81303018e-01, 2.01971129e-01, 9.65071321e-02, 0., 0.,
          9.94832441e-02, 8.59759971e-02, 2.42350250e-01, 3.46102148e-01,
          0., 0., 0., 0., 0., 0., 1.81970149e-01, 0., 0., 0., 0., 0., 0.,
          0., 4.07228768e-01, 1.18471898e-01, 0., 1.09282061e-02, 0., 0.,
          5.74730486e-02, 1.06314406e-01 ]
      - [ 0., 7.63419345e-02, 3.63043040e-01, 2.16315225e-01,
          9.80903879e-02, 0., 0., 0., 0., 0., 0., 0., 0., 0., 0., 0.,
          1.49705023e-01, 2.79378984e-02, 0., 0., 4.31058593e-02, 0., 0.,
          0., 0., 3.08162328e-02, 5.41217513e-02, 2.31807306e-01,
          2.39521995e-01, 1.57703310e-01, 2.17711255e-01, 2.26371840e-01,
          1.07144013e-01, 2.17108235e-01, 2.34190792e-01, 1.77538544e-01,
          6.47654012e-02, 8.95932391e-02, 9.51681808e-02, 1.14214659e-01,
          2.54833639e-01, 2.66002715e-01, 0., 0., 7.95526803e-02, 0., 0.,
          0., 6.44807145e-02, 0., 0., 0., 0., 0., 4.50485088e-02,
          1.33745179e-01, 2.71347672e-01, 3.15361053e-01, 7.54065141e-02,
          0., 8.53538662e-02, 9.24356282e-02, 4.90573384e-02, 0. ]
      - [ 1.61998063e-01, 1.45416960e-01, 1.85072497e-01, 3.07732791e-01,
          0., 0., 0., 0., 0., 2.04741247e-02, 0., 0., 1.95015252e-01,
          6.47679269e-02, 1.23722568e-01, 1.41752824e-01, 3.60465050e-01,
          1.61104783e-01, 0., 0., 0., 0., 0., 0., 1.28107861e-01,
          1.33212507e-01, 0., 8.03827494e-02, 1.66648626e-01,
          1.18115917e-01, 1.02415197e-01, 1.26340583e-01, 1.13446087e-01,
          9.61728618e-02, 2.68363386e-01, 8.57170448e-02, 0.,
          9.76513922e-02, 1.29973546e-01, 1.29121974e-01, 3.15614909e-01,
          2.50765622e-01, 0., 0., 0., 0., 0., 0., 0., 0., 0., 0., 0., 0.,
          0., 0., 2.54472584e-01, 3.24114680e-01, 6.35672882e-02, 0., 0.,
          0., 0., 0. ]
      - [ 0., 1.47174940e-01, 3.11152935e-01, 1.92765325e-01, 0., 0., 0.,
          0., 0., 5.11379205e-02, 0., 7.64690265e-02, 0., 0., 0., 0.,
          2.39979908e-01, 0., 0., 0., 0., 0., 0., 0., 0., 6.91510886e-02,
          2.49364942e-01, 2.00249359e-01, 1.31148592e-01, 6.94896504e-02,
          9.85053554e-02, 1.86527684e-01, 1.09109923e-01, 1.92653209e-01,
          2.95459449e-01, 0., 0., 7.85055906e-02, 9.05770883e-02,
          6.89377859e-02, 2.97092050e-01, 2.82720923e-01, 0., 0.,
          7.64690265e-02, 0., 5.11379205e-02, 0., 2.54184663e-01,
          6.24526218e-02, 0., 0., 0., 0., 0., 0., 3.15905869e-01,
          2.45047480e-01, 1.01342402e-01, 0., 0., 1.28270686e-01, 0.,
          1.32477492e-01 ]
      - [ 0., 3.56342256e-01, 6.90279678e-02, 3.44171785e-02, 0., 0., 0.,
          0., 5.73701933e-02, 1.41640738e-01, 1.07225187e-01,
          5.70384562e-02, 0., 0., 0., 0., 1.30517408e-01, 0., 0., 0., 0.,
          0., 0., 0., 0., 1.62679091e-01, 1.57902092e-01, 1.35312513e-01,
          0., 8.75458345e-02, 1.29375860e-01, 5.72248437e-02,
          1.98688924e-01, 2.56330699e-01, 7.03816935e-02, 0., 0.,
          1.06551670e-01, 1.10996194e-01, 2.91756690e-01, 2.89734215e-01,
          3.80132012e-02, 0., 1.61163568e-01, 9.10868347e-02,
          1.28324866e-01, 0., 1.05627887e-01, 2.06134275e-01,
          5.45979291e-02, 5.31113371e-02, 0., 0., 0., 2.71243155e-02,
          3.36739957e-01, 2.14747667e-01, 9.12988484e-02, 0., 0.,
          8.67924690e-02, 6.63308650e-02, 1.15106799e-01, 3.25995475e-01 ]
      - [ 3.05526387e-02, 1.96047544e-01, 1.84986204e-01, 5.06986491e-02,
          0., 0., 0., 0., 0., 0., 0., 0., 0., 0., 0., 0., 8.67918599e-03,
          2.60420024e-01, 1.59034640e-01, 0., 0., 0., 0., 0., 0.,
          2.39611000e-01, 1.93058819e-01, 8.39009956e-02, 9.15969759e-02,
          1.58980697e-01, 6.76869005e-02, 1.35841921e-01, 2.02441677e-01,
          2.47688279e-01, 7.62942657e-02, 8.94198790e-02, 2.37689298e-02,
          1.62791029e-01, 2.66081482e-01, 2.93975323e-01, 7.06434548e-02,
          1.11385159e-01, 1.09341614e-01, 1.07440792e-01, 1.36471733e-01,
          9.55618843e-02, 1.39414743e-01, 0., 4.81284149e-02, 0., 0., 0.,
          1.22434981e-01, 0., 0., 2.19514698e-01, 1.26307636e-01,
          2.13549122e-01, 3.17087583e-02, 0., 1.15060605e-01,
          1.01260878e-01, 2.42416829e-01, 2.70910233e-01 ]
      - [ 0., 2.51259714e-01, 1.71941131e-01, 0., 0., 0., 0., 0.,
          5.17484844e-02, 1.13423392e-01, 0., 0., 0., 0., 0., 0.,
          7.80745596e-02, 1.11264154e-01, 1.70276672e-01, 0., 0., 0.,
          2.13568900e-02, 0., 0., 2.81119972e-01, 8.13007131e-02,
          1.26140386e-01, 6.27011359e-02, 8.03048313e-02, 1.11505814e-01,
          1.49663761e-01, 1.74736872e-01, 2.66684294e-01, 7.29642585e-02,
          8.76211226e-02, 0., 9.62189957e-02, 1.20096542e-01,
          3.64543587e-01, 1.00167543e-01, 1.60394549e-01, 0.,
          9.37691703e-02, 1.40238956e-01, 7.04469532e-02, 8.60060379e-02,
          1.61912754e-01, 9.14767310e-02, 0., 0., 0., 0., 0.,
          4.22075130e-02, 3.64647180e-01, 1.18690744e-01, 8.94967616e-02,
          5.85783385e-02, 0., 8.64913166e-02, 0., 1.16438314e-01,
          3.65193218e-01 ]
      - [ 0., 9.77878943e-02, 3.61966193e-01, 0., 3.23320292e-02, 0., 0.,
          0., 0., 0., 1.92849413e-01, 0., 0., 0., 0., 0., 1.13549821e-01,
          8.33732486e-02, 1.30335644e-01, 0., 5.93243577e-02, 0., 0., 0.,
          7.22966157e-03, 8.39460939e-02, 2.81088799e-01, 1.30082488e-01,
          6.75628558e-02, 1.51322871e-01, 9.29030403e-02, 0.,
          6.19111247e-02, 2.00698599e-01, 2.23443463e-01, 8.55436027e-02,
          6.87001497e-02, 8.48111808e-02, 1.21638000e-01, 2.99941868e-01,
          1.76139727e-01, 1.45311251e-01, 1.26313210e-01, 8.23754221e-02,
          1.59656033e-01, 9.44086537e-02, 7.76932687e-02, 1.65424317e-01,
          1.83167934e-01, 5.68363555e-02, 0., 0., 3.00994813e-02, 0.,
          1.09876804e-01, 2.35261843e-01, 2.48918071e-01, 2.78592948e-02,
          7.92813227e-02, 0., 7.22966157e-03, 9.07027423e-02,
          1.96219742e-01, 2.45104164e-01 ]
      - [ 1.78940743e-01, 1.76379859e-01, 9.03556421e-02, 0.,
          4.14921232e-02, 0., 0., 0., 3.66334952e-02, 5.03267497e-02,
          1.66816562e-01, 2.01006576e-01, 6.52317256e-02, 9.04084891e-02,
          8.76770690e-02, 0., 7.56698176e-02, 3.33695114e-01,
          8.79418403e-02, 7.42402151e-02, 1.47470817e-01, 1.46254629e-01,
          9.61485654e-02, 6.92865625e-02, 0., 2.25485414e-01, 0.,
          1.64135516e-01, 1.50972784e-01, 1.40768692e-01, 1.08072773e-01,
          9.18079168e-02, 1.40481576e-01, 1.99120998e-01, 8.32305700e-02,
          0., 6.36423677e-02, 1.44072488e-01, 1.31301388e-01,
          1.70079842e-01, 1.85711637e-01, 2.42170930e-01, 0.,
          4.28357609e-02, 1.07816167e-01, 1.11762546e-01, 1.32253245e-01,
          9.52963531e-02, 9.24345627e-02, 0., 0., 1.55909106e-01,
          2.88148344e-01, 5.00269234e-02, 1.05571911e-01, 7.64164254e-02,
          1.19457401e-01, 2.11580202e-01, 0., 1.05422057e-01,
          1.09083630e-01, 7.99487531e-02, 0., 0. ]
      - [ 8.81460756e-02, 2.32184678e-01, 1.62676439e-01, 1.19414523e-01,
          8.52000490e-02, 8.66061524e-02, 0., 0., 6.29568398e-02,
          3.38645913e-02, 1.90180659e-01, 1.74297303e-01, 1.77219510e-01,
          1.01353809e-01, 3.35010253e-02, 7.23817572e-02, 4.03882898e-02,
          1.38419107e-01, 2.97554374e-01, 1.32380292e-01, 1.39712930e-01,
          1.03150174e-01, 7.18688294e-02, 9.43168402e-02, 9.38436463e-02,
          0., 1.37316704e-01, 5.19312695e-02, 3.26985478e-01,
          7.72184432e-02, 7.12396875e-02, 7.74442554e-02, 1.49737805e-01,
          1.13550767e-01, 3.57326642e-02, 0., 1.29320651e-01,
          1.27638802e-01, 1.17842302e-01, 1.74068987e-01, 1.68373391e-01,
          1.76119715e-01, 0., 3.37360278e-02, 0., 1.07348733e-01,
          7.04334825e-02, 1.07170671e-01, 0., 0., 0., 0., 2.87625194e-01,
          8.84432346e-02, 5.65795526e-02, 2.99082976e-02, 1.01627126e-01,
          1.95096120e-01, 1.14946567e-01, 2.42567196e-01, 1.42794177e-01,
          0., 0., 0. ]
      - [ 1.83760688e-01, 1.45600080e-01, 1.02574065e-01, 9.31178927e-02,
          4.76312265e-02, 0., 0., 0., 4.01307195e-02, 9.93469208e-02,
          1.63823321e-01, 1.45680755e-01, 1.42283276e-01, 1.07121855e-01,
          9.46306065e-02, 0., 1.05952613e-01, 3.13484699e-01,
          1.51227310e-01, 1.34162188e-01, 1.33172825e-01, 1.03240117e-01,
          8.32227096e-02, 8.67706165e-02, 6.00706488e-02, 2.38097697e-01,
          0., 1.34463310e-01, 1.73667669e-01, 9.00221094e-02,
          9.15940329e-02, 1.15276650e-01, 1.54975206e-01, 2.00677767e-01,
          0., 0., 6.99364394e-02, 1.44541249e-01, 1.39554918e-01,
          1.74274743e-01, 1.69900492e-01, 2.62339622e-01, 0., 0.,
          1.08565144e-01, 9.74864215e-02, 1.33936420e-01, 1.25075907e-01,
          7.90723190e-02, 0., 4.37974110e-02, 6.38330281e-02,
          3.04906756e-01, 1.26562834e-01, 1.02402359e-01, 6.00670911e-02,
          1.32205844e-01, 1.83556214e-01, 8.70708078e-02, 0.,
          7.25116506e-02, 0., 0., 0. ]
      - [ 1.32761255e-01, 2.21336275e-01, 1.40845478e-01, 1.70246616e-01,
          1.05507448e-01, 0., 0., 0., 0., 2.38044746e-02, 2.06187442e-01,
          2.21078694e-01, 6.87746778e-02, 8.88082087e-02, 7.01791793e-02,
          0., 8.09806436e-02, 2.68471867e-01, 2.08306953e-01,
          1.03782460e-01, 9.97874215e-02, 9.47296619e-02, 5.17239608e-02,
          1.02716655e-01, 1.38976514e-01, 1.80702180e-01, 1.07130490e-01,
          1.15697302e-01, 1.75290003e-01, 8.24939460e-02, 7.41784722e-02,
          1.02815725e-01, 1.78065911e-01, 1.23807654e-01, 0.,
          9.56133902e-02, 7.73083791e-02, 8.19228739e-02, 1.01735801e-01,
          1.45059973e-01, 2.02326730e-01, 2.08937481e-01, 4.92431149e-02,
          0., 1.01599120e-01, 7.47248605e-02, 7.73831233e-02,
          5.66659831e-02, 0., 1.22925779e-02, 3.97546180e-02,
          2.64552176e-01, 1.88894719e-01, 1.06631689e-01, 0., 0.,
          3.90205085e-02, 1.61645383e-01, 5.34099340e-02, 2.30310693e-01,
          2.29574069e-01, 3.37745324e-02, 0., 0. ]
      - [ 6.70341402e-02, 2.20847100e-01, 2.16349572e-01, 1.81807831e-01,
          6.34617731e-02, 0., 0., 0., 0., 5.06948419e-02, 1.95367411e-01,
          2.05699205e-01, 7.87255466e-02, 8.39057639e-02, 6.08416945e-02,
          1.02960072e-01, 3.91759649e-02, 1.61618739e-01, 2.80461997e-01,
          0., 1.76305488e-01, 9.87553298e-02, 6.61519244e-02,
          1.11738577e-01, 0., 1.03224851e-01, 1.56237110e-01,
          4.62412313e-02, 2.95899391e-01, 1.17606819e-01, 9.79030952e-02,
          7.63180926e-02, 1.13589957e-01, 1.52604043e-01, 0., 0.,
          1.51416883e-01, 9.10311267e-02, 1.26432762e-01, 1.07974656e-01,
          1.95070818e-01, 2.05660716e-01, 0., 0., 7.87112787e-02,
          6.42960444e-02, 6.31909147e-02, 8.74398723e-02, 0.,
          1.37982741e-02, 0., 1.43314853e-01, 2.64457315e-01,
          1.05103113e-01, 6.12453707e-02, 0., 1.05547808e-01,
          6.12051375e-02, 1.80363655e-01, 2.16631949e-01, 1.92517579e-01,
          0., 0., 0. ]
      - [ 1.52014300e-01, 1.85591370e-01, 1.89378515e-01, 0.,
          1.94471598e-01, 0., 0., 0., 0., 7.16458037e-02, 2.18549728e-01,
          1.62374973e-01, 1.66691080e-01, 1.39307454e-01, 8.27465877e-02,
          5.73270805e-02, 8.99000466e-02, 1.25155166e-01, 3.05937678e-01,
          1.40916392e-01, 1.35498956e-01, 1.05793312e-01, 8.54329541e-02,
          5.03385514e-02, 1.18008211e-01, 1.11505732e-01, 9.79591310e-02,
          0., 2.60696948e-01, 0., 0., 0., 1.15708195e-01, 1.71695650e-01,
          5.61406314e-02, 0., 8.33111033e-02, 8.72816294e-02,
          1.96623191e-01, 1.69291079e-01, 1.31509215e-01, 2.16090202e-01,
          5.61406314e-02, 3.30504142e-02, 6.11137860e-02, 1.13725752e-01,
          8.77332091e-02, 4.63212878e-02, 0., 0., 0., 0., 2.98650324e-01,
          1.00837015e-01, 8.28509331e-02, 4.43295613e-02, 1.11919090e-01,
          1.77605376e-01, 1.86065942e-01, 8.65007788e-02, 1.86186299e-01,
          0., 0., 0. ]
      - [ 2.19002083e-01, 1.57171085e-01, 2.18961686e-01, 1.60426617e-01,
          1.59072876e-01, 0., 0., 0., 0., 5.38797304e-02, 1.44577280e-01,
          1.72843352e-01, 1.95476294e-01, 1.07035726e-01, 1.00616172e-01,
          1.22789115e-01, 7.98439980e-02, 1.62326232e-01, 2.78285354e-01,
          0., 1.64971188e-01, 8.84367228e-02, 8.31878781e-02,
          8.76374841e-02, 1.47714704e-01, 1.25724256e-01, 1.59365386e-01,
          1.88447550e-01, 2.28646085e-01, 9.14713293e-02, 6.27587512e-02,
          1.43582569e-02, 0., 0., 0., 0., 8.47750157e-02, 9.36916620e-02,
          1.05797395e-01, 9.59810317e-02, 2.57462502e-01, 1.87033698e-01,
          0., 2.29657013e-02, 0., 2.78455801e-02, 0., 2.25021001e-02, 0.,
          0., 0., 0., 3.04628015e-01, 7.00740889e-02, 8.18930268e-02,
          8.48192349e-02, 0., 1.55365840e-01, 1.59253538e-01,
          1.37645721e-01, 2.39093259e-01, 0., 0., 0. ]
      - [ 9.99543443e-02, 2.51320034e-01, 1.16893582e-01, 1.17303468e-01,
          1.12165488e-01, 0., 0., 0., 0., 7.86530972e-02, 1.53788283e-01,
          1.55922279e-01, 2.04393998e-01, 4.57991026e-02, 7.82471001e-02,
          5.74311502e-02, 9.41560194e-02, 2.62566298e-01, 2.07994536e-01,
          6.80309981e-02, 2.30571747e-01, 4.63606082e-02, 1.08225733e-01,
          0., 1.16733506e-01, 2.19833031e-01, 0., 0., 2.13552266e-01,
          2.49303002e-02, 1.09560296e-01, 1.18227586e-01, 0.,
          2.13674664e-01, 6.83777109e-02, 0., 1.14085592e-01,
          8.71712491e-02, 9.49314982e-02, 1.59454897e-01, 1.64082825e-01,
          2.34846875e-01, 4.38265316e-02, 0., 1.48422241e-01,
          1.10943697e-01, 0., 0., 0., 0., 0., 0., 3.45568746e-01,
          1.02308817e-01, 7.73019940e-02, 0., 8.96257982e-02,
          1.75631687e-01, 8.51185098e-02, 1.15225337e-01, 1.83123380e-01,
          0., 0., 0. ]
      - [ 2.43212610e-01, 1.49901018e-01, 0., 0., 7.81596974e-02,
          9.85368192e-02, 0., 0., 1.29108921e-01, 1.48089632e-01,
          1.62527293e-01, 7.77904615e-02, 1.66364059e-01, 1.60951719e-01,
          1.73583969e-01, 1.57730162e-01, 1.83147401e-01, 2.30426371e-01,
          2.31528863e-01, 2.16705799e-01, 1.69610307e-01, 1.27257288e-01,
          7.36174956e-02, 5.12348376e-02, 1.64729401e-01, 1.94549009e-01,
          1.96967348e-01, 9.28855091e-02, 7.97227472e-02, 3.78699638e-02,
          0., 1.37857527e-01, 7.19440430e-02, 0., 0., 0., 0.,
          1.24298751e-01, 1.39756307e-01, 1.84357584e-01, 2.33647451e-01,
          1.64094254e-01, 5.51443808e-02, 0., 0., 0., 0., 1.78792700e-01,
          7.96520114e-02, 4.12656069e-02, 0., 1.38646334e-01,
          2.00385749e-01, 0., 7.78047591e-02, 5.78831993e-02,
          1.17950030e-01, 6.55171052e-02, 0., 1.87888026e-01,
          1.49922684e-01, 0., 0., 0. ]
      - [ 1.49289981e-01, 1.93932161e-01, 9.36334431e-02, 1.08865477e-01,
          0., 0., 0., 0., 0., 5.10123819e-02, 0., 2.16557637e-01,
          1.26386076e-01, 9.96946618e-02, 1.13366239e-01, 8.26481059e-02,
          1.38954982e-01, 3.38397175e-01, 1.40968412e-01, 0., 0., 0.,
          5.31388000e-02, 6.44431189e-02, 6.92245066e-02, 5.52561656e-02,
          0., 1.41813934e-01, 5.65215722e-02, 7.53794760e-02,
          9.33352560e-02, 1.47791356e-01, 1.64452106e-01, 2.37923205e-01,
          0., 0., 0., 1.61027342e-01, 1.19721070e-01, 7.94610381e-02,
          2.93566436e-01, 2.19028994e-01, 0., 0., 1.91688940e-01, 0.,
          1.08902134e-01, 7.45795369e-02, 0., 6.46975040e-02, 0., 0.,
          2.73772389e-01, 0., 1.06277600e-01, 1.12845190e-01,
          1.64100245e-01, 2.81662762e-01, 1.73256740e-01, 1.74208224e-01,
          8.93684551e-02, 0., 0., 0. ]
      - [ 2.03028083e-01, 2.02693984e-01, 2.23924980e-01, 4.01390120e-02,
          4.25290652e-02, 5.42042628e-02, 0., 0., 5.61349429e-02,
          1.27391323e-01, 1.59509614e-01, 1.03342697e-01, 1.42279521e-01,
          1.54479221e-01, 1.46439746e-01, 1.12983927e-01, 1.93065479e-01,
          2.48243034e-01, 1.34455845e-01, 0., 1.41556159e-01,
          5.37162572e-02, 8.55806023e-02, 7.35747367e-02, 4.91562672e-02,
          1.35155156e-01, 1.52189121e-01, 7.93822557e-02, 1.82456687e-01,
          0., 1.19289376e-01, 1.66075662e-01, 7.82235041e-02,
          6.57951161e-02, 0., 0., 7.67807141e-02, 1.35102198e-01,
          1.76156282e-01, 1.79595485e-01, 1.94379717e-01, 1.94891691e-01,
          0., 0., 0., 0., 4.72036712e-02, 1.10700026e-01, 0.,
          4.92749810e-02, 0., 2.39964396e-01, 1.85805902e-01, 0.,
          1.00953981e-01, 7.54806995e-02, 1.65444344e-01, 2.23183632e-01,
          1.79222554e-01, 1.64977014e-01, 1.20055184e-01, 0., 0., 0. ]
      - [ 2.36822605e-01, 2.01553702e-01, 1.67598188e-01, 1.16104499e-01,
          1.16087511e-01, 1.40374914e-01, 8.84577632e-02, 8.87786448e-02,
          1.33655608e-01, 1.12756386e-01, 1.58358172e-01, 7.33026266e-02,
          1.73670545e-01, 8.33473206e-02, 1.32931650e-01, 1.36900604e-01,
          2.28117436e-01, 2.69002408e-01, 6.93999827e-02, 1.70642078e-01,
          1.52241603e-01, 1.06213890e-01, 4.85225171e-02, 9.53387469e-02,
          1.14404999e-01, 2.22139597e-01, 1.67696357e-01, 0.,
          1.88771024e-01, 0., 1.15396701e-01, 1.18939832e-01, 0., 0., 0.,
          0., 0., 0., 9.72921923e-02, 1.71928421e-01, 1.94001913e-01,
          5.93285747e-02, 0., 0., 0., 0., 0., 0., 0., 4.90204208e-02,
          1.37843370e-01, 1.06151797e-01, 2.81504810e-01, 0.,
          1.01911016e-01, 7.61962533e-02, 1.54068127e-01, 1.34997338e-01,
          1.50866345e-01, 1.79852098e-01, 1.22610815e-01, 0., 0., 0. ]
      - [ 1.89727381e-01, 2.49339849e-01, 1.98723570e-01, 6.68410882e-02,
          1.21509388e-01, 0., 0., 0., 0., 1.37729064e-01, 1.56536803e-01,
          1.15961447e-01, 1.91144168e-01, 7.41222501e-02, 1.39959440e-01,
          8.98464993e-02, 1.53133258e-01, 2.05214441e-01, 1.49811044e-01,
          1.99709967e-01, 1.40350416e-01, 0., 9.70737338e-02,
          7.33667687e-02, 8.07273164e-02, 1.59315467e-01, 2.36407697e-01,
          1.41717181e-01, 1.42541766e-01, 9.38469470e-02, 1.21255875e-01,
          1.76653981e-01, 7.34018907e-02, 5.04023805e-02, 0., 0.,
          6.85744435e-02, 0., 1.64737463e-01, 1.18222162e-01,
          2.18650281e-01, 2.17451647e-01, 0., 0., 0., 0., 5.24793155e-02,
          7.40450993e-02, 0., 4.74953391e-02, 1.31883115e-01,
          1.02051608e-01, 2.41586819e-01, 9.67970788e-02, 2.38456000e-02,
          7.79092461e-02, 7.57260770e-02, 1.48405626e-01, 1.39138728e-01,
          2.50137091e-01, 0., 0., 0., 0. ]
      - [ 1.79201141e-01, 8.24020132e-02, 8.98480117e-02, 9.26270783e-02,
          9.24496427e-02, 1.17152162e-01, 1.44960225e-01, 2.47790173e-01,
          1.64350078e-01, 1.14855617e-01, 1.19747393e-01, 1.59282044e-01,
          1.58691436e-01, 6.72649816e-02, 1.37525260e-01, 2.94599533e-01,
          2.44865030e-01, 1.90317824e-01, 1.39044404e-01, 1.61435172e-01,
          1.95074588e-01, 0., 7.57073238e-02, 8.22317451e-02,
          1.99387416e-01, 3.06455996e-02, 1.10718831e-01, 1.07605651e-01,
          2.11654812e-01, 0., 9.05190706e-02, 1.21736422e-01, 0., 0., 0.,
          0., 0., 0., 3.84359062e-02, 1.23367615e-01, 1.23376004e-01, 0.,
          0., 0., 0., 0., 0., 0., 5.15395515e-02, 0., 0., 0.,
          3.15250278e-01, 1.47207096e-01, 9.52126160e-02, 1.47141099e-01,
          1.88618273e-01, 7.89774135e-02, 8.17777291e-02, 0.,
          2.53350765e-01, 0., 3.06455996e-02, 0. ]
      - [ 1.51231915e-01, 2.92113781e-01, 9.59163606e-02, 0.,
          1.77748706e-02, 1.12827606e-01, 4.87206914e-02, 0.,
          9.95630845e-02, 1.69840023e-01, 8.57657939e-02, 7.28544220e-02,
          1.89680576e-01, 6.89927414e-02, 1.74779013e-01, 1.87607467e-01,
          1.58040881e-01, 2.72033215e-01, 1.13943756e-01, 1.55212149e-01,
          1.80145368e-01, 0., 7.88554251e-02, 5.86011633e-02,
          8.09683949e-02, 2.49973759e-01, 1.38061166e-01, 7.30272457e-02,
          1.59318671e-01, 4.93165702e-02, 1.56378388e-01, 1.03031784e-01,
          0., 0., 0., 0., 0., 0., 2.00773820e-01, 1.60644844e-01,
          1.72314525e-01, 1.74246281e-01, 0., 0., 0., 0., 0., 0., 0.,
          4.87206914e-02, 0., 2.31711492e-01, 2.55766094e-01, 0.,
          8.51859897e-02, 8.19459856e-02, 8.19381103e-02, 1.70048803e-01,
          1.38455272e-01, 1.95660114e-01, 1.41735330e-01, 0., 0., 0. ]
      - [ 1.76630691e-01, 2.52092600e-01, 1.96238592e-01, 1.16827883e-01,
          7.27590695e-02, 0., 0., 0., 2.73663308e-02, 5.11409417e-02,
          1.10871658e-01, 1.63259253e-01, 1.16439462e-01, 1.34727851e-01,
          1.07734315e-01, 7.88761228e-02, 1.96869940e-01, 2.35803708e-01,
          1.04649909e-01, 1.21494070e-01, 1.60859600e-01, 1.16975546e-01,
          4.19715308e-02, 8.39243010e-02, 6.23070300e-02, 1.13310263e-01,
          2.49973103e-01, 0., 1.23248719e-01, 9.08631533e-02,
          1.49491265e-01, 1.92333519e-01, 7.75719956e-02, 1.20716751e-01,
          0., 0., 1.20848551e-01, 9.14447978e-02, 1.49999544e-01,
          1.90848202e-01, 2.17897952e-01, 2.32737690e-01, 0., 0.,
          6.08171709e-02, 6.47104308e-02, 5.11409417e-02, 6.82726651e-02,
          0., 1.18531203e-02, 0., 1.76359013e-01, 2.30343193e-01, 0.,
          1.05080433e-01, 7.78536424e-02, 1.62733629e-01, 1.73675030e-01,
          1.46199465e-01, 1.40626609e-01, 8.38489160e-02, 0., 0., 0. ]
      - [ 2.11259574e-01, 2.43987069e-01, 0., 1.15881056e-01,
          9.94956419e-02, 0., 0., 0., 1.30855307e-01, 1.19092256e-01,
          6.22164719e-02, 1.43335104e-01, 1.90068677e-01, 1.05383828e-01,
          1.05418727e-01, 1.49011776e-01, 1.66499853e-01, 2.78194845e-01,
          1.32312104e-01, 0., 2.15002596e-01, 0., 4.80915084e-02,
          7.47523755e-02, 7.24752098e-02, 2.08631933e-01, 1.58576533e-01,
          0., 1.08113542e-01, 8.73735249e-02, 1.64701447e-01,
          1.16571620e-01, 7.47523755e-02, 1.37220532e-01, 0., 0., 0.,
          8.82165059e-02, 1.94021925e-01, 1.35255173e-01, 2.22244948e-01,
          1.79526031e-01, 0., 0., 0., 9.33558121e-02, 9.08972174e-02,
          7.48111606e-02, 0., 4.99899238e-02, 1.35375947e-01,
          1.58804983e-01, 2.18371212e-01, 0., 9.77730900e-02,
          7.20321387e-02, 1.30926490e-01, 2.40581945e-01, 1.72582448e-01,
          1.41095906e-01, 0., 0., 0., 0. ]
      - [ 1.95286125e-01, 3.14141899e-01, 8.85891616e-02, 1.15050532e-01,
          7.51746371e-02, 8.85217413e-02, 5.80273420e-02, 7.09460080e-02,
          1.29735008e-01, 6.92610741e-02, 1.78748444e-01, 1.21757604e-01,
          1.65676132e-01, 9.22146738e-02, 1.26338422e-01, 1.29505515e-01,
          2.54416734e-01, 2.18381330e-01, 0., 1.71484396e-01,
          8.22238177e-02, 1.04789853e-01, 4.11952026e-02, 7.63493255e-02,
          1.45170793e-01, 2.68124521e-01, 0., 1.12357393e-01,
          7.51746371e-02, 8.86522233e-02, 9.86830294e-02, 1.73153535e-01,
          0., 0., 0., 0., 0., 0., 1.34875268e-01, 1.69115528e-01,
          2.31481165e-01, 1.37555569e-01, 0., 0., 0., 0., 0., 0., 0.,
          4.84904833e-02, 0., 2.71001726e-01, 1.34370446e-01,
          8.19830522e-02, 1.14350922e-01, 9.14478749e-02, 1.67877167e-01,
          1.13267347e-01, 1.37679681e-01, 2.20354185e-01, 8.58687609e-02,
          0., 0., 0. ]
      - [ 2.44687438e-01, 2.75059283e-01, 1.37179419e-01, 1.55609861e-01,
          6.78287148e-02, 0., 0., 0., 4.26082797e-02, 8.39073658e-02,
          1.62843049e-01, 1.28909320e-01, 1.18400693e-01, 8.07720348e-02,
          1.18888363e-01, 1.06124833e-01, 2.61317313e-01, 2.35045731e-01,
          0., 1.57606140e-01, 9.51260254e-02, 6.35397956e-02,
          8.44695494e-02, 0., 9.76778418e-02, 2.44044304e-01, 0.,
          1.10852823e-01, 1.55023038e-01, 8.53777081e-02, 9.24871564e-02,
          1.20753020e-01, 0., 0., 0., 0., 0., 8.29543695e-02,
          1.25170231e-01, 2.03134269e-01, 2.30026126e-01, 1.85784400e-01,
          0., 0., 0., 0., 0., 0., 0., 3.58291492e-02, 6.36395514e-02,
          2.62477249e-01, 1.31671920e-01, 8.30104724e-02, 1.40313581e-01,
          5.35770766e-02, 1.47698298e-01, 1.72235832e-01, 1.72179595e-01,
          2.47157797e-01, 0., 0., 0., 0. ]
      - [ 1.02568887e-01, 2.33526424e-01, 1.28140926e-01, 1.49918482e-01,
          7.50413239e-02, 0., 0., 0., 7.11187255e-03, 9.43660587e-02,
          1.18715920e-01, 2.27383524e-01, 1.10684261e-01, 8.59170780e-02,
          4.46210578e-02, 9.60895941e-02, 1.08752109e-01, 3.08608204e-01,
          1.30487233e-01, 0., 2.17953548e-01, 9.02600288e-02,
          1.14164948e-01, 5.20421974e-02, 8.19329172e-02, 2.34585151e-01,
          0., 1.08467549e-01, 1.59879804e-01, 9.23709273e-02,
          8.44973847e-02, 1.28629729e-01, 1.16710059e-01, 1.55692115e-01,
          0., 0., 1.17100649e-01, 1.01952888e-01, 1.51178390e-01,
          1.19628102e-01, 1.98521733e-01, 2.21848801e-01, 0., 0.,
          9.28773582e-02, 1.03859633e-01, 9.72179025e-02, 1.05231613e-01,
          0., 5.98034821e-03, 4.90369722e-02, 2.46967837e-01,
          2.16676041e-01, 1.02111377e-01, 6.01501428e-02, 1.08012259e-01,
          1.00995272e-01, 1.75261647e-01, 8.53482485e-02, 1.85584709e-01,
          1.07700460e-01, 0., 0., 0. ]
      - [ 2.17792839e-01, 2.17662364e-01, 1.43216401e-01, 9.55564380e-02,
          6.24948479e-02, 0., 0., 8.66327286e-02, 1.28542468e-01,
          8.81476402e-02, 1.45543560e-01, 1.45433173e-01, 8.11631903e-02,
          1.31362900e-01, 1.15740016e-01, 9.73740891e-02, 1.37056097e-01,
          3.04830194e-01, 1.56725481e-01, 8.92136842e-02, 1.42534897e-01,
          7.60282576e-02, 9.94955972e-02, 4.50405963e-02, 1.66227013e-01,
          1.65453330e-01, 4.25471812e-02, 2.21924588e-01, 8.53445232e-02,
          8.29484835e-02, 9.97636393e-02, 0., 1.26788765e-01,
          7.47010186e-02, 0., 0., 7.45285302e-02, 1.12439759e-01,
          1.00364722e-01, 1.42010167e-01, 2.09244147e-01, 2.15224639e-01,
          0., 0., 0., 6.76616132e-02, 0., 1.09084062e-01, 0.,
          2.10542846e-02, 8.60024616e-02, 2.73563862e-01, 1.73483640e-01,
          7.51983300e-02, 3.44281830e-02, 0., 9.88007709e-02,
          1.35324314e-01, 1.35369346e-01, 3.00736666e-01, 6.47977591e-02,
          0., 3.19863968e-02, 0. ]
      - [ 1.02933340e-01, 1.31840423e-01, 2.51619816e-01, 1.13007762e-01,
          6.19456880e-02, 4.02471162e-02, 7.99966082e-02, 6.68577552e-02,
          2.79439706e-02, 7.11420849e-02, 1.23671651e-01, 2.07586721e-01,
          4.56818826e-02, 7.92199448e-02, 6.65418357e-02, 1.06680229e-01,
          1.43035322e-01, 7.80034885e-02, 4.38539907e-02, 7.89384022e-02,
          2.42925748e-01, 6.37740791e-02, 4.37756032e-02, 5.13248593e-02,
          0., 0., 8.87201652e-02, 1.27259493e-01, 2.41969928e-01,
          1.41363800e-01, 1.13784432e-01, 9.80511159e-02, 6.16753623e-02,
          1.35380417e-01, 1.82521611e-01, 5.08378930e-02, 1.49311438e-01,
          8.86112899e-02, 8.72743055e-02, 1.16066858e-01, 1.54776171e-01,
          1.20639987e-01, 2.50983119e-01, 1.17331862e-01, 1.31435424e-01,
          9.84382406e-02, 6.01565763e-02, 0., 1.08199060e-01,
          3.81316431e-02, 1.14619762e-01, 2.22376749e-01, 5.59043810e-02,
          1.87854618e-01, 1.69954970e-01, 6.88722208e-02, 2.05113500e-01,
          1.10703677e-01, 1.42042622e-01, 1.11134671e-01, 1.93205565e-01,
          8.51497650e-02, 1.45825848e-01, 9.00844112e-02 ]
      - [ 1.46747634e-01, 1.24681592e-01, 2.03376502e-01, 2.09480852e-01,
          7.96164051e-02, 0., 0., 0., 0., 1.45493802e-02, 3.02904230e-02,
          1.82353303e-01, 2.16471165e-01, 7.68182874e-02, 8.06962699e-02,
          8.67715701e-02, 8.89858529e-02, 7.49040991e-02, 7.66121447e-02,
          1.48906872e-01, 2.38611519e-01, 1.15231141e-01, 2.97490731e-02,
          0., 1.87464897e-02, 0., 0., 6.20604828e-02, 2.22378299e-01,
          1.29281223e-01, 1.15442522e-01, 9.40610915e-02, 1.17930286e-01,
          7.55611658e-02, 8.86702165e-02, 0., 2.52238601e-01,
          1.53435364e-01, 1.30935162e-01, 9.50788632e-02, 1.42797157e-01,
          2.12290242e-01, 1.23915829e-01, 4.95350771e-02, 7.52784163e-02,
          0., 9.97679010e-02, 9.36144963e-02, 9.73479524e-02,
          1.03775203e-01, 1.67987436e-01, 1.48811340e-01, 1.15447387e-01,
          1.39109477e-01, 9.16302204e-02, 6.57200292e-02, 1.97262421e-01,
          1.16315663e-01, 1.92666918e-01, 1.86252072e-01, 2.45109722e-01,
          1.00056052e-01, 7.71067962e-02, 1.28312241e-02 ]
      - [ 1.04761392e-01, 1.26964927e-01, 2.68511742e-01, 1.14303008e-01,
          4.55310233e-02, 0., 0., 1.00846134e-01, 2.38906387e-02,
          1.07383169e-02, 1.31371349e-01, 2.05931589e-01, 8.09493139e-02,
          0., 1.00012757e-01, 6.77396283e-02, 1.55289128e-01,
          7.87754804e-02, 8.51225927e-02, 5.48133142e-02, 2.30640754e-01,
          1.08358137e-01, 2.47214623e-02, 0., 1.97833274e-02, 0.,
          7.91435167e-02, 1.45641923e-01, 2.23325476e-01, 1.46081522e-01,
          1.09095022e-01, 6.71055764e-02, 7.06530586e-02, 2.08099917e-01,
          9.94808152e-02, 0., 1.06919974e-01, 1.12775847e-01,
          1.27695858e-01, 1.19399369e-01, 1.31880730e-01, 1.74554899e-01,
          2.34388217e-01, 0., 1.76159769e-01, 0., 1.10336073e-01, 0.,
          1.07408613e-01, 9.06080529e-02, 1.43225625e-01, 1.76053569e-01,
          1.20994516e-01, 1.75137430e-01, 1.61327302e-01, 1.55578986e-01,
          1.90438673e-01, 9.35045034e-02, 1.30016595e-01, 9.60996449e-02,
          1.93784758e-01, 1.36685148e-01, 1.38928711e-01, 0. ]
      - [ 1.71561673e-01, 1.56988665e-01, 2.14743420e-01, 1.98894054e-01,
          6.61023930e-02, 0., 0., 0., 0., 6.24880847e-03, 1.80414110e-01,
          2.07486078e-01, 1.03887521e-01, 5.61448820e-02, 1.01499237e-01,
          1.26339972e-01, 1.20077789e-01, 9.31210965e-02, 6.95920959e-02,
          2.02551022e-01, 1.24852426e-01, 1.13918006e-01, 9.21201780e-02,
          0., 3.04132011e-02, 3.12822461e-02, 0., 7.42671713e-02,
          1.16895735e-01, 1.53050676e-01, 1.35901079e-01, 7.33044520e-02,
          5.68371974e-02, 9.37228650e-02, 1.12392634e-01, 1.27201378e-01,
          1.55309856e-01, 2.12838173e-01, 1.31258413e-01, 1.12059221e-01,
          1.62028849e-01, 2.29817331e-01, 7.50110596e-02, 4.15223092e-02,
          1.19740553e-01, 9.05895531e-02, 7.70673379e-02, 1.04555599e-01,
          1.11049302e-01, 1.20523408e-01, 1.98220819e-01, 0.,
          3.17517444e-02, 8.74018297e-02, 1.14261456e-01, 1.14645384e-01,
          1.60878330e-01, 1.86647743e-01, 2.39760116e-01, 1.31695777e-01,
          1.72860473e-01, 1.34676874e-01, 9.83145162e-02, 7.46318102e-02 ]
      - [ 9.53935534e-02, 1.44081742e-01, 2.35244721e-01, 1.13688186e-01,
          7.98881724e-02, 0., 0., 0., 0., 3.09210317e-03, 8.02015364e-02,
          1.97485641e-01, 1.65853485e-01, 6.86899573e-02, 7.74042159e-02,
          6.68744668e-02, 8.26336965e-02, 6.92762583e-02, 3.41195017e-02,
          1.06768839e-01, 2.63288230e-01, 5.69301769e-02, 1.41697973e-02,
          0., 4.60745730e-02, 0., 0., 8.26955140e-02, 2.11605385e-01,
          1.97276026e-01, 8.18616450e-02, 1.34858876e-01, 8.54907706e-02,
          1.35798797e-01, 1.57835156e-01, 0., 1.95618868e-01,
          1.81510270e-01, 1.23491749e-01, 1.61477819e-01, 1.69243544e-01,
          1.93516910e-01, 0., 4.89039347e-02, 1.41308159e-01, 0.,
          1.03104770e-01, 8.92084315e-02, 9.56271067e-02, 8.21179152e-02,
          1.35269508e-01, 1.84466273e-01, 3.56513038e-02, 1.30473748e-01,
          1.51550889e-01, 1.07846200e-01, 1.04355752e-01, 2.03379348e-01,
          1.93644151e-01, 1.84136748e-01, 2.45924875e-01, 0.,
          8.50709602e-02, 1.00710660e-01 ]
      - [ 1.80433080e-01, 1.79389626e-01, 1.11346476e-01, 1.16552018e-01,
          8.05839822e-02, 0., 0., 0., 0., 0., 1.08851492e-01,
          1.36782616e-01, 1.63637102e-01, 7.30810761e-02, 9.68126357e-02,
          1.26417950e-01, 9.14191678e-02, 6.00191653e-02, 8.92250314e-02,
          1.33822411e-01, 2.26458997e-01, 1.42316610e-01, 1.39862290e-02,
          0., 0., 0., 0., 0., 1.78789690e-01, 2.00727671e-01,
          1.56594768e-01, 8.67100582e-02, 1.30366325e-01, 1.31530732e-01,
          3.77962254e-02, 0., 1.81670770e-01, 1.67625204e-01,
          9.30965617e-02, 1.65738314e-01, 1.80520415e-01, 2.27461070e-01,
          1.00831322e-01, 0., 7.01000690e-02, 1.03570677e-01,
          7.10365996e-02, 2.41103433e-02, 0., 1.20335951e-01,
          1.18343264e-01, 1.61827132e-01, 1.45227805e-01, 1.70336589e-01,
          1.49647534e-01, 1.82995766e-01, 1.64448023e-01, 1.12160861e-01,
          1.48872465e-01, 1.82508960e-01, 1.38548389e-01, 2.20717669e-01,
          1.21294156e-01, 1.17432140e-01 ]
      - [ 1.14632539e-01, 1.74620628e-01, 2.29845718e-01, 1.83938369e-01,
          1.47902682e-01, 0., 0., 0., 3.25391851e-02, 3.70073393e-02,
          1.73069507e-01, 1.79381669e-01, 1.18732519e-01, 9.69468653e-02,
          6.67794943e-02, 1.00514494e-01, 1.01583928e-01, 6.76715150e-02,
          7.13716447e-02, 2.03834951e-01, 1.86794698e-01, 1.45384073e-01,
          3.29621658e-02, 0., 0., 0., 0., 7.50317797e-02, 2.42339596e-01,
          1.64247185e-01, 1.49623454e-01, 1.37771815e-01, 1.06685691e-01,
          9.68529209e-02, 7.91194290e-02, 7.88801312e-02, 2.11865187e-01,
          1.26396939e-01, 8.00315067e-02, 1.42670304e-01, 1.93773717e-01,
          1.74503103e-01, 8.15563574e-02, 0., 7.17454553e-02,
          9.08896849e-02, 2.82913204e-02, 7.89976642e-02, 7.96959847e-02,
          1.10051125e-01, 1.19808197e-01, 1.34110138e-01, 1.10982850e-01,
          1.15582772e-01, 1.67109072e-01, 1.29723519e-01, 1.52652636e-01,
          1.32165253e-01, 2.00545892e-01, 1.88316941e-01, 1.39325678e-01,
          8.87662545e-02, 5.92762902e-02, 9.69217345e-02 ]
      - [ 1.83129624e-01, 1.09872751e-01, 3.22968900e-01, 0., 0., 0., 0.,
          0., 5.77785447e-02, 7.75507092e-02, 8.11938196e-02,
          2.15303779e-01, 1.57700494e-01, 7.94456527e-02, 7.16579929e-02,
          1.87597554e-02, 1.29930720e-01, 6.04719147e-02, 7.78861046e-02,
          1.49065614e-01, 1.87669083e-01, 4.33031134e-02, 2.71602720e-02,
          0., 6.37857839e-02, 4.87373658e-02, 0., 1.05406418e-01,
          1.81691661e-01, 0., 9.95960757e-02, 9.41512734e-02,
          7.25115016e-02, 9.08175334e-02, 2.11502299e-01, 7.61322603e-02,
          1.66597366e-01, 1.22450970e-01, 1.66244358e-01, 1.20636582e-01,
          1.62082642e-01, 2.74943024e-01, 6.25000224e-02, 1.05825573e-01,
          7.73319304e-02, 0., 1.17331371e-01, 9.12567303e-02,
          1.37360513e-01, 1.09969169e-01, 1.22405097e-01, 1.11965992e-01,
          0., 0., 1.91626742e-01, 1.30685866e-01, 1.99723229e-01,
          1.38719618e-01, 1.90719634e-01, 7.26430789e-02, 1.18237831e-01,
          2.06838295e-01, 7.07168728e-02, 1.62049472e-01 ]
      - [ 2.24673614e-01, 2.17204422e-01, 2.03689039e-01, 7.51628950e-02,
          7.44217411e-02, 5.18752933e-02, 0., 0., 8.64362717e-02,
          3.42340656e-02, 1.40345603e-01, 1.07902661e-01, 1.63667783e-01,
          1.24958657e-01, 9.55822319e-02, 1.22179359e-01, 1.45123735e-01,
          1.03311710e-01, 0., 7.72435218e-02, 3.00941914e-01, 0.,
          2.50567701e-02, 3.74686122e-02, 0., 0., 0., 0., 1.32872880e-01,
          2.23449871e-01, 1.78301170e-01, 1.87599435e-01, 8.37006122e-02,
          2.50567701e-02, 5.79260774e-02, 0., 1.22644573e-01,
          1.36937022e-01, 1.27945572e-01, 1.19959451e-01, 2.10602790e-01,
          2.01145351e-01, 1.74308896e-01, 0., 0., 5.28839864e-02,
          8.48129839e-02, 0., 9.99550596e-02, 5.16558550e-02, 0.,
          1.09679557e-01, 1.17497735e-01, 2.88798332e-01, 1.70726985e-01,
          1.20103829e-01, 1.89393297e-01, 1.55318126e-01, 9.11256820e-02,
          1.09812394e-01, 0., 1.31809473e-01, 1.08292714e-01, 0. ]
      - [ 1.81952596e-01, 2.36291111e-01, 2.41494939e-01, 1.18423589e-01,
          1.04460925e-01, 0., 0., 0., 5.57274185e-02, 4.46476527e-02,
          1.09156810e-01, 1.41283706e-01, 2.22976148e-01, 6.17558025e-02,
          1.34814337e-01, 1.23530053e-01, 2.24047899e-01, 1.12721622e-01,
          1.17431812e-01, 1.28831342e-01, 2.08368257e-01, 0., 0., 0.,
          5.57274185e-02, 0., 0., 7.95559213e-02, 2.01511711e-01,
          1.52659625e-01, 1.79776147e-01, 1.44142956e-01, 1.39993215e-02,
          8.12137052e-02, 0., 0., 1.26367033e-01, 1.45903140e-01,
          1.21454746e-01, 1.20928630e-01, 2.42140919e-01, 1.66984901e-01,
          1.72971785e-01, 0., 0., 5.34811057e-02, 1.17719797e-02,
          7.18684047e-02, 0., 7.68081918e-02, 0., 0., 1.34899527e-01,
          1.84134498e-01, 2.18677342e-01, 1.85949713e-01, 1.62729681e-01,
          1.26282290e-01, 1.16491348e-01, 8.92029107e-02, 1.75368011e-01,
          0., 5.15201949e-02, 7.01676160e-02 ]
      - [ 8.21035057e-02, 1.55848920e-01, 1.92394763e-01, 1.74663052e-01,
          8.62427726e-02, 0., 0., 0., 0., 7.00146183e-02, 1.66875288e-01,
          2.15946794e-01, 7.54239932e-02, 9.28791463e-02, 0.,
          7.36222416e-02, 1.27650425e-01, 1.33128136e-01, 1.42572060e-01,
          5.10357544e-02, 2.08484337e-01, 7.79191628e-02, 5.10827824e-03,
          0., 0., 0., 0., 8.69215280e-02, 1.91256881e-01, 7.47050419e-02,
          1.26039967e-01, 8.58112723e-02, 1.00721337e-01, 2.04252601e-01,
          1.67383537e-01, 1.14793293e-01, 1.58063903e-01, 9.11724865e-02,
          1.06692404e-01, 1.28688619e-01, 1.72669113e-01, 1.93795800e-01,
          1.52660608e-01, 0., 2.05655500e-01, 7.06375539e-02,
          9.22744647e-02, 6.67368174e-02, 0., 1.19910583e-01,
          1.60676107e-01, 1.59687668e-01, 1.27049133e-01, 1.04546145e-01,
          1.29891887e-01, 1.04994752e-01, 1.51371717e-01, 1.67442933e-01,
          1.95163518e-01, 2.29587838e-01, 1.56391904e-01, 0.,
          9.26143900e-02, 1.21396519e-01 ]
      - [ 1.38901755e-01, 1.55858353e-01, 1.68408394e-01, 8.28858912e-02,
          7.95536786e-02, 0., 0., 0., 0., 4.43469100e-02, 1.58217549e-01,
          1.38665885e-01, 6.20669574e-02, 9.40390229e-02, 1.08267374e-01,
          1.42539963e-01, 1.25060990e-01, 1.06496394e-01, 0.,
          8.79719779e-02, 1.96457505e-01, 2.07023650e-01, 1.45159345e-02,
          0., 0., 0., 0., 9.10661519e-02, 1.16510592e-01, 1.77596286e-01,
          1.89085573e-01, 0., 1.41433060e-01, 1.59547076e-01,
          7.87854642e-02, 0., 1.94153339e-01, 1.12761609e-01,
          1.27258524e-01, 1.63946450e-01, 1.79298505e-01, 2.12026924e-01,
          1.17566653e-01, 1.11869790e-01, 7.48200417e-02, 8.43475163e-02,
          0., 8.77108723e-02, 7.55241886e-02, 8.60737115e-02,
          1.86742738e-01, 1.21486321e-01, 1.50080264e-01, 1.78451687e-01,
          1.54178068e-01, 1.58579543e-01, 1.57903790e-01, 1.53038219e-01,
          1.37632161e-01, 1.28993273e-01, 1.76205322e-01, 2.07692802e-01,
          1.11395739e-01, 1.13078535e-01 ]
      - [ 8.84509310e-02, 3.32571357e-01, 1.27428278e-01, 0., 0., 0., 0.,
          0., 0., 1.78336695e-01, 9.03407112e-02, 9.24590081e-02,
          8.91289935e-02, 0., 4.83493209e-02, 0., 7.54788145e-02,
          1.58069119e-01, 1.53821856e-01, 1.74066618e-01, 1.54563636e-01,
          1.22083493e-01, 8.14781636e-02, 0., 5.68161048e-02,
          1.49745449e-01, 1.44046158e-01, 1.67343333e-01, 2.27103531e-01,
          1.61735967e-01, 9.35062617e-02, 7.55825192e-02, 7.01707080e-02,
          1.20101668e-01, 7.53146857e-02, 0., 6.97923079e-02, 0.,
          2.91537941e-02, 2.63466597e-01, 2.09914535e-01, 9.16912630e-02,
          0., 0., 7.62956515e-02, 8.57603848e-02, 0., 1.25307724e-01,
          1.22683316e-01, 6.94846213e-02, 1.14701994e-01, 1.78687871e-01,
          1.46805555e-01, 1.47312775e-01, 1.24069333e-01, 1.69886276e-01,
          1.61432296e-01, 1.16349250e-01, 1.70706019e-01, 1.49615467e-01,
          1.33566663e-01, 9.29142311e-02, 1.12196319e-01, 2.13787079e-01 ]
      - [ 6.28465936e-02, 2.95470148e-01, 2.21415803e-01, 5.75788878e-02,
          4.42082472e-02, 0., 2.16254313e-02, 0., 0., 2.39320710e-01,
          1.69584379e-01, 2.78247315e-02, 0., 0., 0., 0., 1.22619659e-01,
          1.21920956e-02, 2.52837408e-02, 1.23519413e-01, 2.22272083e-01,
          1.08252190e-01, 1.08691476e-01, 4.93209474e-02, 1.20431177e-01,
          0., 0., 0., 2.56438375e-01, 2.18582690e-01, 1.47686943e-01,
          1.71188235e-01, 1.12937987e-01, 2.06347421e-01, 1.40066072e-01,
          1.12257898e-01, 3.51549685e-02, 9.82090682e-02, 4.66325656e-02,
          1.18208252e-01, 2.21801952e-01, 2.05380589e-01, 6.00674488e-02,
          0., 0., 0., 0., 0., 1.37940332e-01, 1.46899894e-01,
          9.63435322e-02, 1.12286389e-01, 1.19117841e-01, 8.96141753e-02,
          9.82877165e-02, 1.00155979e-01, 1.93278894e-01, 1.74161270e-01,
          2.07810894e-01, 1.82658255e-01, 2.15750933e-02, 8.63226205e-02,
          6.73330501e-02, 1.04408726e-01 ]
      - [ 8.66373181e-02, 3.13087732e-01, 0., 0., 0., 0., 0., 0.,
          4.70142551e-02, 1.69383690e-01, 7.62250125e-02, 8.27069730e-02,
          3.90587710e-02, 0., 2.58149039e-02, 6.61100522e-02, 0.,
          2.07757622e-01, 7.27869570e-02, 5.83892986e-02, 2.58177429e-01,
          9.25127938e-02, 9.57045257e-02, 0., 8.47940296e-02,
          1.31993011e-01, 6.35768324e-02, 2.10697398e-01, 2.32092246e-01,
          1.60221666e-01, 7.72162527e-02, 1.07240371e-01, 1.13138266e-01,
          1.63881078e-01, 0., 0., 7.26198703e-02, 0., 6.93685785e-02,
          2.80229479e-01, 1.74985513e-01, 7.42711574e-02, 0.,
          5.12708314e-02, 1.02946632e-01, 0., 7.10735694e-02,
          1.16203301e-01, 9.87858176e-02, 4.33279276e-02, 1.25409469e-01,
          1.71626478e-01, 1.87157944e-01, 1.07323512e-01, 1.14178315e-01,
          1.65645361e-01, 1.87802970e-01, 1.18892014e-01, 1.61160395e-01,
          1.51549563e-01, 1.59518003e-01, 1.03981405e-01, 1.38571471e-01,
          2.10304916e-01 ]
      - [ 1.71441644e-01, 2.71833390e-01, 2.18798980e-01, 0.,
          5.07689454e-02, 0., 0., 1.25015840e-01, 1.39797807e-01,
          2.04913050e-01, 1.04152411e-01, 0., 0., 0., 0., 0.,
          2.30510935e-01, 2.59167627e-02, 0., 1.54241741e-01,
          1.19415060e-01, 9.27743241e-02, 1.06592461e-01, 0., 0., 0., 0.,
          0., 2.55829841e-01, 1.81661367e-01, 1.45124763e-01,
          1.69958547e-01, 1.05072595e-01, 2.42964923e-01, 1.50891468e-01,
          1.27833828e-01, 1.25827178e-01, 1.15479775e-01, 1.30539909e-01,
          1.16863541e-01, 1.83200493e-01, 1.75206766e-01, 1.76713124e-01,
          0., 0., 0., 0., 0., 0., 9.07682925e-02, 9.36641768e-02,
          7.60851800e-02, 1.18857637e-01, 6.44770265e-02, 0.,
          9.29855928e-02, 2.44052291e-01, 2.14839950e-01, 1.92775354e-01,
          1.92887530e-01, 0., 6.06512651e-02, 0., 0. ]
      - [ 3.01793739e-02, 2.25955933e-01, 2.75611848e-01, 0.,
          3.68943363e-02, 4.47905958e-02, 0., 0., 0., 1.11675337e-01,
          1.90809831e-01, 1.09813668e-01, 2.80514788e-02, 1.39601752e-02,
          2.08922364e-02, 0., 1.02803864e-01, 1.31760016e-01, 0.,
          1.29797623e-01, 2.19254375e-01, 9.66485031e-03, 9.69699547e-02,
          7.12428913e-02, 1.14251226e-01, 4.37081605e-02, 0., 0.,
          2.77828574e-01, 2.04103872e-01, 1.39997736e-01, 1.26332849e-01,
          8.97371769e-02, 1.32464007e-01, 1.29612640e-01, 0.,
          7.82728717e-02, 5.66422828e-02, 9.22697261e-02, 2.23295763e-01,
          2.42280170e-01, 2.52710711e-02, 0., 0., 0., 9.42818746e-02,
          1.06018461e-01, 1.35780588e-01, 5.83964437e-02, 1.07828975e-01,
          1.23190969e-01, 1.43878296e-01, 2.03841195e-01, 1.40451312e-01,
          7.68555105e-02, 1.72429010e-01, 1.50520936e-01, 1.51020750e-01,
          2.19121084e-01, 1.99802101e-01, 6.49040192e-02, 5.05204424e-02,
          1.04081877e-01, 1.50716797e-01 ]
      - [ 1.42072022e-01, 2.80038327e-01, 2.48509333e-01, 7.12909997e-02,
          2.43714228e-02, 1.12649284e-01, 7.49268308e-02, 7.04811588e-02,
          1.13668509e-01, 1.74186155e-01, 1.57748520e-01, 0., 0., 0., 0.,
          0., 2.59494334e-01, 4.25762609e-02, 0., 8.99741128e-02,
          8.62990841e-02, 1.01053700e-01, 0., 0., 0., 0., 0.,
          1.03498213e-01, 2.26321116e-01, 1.72522739e-01, 1.69930622e-01,
          1.31724983e-01, 5.88747412e-02, 2.25948751e-01, 2.34894022e-01,
          6.74295276e-02, 1.23485684e-01, 5.92882037e-02, 2.08081812e-01,
          8.04494023e-02, 1.75517723e-01, 2.17730418e-01, 1.53019086e-01,
          0., 0., 0., 0., 0., 7.21865222e-02, 0., 1.20305099e-01,
          3.49735543e-02, 2.57759057e-02, 0., 4.42516543e-02,
          1.06124796e-01, 2.00165093e-01, 2.65847027e-01, 2.18005285e-01,
          1.34398669e-01, 0., 3.75203378e-02, 6.84744790e-02,
          8.99529010e-02 ]
      - [ 7.41953552e-02, 3.36097211e-01, 1.90353617e-01, 0.,
          2.65415218e-02, 0., 0., 3.87151390e-02, 1.85265049e-01,
          1.25597447e-01, 1.53504938e-01, 4.88023460e-02, 0., 0., 0., 0.,
          1.47622034e-01, 9.75014940e-02, 4.35816981e-02, 0.,
          2.15623662e-01, 1.04122721e-01, 5.25242537e-02, 8.12206194e-02,
          1.41093880e-01, 2.50245389e-02, 2.40242984e-02, 0.,
          2.62553781e-01, 1.29818946e-01, 2.40126774e-01, 1.63559690e-01,
          1.36517793e-01, 1.42671049e-01, 1.67564258e-01, 1.07001692e-01,
          9.05958638e-02, 9.27486271e-02, 1.30467787e-01, 1.38257280e-01,
          1.78957760e-01, 2.17430413e-01, 7.25282803e-02, 0., 0., 0., 0.,
          0., 1.28279224e-01, 9.43724141e-02, 1.36754930e-01,
          1.34449780e-01, 0., 0., 1.46707416e-01, 1.30917028e-01,
          1.95426419e-01, 1.93420261e-01, 2.42807925e-01, 6.68121725e-02,
          7.25896209e-02, 8.38581249e-02, 0., 8.77363607e-02 ]
      - [ 1.40258849e-01, 2.73990989e-01, 1.33561358e-01, 0., 0., 0.,
          3.70861627e-02, 0., 7.24660754e-02, 2.41623253e-01,
          8.58331397e-02, 0., 0., 5.89442849e-02, 0., 6.64318129e-02,
          2.86733747e-01, 1.22259587e-01, 1.04242958e-01, 1.67812824e-01,
          1.62377551e-01, 1.61219135e-01, 0., 0., 0., 0., 5.20946868e-02,
          2.67293513e-01, 1.44081473e-01, 1.28927797e-01, 1.31578684e-01,
          8.48177373e-02, 2.01348990e-01, 1.40051961e-01, 1.01166137e-01,
          1.13962829e-01, 1.46311194e-01, 1.57649919e-01, 1.36650532e-01,
          7.53187463e-02, 1.94688320e-01, 1.88896611e-01, 0., 0., 0., 0.,
          0., 0., 1.49370745e-01, 9.22256410e-02, 1.17107876e-01, 0., 0.,
          5.53342365e-02, 8.14627632e-02, 1.16128758e-01, 2.85571367e-01,
          1.51706770e-01, 2.00689510e-01, 1.75645024e-01, 0.,
          1.01560384e-01, 3.55319045e-02, 0. ]
      - [ 1.72345787e-01, 2.98167020e-01, 1.55727044e-01, 0.,
          6.79369867e-02, 0., 0., 9.82773006e-02, 1.54611319e-01,
          2.70307690e-01, 1.69019535e-01, 0., 0., 0., 0., 3.86976935e-02,
          1.36327162e-01, 4.30407226e-02, 1.11242861e-01, 1.31543621e-01,
          2.17420548e-01, 8.09332579e-02, 7.41144940e-02, 0.,
          1.52238950e-01, 3.87427807e-02, 3.39251347e-02, 2.00907066e-01,
          1.67740986e-01, 1.26583070e-01, 2.00529695e-01, 1.21139839e-01,
          1.68518409e-01, 2.05208033e-01, 6.38115928e-02, 3.80040146e-02,
          7.30856508e-02, 7.65179917e-02, 5.46662658e-02, 1.41840115e-01,
          2.01828122e-01, 7.13713765e-02, 0., 0., 1.83269307e-02, 0., 0.,
          0., 1.39862224e-01, 6.11801259e-02, 2.11837217e-01,
          1.35389090e-01, 0., 0., 0., 0., 2.71045685e-01, 2.43022248e-01,
          1.01597004e-01, 6.78945035e-02, 1.17117777e-01, 9.76783484e-02,
          1.29794076e-01, 1.02945372e-01 ]
      - [ 2.08051980e-01, 2.99127847e-01, 1.27195567e-01, 0.,
          3.00225075e-02, 0., 7.88765252e-02, 1.06587678e-01,
          1.89997435e-01, 2.91482091e-01, 0., 0., 0., 0., 0., 0.,
          1.17030285e-01, 8.86927545e-02, 1.11668110e-01, 2.02159122e-01,
          9.41235349e-02, 0., 9.70655233e-02, 7.25734085e-02,
          1.14099547e-01, 5.45372032e-02, 1.26799107e-01, 1.96269661e-01,
          1.76471889e-01, 1.23071730e-01, 1.68697491e-01, 1.28836021e-01,
          0., 2.25292742e-01, 2.25339189e-01, 1.55803323e-01,
          1.05182000e-01, 0., 8.13486129e-02, 8.34013075e-02,
          1.44232586e-01, 1.20877519e-01, 0., 0., 7.12848455e-02, 0., 0.,
          0., 1.60602063e-01, 3.88024114e-02, 1.24940634e-01, 0., 0., 0.,
          0., 0., 2.95126736e-01, 1.78481236e-01, 1.53502122e-01,
          1.34898454e-01, 8.99796560e-02, 9.82769579e-02, 1.03339531e-01,
          1.67706206e-01 ]
      - [ 2.75154740e-01, 2.47129053e-01, 0., 0., 0., 6.03944659e-02,
          1.07754268e-01, 1.09023720e-01, 2.31389105e-01, 2.30344176e-01,
          0., 0., 0., 0., 0., 0., 2.25266993e-01, 4.92679551e-02,
          2.01206416e-01, 9.98832211e-02, 6.06424026e-02, 0.,
          9.51798558e-02, 6.03168085e-02, 1.23760812e-01, 1.18791685e-01,
          2.03272492e-01, 1.09871715e-01, 1.30095288e-01, 1.26728117e-01,
          1.07061222e-01, 1.32372618e-01, 1.06851883e-01, 2.07181111e-01,
          2.17232704e-01, 7.02580735e-02, 5.63167483e-02, 0.,
          1.34646818e-01, 1.32372618e-01, 2.25266993e-01, 0., 0., 0., 0.,
          0., 0., 0., 1.16327375e-01, 9.46666673e-02, 0., 0., 0., 0., 0.,
          0., 3.33471239e-01, 2.15581253e-01, 5.66667244e-02, 0.,
          9.04780552e-02, 7.42455721e-02, 1.00493416e-01, 2.47907564e-01 ]
      - [ 2.22466528e-01, 2.64746308e-01, 1.39587969e-01, 0.,
          7.31747970e-02, 0., 7.72110075e-02, 1.05461240e-01,
          2.29604453e-01, 2.43988618e-01, 5.09543829e-02, 0., 0., 0., 0.,
          0., 1.15069501e-01, 3.68240178e-02, 1.25140414e-01,
          1.93452388e-01, 1.12715818e-01, 6.48020580e-02, 8.44960809e-02,
          4.99654971e-02, 1.13400161e-01, 6.21866547e-02, 1.94862500e-01,
          1.73975706e-01, 1.42340451e-01, 1.53429136e-01, 1.75173640e-01,
          7.71151558e-02, 1.63455814e-01, 1.63739398e-01, 2.26613000e-01,
          1.28016576e-01, 1.18715294e-01, 6.23772293e-02, 1.20529845e-01,
          9.27797854e-02, 1.97655171e-01, 7.22430572e-02, 0., 0.,
          7.30878338e-02, 0., 0., 0., 1.53061256e-01, 3.62359285e-02,
          1.07749924e-01, 0., 0., 0., 0., 0., 3.00692946e-01,
          1.38271078e-01, 1.90376282e-01, 1.23482443e-01, 7.07730874e-02,
          9.49625075e-02, 1.30531609e-01, 1.53520301e-01 ]
      - [ 1.21372290e-01, 3.41696978e-01, 1.58611000e-01, 0.,
          5.21701314e-02, 0., 0., 0., 8.05593207e-02, 2.43446514e-01,
          1.14616334e-01, 0., 2.24024914e-02, 0., 4.22287025e-02, 0.,
          1.92154065e-01, 5.15279621e-02, 1.23040132e-01, 1.97513744e-01,
          3.13880220e-02, 9.66893956e-02, 7.11445436e-02, 0.,
          1.68488547e-01, 0., 0., 0., 2.38843933e-01, 1.40380070e-01,
          2.33382449e-01, 1.84480682e-01, 2.07794979e-01, 7.54320174e-02,
          4.35953662e-02, 5.85291497e-02, 1.06630951e-01, 9.50102434e-02,
          1.52076289e-01, 1.84816986e-01, 2.21852079e-01, 8.36515725e-02,
          7.97343180e-02, 0., 0., 0., 5.08298837e-02, 3.13823074e-02,
          9.28159207e-02, 8.11759606e-02, 0., 1.51799306e-01,
          8.12527388e-02, 1.60806552e-01, 1.15602091e-01, 1.75334200e-01,
          1.45954207e-01, 1.67800605e-01, 2.01614946e-01, 2.19675004e-01,
          7.40958378e-02, 0., 0., 0. ]
      - [ 3.73813021e-03, 1.76762924e-01, 3.11653376e-01, 0.,
          3.82583588e-02, 0., 0., 0., 3.84983867e-02, 1.30455837e-01,
          1.88959330e-01, 1.10177964e-01, 0., 0., 0., 1.32948803e-02,
          1.06701195e-01, 1.05704620e-01, 7.66116902e-02, 1.34746760e-01,
          2.06218168e-01, 7.34199807e-02, 9.79058668e-02, 7.10086599e-02,
          1.13312632e-01, 4.37350310e-02, 0., 0., 2.78874427e-01,
          1.95382267e-01, 1.57157615e-01, 1.36550829e-01, 8.67458656e-02,
          1.40435278e-01, 1.23730607e-01, 7.85056800e-02, 0.,
          9.71083045e-02, 5.08282743e-02, 2.20278442e-01, 2.33301580e-01,
          3.35988477e-02, 0., 2.01394167e-02, 0., 9.23682153e-02,
          1.11424975e-01, 1.35433435e-01, 5.44279963e-02, 1.04358360e-01,
          1.07254244e-01, 2.03001127e-01, 1.66887715e-01, 7.96535537e-02,
          1.26766250e-01, 1.76631242e-01, 1.68108106e-01, 1.32066533e-01,
          1.59538090e-01, 2.43198991e-01, 6.38771951e-02, 8.99646431e-02,
          0., 1.59505203e-01 ]
      - [ 0., 1.00121893e-01, 1.18624277e-01, 2.41330847e-01,
          3.04174721e-01, 1.77466437e-01, 9.49943513e-02, 8.84524882e-02,
          7.90518597e-02, 1.03004508e-01, 9.10682678e-02, 2.08380476e-01,
          2.28615165e-01, 1.43758088e-01, 0., 2.77904030e-02,
          6.31526709e-02, 9.91196632e-02, 1.29902110e-01, 1.45777971e-01,
          2.22370908e-01, 9.14337188e-02, 2.34011244e-02, 0., 0., 0., 0.,
          8.59210044e-02, 3.36638957e-01, 2.27741405e-01, 9.65318680e-02,
          1.22922070e-01, 0., 0., 0., 0., 2.78763413e-01, 1.20160356e-01,
          8.82377401e-02, 4.45530005e-02, 7.01906234e-02, 3.06777470e-02,
          9.41862538e-02, 7.36935809e-02, 2.78123736e-01, 0.,
          1.73900034e-02, 0., 4.79065627e-02, 0., 0., 0., 0.,
          1.81046531e-01, 1.16625302e-01, 1.60290569e-01, 2.77650356e-02,
          1.10965915e-01, 1.78740412e-01, 7.68072903e-02, 0., 0., 0.,
          4.66878265e-02 ]
      - [ 1.63489670e-01, 9.82094258e-02, 9.87619236e-02, 2.12968111e-01,
          2.98585027e-01, 1.44506499e-01, 8.95822793e-02, 4.81103249e-02,
          5.47279082e-02, 1.71154708e-01, 1.37177631e-01, 1.96858957e-01,
          1.73224017e-01, 1.66743621e-01, 6.92880750e-02, 0.,
          1.19508319e-01, 7.96567127e-02, 1.19351402e-01, 1.99835852e-01,
          1.49244249e-01, 1.23051479e-01, 0., 0., 2.41961293e-02, 0., 0.,
          1.17483772e-01, 3.31741542e-01, 1.98235020e-01, 9.36738551e-02,
          8.54476988e-02, 0., 0., 0., 0., 2.11327508e-01, 1.21860288e-01,
          4.90686893e-02, 8.76782611e-02, 8.81938562e-02, 7.27458522e-02,
          7.54016787e-02, 1.35304362e-01, 2.75043339e-01, 0., 0., 0.,
          1.13488182e-01, 7.39966109e-02, 0., 3.19910496e-02, 0.,
          1.31037578e-01, 1.50130093e-01, 1.77284464e-01, 1.21641524e-01,
          1.23993970e-01, 1.44724652e-01, 1.08429372e-01, 0.,
          4.28523198e-02, 7.80459344e-02, 0. ]
      - [ 8.17730576e-02, 6.00543544e-02, 8.58398899e-02, 2.30667830e-01,
          3.60218406e-01, 9.82922465e-02, 9.05226246e-02, 5.66819869e-02,
          1.31740093e-01, 9.71806049e-02, 9.49750468e-02, 2.39107773e-01,
          1.89930499e-01, 1.49565309e-01, 6.26099035e-02, 0.,
          1.11050241e-01, 0., 1.56617671e-01, 1.95784613e-01,
          1.43596292e-01, 0., 0., 0., 0., 2.22424418e-02, 1.03396140e-01,
          1.30285472e-01, 2.85714954e-01, 2.16856092e-01, 1.14370607e-01,
          4.19039652e-02, 0., 0., 0., 0., 3.03727299e-01, 1.50213927e-01,
          8.00132155e-02, 9.96200517e-02, 5.98195717e-02, 7.72921070e-02,
          4.32598665e-02, 6.55320436e-02, 2.62943506e-01, 1.18583746e-01,
          8.89875740e-03, 0., 0., 6.25349134e-02, 0., 0., 4.96752411e-02,
          7.32298046e-02, 1.18350439e-01, 1.61043406e-01, 4.55672145e-02,
          1.85321078e-01, 1.16196275e-01, 1.16007067e-01, 0., 0.,
          6.59133270e-02, 7.70302787e-02 ]
      - [ 7.98001811e-02, 0., 8.69410336e-02, 8.33806768e-02,
          4.13314670e-01, 1.66504756e-01, 1.18916020e-01, 1.07024692e-01,
          0., 8.25550184e-02, 8.74434337e-02, 1.24651194e-01,
          2.98992544e-01, 1.51505843e-01, 1.16185866e-01, 7.00967759e-02,
          1.04000300e-01, 8.49085823e-02, 8.87945369e-02, 1.66626498e-01,
          1.62454888e-01, 1.80730224e-01, 1.22900922e-02, 0., 0.,
          2.60712225e-02, 0., 2.12022915e-01, 2.53150940e-01,
          2.31522158e-01, 1.72939345e-01, 7.53052682e-02, 0., 0., 0., 0.,
          2.76849687e-01, 1.01389483e-01, 2.52341032e-02, 9.27501395e-02,
          3.83782461e-02, 6.10284321e-02, 1.00191653e-01, 1.28061891e-01,
          2.39902332e-01, 0., 0., 0., 0., 0., 0., 0., 8.29234645e-02,
          1.43256173e-01, 9.11239013e-02, 1.09612435e-01, 3.97556238e-02,
          1.79144517e-01, 1.17772378e-01, 4.25982438e-02, 0., 0., 0., 0. ]
      - [ 2.32767344e-01, 1.93755791e-01, 0., 1.16073482e-01,
          2.89818347e-01, 1.32286906e-01, 0., 0., 2.31630281e-01,
          6.74160421e-02, 9.59455371e-02, 2.30856851e-01, 0., 0.,
          3.72372381e-02, 2.20377371e-01, 1.54740945e-01, 3.18518542e-02,
          9.70733464e-02, 1.59586668e-01, 1.87682912e-01, 7.74766579e-02,
          3.15610543e-02, 0., 7.89242014e-02, 0., 7.42607117e-02,
          1.88719153e-01, 1.94580376e-01, 1.74295366e-01, 1.69483319e-01,
          1.53587192e-01, 0., 0., 4.71718237e-02, 8.15371871e-02, 0.,
          1.60188571e-01, 1.11115694e-01, 8.21634904e-02, 1.02743268e-01,
          8.20369497e-02, 1.15401365e-01, 1.59009635e-01, 1.92858726e-01,
          4.71718237e-02, 0., 0., 9.20745134e-02, 7.20678568e-02, 0., 0.,
          3.54606807e-02, 0., 1.31639063e-01, 2.71109611e-01,
          1.51438162e-01, 1.64594963e-01, 8.12870041e-02, 0., 0., 0.,
          8.48843530e-02, 1.84764370e-01 ]
      - [ 1.12867221e-01, 2.28065386e-01, 1.73224628e-01, 1.63256139e-01,
          0., 1.58628643e-01, 1.11804917e-01, 0., 9.55298468e-02,
          5.55726476e-02, 1.28073886e-01, 1.32358044e-01, 0., 0.,
          1.65255710e-01, 1.39019564e-01, 1.42248869e-01, 1.05780169e-01,
          7.89548457e-02, 1.35964960e-01, 2.50514388e-01, 1.51331678e-01,
          7.62488246e-02, 0., 0., 0., 0., 0., 1.58816338e-01,
          2.27068394e-01, 2.90861279e-01, 1.16115667e-01, 9.60227475e-02,
          3.94824743e-02, 0., 2.20832020e-01, 5.63579947e-02,
          6.35999143e-02, 9.65157971e-02, 7.53705576e-02, 1.75452039e-01,
          1.30047008e-01, 1.85138866e-01, 2.38777548e-01, 1.18922323e-01,
          0., 0., 0., 8.12899396e-02, 3.06790154e-02, 5.97298928e-02, 0.,
          0., 2.07826599e-01, 2.13331833e-01, 1.36369422e-01,
          2.04710811e-01, 1.14258826e-01, 9.27051082e-02, 0., 0., 0.,
          9.38367620e-02, 0. ]
      - [ 1.59286931e-01, 3.17315906e-02, 1.79019377e-01, 2.23830312e-01,
          2.96233416e-01, 7.10456669e-02, 5.52325808e-02, 6.81153983e-02,
          1.01039559e-01, 1.12201944e-01, 1.55138373e-01, 1.95863873e-01,
          1.29079387e-01, 3.74233350e-02, 0., 1.15452372e-01,
          1.21273763e-01, 8.79974663e-02, 7.90001601e-02, 1.69107914e-01,
          1.04543574e-01, 9.82641876e-02, 1.25922970e-02, 0.,
          3.49330418e-02, 3.03262658e-02, 1.01063758e-01, 1.88797280e-01,
          2.41106004e-01, 6.96525425e-02, 1.13334022e-01, 9.90741625e-02,
          6.51018545e-02, 1.48994066e-02, 0., 1.41639784e-01,
          1.74636677e-01, 1.64515838e-01, 7.62328133e-02, 7.41402358e-02,
          7.00784549e-02, 9.46209058e-02, 7.32008293e-02, 2.62263805e-01,
          1.68957189e-01, 0., 0., 0., 6.81153983e-02, 8.96021500e-02,
          6.81662560e-02, 1.02825806e-01, 1.46416962e-01, 9.90011469e-02,
          1.96184069e-01, 1.67806536e-01, 1.79852024e-01, 1.08046539e-01,
          0., 5.65940365e-02, 1.29454002e-01, 4.88542058e-02,
          2.22985297e-01, 1.04281001e-01 ]
      - [ 1.97654873e-01, 2.19606012e-01, 1.97814718e-01, 1.48780525e-01,
          1.83121637e-01, 8.84654298e-02, 1.50582790e-01, 7.43902624e-02,
          7.43902624e-02, 1.40707940e-01, 1.76930860e-01, 1.66341692e-01,
          1.18320800e-01, 0., 0., 0., 1.92440867e-01, 1.49243310e-01,
          8.84654298e-02, 1.05203725e-01, 2.45086044e-01, 1.25109017e-01,
          1.57316253e-01, 0., 8.36654380e-02, 4.97477688e-02, 0.,
          7.43902624e-02, 2.27159113e-01, 1.53226629e-01, 2.50348240e-01,
          1.05203725e-01, 8.36654380e-02, 4.97477688e-02, 0.,
          7.43902624e-02, 1.96212858e-01, 0., 1.01493709e-01, 0.,
          1.32286683e-01, 1.42127886e-01, 8.84654298e-02, 7.43902624e-02,
          3.24034870e-01, 0., 0., 0., 0., 0., 0., 0., 7.43902624e-02, 0.,
          1.74646243e-01, 1.28847718e-01, 2.01329187e-01, 1.42127886e-01,
          8.84654298e-02, 0., 0., 0., 0., 0. ]
      - [ 1.75481588e-01, 1.39570206e-01, 2.51461178e-01, 2.36993849e-01,
          1.12517431e-01, 5.43824136e-02, 9.18490738e-02, 7.25001693e-02,
          7.34441057e-02, 1.51847407e-01, 8.95299241e-02, 7.52853975e-02,
          1.69344351e-01, 0., 0., 0., 1.43169299e-01, 5.99217601e-02,
          1.41716868e-01, 1.46633223e-01, 2.58002698e-01, 8.84616971e-02,
          6.52258918e-02, 0., 0., 0., 0., 0., 2.11836547e-01,
          2.41155103e-01, 1.61441237e-01, 1.52322680e-01, 1.05782099e-01,
          1.75541174e-02, 7.11408556e-02, 1.91342324e-01, 1.87429860e-01,
          0., 0., 8.30378607e-02, 1.44191518e-01, 1.52394727e-01,
          1.55091181e-01, 1.82056531e-01, 2.54016519e-01, 0., 0., 0., 0.,
          0., 0., 0., 6.97276816e-02, 2.26975471e-01, 2.00508520e-01,
          7.19155222e-02, 1.79545343e-01, 1.42276078e-01, 1.05243757e-01,
          7.68896639e-02, 3.78665477e-02, 0., 0., 0. ]
      - [ 1.37318239e-01, 1.22650415e-01, 2.67105013e-01, 1.66135132e-01,
          2.12676287e-01, 8.43820497e-02, 9.06451717e-02, 3.95501554e-02,
          8.94950554e-02, 1.26166105e-01, 1.76364914e-01, 1.58783406e-01,
          1.35877579e-01, 0., 8.39470550e-02, 0., 9.57801789e-02,
          8.00453275e-02, 1.42252594e-01, 1.81683660e-01, 1.27627000e-01,
          1.73861459e-01, 2.07022637e-01, 8.51123258e-02, 1.26108065e-01,
          8.33655298e-02, 8.04564357e-02, 1.07588232e-01, 3.08888793e-01,
          2.22513497e-01, 1.89338207e-01, 1.13948755e-01, 8.56348202e-02,
          1.83174387e-02, 4.31353524e-02, 2.29473740e-01, 1.80666745e-01,
          8.64134803e-02, 0., 6.62255734e-02, 5.41602150e-02,
          8.98790359e-02, 1.35326803e-01, 2.85693437e-01, 2.00365528e-01,
          0., 0., 0., 0., 0., 0., 0., 0., 0., 4.63179164e-02,
          1.10799365e-01, 1.51790962e-01, 6.26780018e-02, 0., 0., 0., 0.,
          0., 0. ]
      - [ 1.48006469e-01, 2.26126835e-01, 2.20177859e-01, 8.67416635e-02,
          0., 1.73318043e-01, 1.02838546e-01, 8.55338722e-02, 0.,
          1.28022954e-01, 1.62483916e-01, 0., 0., 0., 1.87464014e-01,
          1.20010816e-01, 1.60693064e-01, 1.23074122e-01, 0.,
          1.21329583e-01, 2.68723994e-01, 0., 4.89156693e-02, 0., 0., 0.,
          0., 0., 1.86513454e-01, 2.76107669e-01, 1.84986129e-01,
          5.72814010e-02, 8.43848065e-02, 0., 5.68127111e-02,
          8.29224586e-02, 8.19652453e-02, 1.21084951e-01, 2.99111623e-02,
          1.74671814e-01, 1.33719251e-01, 1.11893736e-01, 1.57915294e-01,
          2.00995058e-01, 1.22501567e-01, 0., 0., 0., 5.43453544e-02,
          5.56602031e-02, 9.24998596e-02, 1.05190210e-01, 7.47273043e-02,
          2.32845157e-01, 1.75225243e-01, 1.89747691e-01, 1.74372762e-01,
          1.72050789e-01, 5.29259406e-02, 1.17299259e-01, 8.88022482e-02,
          1.42092094e-01, 6.61797449e-02, 9.95640457e-02 ]
      - [ 2.30862275e-01, 1.64543942e-01, 2.46996880e-01, 1.39640570e-01,
          1.09168015e-01, 9.16372985e-02, 1.03183769e-01, 7.71478638e-02,
          7.71478638e-02, 1.04100853e-01, 1.05534054e-01, 1.08527176e-01,
          0., 0., 1.05013341e-01, 7.72389993e-02, 2.07807198e-01,
          6.44621104e-02, 1.04253329e-01, 7.25506842e-02, 2.74806172e-01,
          8.85277614e-02, 7.10778013e-02, 0., 0., 0., 0., 0.,
          1.83346674e-01, 2.53134251e-01, 1.79031745e-01, 1.19651191e-01,
          9.63594094e-02, 2.81655416e-02, 1.09371066e-01, 1.40558779e-01,
          7.48603344e-02, 1.05016574e-01, 9.83625054e-02, 8.76148492e-02,
          2.02199027e-01, 1.11333787e-01, 1.97148487e-01, 1.93719178e-01,
          0., 0., 0., 0., 7.75212422e-02, 5.67189045e-02, 0.,
          8.17980245e-02, 1.33621663e-01, 2.21958220e-01, 2.24736005e-01,
          1.19771808e-01, 1.87877983e-01, 1.47396475e-01, 1.10767059e-01,
          8.84063989e-02, 3.91818993e-02, 5.24070375e-02, 1.03996016e-01,
          6.33828938e-02 ]
      - [ 1.20069526e-01, 1.22361630e-01, 2.45376915e-01, 2.55624682e-01,
          8.49019736e-02, 0., 0., 0., 1.15423284e-01, 6.33852556e-02,
          1.37809306e-01, 0., 0., 0., 0., 0., 1.28079057e-01,
          1.29346207e-01, 8.42906684e-02, 2.69456178e-01, 1.38115749e-01,
          1.23080663e-01, 6.72116280e-02, 0., 7.90394396e-02, 0.,
          5.19189611e-02, 7.56687894e-02, 2.88572311e-01, 2.33401328e-01,
          1.74835280e-01, 8.65967199e-02, 1.04390241e-01, 7.43426085e-02,
          2.28895500e-01, 2.20897540e-01, 1.87976137e-02, 0., 0.,
          7.71315545e-02, 1.40311509e-01, 1.17670394e-01, 2.54034609e-01,
          2.45560706e-01, 8.49019736e-02, 0., 0., 0., 0., 0., 0., 0., 0.,
          1.99164808e-01, 1.76874742e-01, 1.17079780e-01, 2.04304740e-01,
          1.03100158e-01, 1.36016577e-01, 1.20094039e-01, 0., 0., 0., 0. ]
      - [ 1.53369039e-01, 1.20102905e-01, 1.02230690e-01, 1.69830754e-01,
          3.33970487e-01, 1.64399847e-01, 1.13599382e-01, 6.38430938e-02,
          1.23477466e-01, 1.44657910e-01, 1.19472839e-01, 1.66830808e-01,
          2.64760524e-01, 7.07709715e-02, 8.93445015e-02, 1.18376926e-01,
          1.98689345e-02, 1.34675294e-01, 1.32265627e-01, 2.07345113e-01,
          1.31252944e-01, 7.19452724e-02, 1.79947615e-02, 0.,
          1.94675010e-02, 0., 9.04001147e-02, 1.66878089e-01,
          2.73261040e-01, 1.88618422e-01, 9.43822116e-02, 1.41712829e-01,
          0., 0., 0., 0., 2.80393690e-01, 7.65268505e-02, 1.07654542e-01,
          4.11446095e-02, 4.47219387e-02, 6.97398633e-02, 9.86411944e-02,
          1.07896484e-01, 2.58601665e-01, 0., 0., 0., 7.12473243e-02,
          7.96013176e-02, 0., 0., 0., 9.91599634e-02, 1.16083778e-01,
          1.93616435e-01, 1.19034670e-01, 7.84271061e-02, 1.66124165e-01,
          0., 0., 0., 0., 3.81433405e-02 ]
      - [ 7.46817887e-02, 3.44297551e-02, 0., 2.08303243e-01,
          4.12115365e-01, 9.49637517e-02, 4.47106771e-02, 8.45325813e-02,
          7.54625127e-02, 8.38860497e-02, 8.97953734e-02, 2.89175361e-01,
          1.94350913e-01, 1.51294142e-01, 1.10109776e-01, 1.11850210e-01,
          1.23140126e-01, 7.48123676e-02, 2.15378508e-01, 1.97290152e-01,
          7.23107457e-02, 0., 0., 0., 0., 6.51033148e-02, 1.12756968e-01,
          2.29295760e-01, 2.39030302e-01, 1.46725550e-01, 1.27136096e-01,
          8.77738521e-02, 0., 0., 0., 0., 2.90254623e-01, 1.15930833e-01,
          1.06296912e-01, 7.74534121e-02, 0., 4.23205122e-02,
          6.96317032e-02, 1.31173253e-01, 2.25269645e-01, 0., 0., 0., 0.,
          0., 0., 2.77002640e-02, 0., 0., 1.30050957e-01, 1.25243008e-01,
          1.06708393e-01, 1.37785196e-01, 1.62050813e-01, 5.77609427e-02,
          0., 0., 5.53412400e-02, 5.28590046e-02 ]
      - [ 1.40082231e-02, 2.35644832e-01, 2.65749395e-01, 6.31344095e-02,
          9.66550857e-02, 8.11267570e-02, 1.18184216e-01, 8.19872171e-02,
          6.69175684e-02, 7.42515922e-02, 1.31796777e-01, 0., 0., 0., 0.,
          0., 1.74993739e-01, 1.22230470e-01, 2.61706598e-02, 0.,
          2.37104177e-01, 8.49760398e-02, 6.93311468e-02, 1.01875015e-01,
          1.07559174e-01, 1.26726374e-01, 1.53285965e-01, 2.10221022e-01,
          1.46175042e-01, 1.13555290e-01, 1.80572897e-01, 1.81556568e-01,
          5.17862365e-02, 0., 1.05322003e-01, 1.00946635e-01,
          2.34303370e-01, 1.75732926e-01, 6.40213042e-02, 0.,
          1.08737975e-01, 3.76205929e-02, 2.11706817e-01, 7.07073063e-02,
          0., 2.71779671e-02, 0., 0., 1.06654219e-01, 1.09169848e-01,
          1.52102649e-01, 1.28382415e-01, 1.22245066e-01, 7.94920623e-02,
          1.45193323e-01, 1.08928986e-01, 1.47163838e-01, 1.41668290e-01,
          2.00411797e-01, 2.10977256e-01, 1.88318714e-01, 6.41133636e-02,
          9.64374989e-02, 1.25023291e-01 ]
      - [ 9.82905179e-02, 2.64939755e-01, 1.66200653e-01, 0.,
          4.04002368e-02, 0., 0., 0., 1.05386116e-01, 1.37470976e-01,
          1.65816143e-01, 0., 0., 0., 0., 0., 1.87993780e-01,
          1.51432648e-01, 6.14206307e-02, 9.15226340e-02, 2.36844048e-01,
          1.47809863e-01, 1.69570401e-01, 0., 6.48281425e-02,
          8.82253647e-02, 1.69592917e-01, 2.01597631e-01, 1.26135081e-01,
          1.31157920e-01, 1.12266719e-01, 2.00943977e-01, 7.97081813e-02,
          1.13762543e-01, 1.32219240e-01, 9.06912610e-02, 7.98946992e-02,
          2.52558831e-02, 8.03400055e-02, 6.04598708e-02, 9.89960581e-02,
          1.59221873e-01, 2.24449039e-01, 0., 0., 0., 0., 0., 0.,
          8.13019723e-02, 1.79184973e-01, 1.95987791e-01, 2.01074362e-01,
          2.02972010e-01, 9.66834575e-02, 1.08538114e-01, 1.54380545e-01,
          1.11023515e-01, 2.09331587e-01, 1.28324404e-01, 1.62766084e-01,
          1.56296864e-01, 5.37687093e-02, 1.04789980e-01 ]
      - [ 8.65404457e-02, 2.51342505e-01, 2.09103808e-01, 5.65075167e-02,
          1.39195338e-01, 0., 9.65846702e-02, 5.73437661e-02,
          9.26345885e-02, 7.41445422e-02, 1.96324244e-01, 4.44919281e-02,
          0., 0., 0., 0., 2.01315910e-01, 6.37889132e-02, 0.,
          4.25349437e-02, 2.43126005e-01, 1.17139116e-01, 7.07586184e-02,
          9.49976966e-02, 0., 9.86165851e-02, 1.44415304e-01,
          1.70801207e-01, 1.74155891e-01, 1.68627605e-01, 1.90754756e-01,
          1.02764972e-01, 7.96091929e-02, 0., 1.40820086e-01,
          1.11924194e-01, 1.69776648e-01, 1.19391136e-01, 8.79684985e-02,
          5.88859282e-02, 8.57514367e-02, 6.59801662e-02, 1.52610928e-01,
          1.65895209e-01, 1.48559242e-01, 0., 0., 0., 1.08809561e-01,
          9.18677226e-02, 8.95858258e-02, 1.44778088e-01, 1.95524633e-01,
          1.97089493e-01, 1.91107512e-01, 9.71087888e-02, 8.12249929e-02,
          6.87174127e-02, 1.71465456e-01, 2.01429963e-01, 1.88494667e-01,
          1.48057863e-01, 7.63197765e-02, 5.15768826e-02 ]
      - [ 1.20691292e-01, 2.69113690e-01, 1.76039472e-01, 9.69058946e-02,
          6.96104318e-02, 9.28215012e-02, 8.21923930e-03, 7.06904754e-02,
          1.31293431e-01, 9.47338119e-02, 8.26086253e-02, 0., 0., 0., 0.,
          0., 1.25141114e-01, 1.33732960e-01, 0., 0., 2.02248022e-01,
          1.13626748e-01, 9.59962457e-02, 6.67276829e-02, 1.39843538e-01,
          1.21391870e-01, 1.42422229e-01, 1.19820289e-01, 2.00001910e-01,
          1.88733578e-01, 1.92893803e-01, 1.62278727e-01, 5.51841334e-02,
          4.41664606e-02, 1.15639180e-01, 1.46935225e-01, 2.35021412e-01,
          1.16700232e-01, 1.37584805e-01, 6.60442635e-02, 8.60647038e-02,
          1.11278474e-01, 1.49960220e-01, 1.76156878e-01, 0., 0., 0., 0.,
          1.31065995e-01, 4.64041382e-02, 1.49785310e-01, 1.62622496e-01,
          7.07538053e-02, 8.25195238e-02, 1.88089743e-01, 1.20191969e-01,
          9.07615349e-02, 1.48428306e-01, 2.10960224e-01, 1.76093757e-01,
          2.03837097e-01, 1.24465995e-01, 9.41108465e-02, 7.06904754e-02 ]
      - [ 1.28693759e-01, 2.88430363e-01, 1.64516568e-01, 0.,
          1.13770068e-01, 7.49532357e-02, 1.02003478e-01, 5.59260771e-02,
          9.53549221e-02, 6.95278868e-02, 1.22567013e-01, 7.61768967e-02,
          8.34123641e-02, 0., 0., 0., 1.67923614e-01, 4.68747281e-02, 0.,
          6.41087517e-02, 1.68381616e-01, 8.57643038e-02, 8.44291896e-02,
          1.53637558e-01, 9.64779928e-02, 4.60132435e-02, 1.66631296e-01,
          1.38737455e-01, 1.44888952e-01, 1.23411022e-01, 1.91863194e-01,
          1.72603518e-01, 6.82059973e-02, 0., 1.03443183e-01,
          1.15320370e-01, 2.46724799e-01, 1.92625299e-01, 9.08138901e-02,
          0., 1.08966254e-01, 1.00746207e-01, 1.66596532e-01,
          1.96551397e-01, 1.34703144e-01, 0., 0., 0., 4.49146144e-02,
          1.41282126e-01, 1.49313465e-01, 1.92610994e-01, 5.87528609e-02,
          3.82937975e-02, 1.43714041e-01, 1.07271425e-01, 1.28503844e-01,
          1.30170330e-01, 2.33428836e-01, 1.77209884e-01, 1.71432167e-01,
          8.03662464e-02, 1.14868425e-01, 9.42842737e-02 ]
      - [ 0., 3.40045333e-01, 0., 0., 0., 0., 0., 0., 7.31182173e-02,
          1.41773880e-01, 0., 0., 0., 0., 0., 0., 2.75219649e-01,
          2.32148007e-01, 5.01763634e-02, 7.49824941e-02, 7.73933902e-02,
          1.02682278e-01, 9.97569636e-02, 5.82411811e-02, 1.64220601e-01,
          1.98174506e-01, 0., 0., 7.57598132e-02, 1.04177035e-01,
          1.48001313e-01, 2.25527152e-01, 1.19262762e-01, 1.58200085e-01,
          1.59727082e-01, 1.05249643e-01, 1.43098652e-01, 6.25073612e-02,
          3.46838422e-02, 1.21634230e-01, 1.68746680e-01, 2.31241286e-01,
          2.53477454e-01, 0., 0., 0., 0., 0., 0., 1.25623137e-01,
          1.62041679e-01, 0., 1.61487207e-01, 1.21843606e-01,
          8.02897364e-02, 1.79339007e-01, 2.39037961e-01, 1.93225026e-01,
          1.88193947e-01, 7.49824941e-02, 6.65648282e-02, 0.,
          8.54206979e-02, 6.65648282e-02 ]
      - [ 1.42820850e-01, 2.88856059e-01, 2.21309572e-01, 7.51212463e-02,
          0., 0., 0., 5.45244478e-02, 0., 2.24814132e-01, 0., 0., 0., 0.,
          0., 0., 2.04207376e-01, 1.06793590e-01, 6.21599890e-02,
          1.15042962e-01, 7.45741799e-02, 0., 9.74645540e-02,
          1.02121197e-01, 7.17405304e-02, 1.20425522e-01, 0., 0.,
          1.14511281e-01, 1.81284726e-01, 2.20732301e-01, 1.94638625e-01,
          8.69899541e-02, 3.30999233e-02, 1.07839689e-01, 1.14010692e-01,
          1.77504763e-01, 5.36585338e-02, 1.19812362e-01, 1.19297579e-01,
          1.55329019e-01, 1.20002992e-01, 2.12220877e-01, 1.57439023e-01,
          0., 0., 0., 0., 7.12538734e-02, 8.25287700e-02, 1.00152805e-01,
          7.51632005e-02, 2.33968094e-01, 1.60187796e-01, 2.22773284e-01,
          7.55349621e-02, 2.18944326e-01, 1.80557758e-01, 1.59079835e-01,
          1.56674460e-01, 1.41515300e-01, 1.17786482e-01, 3.39749604e-02,
          8.20755437e-02 ]
      - [ 1.76340893e-01, 3.57666969e-01, 1.25502005e-01, 0., 0., 0.,
          3.06570251e-02, 0., 3.64575535e-02, 3.06570251e-02, 0., 0., 0.,
          0., 0., 0., 2.17783496e-01, 1.53203934e-01, 0., 0.,
          1.14088036e-01, 9.57124382e-02, 4.96178269e-02, 0.,
          9.69184786e-02, 8.27933326e-02, 7.76737854e-02, 9.73230824e-02,
          1.10645719e-01, 1.55516163e-01, 2.51114607e-01, 1.97588429e-01,
          1.04313634e-01, 6.14161566e-02, 1.63240939e-01, 8.70295689e-02,
          8.21889043e-02, 1.89751104e-01, 1.32915467e-01, 1.91368222e-01,
          2.33850986e-01, 1.19567312e-01, 2.44481087e-01, 8.30611661e-02,
          0., 0., 0., 0., 6.97360039e-02, 5.78569360e-02, 1.01035453e-01,
          1.16083145e-01, 0., 1.16149724e-01, 1.33611232e-01,
          2.29818493e-01, 2.72633463e-01, 1.02949098e-01, 1.60067439e-01,
          7.84684271e-02, 1.46078348e-01, 1.01141870e-01, 6.42567724e-02,
          7.85126761e-02 ]
      - [ 7.47043937e-02, 2.80599266e-01, 1.56201079e-01, 5.98755963e-02,
          4.23777774e-02, 0., 4.94420119e-02, 7.36594498e-02,
          1.10666409e-01, 2.06309885e-01, 4.65414524e-02, 5.01702838e-02,
          5.79071455e-02, 0., 0., 0., 2.42067635e-01, 9.16100070e-02,
          6.35104775e-02, 9.22284797e-02, 1.89506263e-01, 1.90196678e-01,
          1.05278336e-01, 1.07411571e-01, 6.01351410e-02, 7.71527318e-03,
          8.82542059e-02, 2.51379907e-01, 8.50759149e-02, 1.28519341e-01,
          1.87865764e-01, 8.83294567e-02, 9.37174261e-02, 1.12100489e-01,
          1.51743591e-01, 7.19313025e-02, 7.13389814e-02, 7.18850419e-02,
          7.69298598e-02, 6.06318004e-02, 1.10317186e-01, 1.15242034e-01,
          2.09914565e-01, 1.53142020e-01, 0., 1.17550949e-02, 0., 0.,
          4.87009399e-02, 1.06474854e-01, 1.47605538e-01, 1.94142491e-01,
          2.11443201e-01, 1.99643180e-01, 1.00090854e-01, 1.03685215e-01,
          1.41917795e-01, 1.28245384e-01, 1.72427073e-01, 1.64007530e-01,
          2.13990405e-01, 8.75599757e-02, 0., 1.08341888e-01 ]
      - [ 1.55668840e-01, 2.84446180e-01, 2.25869089e-01, 0., 0., 0., 0.,
          0., 1.61483824e-01, 1.81650862e-01, 1.46654263e-01, 0., 0., 0.,
          0., 0., 2.74557918e-01, 1.33053124e-01, 1.45490319e-01,
          1.03173286e-01, 7.28192851e-02, 1.02076314e-01, 3.55901681e-02,
          1.12897933e-01, 1.78873390e-01, 2.04922482e-01, 4.40435521e-02,
          0., 1.23682886e-01, 1.65954769e-01, 1.98928401e-01,
          1.33885175e-01, 4.79909964e-02, 4.03554551e-02, 7.73510188e-02,
          1.05040818e-01, 7.08928928e-02, 8.53643715e-02, 1.57491982e-01,
          0., 1.11783125e-01, 1.08221181e-01, 1.68378413e-01,
          7.39898980e-02, 0., 0., 0., 0., 3.66996303e-02, 1.30543247e-01,
          1.33510545e-01, 1.06428154e-01, 2.10048810e-01, 1.86933830e-01,
          1.62833437e-01, 9.27383453e-02, 1.79397181e-01, 1.41060412e-01,
          1.78300351e-01, 1.77352354e-01, 1.68494284e-01, 6.96339980e-02,
          0., 7.73172900e-02 ]
      - [ 1.20594092e-01, 3.01082402e-01, 2.15698242e-01, 0.,
          1.38486758e-01, 9.92628410e-02, 6.40294030e-02, 1.07343130e-01,
          1.25183508e-01, 1.61462680e-01, 1.28140986e-01, 5.96450828e-02,
          0., 0., 0., 0., 1.53931633e-01, 0., 9.09160897e-02, 0.,
          8.66382569e-02, 1.47891924e-01, 8.21343139e-02, 1.00218520e-01,
          1.24858327e-01, 1.55644700e-01, 1.97620481e-01, 1.14241630e-01,
          9.99200121e-02, 9.78183821e-02, 1.81871757e-01, 2.39632249e-01,
          7.66334832e-02, 0., 0., 1.17902003e-01, 2.52652079e-01,
          8.29271600e-02, 4.96958308e-02, 7.15304464e-02, 1.14849858e-01,
          8.95497352e-02, 2.06501722e-01, 9.57138091e-02, 0., 0., 0., 0.,
          7.93205798e-02, 2.02716678e-01, 1.73566505e-01, 6.02020100e-02,
          0., 0., 1.23326384e-01, 1.13193281e-01, 1.68866441e-01,
