%YAML:1.0
my_svm: !!opencv-ml-svm
   svm_type: C_SVC
   kernel: { type:RBF, gamma:5.3830000000000000e+00 }
   C: 2.6699999999999999e+00
   term_criteria: { epsilon:1.1920928955078125e-07, iterations:1000 }
   var_all: 64
   var_count: 64
   class_count: 10
   class_labels: !!opencv-matrix
      rows: 1
      cols: 10
      dt: i
      data: [ 0, 1, 2, 3, 4, 5, 6, 7, 8, 9 ]
   sv_total: 50
   support_vectors:
      - [ 7.39658475e-02, 1.60084501e-01, 2.70327151e-01, 1.73054948e-01,
          0., 0., 0., 0., 3.75689641e-02, 9.99243334e-02, 1.01436608e-01,
          4.24310490e-02, 0., 0., 1.16048388e-01, 1.58701181e-01,
          1.89366221e-01, 2.13720202e-02, 0., 5.42435944e-02,
          1.51907176e-01, 1.07401893e-01, 8.91857967e-02, 5.06556146e-02,
          1.30615711e-01, 2.00369313e-01, 0., 0., 1.84904397e-01,
          2.36774698e-01, 1.38465434e-01, 1.89977810e-01, 0.,
          2.11188514e-02, 0., 1.34735644e-01, 1.70930907e-01,
          2.23958150e-01, 1.92289159e-01, 1.33166716e-01, 1.67233676e-01,
          1.00537099e-01, 0., 0., 8.75978172e-02, 1.14727952e-01,
          7.29644969e-02, 1.70490425e-02, 1.41888842e-01, 1.35893658e-01,
          8.65959600e-02, 1.33390516e-01, 4.08313647e-02, 0.,
          4.22054492e-02, 1.87206060e-01, 1.63883194e-01, 2.11047530e-01,
          2.17614189e-01, 1.56616628e-01, 1.31435081e-01, 9.81545225e-02,
          9.52212960e-02, 1.33301750e-01 ]
      - [ 3.73492956e-01, 7.75712878e-02, 1.22851737e-01, 1.04563363e-01,
          0., 0., 0., 0., 0., 0., 0., 0., 0., 0., 0., 2.35251859e-01,
          2.42210343e-01, 1.45112593e-02, 0., 0., 0., 0., 0., 0., 0., 0.,
          0., 0., 3.76134180e-02, 1.16002880e-01, 1.55995384e-01,
          4.19100434e-01, 0., 0., 0., 0., 0., 1.76164955e-01,
          1.02573179e-01, 3.93357456e-01, 1.65285870e-01, 1.32469069e-02,
          0., 0., 0., 0., 0., 0., 0., 0., 0., 0., 0., 0., 0.,
          2.39499807e-01, 4.22699213e-01, 8.85080472e-02, 1.30610183e-01,
          1.21163525e-01, 0., 0., 0., 0. ]
      - [ 2.87002146e-01, 1.24784291e-01, 1.19341902e-01, 6.39419258e-02,
          0., 0., 0., 0., 0., 0., 0., 0., 0., 0., 3.70410644e-02,
          2.76259452e-01, 3.24225307e-01, 3.15865986e-02, 0., 0., 0., 0.,
          0., 0., 0., 0., 0., 0., 0., 7.54017904e-02, 1.62518665e-01,
          2.91128427e-01, 0., 9.44065899e-02, 9.34616551e-02,
          9.68348086e-02, 1.41595975e-01, 1.28471151e-01, 1.91681966e-01,
          2.60913223e-01, 3.10918182e-01, 5.77303469e-02, 0., 0.,
          6.50623068e-02, 0., 1.03476979e-01, 0., 0., 0., 6.70030341e-02,
          0., 0., 5.49819767e-02, 3.52262929e-02, 3.49855661e-01,
          3.00967604e-01, 4.03076522e-02, 1.63699642e-01, 1.14005990e-01,
          1.03951089e-01, 1.33783981e-01, 8.86863023e-02, 0. ]
      - [ 3.03564489e-01, 4.69892137e-02, 1.40889719e-01, 1.12689391e-01,
          3.51310186e-02, 0., 0., 0., 0., 0., 0., 0., 0., 0.,
          5.78397233e-03, 3.41623306e-01, 4.10191119e-01, 5.78397233e-03,
          0., 0., 0., 0., 0., 0., 0., 0., 0., 0., 1.17681965e-01,
          1.61923110e-01, 1.31129831e-01, 1.92293897e-01, 0., 0., 0., 0.,
          0., 1.02825932e-01, 1.72993004e-01, 3.82057339e-01,
          2.18396336e-01, 5.78397233e-03, 0., 0., 0., 0., 0., 0., 0., 0.,
          0., 0., 0., 0., 5.78397233e-03, 2.36663654e-01, 4.00857538e-01,
          1.34324744e-01, 9.24286097e-02, 1.22772478e-01, 0., 0., 0., 0. ]
      - [ 3.94498855e-01, 1.87049553e-01, 1.10268891e-01, 5.82564063e-02,
          0., 0., 0., 0., 0., 0., 0., 0., 0., 0., 5.06614102e-03,
          1.05911337e-01, 1.32145032e-01, 1.46169858e-02, 0., 0., 0., 0.,
          0., 0., 0., 0., 0., 0., 0., 1.57354027e-01, 1.01677686e-01,
          4.54627931e-01, 0., 0., 0., 0., 1.71025649e-01, 1.27687961e-01,
          1.74283504e-01, 1.89668462e-01, 3.58705342e-01, 2.50000563e-02,
          0., 0., 0., 0., 0., 0., 0., 0., 0., 0., 0., 0., 7.73950219e-02,
          3.27624559e-01, 3.28409791e-01, 1.46335348e-01, 1.23560145e-01,
          1.55133709e-01, 0., 0., 0., 0. ]
      - [ 2.41053373e-01, 3.08246702e-01, 9.36364532e-02, 0., 0., 0., 0.,
          0., 0., 0., 0., 0., 0., 2.07109198e-01, 1.23431087e-01,
          1.47765175e-01, 1.45942077e-01, 1.21671222e-01, 1.93955287e-01,
          1.84430435e-01, 0., 0., 0., 0., 0., 0., 0., 0., 2.62656242e-01,
          1.29113019e-01, 6.77355081e-02, 2.23803073e-01, 5.63796088e-02,
          0., 0., 0., 1.52663618e-01, 7.55476952e-02, 1.49572581e-01,
          3.38943839e-01, 2.48966455e-01, 0., 5.57046048e-02, 0., 0., 0.,
          0., 0., 0., 9.19469893e-02, 8.69385824e-02, 0., 0.,
          1.16119049e-01, 1.90497443e-01, 2.65944064e-01, 1.08685784e-01,
          1.21884033e-01, 1.82328388e-01, 2.42973134e-01, 0., 0., 0.,
          1.41705945e-01 ]
      - [ 1.34153023e-01, 8.12037364e-02, 1.22738354e-01, 1.66196406e-01,
          2.51710832e-01, 1.19688520e-02, 7.29403738e-03, 0., 0., 0., 0.,
          1.38514742e-01, 2.42668256e-01, 1.16781168e-01, 9.51748341e-02,
          9.37255546e-02, 8.77007544e-02, 1.32652298e-01, 1.72856152e-01,
          2.83503681e-01, 1.40616428e-02, 0., 0., 0., 0., 0., 0.,
          1.44639641e-01, 2.97861755e-01, 1.33807629e-01, 1.44393250e-01,
          0., 8.13367069e-02, 8.40195715e-02, 0., 9.47581977e-02,
          1.98690817e-01, 1.64981425e-01, 2.40415424e-01, 1.81548297e-01,
          0., 0., 0., 0., 1.60180822e-01, 1.10049583e-01, 1.18161634e-01,
          1.18045554e-01, 0., 0., 1.21536568e-01, 1.78468660e-01,
          4.05863672e-02, 0., 5.30756824e-02, 1.65972769e-01,
          8.55615661e-02, 1.76306814e-01, 2.33692780e-01, 1.98367789e-01,
          1.36752278e-01, 0., 0., 0. ]
      - [ 1.05926901e-01, 6.10467121e-02, 2.02935770e-01, 1.40211359e-01,
          1.42477542e-01, 0., 0., 0., 0., 0., 0., 1.52073205e-01,
          1.33378848e-01, 1.37319207e-01, 1.14741884e-01, 2.29368284e-02,
          1.54335439e-01, 2.10540637e-01, 2.37524673e-01, 5.87770753e-02,
          4.81352620e-02, 7.39721358e-02, 6.78401515e-02, 0., 0.,
          1.54543808e-02, 2.05939829e-01, 1.59904823e-01, 1.14699058e-01,
          1.30664408e-01, 1.38394475e-01, 6.19329326e-02, 1.90670252e-01,
          1.11146428e-01, 6.68717697e-02, 0., 8.38154703e-02,
          1.55868307e-01, 2.07817197e-01, 2.54744053e-01, 1.78358614e-01,
          3.61038782e-02, 0., 0., 0., 0., 9.90491882e-02, 1.81327999e-01,
          0., 9.83115584e-02, 0., 0., 9.26450491e-02, 1.78395763e-01,
          2.07035944e-01, 1.69078067e-01, 5.99397682e-02, 2.17031285e-01,
          1.84816405e-01, 7.34617412e-02, 1.67621106e-01, 1.16787910e-01,
          2.09497556e-01, 5.30092195e-02 ]
      - [ 2.25248057e-02, 1.78536668e-01, 1.56028792e-01, 2.40687087e-01,
          0., 0., 0., 0., 0., 0., 1.30695075e-01, 1.99216008e-01,
          1.18378565e-01, 1.01950720e-01, 9.51138288e-02, 1.12845667e-01,
          0., 3.41893494e-01, 9.93717536e-02, 0., 0., 0., 5.10633551e-02,
          0., 0., 3.00817136e-02, 7.37052411e-02, 2.37452284e-01,
          1.34285361e-01, 1.33495957e-01, 9.25733447e-02, 1.39341250e-01,
          1.28703654e-01, 1.52798787e-01, 0., 0., 1.61794066e-01,
          1.51279539e-01, 1.68715581e-01, 1.95918679e-01, 2.09658235e-01,
          1.05676830e-01, 0., 0., 5.02764173e-02, 8.99822861e-02,
          1.07432984e-01, 8.51042792e-02, 0., 4.99639846e-02, 0., 0.,
          2.22279772e-01, 1.52123570e-01, 1.51036158e-01, 0.,
          1.81302935e-01, 2.39793554e-01, 1.13276668e-01, 7.98064321e-02,
          2.79957652e-01, 1.52084809e-02, 7.48985820e-03, 0. ]
      - [ 7.73269385e-02, 5.97089119e-02, 1.04173757e-01, 2.00080305e-01,
          2.18171075e-01, 1.04120262e-01, 0., 0., 0., 0., 0.,
          9.32820216e-02, 1.70903876e-01, 1.55323997e-01, 6.43223226e-02,
          1.03769220e-01, 8.25376138e-02, 9.92270485e-02, 1.42034456e-01,
          2.10403711e-01, 9.84385759e-02, 6.21790290e-02, 0.,
          5.96879013e-02, 6.04382232e-02, 0., 0., 6.96262866e-02,
          2.52448380e-01, 2.29168952e-01, 1.40743926e-01, 1.51106164e-01,
          1.53774068e-01, 1.39369935e-01, 9.53529999e-02, 0.,
          1.31485388e-01, 2.24290878e-01, 2.27786526e-01, 2.12208584e-01,
          5.06584393e-03, 0., 0., 0., 4.11987379e-02, 1.08213812e-01,
          9.13136974e-02, 1.48853973e-01, 0., 8.37171003e-02,
          1.06916174e-01, 1.08333923e-01, 9.75324064e-02, 1.23895153e-01,
          1.19322032e-01, 1.12888932e-01, 1.57141700e-01, 7.89562389e-02,
          2.77636737e-01, 2.41186574e-01, 1.52351022e-01, 5.36481850e-02,
          0., 6.06891029e-02 ]
      - [ 0., 1.39882505e-01, 1.52863771e-01, 2.05542877e-01,
          5.99010400e-02, 4.48694080e-02, 0., 0., 0., 3.75382160e-03,
          9.25814640e-03, 1.77559942e-01, 1.53183147e-01, 1.03961222e-01,
          8.29405785e-02, 4.22185808e-02, 1.53727010e-01, 1.31346300e-01,
          1.46623835e-01, 1.42355680e-01, 1.79986402e-01, 1.45330206e-01,
          0., 9.27312076e-02, 0., 2.28336044e-02, 1.64883941e-01,
          9.52971801e-02, 1.75439969e-01, 2.06012323e-01, 1.38442636e-01,
          1.34471759e-01, 2.01393172e-01, 0., 0., 0., 1.51214555e-01,
          1.39909834e-01, 1.86466917e-01, 1.43167779e-01, 2.33086064e-01,
          5.84231094e-02, 0., 0., 2.73670666e-02, 1.37890846e-01,
          1.24350794e-01, 1.14552706e-01, 1.22663021e-01, 0.,
          1.01339728e-01, 1.73661128e-01, 1.74703926e-01, 1.23288535e-01,
          1.18200116e-01, 8.05392563e-02, 2.32045859e-01, 7.40682557e-02,
          1.57527491e-01, 1.72074765e-01, 2.49244541e-01, 2.51033176e-02,
          1.06174108e-02, 0. ]
      - [ 1.19732181e-02, 1.31739452e-01, 2.01006740e-01, 2.27552965e-01,
          0., 0., 0., 0., 0., 1.07424827e-02, 1.91053376e-01,
          1.20628051e-01, 1.13847919e-01, 8.16019699e-02, 4.47628386e-02,
          1.02402069e-01, 1.28163889e-01, 1.32673055e-01, 1.44015774e-01,
          2.46736407e-01, 1.09788522e-01, 0., 7.79412165e-02, 0.,
          1.11780025e-01, 5.20320423e-02, 1.29551917e-01, 2.18302429e-01,
          1.76934615e-01, 1.42367691e-01, 1.59060210e-01, 1.24100938e-01,
          6.05595112e-02, 1.11122146e-01, 0., 8.72057900e-02,
          1.21422559e-01, 1.17570944e-01, 2.03813553e-01, 2.74978280e-01,
          0., 0., 0., 0., 3.10384054e-02, 9.01007950e-02, 9.73315164e-02,
          2.18000278e-01, 4.51543033e-02, 1.00147597e-01, 7.80172572e-02,
          9.48828980e-02, 1.34660713e-02, 8.79447982e-02, 2.39457428e-01,
          1.51613265e-01, 0., 7.96711296e-02, 2.43059427e-01,
          1.18207105e-01, 1.71643585e-01, 1.58514827e-01, 1.05718933e-01,
          7.32369944e-02 ]
      - [ 9.47012603e-02, 9.77101848e-02, 2.82298476e-01, 1.43131807e-01,
          1.34322032e-01, 2.39676852e-02, 0., 0., 0., 0., 0., 0.,
          1.40968844e-01, 1.64029047e-01, 1.02411978e-01, 1.42002583e-01,
          1.25202358e-01, 1.28256187e-01, 1.91262305e-01, 8.74516591e-02,
          1.05063505e-01, 6.05937578e-02, 3.03807501e-02, 7.67310262e-02,
          6.55520335e-02, 6.32100478e-02, 1.53715983e-01, 1.81872025e-01,
          2.01239407e-01, 1.44817248e-01, 1.33202344e-01, 1.54254600e-01,
          8.84108692e-02, 2.02907976e-02, 6.99353069e-02, 3.19625810e-02,
          3.14348191e-02, 2.20298886e-01, 1.89225599e-01, 1.33313343e-01,
          1.33825436e-01, 1.84963807e-01, 9.98249128e-02, 0., 0.,
          4.73865308e-02, 8.41649994e-02, 0., 0., 0., 1.40731663e-01,
          3.04496348e-01, 7.09971115e-02, 8.06234702e-02, 1.28556103e-01,
          0., 1.23095378e-01, 7.40278289e-02, 2.77102858e-01,
          2.96957791e-01, 6.73021600e-02, 0., 0., 0. ]
      - [ 6.05075434e-02, 1.18521057e-01, 1.69988811e-01, 1.43686265e-01,
          2.40276113e-01, 9.29277614e-02, 4.26949970e-02, 0.,
          1.26464898e-02, 4.34147054e-03, 7.28098378e-02, 1.66917905e-01,
          1.70488819e-01, 7.15347528e-02, 4.61210012e-02, 7.45505765e-02,
          2.75645051e-02, 9.57174301e-02, 1.00141160e-01, 6.78333044e-02,
          2.04186678e-01, 2.15584725e-01, 1.14864511e-02, 5.00349887e-02,
          0., 0., 0., 1.54992387e-01, 2.43188739e-01, 2.55842626e-01,
          1.29298314e-01, 1.24103203e-01, 1.44846380e-01, 1.45271495e-01,
          4.07476239e-02, 5.70055731e-02, 1.45741448e-01, 1.81669220e-01,
          1.44914761e-01, 1.43758669e-01, 1.57272488e-01, 1.06454127e-01,
          0., 0., 8.79165754e-02, 1.49371296e-01, 1.11741781e-01,
          5.75684682e-02, 7.32906535e-02, 9.05479714e-02, 1.38780236e-01,
          1.53941423e-01, 0., 4.79539149e-02, 1.95140839e-01,
          1.02133840e-01, 1.28573254e-01, 2.11655855e-01, 1.50929451e-01,
          1.62244335e-01, 1.01524323e-01, 1.65585861e-01, 6.94337338e-02,
          9.01204720e-02 ]
      - [ 8.73423517e-02, 1.27352551e-01, 3.06318074e-01, 2.21885726e-01,
          0., 0., 0., 0., 0., 0., 0., 2.06042588e-01, 1.47223771e-01,
          1.12203114e-01, 8.80938917e-02, 0., 1.24342300e-01,
          8.49591270e-02, 9.71698835e-02, 2.37043023e-01, 1.47268832e-01,
          0., 0., 0., 0., 0., 0., 2.45058596e-01, 2.56990641e-01,
          1.48000166e-01, 1.38056532e-01, 6.66526854e-02, 1.14578642e-01,
          9.56472382e-02, 2.27802638e-02, 7.46980682e-02, 8.90234038e-02,
          1.45459473e-01, 2.04809099e-01, 1.68358251e-01, 1.80499002e-01,
          1.43698260e-01, 5.19196764e-02, 0., 0., 9.89127606e-02,
          6.88241199e-02, 0., 9.52079445e-02, 8.44288990e-02,
          1.50345087e-01, 1.24792211e-01, 0., 1.64162457e-01,
          1.43689469e-01, 1.41381830e-01, 9.83518064e-02, 1.58249259e-01,
          1.86226025e-01, 1.95747554e-01, 1.51561305e-01, 9.06538665e-02,
          8.97512883e-02, 0. ]
      - [ 8.04460347e-02, 1.29765719e-01, 2.27663249e-01, 2.77864486e-01,
          0., 0., 0., 0., 0., 0., 0., 2.20900714e-01, 1.08169213e-01,
          6.88889995e-02, 1.14111878e-01, 9.82822478e-02, 2.77716760e-02,
          1.11707784e-01, 9.39476714e-02, 1.15932949e-01, 1.78656653e-01,
          1.64555117e-01, 0., 0., 0., 0., 5.22535257e-02, 2.25821808e-01,
          2.50748783e-01, 1.28230184e-01, 1.39144644e-01, 1.32894129e-01,
          1.03703678e-01, 0., 1.30667403e-01, 1.20505862e-01,
          1.66071594e-01, 1.45414993e-01, 1.97492823e-01, 1.64128646e-01,
          1.49095535e-01, 9.17174220e-02, 0., 1.06774703e-01,
          9.32732373e-02, 7.30616003e-02, 5.25007099e-02, 0.,
          1.17100514e-01, 8.84406120e-02, 1.55111134e-01, 1.56693920e-01,
          0., 0., 1.25116020e-01, 1.34610534e-01, 1.52022228e-01,
          1.61232784e-01, 1.32524624e-01, 2.81458855e-01, 8.91729966e-02,
          1.05249211e-01, 1.02246225e-01, 0. ]
      - [ 1.64706081e-01, 1.96386248e-01, 1.07840873e-01, 6.34501055e-02,
          1.10329323e-01, 1.29174888e-01, 1.27725407e-01, 1.63032249e-01,
          0., 0., 0., 0., 0., 0., 0., 5.23330681e-02, 1.67188704e-01, 0.,
          0., 0., 1.60508305e-01, 1.08178236e-01, 8.19193646e-02, 0., 0.,
          0., 1.05935231e-01, 2.17729121e-01, 1.67497486e-01,
          1.59653351e-01, 1.73776314e-01, 1.20861091e-01, 2.89826035e-01,
          0., 1.12010188e-01, 9.19415578e-02, 3.28104049e-02,
          8.65576938e-02, 1.42985195e-01, 3.22290421e-01, 1.56727225e-01,
          0., 0., 0., 0., 0., 0., 1.92755982e-01, 8.18629488e-02,
          1.12676471e-01, 1.09272040e-01, 0., 0., 0., 5.29452525e-02,
          2.75276721e-01, 2.80497998e-01, 6.12911843e-02, 8.64250958e-02,
          8.59100744e-02, 9.66467038e-02, 1.16806328e-01, 2.43283242e-01,
          1.61475942e-01 ]
      - [ 1.02413706e-01, 1.63913727e-01, 9.09211412e-02, 1.40197814e-01,
          5.11615463e-02, 1.96519539e-01, 2.33648583e-01, 0., 0., 0., 0.,
          0., 0., 0., 2.34998345e-01, 1.43574610e-01, 2.21253693e-01, 0.,
          0., 6.39433563e-02, 0., 0., 0., 0., 0., 0., 0., 0., 0.,
          1.52089611e-01, 3.17235678e-01, 2.13780954e-01, 1.84145659e-01,
          2.27706030e-01, 1.52758703e-01, 1.25665247e-01, 1.26526788e-01,
          1.43685311e-01, 6.06011450e-02, 1.29036725e-01, 2.75957346e-01,
          1.70656890e-01, 0., 0., 0., 0., 0., 0., 4.71376814e-02, 0.,
          5.72709814e-02, 0., 0., 0., 0., 0., 4.32915151e-01,
          1.51271179e-01, 1.00399196e-01, 0., 1.39002398e-01,
          4.82275151e-02, 5.06615378e-02, 5.74941412e-02 ]
      - [ 8.19089264e-02, 2.81509221e-01, 1.25917807e-01, 1.21333636e-01,
          1.49356723e-01, 1.06688477e-01, 1.07733175e-01, 1.52485877e-01,
          6.27899766e-02, 2.00281247e-01, 2.40198895e-02, 0., 0., 0., 0.,
          0., 1.63885191e-01, 5.73590547e-02, 0., 1.47038981e-01,
          1.10816814e-01, 9.89145413e-02, 6.71355575e-02, 0., 0.,
          1.81547571e-02, 5.52025177e-02, 3.05606931e-01, 1.15015171e-01,
          1.30597219e-01, 1.42117783e-01, 1.06950983e-01, 0.,
          2.48570934e-01, 1.70983985e-01, 2.05601469e-01, 1.14543207e-01,
          8.16939175e-02, 1.13696843e-01, 1.29411936e-01, 1.96405277e-01,
          1.29213005e-01, 0., 0., 1.92096345e-02, 0., 0., 0.,
          1.81062758e-01, 4.11240086e-02, 0., 1.12788819e-01, 0., 0., 0.,
          0., 2.60017335e-01, 2.49464408e-01, 9.64037776e-02,
          1.78142264e-01, 1.33834973e-01, 1.15456901e-01, 1.08374439e-01,
          1.83836773e-01 ]
      - [ 1.06945992e-01, 3.30163628e-01, 6.43722862e-02, 0., 0., 0., 0.,
          0., 5.15749380e-02, 1.00509331e-01, 0., 0., 0., 0., 0., 0.,
          1.26969188e-01, 2.62051612e-01, 0., 0., 8.72945637e-02,
          1.37526840e-01, 0., 0., 9.18589681e-02, 1.38636485e-01,
          1.11305058e-01, 2.37071022e-01, 1.65284932e-01, 1.19012371e-01,
          1.10237330e-01, 1.00184567e-01, 7.36913532e-02, 1.78218961e-01,
          7.25363269e-02, 0., 1.47431895e-01, 8.84562731e-02,
          1.92165837e-01, 3.07471722e-01, 7.49456435e-02, 0.,
          1.35704562e-01, 6.21015392e-02, 8.15169811e-02, 8.74867365e-02,
          9.56778675e-02, 7.46852756e-02, 1.99438240e-02, 9.16648284e-02,
          1.02084398e-01, 0., 1.30105868e-01, 4.87434193e-02,
          2.34423339e-01, 2.08775967e-01, 1.62983432e-01, 8.20365995e-02,
          8.46639276e-02, 2.10168287e-01, 9.76652429e-02, 1.50913566e-01,
          2.24156857e-01, 1.63524628e-01 ]
      - [ 1.77450746e-01, 2.73353934e-01, 9.87054929e-02, 8.55621621e-02,
          1.35801926e-01, 1.84650123e-01, 1.04214571e-01, 1.29892915e-01,
          1.70139521e-01, 0., 0., 0., 0., 0., 0., 0., 2.22686261e-01,
          4.52625118e-02, 0., 0., 0., 0., 0., 0., 0., 0., 3.95789519e-02,
          6.39537498e-02, 2.65721858e-01, 1.93175644e-01, 9.39401686e-02,
          1.84176713e-01, 1.91839591e-01, 1.86384752e-01, 1.92369014e-01,
          1.45374298e-01, 1.27557129e-01, 6.01658709e-02, 1.15036033e-01,
          2.28415221e-01, 1.73198566e-01, 1.50761202e-01, 0., 0., 0., 0.,
          0., 0., 1.95529744e-01, 5.25076054e-02, 3.80558521e-02, 0., 0.,
          0., 0., 0., 3.71881962e-01, 2.37694889e-01, 9.50497016e-02, 0.,
          9.80615392e-02, 1.35462344e-01, 7.90643767e-02, 1.06546976e-01 ]
      - [ 2.41047278e-01, 8.25793073e-02, 9.50197056e-02, 9.80103239e-02,
          0., 9.36086252e-02, 1.43259391e-01, 2.55158514e-01,
          9.23712924e-02, 0., 0., 0., 0., 0., 7.81193003e-03,
          1.83890611e-01, 2.20906004e-01, 2.63122059e-02, 0., 0.,
          8.75764787e-02, 0., 1.38787106e-01, 0., 0., 0., 0., 0., 0.,
          2.35698357e-01, 2.05785185e-01, 1.95746198e-01, 2.97409505e-01,
          1.35965988e-01, 1.09535731e-01, 7.78878853e-02, 1.23582184e-01,
          5.83010763e-02, 1.32799491e-01, 1.32766604e-01, 2.91573495e-01,
          2.25510988e-02, 0., 0., 0., 0., 3.22372392e-02, 0.,
          1.33476600e-01, 1.06423736e-01, 1.30503625e-01, 1.04900025e-01,
          0., 0., 1.56238601e-02, 2.25214899e-01, 2.92341530e-01,
          2.58994401e-01, 0., 1.45586804e-01, 0., 0., 1.29775271e-01,
          5.26977070e-02 ]
      - [ 1.50902778e-01, 2.78710395e-01, 1.08823411e-01, 8.46807212e-02,
          8.42434540e-02, 6.41631037e-02, 8.25102702e-02, 7.39750415e-02,
          2.39072531e-01, 1.70544818e-01, 0., 0., 0., 0., 0., 0.,
          1.89379588e-01, 2.84186341e-02, 6.07192107e-02, 2.13756889e-01,
          7.89955109e-02, 0., 1.00408420e-01, 7.37552717e-02,
          5.51374480e-02, 1.20184585e-01, 6.05264269e-02, 2.31937602e-01,
          1.71208143e-01, 1.30939722e-01, 9.52432156e-02, 1.41366124e-01,
          2.85038710e-01, 1.19870536e-01, 7.36591443e-02, 7.01859742e-02,
          7.11221546e-02, 1.12032950e-01, 1.50484890e-01, 1.67484805e-01,
          2.09930480e-01, 3.67667936e-02, 1.32572502e-02, 0., 0., 0., 0.,
          0., 6.80733770e-02, 8.17841664e-02, 1.29629567e-01,
          1.29302382e-01, 0., 8.03710744e-02, 1.79927424e-01,
          1.14448585e-01, 1.63412973e-01, 2.01253802e-01, 1.91784725e-01,
          1.15441248e-01, 1.23518504e-01, 1.75948426e-01, 1.10263303e-01,
          1.42102346e-01 ]
      - [ 2.87071824e-01, 2.86728621e-01, 1.32869035e-01, 0., 0.,
          6.97753355e-02, 0., 6.24946207e-02, 0., 0., 0., 0., 0., 0., 0.,
          1.69915743e-02, 2.75313258e-01, 3.76740880e-02, 0., 0., 0., 0.,
          0., 0., 0., 0., 0., 0., 1.89531162e-01, 1.90097287e-01,
          1.86341345e-01, 1.67019352e-01, 0., 0., 1.75095931e-01,
          2.03291416e-01, 1.58178553e-01, 1.58432379e-01, 1.62041798e-01,
          1.60893753e-01, 3.33538055e-01, 7.26674348e-02, 0., 0., 0., 0.,
          0., 0., 1.62927955e-01, 0., 0., 0., 0., 0., 0., 0.,
          4.15377170e-01, 2.08948374e-01, 7.95737654e-02, 1.51864082e-01,
          7.83911496e-02, 1.03969231e-01, 6.53708205e-02, 1.12334922e-01 ]
      - [ 6.16247300e-03, 1.82656333e-01, 1.44583181e-01, 1.38154224e-01,
          1.00737929e-01, 1.82092562e-01, 0., 7.65136927e-02,
          4.25300337e-02, 4.25323769e-02, 5.98460399e-02, 6.82567060e-02,
          3.48602124e-02, 1.29270464e-01, 1.73680186e-01, 1.39247343e-01,
          7.69685730e-02, 1.12258002e-01, 9.14468765e-02, 1.02372833e-01,
          2.24731952e-01, 9.49506164e-02, 0., 0., 0., 0., 0., 0.,
          2.28364244e-01, 2.83560097e-01, 1.35245860e-01, 4.85000499e-02,
          0., 0., 0., 2.38209262e-01, 2.32087508e-01, 1.69076949e-01,
          1.04366571e-01, 8.31657052e-02, 8.33483562e-02, 9.34391394e-02,
          1.05920918e-01, 3.02723646e-01, 5.54582551e-02, 7.35176429e-02,
          0., 0., 0., 1.09351806e-01, 1.10714324e-01, 8.44412073e-02, 0.,
          1.49991378e-01, 2.45214820e-01, 1.36227369e-01, 8.52182209e-02,
          1.14060648e-01, 1.30736440e-01, 1.83468878e-01, 1.92909643e-01,
          9.84967276e-02, 1.16292827e-01, 0. ]
      - [ 1.51018053e-01, 2.06199929e-01, 1.32339433e-01, 1.88987911e-01,
          2.45296992e-02, 0., 5.91188110e-02, 8.64330530e-02,
          5.67282364e-02, 0., 9.01006982e-02, 7.12089166e-02, 0., 0.,
          1.42202824e-01, 6.03117459e-02, 7.44282231e-02, 4.14302647e-02,
          6.32953048e-02, 8.10317546e-02, 2.60441750e-01, 1.77894637e-01,
          2.15667225e-02, 0., 0., 0., 0., 1.07578106e-01, 2.67056912e-01,
          2.73999065e-01, 1.53314263e-01, 4.83662598e-02, 0.,
          4.15051775e-03, 1.02365287e-02, 2.40262806e-01, 1.48719653e-01,
          1.96256086e-01, 1.57655209e-01, 3.64390574e-02, 5.70146367e-02,
          9.46908444e-02, 1.62122980e-01, 2.06707552e-01, 0., 0., 0., 0.,
          1.33483768e-01, 1.24577224e-01, 1.21640600e-01, 1.01240575e-01,
          1.29474431e-01, 1.01333283e-01, 1.61108956e-01, 1.34195164e-01,
          1.41640127e-01, 1.50080010e-01, 1.83285922e-01, 1.36105940e-01,
          2.59610057e-01, 1.03129081e-01, 4.15051775e-03, 0. ]
      - [ 2.15063155e-01, 3.09759676e-01, 1.11748911e-01, 1.08631581e-01,
          0., 0., 0., 0., 0., 2.14519009e-01, 1.13863289e-01,
          6.33031726e-02, 0., 0., 0., 0., 1.64686665e-01, 9.90460366e-02,
          0., 0., 1.73517287e-01, 1.15591750e-01, 0., 9.14052203e-02,
          1.47990167e-01, 3.63975912e-02, 0., 0., 2.15760916e-01,
          1.95456013e-01, 1.61704764e-01, 1.80892900e-01, 0., 0., 0., 0.,
          1.85136929e-01, 2.57932574e-01, 1.54403284e-01, 9.32670534e-02,
          0., 9.62244719e-02, 1.27753422e-01, 1.77192330e-01,
          2.38370895e-01, 0., 0., 0., 1.69131964e-01, 0., 0., 0.,
          2.23393276e-01, 1.21985108e-01, 1.40621230e-01, 1.23213515e-01,
          1.57562733e-01, 2.21620396e-01, 1.50229707e-01, 7.80341923e-02,
          1.26309961e-01, 1.06846102e-01, 9.72113162e-02, 0. ]
      - [ 2.80165911e-01, 2.70528018e-01, 3.42330746e-02, 0., 0., 0., 0.,
          0., 2.31652886e-01, 9.62059870e-02, 0., 0., 0., 0., 0., 0.,
          2.04135090e-01, 4.85281125e-02, 7.00752288e-02, 0.,
          1.24834292e-01, 0., 1.05671778e-01, 1.07702054e-01,
          1.70803070e-01, 0., 0., 0., 1.77060828e-01, 1.75286859e-01,
          1.65682539e-01, 1.81765839e-01, 7.92265534e-02, 1.10900313e-01,
          1.56547025e-01, 1.58285618e-01, 1.51799977e-01, 9.49024558e-02,
          1.17685191e-01, 0., 1.37923554e-01, 2.54957438e-01,
          1.64215595e-01, 0., 0., 0., 0., 0., 8.63956884e-02,
          1.06896505e-01, 2.09917560e-01, 1.32911354e-01, 1.39088914e-01,
          0., 1.15137570e-01, 7.73704797e-02, 1.44593358e-01,
          2.24799290e-01, 2.55637467e-01, 2.16904029e-01, 0.,
          4.17562611e-02, 1.24023288e-01, 0. ]
      - [ 7.26136118e-02, 4.05224234e-01, 4.47158106e-02, 0., 0., 0., 0.,
          0., 5.53344078e-02, 2.28250951e-01, 4.07132320e-02, 0., 0., 0.,
          0., 0., 1.97654992e-01, 9.35638417e-03, 1.56247839e-01,
          8.32448602e-02, 9.09892470e-02, 4.70156856e-02, 9.15725455e-02,
          7.03570768e-02, 1.69435039e-01, 0., 0., 1.34723067e-01,
          1.46113873e-01, 2.13972226e-01, 1.68472350e-01, 1.37374774e-01,
          5.09689040e-02, 1.21072531e-01, 1.89793169e-01, 1.37414142e-01,
          1.71760023e-01, 1.87052727e-01, 1.14956565e-01, 1.22989342e-01,
          9.31923911e-02, 3.04029942e-01, 5.70209436e-02, 0., 0., 0., 0.,
          0., 0., 0., 2.22435758e-01, 4.02997248e-02, 0., 3.72542255e-02,
          5.62332831e-02, 1.49903581e-01, 9.71822068e-02, 2.10097909e-01,
          2.42370382e-01, 2.29530692e-01, 0., 5.54521829e-02, 0.,
          2.36508362e-02 ]
      - [ 2.56189853e-01, 2.96703130e-01, 0., 0., 0., 0., 0., 0.,
          1.24297865e-01, 9.83140618e-02, 0., 0., 0., 0., 0.,
          1.69056579e-02, 2.22967237e-01, 0., 0., 7.59349465e-02,
          1.01745576e-01, 6.73868507e-02, 9.84036028e-02, 0.,
          1.42282173e-01, 6.32490516e-02, 0., 0., 8.91186073e-02,
          2.17880070e-01, 1.79791227e-01, 2.07819566e-01, 6.87950402e-02,
          2.06075653e-01, 9.75013822e-02, 1.10699415e-01, 0.,
          1.09865531e-01, 9.07263532e-02, 1.51471958e-01, 1.60211891e-01,
          3.52768391e-01, 5.51358573e-02, 0., 0., 0., 0., 0., 0., 0., 0.,
          2.31461346e-01, 1.81209922e-01, 1.68313578e-01, 1.83938920e-01,
          0., 1.68858975e-01, 1.45910174e-01, 2.42311761e-01,
          1.81727737e-01, 1.73856318e-01, 0., 0., 0. ]
      - [ 2.90070653e-01, 2.67120749e-01, 7.46289566e-02, 0., 0.,
          1.19984210e-01, 0., 1.12500779e-01, 1.06083281e-01,
          8.26683193e-02, 0., 0., 0., 0., 0., 0., 2.15641394e-01, 0., 0.,
          0., 6.45608455e-02, 8.06078464e-02, 7.51818269e-02, 0.,
          9.38754678e-02, 9.78519842e-02, 8.23847577e-02, 0.,
          1.39289156e-01, 1.91153854e-01, 2.27301821e-01, 1.60326004e-01,
          6.89897314e-02, 0., 1.97487250e-01, 1.54429972e-01,
          2.25509480e-01, 8.11774135e-02, 1.55334204e-01, 7.48873651e-02,
          1.42987967e-01, 2.98540741e-01, 2.96930447e-02, 0., 0., 0., 0.,
          0., 0., 0., 1.60934329e-01, 1.11497447e-01, 1.30497068e-01, 0.,
          3.37279364e-02, 2.04528272e-01, 1.33713111e-01, 2.10272551e-01,
          2.73460001e-01, 1.42046720e-01, 1.78223580e-01, 7.33222216e-02,
          0., 1.21341109e-01 ]
      - [ 2.46044815e-01, 2.92189270e-01, 2.89474204e-02, 0., 0., 0., 0.,
          9.27090868e-02, 8.35426152e-02, 0., 0., 0., 0., 0., 0., 0.,
          2.36894086e-01, 7.57391080e-02, 0., 0., 0., 1.07085317e-01,
          9.44078341e-02, 1.21156685e-01, 0., 1.30785078e-01,
          9.71992016e-02, 0., 0., 2.25997344e-01, 1.99188218e-01,
          1.75271660e-01, 1.11283027e-01, 1.39951304e-01, 6.81520253e-02,
          1.39029846e-01, 1.20190382e-01, 1.79392070e-01, 1.17932573e-01,
          8.04620013e-02, 3.27990353e-01, 1.31053641e-01, 0., 0., 0., 0.,
          0., 0., 0., 1.53429195e-01, 1.21341631e-01, 7.10648894e-02,
          1.53744340e-01, 1.75810575e-01, 1.66663662e-01, 1.45343363e-01,
          1.48672149e-01, 1.66029990e-01, 2.13641718e-01, 2.04188287e-01,
          1.89367160e-01, 1.14542186e-01, 0., 1.10830128e-01 ]
      - [ 3.47613871e-01, 2.76514739e-01, 0., 2.91899946e-02, 0., 0., 0.,
          8.93601328e-02, 1.25051796e-01, 8.78605619e-02, 4.08941396e-02,
          0., 0., 0., 0., 0., 2.63576955e-01, 3.03157028e-02,
          4.22293730e-02, 9.14814174e-02, 3.50549892e-02, 9.36597437e-02,
          6.65611923e-02, 9.11979377e-02, 8.95570144e-02, 9.36281532e-02,
          0., 1.56465143e-01, 1.54558823e-01, 2.00341538e-01,
          1.59162983e-01, 1.48491889e-01, 7.29571795e-03, 5.06514646e-02,
          8.28579813e-02, 1.47357866e-01, 2.11193502e-01, 1.54463217e-01,
          1.49651915e-01, 7.02760145e-02, 2.56245106e-01, 2.33447582e-01,
          0., 0., 0., 0., 0., 0., 4.37341444e-02, 8.45763534e-02,
          1.02153055e-01, 9.41357091e-02, 7.33322874e-02, 9.33739543e-02,
          1.43806458e-01, 1.49333730e-01, 1.62862137e-01, 1.86509281e-01,
          2.16895968e-01, 2.36404344e-01, 0., 3.52607556e-02, 0.,
          1.21617839e-01 ]
      - [ 7.29219243e-02, 1.02827355e-01, 9.85633433e-02, 1.48819119e-01,
          2.66170174e-01, 1.38687521e-01, 9.61976126e-03, 0., 0., 0., 0.,
          0., 2.96642274e-01, 1.66695893e-01, 1.11474156e-01,
          1.46544546e-01, 3.62788588e-01, 1.34156510e-01, 0., 0., 0., 0.,
          0., 0., 7.69237950e-02, 0., 9.14256796e-02, 0., 0., 0.,
          9.99060273e-02, 1.01635344e-01, 9.89222005e-02, 0.,
          5.40820323e-02, 2.66327739e-01, 1.33570120e-01, 1.46127656e-01,
          8.64190012e-02, 1.37917325e-01, 2.50041068e-01, 1.14360429e-01,
          0., 5.20486534e-02, 1.05799153e-01, 5.86141013e-02,
          9.11732838e-02, 1.04301035e-01, 2.21328095e-01, 0., 0.,
          2.89161205e-02, 0., 0., 0., 0., 3.84014577e-01, 2.57444441e-01,
          0., 0., 0., 0., 0., 5.62777705e-02 ]
      - [ 1.40335575e-01, 1.21946737e-01, 1.14681318e-01, 1.90362900e-01,
          1.67755634e-01, 0., 8.17685351e-02, 0., 0., 9.08744484e-02,
          1.73682854e-01, 1.00422226e-01, 1.67242169e-01, 9.47062820e-02,
          1.42568588e-01, 1.02370650e-01, 3.71414423e-01, 3.97805534e-02,
          0., 0., 0., 0., 0., 0., 0., 0., 0., 0., 0., 0., 1.08183384e-01,
          1.32651135e-01, 1.80219680e-01, 9.19777453e-02, 1.55107498e-01,
          1.69089973e-01, 1.22121006e-01, 1.58663407e-01, 1.44110635e-01,
          0., 3.03297669e-01, 1.51527196e-01, 0., 0., 0., 9.92769450e-02,
          1.19502842e-01, 1.39567763e-01, 1.93309233e-01, 0., 0., 0., 0.,
          0., 0., 0., 4.45508868e-01, 1.60395801e-01, 7.12421387e-02, 0.,
          0., 0., 0., 1.28348351e-01 ]
      - [ 0., 2.37371340e-01, 2.71497011e-01, 1.58290669e-01,
          1.74170826e-02, 0., 0., 0., 0., 4.92937081e-02, 1.15658879e-01,
          0., 0., 0., 0., 0., 1.19041413e-01, 1.43725157e-01,
          1.67465314e-01, 0., 0., 0., 0., 0., 0., 2.47779507e-02,
          3.43144059e-01, 1.19854465e-01, 1.17936082e-01, 4.44443822e-02,
          1.47592023e-01, 1.05644435e-01, 1.46611452e-01, 1.07291676e-02,
          1.22272484e-01, 1.08235985e-01, 1.99989215e-01, 1.68440938e-01,
          1.25192732e-01, 2.01429322e-01, 1.40145004e-01, 2.05351174e-01,
          9.41817984e-02, 0., 0., 0., 1.17778718e-01, 9.47669595e-02,
          2.81883448e-01, 1.98056549e-01, 0., 0., 0., 0., 0.,
          9.06773433e-02, 2.17972770e-01, 2.86956787e-01, 1.49762899e-01,
          8.30617324e-02, 9.10459831e-02, 8.81107599e-02, 9.22135934e-02,
          8.53184983e-02 ]
      - [ 4.19410728e-02, 9.36551020e-02, 1.29761174e-01, 1.98770076e-01,
          2.50992686e-01, 1.31587125e-02, 6.48039067e-03, 0., 0., 0., 0.,
          2.62739986e-01, 1.59735858e-01, 1.33348078e-01, 1.12117775e-01,
          1.00644179e-01, 2.52546668e-01, 2.32799932e-01, 2.71315221e-02,
          0., 0., 0., 0., 0., 0., 0., 0., 0., 0., 9.82717425e-02,
          1.29815683e-01, 1.38946712e-01, 2.01738760e-01, 5.44685498e-02,
          8.14865995e-03, 2.08062232e-01, 2.07874715e-01, 7.89336711e-02,
          1.23164773e-01, 1.51720524e-01, 2.19635203e-01, 1.40995488e-01,
          0., 1.45003706e-01, 8.29178542e-02, 1.06598616e-01,
          1.21391661e-01, 0., 9.22416002e-02, 2.22299874e-01, 0., 0., 0.,
          0., 9.16465651e-03, 1.60658866e-01, 3.50915730e-01,
          2.53629059e-01, 4.78499681e-02, 0., 0., 0., 0., 0. ]
      - [ 1.37006864e-01, 1.66680858e-01, 1.61006406e-01, 1.84126720e-01,
          7.82005638e-02, 9.92896482e-02, 6.34847432e-02, 0.,
          9.07452926e-02, 1.04269609e-01, 9.53512564e-02, 0., 0.,
          6.15254380e-02, 2.06150532e-01, 1.94744915e-01, 1.93647370e-01,
          2.25294575e-01, 0., 1.06161959e-01, 6.17790967e-02,
          8.28711689e-02, 0., 9.71451998e-02, 1.09620228e-01,
          2.35284165e-01, 0., 0., 1.62068933e-01, 1.78419009e-01,
          1.32313043e-01, 1.38420284e-01, 7.91945532e-02, 6.35095686e-02,
          1.02344438e-01, 1.05928682e-01, 1.42702758e-01, 1.15688726e-01,
          2.21111581e-01, 1.84796795e-01, 1.82697892e-01, 1.32887393e-01,
          7.21644536e-02, 0., 9.40914825e-02, 4.80489060e-02, 0.,
          8.17893744e-02, 1.22089177e-01, 1.19125694e-01, 1.34617880e-01,
          0., 0., 5.05771898e-02, 1.50499284e-01, 1.39272660e-01,
          2.05862626e-01, 1.48221180e-01, 1.85366675e-01, 1.80523381e-01,
          4.82788607e-02, 8.58258754e-02, 9.96002331e-02, 1.17446758e-01 ]
      - [ 7.84132108e-02, 1.02633305e-01, 1.81861445e-01, 1.95574164e-01,
          1.13238901e-01, 1.22037888e-01, 1.24996521e-01, 6.12676069e-02,
          6.85013235e-02, 0., 1.31070361e-01, 8.01521987e-02,
          8.15784708e-02, 6.33916557e-02, 2.38558471e-01, 1.26044139e-01,
          2.53399074e-01, 1.32781431e-01, 0., 0., 0., 9.16458294e-02,
          5.20202778e-02, 0., 1.13090768e-01, 1.12217143e-01,
          7.91355893e-02, 0., 1.30047455e-01, 1.67827830e-01,
          1.50063887e-01, 1.71359286e-01, 1.24490045e-01, 1.70817748e-01,
          1.03363872e-01, 1.48958743e-01, 1.62125707e-01, 1.35029525e-01,
          1.86804518e-01, 8.16191211e-02, 1.24511406e-01, 2.35904664e-01,
          1.64809942e-01, 0., 1.00586161e-01, 0., 8.17275643e-02,
          2.39594914e-02, 1.19442828e-01, 8.83916244e-02, 9.68993902e-02,
          0., 0., 0., 1.35994121e-01, 2.37542138e-01, 1.51939511e-01,
          2.21983969e-01, 1.38653263e-01, 1.34919181e-01, 1.56537786e-01,
          8.20779800e-02, 0., 6.96201324e-02 ]
      - [ 1.10463724e-01, 2.71842957e-01, 2.28804290e-01, 0., 0., 0., 0.,
          0., 7.95382857e-02, 1.81377888e-01, 1.77119672e-01, 0., 0., 0.,
          0., 0., 1.32198021e-01, 2.74960734e-02, 7.77667612e-02,
          1.60762727e-01, 5.31443954e-02, 1.02842517e-01, 5.56803644e-02,
          8.75014365e-02, 9.71207097e-02, 0., 0., 1.30381569e-01,
          1.63065419e-01, 1.54251456e-01, 1.92193329e-01, 1.87805772e-01,
          1.73182592e-01, 1.57661527e-01, 0., 1.37955770e-01,
          1.59994557e-01, 1.52166858e-01, 1.71530336e-01, 1.96150184e-01,
          1.91069990e-01, 5.89697994e-02, 0., 1.28040105e-01,
          1.16212919e-01, 3.96164916e-02, 7.88848400e-02, 8.09822977e-02,
          1.43193364e-01, 1.28814906e-01, 1.48206472e-01, 0., 0., 0.,
          3.72544490e-02, 6.45271912e-02, 3.77648950e-01, 1.62837684e-01,
          0., 9.18827355e-02, 0., 1.62266240e-01, 1.23205252e-01,
          9.57915261e-02 ]
      - [ 2.02711612e-01, 2.26197720e-01, 1.79789171e-01, 1.88997433e-01,
          0., 9.48304385e-02, 0., 9.41472128e-02, 0., 1.66341990e-01,
          1.43807277e-01, 0., 0., 0., 0., 0., 3.04226965e-01,
          6.74167722e-02, 0., 8.98774266e-02, 0., 8.47442672e-02, 0., 0.,
          0., 0., 0., 2.07569674e-01, 1.10589243e-01, 1.79093331e-01,
          1.44734353e-01, 1.72832072e-01, 0., 6.80588931e-02,
          2.39021838e-01, 1.18189678e-01, 1.67504311e-01, 1.46680892e-01,
          1.68944180e-01, 2.13891119e-01, 1.69735149e-01, 3.33569944e-02,
          0., 1.13419436e-01, 1.22560821e-01, 0., 0., 9.99393463e-02,
          1.17414400e-01, 0., 0., 3.71424556e-02, 0., 0., 4.59908247e-02,
          1.09101281e-01, 3.25034112e-01, 2.75700927e-01, 9.74410549e-02,
          9.89378318e-02, 0., 1.03881001e-01, 6.85788393e-02,
          9.95590538e-02 ]
      - [ 2.04582050e-01, 1.98095918e-01, 1.27313823e-01, 2.15634972e-01,
          0., 0., 7.72345066e-02, 9.10370201e-02, 0., 1.36477351e-01,
          1.50515750e-01, 9.57005396e-02, 4.96280640e-02, 0., 0.,
          5.29503562e-02, 2.09580109e-01, 1.85675740e-01, 0.,
          1.11173823e-01, 1.08504727e-01, 8.51701796e-02, 0., 0., 0., 0.,
          0., 1.31457806e-01, 1.99000254e-01, 1.33751586e-01,
          1.40533492e-01, 1.75212160e-01, 1.15194209e-01, 1.64963305e-01,
          1.56379148e-01, 1.14829458e-01, 1.80069000e-01, 1.42537326e-01,
          2.33616143e-01, 1.06348976e-01, 1.82115972e-01, 2.07385756e-02,
          0., 1.09676056e-01, 1.18432879e-01, 6.46622777e-02, 0., 0.,
          1.34650901e-01, 1.49611220e-01, 9.78338346e-02, 0., 0., 0.,
          4.03649136e-02, 0., 3.37147146e-01, 2.94979513e-01,
          8.07540715e-02, 0., 8.79761800e-02, 1.28737688e-01,
          8.61164555e-02, 0. ]
      - [ 1.47063732e-01, 1.93456665e-01, 1.66718498e-01, 2.08175749e-01,
          8.86544734e-02, 1.05078645e-01, 9.43094194e-02, 0., 0.,
          1.33026749e-01, 1.25941992e-01, 0., 0., 9.48995203e-02,
          1.34657279e-01, 1.41842619e-01, 3.01972747e-01, 7.19907954e-02,
          0., 0., 0., 0., 0., 0., 0., 0., 0., 0., 1.04136944e-01,
          2.56974488e-01, 1.40695781e-01, 1.17192172e-01, 9.06447619e-02,
          0., 1.63826272e-01, 2.29498610e-01, 2.08423808e-01,
          1.49345964e-01, 1.30998433e-01, 2.32584745e-01, 1.53992042e-01,
          7.73362443e-02, 7.01081976e-02, 1.22617103e-01, 1.26950458e-01,
          9.29507911e-02, 0., 6.53511658e-02, 1.39366180e-01, 0., 0., 0.,
          0., 0., 0., 7.16466755e-02, 2.85937518e-01, 3.39960873e-01,
          1.20292127e-01, 0., 5.15255071e-02, 0., 1.09595284e-01, 0. ]
      - [ 1.43133730e-01, 1.85724199e-01, 2.14566588e-01, 1.34804457e-01,
          1.09843656e-01, 5.17458133e-02, 1.26562417e-01, 1.18433714e-01,
          1.29002228e-01, 1.23266891e-01, 1.15542777e-01, 1.90311000e-02,
          0., 0., 1.39475688e-01, 1.66488945e-01, 3.07245880e-01,
          8.07689130e-02, 0., 0., 0., 0., 0., 0., 0., 0., 0.,
          5.31045496e-02, 1.75892755e-01, 2.11485773e-01, 1.43092960e-01,
          1.20229661e-01, 0., 1.77422300e-01, 1.90500662e-01,
          1.43546596e-01, 1.68813735e-01, 1.21760130e-01, 1.50391161e-01,
          1.71981946e-01, 1.91777498e-01, 7.26922303e-02, 8.30541179e-02,
          1.39475122e-01, 9.28169712e-02, 8.10228288e-02, 1.70856398e-02,
          6.57215193e-02, 1.73570424e-01, 0., 0., 0., 0., 0., 0.,
          1.79738197e-02, 4.23876554e-01, 1.43933043e-01, 1.12992637e-01,
          0., 0., 3.10319215e-02, 0., 1.10876910e-01 ]
      - [ 1.33209467e-01, 2.30621949e-01, 2.44457528e-01, 1.12837784e-01,
          0., 9.01165381e-02, 1.01575308e-01, 0., 1.27364770e-01,
          1.09582178e-01, 1.71322227e-01, 2.02145614e-02, 0., 0., 0.,
          1.23259805e-01, 2.38649338e-01, 4.53585498e-02, 8.00672174e-02,
          0., 8.99559632e-02, 0., 6.31701127e-02, 0., 0., 0., 0.,
          9.12483409e-02, 1.92288294e-01, 1.86732709e-01, 1.81496769e-01,
          1.33729950e-01, 1.43652648e-01, 0., 2.07085311e-01,
          1.54945105e-01, 1.64236456e-01, 1.69655472e-01, 1.49621189e-01,
          1.88600048e-01, 1.92861900e-01, 1.39610007e-01, 0., 0.,
          1.35177344e-01, 1.30287632e-01, 7.33678564e-02, 0.,
          1.63952067e-01, 4.39032689e-02, 0., 0., 0., 0., 0.,
          3.00422087e-02, 3.82873535e-01, 1.94609851e-01, 0.,
          1.22841537e-01, 8.51906240e-02, 8.68915468e-02, 0.,
          1.17576629e-01 ]
      - [ 2.02910513e-01, 1.95570767e-01, 1.54492378e-01, 2.52374470e-01,
          8.90185088e-02, 1.08979650e-01, 6.80347010e-02, 1.06233828e-01,
          0., 1.17731489e-01, 1.25053689e-01, 1.24880999e-01,
          5.63388132e-02, 0., 8.50375667e-02, 1.18954539e-01,
          3.22931319e-01, 8.71007293e-02, 0., 0., 0., 0., 0., 0.,
          7.89489746e-02, 9.36134160e-02, 7.14877844e-02, 9.14459825e-02,
          1.41237214e-01, 2.16658771e-01, 1.53345644e-01, 8.30730647e-02,
          9.77125317e-02, 0., 2.02161878e-01, 6.45342842e-02,
          1.88551173e-01, 1.65485263e-01, 1.44370645e-01, 1.77823991e-01,
          2.22842544e-01, 4.09929939e-02, 0., 0., 1.14180028e-01,
          8.64103958e-02, 0., 8.01231414e-02, 1.07434928e-01,
          8.65250230e-02, 0., 0., 0., 0., 0., 0., 3.41120005e-01,
          2.91590005e-01, 0., 0., 0., 0., 1.46101102e-01, 0. ]
      - [ 1.40262440e-01, 1.43612310e-01, 1.79375440e-01, 2.26056933e-01,
          1.07449032e-01, 9.82662588e-02, 8.13922063e-02, 8.92305449e-02,
          5.18190861e-02, 7.61662573e-02, 4.68635783e-02, 9.53253359e-02,
          0., 8.33365321e-02, 1.11161903e-01, 8.36968496e-02,
          2.71145940e-01, 9.66305956e-02, 0., 0., 0., 0., 0., 0., 0.,
          4.28812532e-03, 1.66610032e-01, 1.39600649e-01, 1.42403603e-01,
          1.83034539e-01, 1.10975184e-01, 7.35746846e-02, 0.,
          7.61098117e-02, 2.74885476e-01, 1.70459941e-01, 8.22228268e-02,
          1.11751936e-01, 1.11193225e-01, 1.01418994e-01, 2.51456201e-01,
          1.75648987e-01, 0., 1.17921598e-01, 8.73242915e-02,
          1.23838283e-01, 0., 9.51238722e-02, 2.53055662e-01,
          1.51461810e-01, 0., 0., 0., 0., 3.96977067e-02, 1.32722884e-01,
          3.68389875e-01, 2.06269905e-01, 0., 8.79724398e-02, 0.,
          5.21016791e-02, 0., 7.57451504e-02 ]
      - [ 2.82514900e-01, 1.84427410e-01, 2.14243740e-01, 7.67814443e-02,
          1.87053278e-01, 0., 0., 7.54957274e-02, 0., 7.64594451e-02, 0.,
          0., 7.15377256e-02, 8.13158303e-02, 0., 1.67375907e-01,
          2.99076378e-01, 6.11418821e-02, 0., 0., 0., 0., 0., 0.,
          2.45768353e-02, 1.27303600e-01, 0., 1.02948070e-01, 0.,
          2.23142803e-01, 2.59210140e-01, 2.17988059e-01, 7.17440620e-02,
          1.11845039e-01, 0., 0., 0., 2.57897973e-01, 2.65842944e-01,
          9.45849940e-02, 2.57588536e-01, 1.08922394e-02, 0., 0., 0., 0.,
          0., 0., 0., 0., 0., 0., 0., 0., 0., 0., 3.68290722e-01,
          2.94118434e-01, 0., 0., 0., 1.02960497e-01, 0., 0. ]
      - [ 1.52154893e-01, 1.65907979e-01, 1.71685234e-01, 2.24843651e-01,
          1.78329080e-01, 1.10011995e-01, 0., 9.91926417e-02, 0.,
          9.56676081e-02, 1.07970543e-01, 1.73129469e-01, 0., 0.,
          1.54171482e-01, 1.24188498e-01, 2.93391585e-01, 1.99935928e-01,
          0., 0., 0., 0., 0., 4.87372950e-02, 8.84282216e-02, 0.,
          1.02071784e-01, 1.36739045e-01, 1.65119529e-01, 1.83504105e-01,
          9.61440057e-02, 1.08584128e-01, 8.80799890e-02, 1.33433357e-01,
          1.91248715e-01, 0., 2.07822591e-01, 2.00465158e-01,
          1.10406265e-01, 8.90321434e-02, 0., 2.38228813e-01,
          1.13656268e-01, 4.65166606e-02, 6.65759593e-02, 0., 0., 0.,
          1.31979719e-01, 0., 0., 0., 0., 0., 0., 0., 3.45824271e-01,
          2.77308524e-01, 0., 6.14305660e-02, 0., 0., 9.01309401e-02,
          1.02611765e-01 ]
      - [ 1.66055843e-01, 2.38104343e-01, 2.43377537e-01, 9.50971991e-02,
          1.19376173e-02, 0., 0., 0., 0., 0., 0., 5.48907556e-02,
          4.09780331e-02, 0., 1.88750308e-02, 1.63936034e-01,
          2.84819365e-01, 2.57908162e-02, 0., 0., 0., 0., 0., 0., 0., 0.,
          0., 1.87560305e-01, 1.46892786e-01, 1.79222897e-01,
          1.51160583e-01, 1.41529024e-01, 0., 1.27656832e-02,
          7.19338879e-02, 2.34321728e-01, 1.83503300e-01, 1.24680080e-01,
          1.47293657e-01, 1.19426601e-01, 3.23291838e-01, 1.07035235e-01,
          2.98026353e-02, 0., 5.42497113e-02, 0., 0., 6.64751511e-03,
          2.27708623e-01, 0., 0., 0., 0., 0., 0., 2.22329572e-01,
          3.62996578e-01, 1.60932735e-01, 1.73136875e-01, 0.,
          1.39206812e-01, 1.14091039e-01, 6.53448254e-02, 1.04811743e-01 ]
   decision_functions:
      -
         sv_count: 6
         rho: 5.0745005865080295e-01
         alpha: [ 1.5564402906753982e+00, -1.4964889045687549e-01,
             -3.2352256263959128e-01, -2.9455106743466775e-01,
             -3.0773931888219752e-01, -4.8097845126206612e-01 ]
         index: [ 0, 1, 2, 3, 4, 5 ]
      -
         sv_count: 8
         rho: 6.6418768308434939e-01
         alpha: [ 1.7499970459221934e+00, -2.2518454915609140e-01,
             -2.0936572192382188e-01, -2.6246362404967982e-01,
             -1.6511416748992699e-01, -2.7198072342791157e-01,
             -3.0566608187632449e-01, -3.1022217799843693e-01 ]
         index: [ 0, 6, 7, 8, 9, 10, 11, 12 ]
      -
         sv_count: 4
         rho: 3.6855069159849452e-01
         alpha: [ 1.5272813736385786e+00, -5.6897622389958280e-01,
             -4.6529997755044850e-01, -4.9300517218854734e-01 ]
         index: [ 0, 13, 14, 15 ]
      -
         sv_count: 9
         rho: 7.3572027713735411e-01
         alpha: [ 1.8064242654010132e+00, -2.1007609368389155e-01,
             -2.2229609353298341e-01, -2.2895132216473363e-01,
             -2.7567376904910840e-01, -1.1900419928566391e-01,
             -2.3632771484241502e-01, -2.6264940119842634e-01,
             -2.5144567164379095e-01 ]
         index: [ 0, 16, 17, 18, 19, 20, 21, 22, 23 ]
      -
         sv_count: 4
         rho: 4.5679614479168140e-01
         alpha: [ 1.5951794572422071e+00, -4.6881105115815586e-01,
             -5.1404193125364939e-01, -6.1232647483040137e-01 ]
         index: [ 0, 24, 25, 26 ]
      -
         sv_count: 7
         rho: 5.6007516910933242e-01
         alpha: [ 1.6596428054758949e+00, -2.3625498648009435e-01,
             -3.2334132233889229e-01, -2.7475421604129263e-01,
             -2.8745807953205649e-01, -3.2857024127865131e-01,
             -2.0926395980490770e-01 ]
         index: [ 0, 27, 28, 29, 30, 31, 32 ]
      -
         sv_count: 5
         rho: 5.3045421866939191e-01
         alpha: [ 1.5746658217780627e+00, -3.0959695730225234e-01,
             -3.5612546773115844e-01, -5.1855738565211140e-01,
             -3.9038601109254045e-01 ]
         index: [ 0, 33, 34, 35, 36 ]
      -
         sv_count: 3
         rho: 2.8528599446367248e-01
         alpha: [ 1.6715082058652213e+00, -9.8330367283892950e-01,
             -6.8820453302629203e-01 ]
         index: [ 0, 37, 38 ]
      -
         sv_count: 12
         rho: 7.1573119522979700e-01
         alpha: [ 1.8570712867407424e+00, -2.9620126345824177e-01,
             -7.6706558205227440e-02, -1.6364793273815520e-01,
             -1.9104789705856540e-01, -3.9993855066126530e-02,
             -1.9033292921461312e-01, -4.4892850739903428e-02,
             -1.2224276722822480e-01, -2.3382979485443969e-01,
             -1.8363832590087129e-01, -3.1453711227637360e-01 ]
         index: [ 0, 39, 40, 41, 42, 43, 44, 45, 46, 47, 48, 49 ]
      -
         sv_count: 12
         rho: 1.9612579268450292e-01
         alpha: [ 3.8059853384790432e-01, 6.5185957608833234e-01,
             6.7855681774954424e-01, 7.0639253326979345e-01,
             1.1639061795593835e+00, -5.2856906928084912e-01,
             -5.3128089274017931e-01, -6.0520106884285307e-01,
             -3.3775336233033315e-01, -4.4778497166997955e-01,
             -5.2896740915107598e-01, -6.0175686649968729e-01 ]
         index: [ 1, 2, 3, 4, 5, 6, 7, 8, 9, 10, 11, 12 ]
      -
         sv_count: 8
         rho: -2.0247575727104108e-01
         alpha: [ 2.5106993329918981e-01, 4.3953048225440977e-01,
             4.5162017675354432e-01, 4.7500933088861780e-01,
             7.8306592809864317e-01, -8.7629852525058427e-01,
             -8.1282890007142017e-01, -7.1116842597240038e-01 ]
         index: [ 1, 2, 3, 4, 5, 13, 14, 15 ]
      -
         sv_count: 13
         rho: 3.4031540668667587e-01
         alpha: [ 4.2375267178044002e-01, 8.3824764386896111e-01,
             8.1691442666593472e-01, 8.7237514425153062e-01,
             1.2732756215400078e+00, -5.2073286664856600e-01,
             -5.6754456266885200e-01, -4.1995784097480837e-01,
             -6.2985502747939026e-01, -2.7559689383566188e-01,
             -6.3514084155670336e-01, -4.8311426164405169e-01,
             -6.9262321329884058e-01 ]
         index: [ 1, 2, 3, 4, 5, 16, 17, 18, 19, 20, 21, 22, 23 ]
      -
         sv_count: 8
         rho: -1.0433215817672446e-01
         alpha: [ 2.8468975604820884e-01, 4.8485117147616758e-01,
             5.0437761758640265e-01, 5.3822185073869322e-01,
             8.3900739163865157e-01, -8.6100603273219056e-01,
             -7.7105458192882892e-01, -1.0190871728271043e+00 ]
         index: [ 1, 2, 3, 4, 5, 24, 25, 26 ]
      -
         sv_count: 11
         rho: 3.8636828646917587e-02
         alpha: [ 3.1211504184684541e-01, 6.2661569919002136e-01,
             5.8341877180701440e-01, 6.7916334712406123e-01,
             1.0147463134509007e+00, -4.5047262346100109e-01,
             -6.3087925882350526e-01, -5.9633407487748258e-01,
             -4.6859671766119038e-01, -6.7211995207884323e-01,
             -3.9765654651682059e-01 ]
         index: [ 1, 2, 3, 4, 5, 27, 28, 29, 30, 31, 32 ]
      -
         sv_count: 9
         rho: 3.3338576120805569e-02
         alpha: [ 3.2258470343255807e-01, 5.8445143638435937e-01,
             6.0931521101438524e-01, 6.2068448659344533e-01,
             9.3429748134561608e-01, -6.4013306361958422e-01,
             -7.1894121997086124e-01, -9.3658300991858490e-01,
             -7.7567602526133406e-01 ]
         index: [ 1, 2, 3, 4, 5, 33, 34, 35, 36 ]
      -
         sv_count: 7
         rho: -3.2301780259414220e-01
         alpha: [ 2.0104823257492829e-01, 4.4878433976200921e-01,
             4.0167065305572286e-01, 4.0633731669653672e-01,
             6.9846092349329569e-01, -1.1157959222568981e+00,
             -1.0405055433255945e+00 ]
         index: [ 1, 2, 3, 4, 5, 37, 38 ]
      -
         sv_count: 16
         rho: 2.4875152260521330e-01
         alpha: [ 3.8229007290937711e-01, 8.3100035238255132e-01,
             8.4766535357427486e-01, 8.1819597655600829e-01,
             1.1506925459009612e+00, -5.3209096560702795e-01,
             -2.2809164084813571e-01, -2.6137495198983984e-01,
             -3.1109274214269644e-01, -1.6677200975399115e-01,
             -2.2070290571798681e-01, -9.3693752033082431e-02,
             -3.0546335586853890e-01, -7.6277066379585379e-01,
             -4.4824402402566338e-01, -6.9954728954035650e-01 ]
         index: [ 1, 2, 3, 4, 5, 39, 40, 41, 42, 43, 44, 45, 46, 47, 48,
             49 ]
      -
         sv_count: 10
         rho: -5.4839583343136189e-01
         alpha: [ 5.5654787812562778e-01, 4.7366209593587166e-01,
             4.5061709292094615e-01, 5.3910356056765685e-01,
             7.8518195642103372e-01, 6.2008208479795035e-01,
             6.5542881771977690e-01, -1.5271223211579437e+00,
             -1.4740171325109384e+00, -1.0794840328199813e+00 ]
         index: [ 6, 7, 8, 9, 10, 11, 12, 13, 14, 15 ]
      -
         sv_count: 15
         rho: 1.3811166071374587e-01
         alpha: [ 7.2847460553471399e-01, 8.0047064787912481e-01,
             8.7894496857285453e-01, 4.6037784957630745e-01,
             6.7837109702172738e-01, 7.9764609693892463e-01,
             8.3771905730514917e-01, -6.6878963935921398e-01,
             -6.8418001859198174e-01, -6.0600153277435564e-01,
             -8.8394036445472102e-01, -3.8650096021015590e-01,
             -6.3680543561609637e-01, -7.1709145448130540e-01,
             -5.9869491734097180e-01 ]
         index: [ 6, 7, 8, 9, 10, 11, 12, 16, 17, 18, 19, 20, 21, 22, 23 ]
      -
         sv_count: 10
         rho: -3.0807269018144279e-01
         alpha: [ 4.6566734480394589e-01, 4.3613949736992447e-01,
             5.4406399532054672e-01, 3.2228597248191032e-01,
             4.7790440359769254e-01, 5.0329561548214208e-01,
             5.3547735050357181e-01, -1.0826413797017655e+00,
             -9.8763284959699649e-01, -1.2145599502609721e+00 ]
         index: [ 6, 7, 8, 9, 10, 11, 12, 24, 25, 26 ]
      -
         sv_count: 13
         rho: -1.5895701669575876e-01
         alpha: [ 5.3815904478087784e-01, 5.3770320892614110e-01,
             6.4034412913165561e-01, 3.3362466046092953e-01,
             4.9411253836328323e-01, 5.4638557904257234e-01,
             6.8392942840871918e-01, -5.6418949979791033e-01,
             -7.8342852871538604e-01, -7.4447246300695813e-01,
             -5.5075288335790029e-01, -7.7082697496148278e-01,
             -3.6058823927454109e-01 ]
         index: [ 6, 7, 8, 9, 10, 11, 12, 27, 28, 29, 30, 31, 32 ]
      -
         sv_count: 11
         rho: -1.6582735053102815e-01
         alpha: [ 5.5268872813667369e-01, 5.8972395557322244e-01,
             6.7858060787333718e-01, 2.9868658473904441e-01,
             5.1311394552904810e-01, 5.4437638839389035e-01,
             6.1010857054613077e-01, -7.6754490515638185e-01,
             -8.4334833802824249e-01, -1.2145768532301724e+00,
             -9.6180868437655032e-01 ]
         index: [ 6, 7, 8, 9, 10, 11, 12, 33, 34, 35, 36 ]
      -
         sv_count: 9
         rho: -5.1448837144548243e-01
         alpha: [ 3.2470782509774537e-01, 3.6566023832210393e-01,
             4.1577068792698657e-01, 2.7439360835404547e-01,
             3.2460937910095361e-01, 3.8438870761110822e-01,
             4.2670681930114385e-01, -1.2749458508019149e+00,
             -1.2412914149121721e+00 ]
         index: [ 6, 7, 8, 9, 10, 11, 12, 37, 38 ]
      -
         sv_count: 18
         rho: 3.8683604970282844e-02
         alpha: [ 6.8498853104660296e-01, 6.7642189487473503e-01,
             8.4159170132289873e-01, 4.0265771933687006e-01,
             6.2660657931264341e-01, 6.8678754153090749e-01,
             7.6387009476892342e-01, -6.8701831048811235e-01,
             -2.0428139780023841e-01, -4.4423661092197048e-01,
             -3.7053652156189448e-01, -1.5089683343400023e-01,
             -2.9367152652786888e-01, -1.2084141623542931e-01,
             -4.3177890464293189e-01, -7.5330797156170448e-01,
             -6.3189906223979031e-01, -5.9445550677964021e-01 ]
         index: [ 6, 7, 8, 9, 10, 11, 12, 39, 40, 41, 42, 43, 44, 45, 46,
             47, 48, 49 ]
      -
         sv_count: 11
         rho: 5.1774930032515032e-01
         alpha: [ 1.1805866855331466e+00, 1.0423028424176399e+00,
             9.1531643014302144e-01, -4.0268001721634811e-01,
             -3.8305941565277368e-01, -4.1534759328795107e-01,
             -5.0442889197994267e-01, -2.2651506311608496e-01,
             -3.7147007659392656e-01, -4.8812778333197487e-01,
             -3.4657711691480553e-01 ]
         index: [ 13, 14, 15, 16, 17, 18, 19, 20, 21, 22, 23 ]
      -
         sv_count: 6
         rho: 1.0902138268475024e-01
         alpha: [ 9.1935761561421858e-01, 7.7777878375084164e-01,
             7.9684916117687077e-01, -8.3535938388967135e-01,
             -8.2278215875037042e-01, -8.3584401790188922e-01 ]
         index: [ 13, 14, 15, 24, 25, 26 ]
      -
         sv_count: 9
         rho: 2.4363871306458712e-01
         alpha: [ 9.3676669680849167e-01, 8.4501827702135313e-01,
             7.3575297993302480e-01, -3.7704192867815978e-01,
             -5.3499363433993175e-01, -4.7550425781697447e-01,
             -3.6303314824326638e-01, -4.9628464652468407e-01,
             -2.7068033815985326e-01 ]
         index: [ 13, 14, 15, 27, 28, 29, 30, 31, 32 ]
      -
         sv_count: 7
         rho: 2.3778101816777789e-01
         alpha: [ 9.2416389246573161e-01, 8.2406601967929460e-01,
             7.5012721030026686e-01, -4.9734272146031760e-01,
             -5.5329022548489371e-01, -7.9893458699486575e-01,
             -6.4878958850521617e-01 ]
         index: [ 13, 14, 15, 33, 34, 35, 36 ]
      -
         sv_count: 5
         rho: -1.2863952960344843e-01
         alpha: [ 7.5418994355442248e-01, 6.1876204260946321e-01,
             5.9162978288157975e-01, -9.9512165102011818e-01,
             -9.6946011802534737e-01 ]
         index: [ 13, 14, 15, 37, 38 ]
      -
         sv_count: 14
         rho: 4.3653768989934771e-01
         alpha: [ 1.1031763163883026e+00, 9.6897180684649309e-01,
             9.1591967992357848e-01, -4.5654294999025041e-01,
             -1.2854272281613063e-01, -3.7888263861331567e-01,
             -2.1643368248025094e-01, -5.7646883644051815e-02,
             -2.0873019772189000e-01, -4.8304901640111558e-02,
             -2.9140371001185067e-01, -4.3270594730479334e-01,
             -3.8144150188538029e-01, -3.8743266705034873e-01 ]
         index: [ 13, 14, 15, 39, 40, 41, 42, 43, 44, 45, 46, 47, 48, 49 ]
      -
         sv_count: 11
         rho: -4.1949760804454661e-01
         alpha: [ 4.2116429049838600e-01, 4.5305335585146567e-01,
             4.2780666713892695e-01, 5.9429023377960588e-01,
             2.7003195359549942e-01, 4.3040178915327892e-01,
             4.3636604979139421e-01, 4.4019530874011914e-01,
             -1.1036555200281211e+00, -1.0299572427295640e+00,
             -1.3396968857909914e+00 ]
         index: [ 16, 17, 18, 19, 20, 21, 22, 23, 24, 25, 26 ]
      -
         sv_count: 14
         rho: -3.2172306919462162e-01
         alpha: [ 4.7722193134157564e-01, 5.5947728709882716e-01,
             5.6706834388331562e-01, 6.8317820948926355e-01,
             3.6156063094644225e-01, 5.9305828005996475e-01,
             7.7685476829986977e-01, 7.0916592185520688e-01,
             -6.8141032185121564e-01, -9.2478695721952808e-01,
             -8.4509078833369367e-01, -7.1685964018593085e-01,
             -9.7841250933095325e-01, -5.8102515605314409e-01 ]
         index: [ 16, 17, 18, 19, 20, 21, 22, 23, 27, 28, 29, 30, 31, 32 ]
      -
         sv_count: 12
         rho: -3.0835692833994172e-01
         alpha: [ 5.1112982111136052e-01, 6.9515365481769009e-01,
             5.2465511662363895e-01, 6.1818932600073051e-01,
             4.1565830125771047e-01, 5.5657308431489094e-01,
             4.7087661699964722e-01, 5.9319608707363858e-01,
             -8.9010573092584200e-01, -1.0807938673974249e+00,
             -1.3594021106467780e+00, -1.0551302992292630e+00 ]
         index: [ 16, 17, 18, 19, 20, 21, 22, 23, 33, 34, 35, 36 ]
      -
         sv_count: 10
         rho: -6.3241996721029259e-01
         alpha: [ 2.9832565203705957e-01, 4.0945947359889889e-01,
             3.0143600180777197e-01, 4.3759516774155377e-01,
             2.4724679488864257e-01, 3.5301018207129403e-01,
             3.8332904458815203e-01, 3.0281867350000230e-01,
             -1.3972121881741459e+00, -1.3360088020592293e+00 ]
         index: [ 16, 17, 18, 19, 20, 21, 22, 23, 37, 38 ]
      -
         sv_count: 19
         rho: -1.2002844429998456e-01
         alpha: [ 7.5598289440234667e-01, 9.7674958574891735e-01,
             1.0323750866162331e+00, 8.6163532040166491e-01,
             9.3258908866937373e-01, 8.6564069512887121e-01,
             7.4875876936834762e-01, 1.5767967736361999e+00,
             -1.0204320484247913e+00, -6.1252603564114827e-01,
             -6.2238617398887164e-01, -4.3534857515731412e-01,
             -4.9422507620740863e-01, -7.5838416723487900e-01,
             -2.2195217828485614e-01, -6.1397365569426243e-01,
             -1.0581335753151020e+00, -7.3191638152599126e-01,
             -1.1812503464973296e+00 ]
         index: [ 16, 17, 18, 19, 20, 21, 22, 23, 39, 40, 41, 42, 43, 44,
             45, 46, 47, 48, 49 ]
      -
         sv_count: 9
         rho: 1.5209670718179483e-01
         alpha: [ 8.9329410780835083e-01, 8.8668972799348056e-01,
             1.1517365083252993e+00, -4.6475424130444432e-01,
             -5.9457458787445439e-01, -5.5637676339816400e-01,
             -4.4815971568904484e-01, -5.6578193435555368e-01,
             -3.0207310150546973e-01 ]
         index: [ 24, 25, 26, 27, 28, 29, 30, 31, 32 ]
      -
         sv_count: 7
         rho: 1.3652142490288535e-01
         alpha: [ 8.7979227846198782e-01, 7.9779080207160358e-01,
             1.0429297617565219e+00, -5.6301225139032773e-01,
             -6.1713178994417250e-01, -8.5502917388452537e-01,
             -6.8533962707108753e-01 ]
         index: [ 24, 25, 26, 33, 34, 35, 36 ]
      -
         sv_count: 5
         rho: -2.2902243347994281e-01
         alpha: [ 6.8447693712402780e-01, 6.1451633121797078e-01,
             7.6872234245335369e-01, -1.0464901495534134e+00,
             -1.0212254612419387e+00 ]
         index: [ 24, 25, 26, 37, 38 ]
      -
         sv_count: 14
         rho: 3.4319019638053028e-01
         alpha: [ 1.0521021960101651e+00, 9.9048261239533242e-01,
             1.3339722092251098e+00, -5.0747887683909654e-01,
             -1.7735253871411125e-01, -3.6933526498668090e-01,
             -3.3197465878662019e-01, -1.0778255126797126e-01,
             -2.0196207774156841e-01, -3.2783672183752416e-02,
             -2.8096485875309662e-01, -5.0139025067816378e-01,
             -4.4423694042764755e-01, -4.2129532725189817e-01 ]
         index: [ 24, 25, 26, 39, 40, 41, 42, 43, 44, 45, 46, 47, 48, 49 ]
      -
         sv_count: 10
         rho: -4.9680844607839433e-03
         alpha: [ 4.8487573107921828e-01, 6.5846705361263780e-01,
             6.1057703225884785e-01, 4.7981717311508409e-01,
             6.4165919988051301e-01, 3.0170431137689085e-01,
             -6.5442282412200148e-01, -7.3492089180800324e-01,
             -1.0027613071984998e+00, -7.8499547819468751e-01 ]
         index: [ 27, 28, 29, 30, 31, 32, 33, 34, 35, 36 ]
      -
         sv_count: 8
         rho: -3.7277338873818666e-01
         alpha: [ 3.5009694351609633e-01, 4.4224587917329150e-01,
             3.8836731103649541e-01, 3.8405833019604829e-01,
             4.7161824075096198e-01, 2.6824527383838687e-01,
             -1.1688900451685995e+00, -1.1357419333426808e+00 ]
         index: [ 27, 28, 29, 30, 31, 32, 37, 38 ]
      -
         sv_count: 17
         rho: 2.0660023317520745e-01
         alpha: [ 5.9592671857440038e-01, 8.4143006521824337e-01,
             7.4324430060466007e-01, 6.1846179157412484e-01,
             8.0060304161753193e-01, 4.8959782375143795e-01,
             -6.2743596759448472e-01, -2.7258171981524787e-01,
             -3.2310421387914506e-01, -3.0877390872420335e-01,
             -1.3112562058615271e-01, -2.8471297660138423e-01,
             -6.4630405183207035e-02, -3.4876927578654743e-01,
             -6.4615524289106152e-01, -5.1703231697139651e-01,
             -5.6494209330756806e-01 ]
         index: [ 27, 28, 29, 30, 31, 32, 39, 40, 41, 42, 43, 44, 45, 46,
             47, 48, 49 ]
      -
         sv_count: 6
         rho: -3.6488834823216010e-01
         alpha: [ 4.4379166139790865e-01, 5.2454117941798106e-01,
             7.0429255023696147e-01, 5.9321487751053814e-01,
             -1.1002780967061350e+00, -1.1655621718572544e+00 ]
         index: [ 33, 34, 35, 36, 37, 38 ]
      -
         sv_count: 15
         rho: 2.3679600155127917e-01
         alpha: [ 9.4279032816360664e-01, 1.2206648601880237e+00,
             1.4151667816461235e+00, 1.1467262140226790e+00,
             -5.7947966653755145e-01, -7.6099136806168644e-02,
             -3.5687754637339786e-01, -4.7380812896348179e-01,
             -2.1602951477453097e-01, -3.1735441210396836e-01,
             -2.2627239704534660e-01, -6.4493511055054653e-01,
             -6.7001491920739653e-01, -5.8070634182925496e-01,
             -5.8377100982878916e-01 ]
         index: [ 33, 34, 35, 36, 39, 40, 41, 42, 43, 44, 45, 46, 47, 48,
             49 ]
      -
         sv_count: 13
         rho: 5.8711020961998139e-01
         alpha: [ 1.4117547787970393e+00, 1.3781147499991813e+00,
             -3.5534796522841722e-01, -7.8574153119251935e-02,
             -2.6140887892500808e-01, -3.3695364626044561e-01,
             -1.5973580145791488e-01, -1.7881038700540908e-01,
             -5.8702613633788786e-02, -2.9595607399753510e-01,
             -3.3516802756312347e-01, -4.1253517678209450e-01,
             -3.1667680482323202e-01 ]
         index: [ 37, 38, 39, 40, 41, 42, 43, 44, 45, 46, 47, 48, 49 ]
